svm_type c_svc
kernel_type rbf
gamma 0.00012207
nr_class 2
total_sv 2617
rho 4.49355
label 1 0
nr_sv 1301 1316
SV
512 0:1 1:1 2:1 3:0 4:0 5:0 6:1 7:1 8:1 9:0 10:0 11:0 12:1 13:1 14:1 15:0 16:0 17:1 18:0 19:0 20:1 21:1 22:1 23:1 24:0 25:1 26:0 27:1 28:1 29:1 30:1 31:0 32:0 33:0 34:0 35:0 36:15 
512 0:1 1:1 2:1 3:0 4:0 5:1 6:1 7:1 8:1 9:0 10:0 11:0 12:1 13:1 14:1 15:0 16:0 17:0 18:1 19:0 20:0 21:0 22:0 23:0 24:1 25:1 26:1 27:0 28:0 29:1 30:1 31:0 32:0 33:0 34:0 35:0 36:48 
512 0:1 1:1 2:1 3:0 4:1 5:0 6:1 7:1 8:1 9:0 10:1 11:1 12:1 13:1 14:1 15:1 16:0 17:0 18:1 19:0 20:0 21:1 22:0 23:0 24:0 25:1 26:1 27:0 28:0 29:1 30:0 31:1 32:0 33:0 34:0 35:0 36:27 
512 0:0 1:1 2:0 3:1 4:0 5:0 6:1 7:1 8:1 9:1 10:1 11:0 12:1 13:1 14:1 15:1 16:1 17:0 18:1 19:0 20:0 21:1 22:0 23:1 24:1 25:1 26:1 27:0 28:1 29:1 30:0 31:0 32:0 33:1 34:0 35:0 36:57 
512 0:0 1:1 2:1 3:1 4:0 5:0 6:1 7:1 8:0 9:0 10:1 11:1 12:1 13:1 14:0 15:0 16:0 17:0 18:0 19:0 20:0 21:1 22:0 23:1 24:1 25:1 26:1 27:0 28:1 29:1 30:1 31:1 32:1 33:1 34:0 35:0 36:24 
512 0:1 1:1 2:1 3:1 4:0 5:0 6:1 7:1 8:0 9:1 10:1 11:1 12:1 13:1 14:1 15:1 16:0 17:0 18:0 19:0 20:1 21:1 22:0 23:1 24:1 25:1 26:1 27:1 28:0 29:1 30:0 31:0 32:0 33:1 34:0 35:0 36:28 
512 0:1 1:1 2:1 3:1 4:0 5:0 6:1 7:1 8:1 9:1 10:1 11:1 12:0 13:1 14:1 15:0 16:0 17:0 18:1 19:0 20:1 21:1 22:1 23:1 24:1 25:0 26:0 27:0 28:1 29:1 30:1 31:0 32:0 33:0 34:1 35:0 36:79 
512 0:1 1:1 2:1 3:1 4:0 5:0 6:1 7:1 8:1 9:1 10:1 11:1 12:1 13:1 14:1 15:1 16:1 17:0 18:1 19:0 20:0 21:1 22:1 23:1 24:0 25:0 26:1 27:0 28:1 29:1 30:1 31:0 32:1 33:0 34:1 35:0 36:43 
512 0:1 1:1 2:1 3:1 4:0 5:1 6:0 7:0 8:1 9:0 10:1 11:1 12:0 13:0 14:1 15:0 16:0 17:0 18:0 19:0 20:0 21:0 22:0 23:0 24:0 25:1 26:1 27:0 28:1 29:1 30:0 31:0 32:1 33:0 34:1 35:0 36:3 
512 0:1 1:1 2:1 3:0 4:0 5:0 6:1 7:0 8:1 9:0 10:0 11:1 12:1 13:0 14:1 15:1 16:0 17:0 18:1 19:0 20:1 21:1 22:1 23:1 24:1 25:0 26:0 27:1 28:1 29:0 30:1 31:0 32:0 33:1 34:0 35:0 36:19 
512 0:0 1:1 2:1 3:0 4:0 5:0 6:1 7:0 8:1 9:0 10:0 11:0 12:1 13:1 14:1 15:0 16:1 17:1 18:0 19:0 20:1 21:1 22:1 23:0 24:1 25:1 26:1 27:1 28:1 29:0 30:1 31:1 32:0 33:1 34:1 35:0 36:16 
512 0:1 1:0 2:0 3:1 4:0 5:0 6:1 7:1 8:1 9:0 10:0 11:0 12:1 13:1 14:1 15:1 16:0 17:0 18:0 19:0 20:0 21:1 22:0 23:1 24:0 25:0 26:1 27:1 28:1 29:1 30:1 31:0 32:1 33:1 34:1 35:0 36:73 
512 0:1 1:0 2:0 3:1 4:0 5:0 6:1 7:1 8:1 9:0 10:0 11:1 12:1 13:0 14:1 15:0 16:0 17:0 18:1 19:0 20:1 21:1 22:0 23:0 24:0 25:0 26:0 27:0 28:1 29:1 30:1 31:0 32:0 33:0 34:1 35:0 36:23 
512 0:1 1:1 2:0 3:1 4:0 5:0 6:1 7:1 8:1 9:1 10:1 11:1 12:1 13:1 14:1 15:1 16:1 17:0 18:1 19:0 20:1 21:1 22:0 23:1 24:0 25:0 26:1 27:1 28:1 29:1 30:1 31:0 32:0 33:1 34:1 35:0 36:67 
512 0:1 1:1 2:1 3:0 4:0 5:0 6:1 7:1 8:1 9:0 10:1 11:1 12:1 13:1 14:1 15:1 16:1 17:1 18:1 19:0 20:1 21:1 22:0 23:0 24:0 25:0 26:0 27:1 28:0 29:1 30:1 31:0 32:0 33:0 34:0 35:1 36:56 
512 0:1 1:1 2:1 3:1 4:1 5:1 6:1 7:1 8:1 9:0 10:1 11:1 12:0 13:1 14:1 15:1 16:0 17:0 18:0 19:0 20:0 21:1 22:0 23:1 24:1 25:0 26:1 27:0 28:0 29:0 30:1 31:0 32:0 33:1 34:0 35:0 36:15 
512 0:1 1:0 2:0 3:1 4:0 5:1 6:1 7:1 8:1 9:1 10:1 11:1 12:1 13:0 14:0 15:1 16:0 17:0 18:1 19:0 20:0 21:1 22:1 23:1 24:0 25:1 26:0 27:0 28:1 29:1 30:1 31:1 32:0 33:1 34:0 35:0 36:64 
512 0:1 1:1 2:1 3:1 4:1 5:0 6:0 7:1 8:1 9:0 10:1 11:1 12:1 13:1 14:0 15:0 16:0 17:0 18:1 19:0 20:0 21:0 22:0 23:0 24:1 25:1 26:1 27:1 28:0 29:0 30:1 31:1 32:0 33:1 34:0 35:0 36:46 
512 0:1 1:1 2:0 3:1 4:1 5:1 6:1 7:0 8:0 9:1 10:1 11:1 12:1 13:0 14:0 15:1 16:0 17:0 18:1 19:0 20:0 21:0 22:0 23:1 24:0 25:1 26:1 27:1 28:0 29:1 30:1 31:0 32:0 33:1 34:0 35:0 36:14 
512 0:0 1:1 2:0 3:1 4:0 5:1 6:1 7:1 8:0 9:0 10:0 11:0 12:1 13:1 14:1 15:0 16:0 17:0 18:1 19:1 20:1 21:1 22:0 23:0 24:0 25:0 26:0 27:1 28:1 29:1 30:0 31:0 32:0 33:1 34:1 35:0 36:30 
512 0:1 1:0 2:0 3:1 4:0 5:0 6:1 7:1 8:1 9:1 10:1 11:1 12:1 13:1 14:1 15:0 16:0 17:0 18:1 19:1 20:0 21:1 22:0 23:1 24:1 25:1 26:1 27:1 28:0 29:1 30:1 31:0 32:0 33:0 34:1 35:0 36:11 
512 0:1 1:1 2:0 3:1 4:0 5:1 6:1 7:1 8:1 9:0 10:1 11:1 12:1 13:1 14:1 15:1 16:0 17:0 18:0 19:0 20:0 21:1 22:0 23:1 24:1 25:1 26:1 27:1 28:0 29:0 30:0 31:0 32:0 33:1 34:0 35:0 36:52 
512 0:1 1:1 2:0 3:0 4:1 5:1 6:1 7:1 8:1 9:0 10:1 11:1 12:1 13:1 14:1 15:1 16:0 17:0 18:1 19:0 20:1 21:1 22:1 23:0 24:1 25:1 26:1 27:1 28:1 29:0 30:1 31:1 32:0 33:0 34:1 35:0 36:12 
512 0:1 1:0 2:0 3:0 4:0 5:0 6:0 7:1 8:1 9:0 10:1 11:1 12:1 13:1 14:1 15:1 16:0 17:1 18:1 19:0 20:0 21:0 22:0 23:1 24:1 25:1 26:1 27:0 28:1 29:1 30:1 31:1 32:0 33:0 34:1 35:0 36:19 
512 0:0 1:1 2:1 3:1 4:0 5:0 6:1 7:1 8:0 9:0 10:1 11:0 12:1 13:1 14:0 15:1 16:1 17:0 18:0 19:0 20:1 21:1 22:0 23:1 24:0 25:1 26:1 27:1 28:1 29:1 30:0 31:0 32:0 33:1 34:1 35:0 36:17 
512 0:0 1:1 2:1 3:1 4:1 5:1 6:1 7:1 8:1 9:0 10:0 11:0 12:1 13:1 14:1 15:0 16:1 17:0 18:1 19:0 20:0 21:1 22:0 23:0 24:0 25:0 26:0 27:1 28:1 29:1 30:0 31:0 32:1 33:0 34:1 35:0 36:150 
512 0:1 1:1 2:1 3:1 4:0 5:0 6:1 7:1 8:1 9:0 10:1 11:1 12:1 13:0 14:1 15:0 16:1 17:0 18:1 19:0 20:0 21:1 22:0 23:1 24:0 25:0 26:1 27:1 28:0 29:1 30:1 31:1 32:0 33:0 34:0 35:0 36:30 
512 0:1 1:1 2:1 3:1 4:1 5:1 6:1 7:1 8:1 9:1 10:1 11:1 12:1 13:1 14:1 15:0 16:0 17:0 18:0 19:0 20:0 21:1 22:1 23:1 24:1 25:1 26:1 27:1 28:1 29:0 30:1 31:1 32:1 33:1 34:0 35:0 36:118 
512 0:1 1:1 2:0 3:0 4:0 5:0 6:1 7:1 8:1 9:1 10:1 11:1 12:1 13:1 14:0 15:1 16:1 17:0 18:1 19:1 20:0 21:1 22:1 23:0 24:1 25:0 26:0 27:1 28:1 29:0 30:0 31:0 32:0 33:1 34:0 35:1 36:38 
512 0:1 1:1 2:1 3:0 4:0 5:0 6:1 7:1 8:1 9:1 10:1 11:0 12:0 13:1 14:1 15:1 16:1 17:0 18:1 19:0 20:1 21:1 22:0 23:0 24:1 25:1 26:1 27:1 28:0 29:1 30:1 31:0 32:1 33:1 34:0 35:0 36:30 
512 0:1 1:0 2:0 3:1 4:0 5:0 6:1 7:1 8:1 9:0 10:0 11:1 12:0 13:1 14:0 15:1 16:1 17:0 18:0 19:0 20:1 21:0 22:0 23:1 24:1 25:1 26:1 27:1 28:0 29:0 30:0 31:1 32:1 33:1 34:0 35:0 36:29 
512 0:1 1:0 2:1 3:1 4:0 5:0 6:1 7:1 8:1 9:1 10:1 11:0 12:1 13:0 14:1 15:0 16:0 17:0 18:1 19:1 20:0 21:1 22:1 23:0 24:1 25:1 26:1 27:0 28:1 29:1 30:1 31:0 32:0 33:0 34:1 35:0 36:14 
512 0:1 1:1 2:1 3:1 4:0 5:0 6:1 7:1 8:1 9:0 10:0 11:0 12:1 13:1 14:1 15:0 16:0 17:0 18:1 19:0 20:0 21:1 22:1 23:0 24:1 25:0 26:1 27:0 28:1 29:1 30:0 31:0 32:1 33:0 34:0 35:0 36:16 
512 0:1 1:1 2:1 3:1 4:0 5:0 6:1 7:1 8:1 9:0 10:0 11:1 12:0 13:1 14:1 15:0 16:0 17:0 18:1 19:1 20:0 21:1 22:0 23:1 24:1 25:0 26:1 27:1 28:1 29:1 30:1 31:0 32:0 33:0 34:1 35:0 36:19 
512 0:1 1:0 2:1 3:1 4:1 5:1 6:1 7:1 8:1 9:1 10:1 11:1 12:0 13:1 14:0 15:1 16:1 17:0 18:0 19:0 20:0 21:0 22:0 23:0 24:0 25:0 26:1 27:0 28:1 29:0 30:0 31:1 32:1 33:1 34:0 35:0 36:20 
512 0:1 1:1 2:1 3:1 4:1 5:1 6:1 7:1 8:1 9:1 10:1 11:1 12:1 13:1 14:1 15:1 16:0 17:1 18:1 19:0 20:1 21:0 22:0 23:1 24:0 25:1 26:1 27:1 28:1 29:1 30:1 31:0 32:0 33:1 34:0 35:0 36:43 
512 0:1 1:1 2:0 3:1 4:0 5:0 6:1 7:0 8:1 9:1 10:1 11:0 12:1 13:1 14:1 15:1 16:1 17:0 18:1 19:0 20:0 21:1 22:0 23:1 24:0 25:1 26:1 27:0 28:1 29:1 30:0 31:0 32:0 33:0 34:1 35:1 36:67 
512 0:1 1:1 2:1 3:0 4:0 5:0 6:1 7:1 8:1 9:0 10:1 11:1 12:1 13:1 14:1 15:0 16:0 17:0 18:1 19:1 20:0 21:0 22:0 23:1 24:0 25:1 26:1 27:1 28:0 29:1 30:1 31:1 32:0 33:1 34:0 35:1 36:29 
512 0:1 1:0 2:1 3:1 4:0 5:0 6:1 7:1 8:1 9:0 10:1 11:1 12:1 13:1 14:0 15:0 16:1 17:0 18:1 19:0 20:0 21:1 22:0 23:0 24:1 25:1 26:0 27:1 28:0 29:0 30:1 31:0 32:0 33:1 34:0 35:0 36:105 
512 0:1 1:1 2:1 3:1 4:0 5:0 6:1 7:1 8:0 9:1 10:1 11:1 12:1 13:1 14:1 15:0 16:1 17:0 18:1 19:0 20:1 21:1 22:0 23:1 24:0 25:0 26:1 27:0 28:0 29:1 30:1 31:1 32:0 33:1 34:0 35:0 36:23 
512 0:0 1:1 2:1 3:1 4:0 5:0 6:1 7:1 8:0 9:0 10:0 11:0 12:1 13:0 14:1 15:0 16:0 17:0 18:1 19:0 20:0 21:0 22:1 23:0 24:0 25:1 26:1 27:1 28:1 29:1 30:1 31:0 32:0 33:0 34:0 35:1 36:21 
512 0:0 1:1 2:0 3:1 4:0 5:0 6:1 7:0 8:1 9:1 10:1 11:1 12:1 13:0 14:1 15:0 16:1 17:1 18:1 19:0 20:0 21:1 22:0 23:0 24:1 25:1 26:1 27:0 28:1 29:1 30:1 31:0 32:0 33:0 34:0 35:0 36:28 
512 0:1 1:1 2:0 3:1 4:0 5:1 6:1 7:1 8:0 9:1 10:1 11:1 12:1 13:1 14:1 15:0 16:0 17:0 18:1 19:0 20:0 21:0 22:0 23:0 24:1 25:1 26:1 27:1 28:1 29:0 30:0 31:0 32:0 33:1 34:0 35:0 36:44 
512 0:1 1:1 2:1 3:1 4:0 5:0 6:0 7:0 8:1 9:0 10:0 11:1 12:1 13:1 14:1 15:0 16:1 17:0 18:1 19:0 20:0 21:1 22:1 23:0 24:0 25:1 26:1 27:0 28:1 29:0 30:1 31:1 32:1 33:1 34:0 35:0 36:50 
512 0:1 1:0 2:1 3:1 4:1 5:1 6:1 7:1 8:1 9:1 10:1 11:1 12:1 13:1 14:0 15:1 16:0 17:1 18:1 19:1 20:0 21:1 22:0 23:0 24:0 25:1 26:0 27:1 28:0 29:1 30:1 31:0 32:0 33:1 34:0 35:0 36:34 
512 0:1 1:0 2:1 3:1 4:1 5:1 6:1 7:1 8:1 9:0 10:1 11:0 12:0 13:1 14:1 15:1 16:0 17:0 18:1 19:0 20:0 21:1 22:0 23:0 24:1 25:1 26:1 27:0 28:1 29:0 30:1 31:0 32:0 33:0 34:1 35:1 36:59 
512 0:1 1:1 2:1 3:1 4:1 5:0 6:1 7:1 8:1 9:1 10:1 11:1 12:1 13:1 14:1 15:0 16:0 17:0 18:1 19:0 20:0 21:1 22:0 23:1 24:1 25:1 26:1 27:1 28:0 29:0 30:0 31:0 32:0 33:0 34:0 35:0 36:28 
512 0:1 1:1 2:1 3:1 4:0 5:0 6:0 7:0 8:1 9:1 10:1 11:1 12:1 13:1 14:1 15:1 16:1 17:0 18:0 19:0 20:0 21:1 22:0 23:0 24:0 25:0 26:1 27:1 28:1 29:1 30:0 31:0 32:0 33:1 34:0 35:0 36:77 
512 0:1 1:1 2:1 3:0 4:0 5:0 6:1 7:0 8:0 9:1 10:1 11:0 12:0 13:1 14:1 15:0 16:0 17:0 18:0 19:1 20:1 21:0 22:0 23:0 24:0 25:1 26:1 27:0 28:1 29:1 30:1 31:0 32:0 33:0 34:0 35:0 36:10 
512 0:1 1:1 2:1 3:1 4:0 5:0 6:1 7:1 8:1 9:1 10:1 11:1 12:1 13:1 14:1 15:0 16:0 17:0 18:0 19:0 20:0 21:1 22:1 23:0 24:1 25:1 26:1 27:1 28:0 29:0 30:1 31:0 32:0 33:0 34:0 35:0 36:42 
512 0:0 1:1 2:1 3:1 4:1 5:1 6:1 7:1 8:0 9:1 10:1 11:1 12:1 13:0 14:1 15:0 16:1 17:0 18:1 19:0 20:0 21:1 22:0 23:1 24:1 25:1 26:0 27:1 28:1 29:0 30:1 31:0 32:0 33:1 34:0 35:0 36:28 
512 0:1 1:0 2:0 3:1 4:0 5:0 6:1 7:1 8:1 9:0 10:0 11:0 12:1 13:1 14:1 15:1 16:0 17:0 18:0 19:0 20:0 21:1 22:0 23:0 24:1 25:0 26:0 27:0 28:1 29:0 30:1 31:0 32:1 33:1 34:1 35:0 36:73 
512 0:0 1:0 2:1 3:0 4:0 5:0 6:1 7:1 8:1 9:1 10:1 11:1 12:0 13:1 14:1 15:0 16:0 17:0 18:1 19:1 20:0 21:1 22:1 23:0 24:1 25:1 26:1 27:1 28:1 29:0 30:0 31:1 32:0 33:1 34:0 35:0 36:43 
512 0:1 1:1 2:1 3:0 4:0 5:0 6:1 7:0 8:1 9:0 10:1 11:1 12:1 13:1 14:0 15:1 16:0 17:1 18:1 19:1 20:1 21:1 22:0 23:0 24:0 25:1 26:1 27:0 28:0 29:0 30:1 31:0 32:1 33:1 34:0 35:0 36:22 
512 0:0 1:0 2:1 3:1 4:0 5:0 6:0 7:1 8:1 9:1 10:1 11:1 12:0 13:0 14:1 15:1 16:0 17:0 18:1 19:1 20:1 21:1 22:1 23:0 24:1 25:1 26:1 27:0 28:1 29:0 30:1 31:0 32:0 33:0 34:0 35:0 36:27 
512 0:1 1:1 2:1 3:1 4:0 5:0 6:1 7:1 8:1 9:1 10:0 11:0 12:1 13:1 14:0 15:1 16:0 17:0 18:1 19:0 20:0 21:1 22:0 23:0 24:1 25:1 26:1 27:1 28:1 29:0 30:1 31:1 32:0 33:1 34:0 35:0 36:133 
512 0:1 1:1 2:0 3:0 4:1 5:0 6:1 7:1 8:1 9:1 10:1 11:0 12:0 13:1 14:0 15:1 16:0 17:0 18:1 19:0 20:1 21:1 22:1 23:1 24:0 25:1 26:1 27:0 28:1 29:1 30:0 31:1 32:1 33:0 34:1 35:1 36:23 
512 0:0 1:1 2:1 3:1 4:0 5:0 6:1 7:0 8:1 9:1 10:1 11:1 12:1 13:1 14:1 15:0 16:0 17:1 18:1 19:0 20:0 21:1 22:1 23:0 24:0 25:1 26:1 27:1 28:1 29:0 30:1 31:0 32:0 33:1 34:1 35:1 36:91 
512 0:1 1:1 2:0 3:0 4:0 5:1 6:1 7:1 8:1 9:1 10:1 11:1 12:1 13:1 14:1 15:1 16:0 17:0 18:1 19:0 20:1 21:1 22:0 23:0 24:1 25:1 26:1 27:0 28:1 29:0 30:0 31:1 32:0 33:0 34:1 35:0 36:22 
512 0:0 1:1 2:1 3:1 4:0 5:0 6:1 7:0 8:1 9:0 10:1 11:1 12:0 13:1 14:1 15:1 16:0 17:0 18:1 19:0 20:0 21:0 22:1 23:0 24:1 25:1 26:1 27:1 28:1 29:1 30:0 31:0 32:1 33:0 34:0 35:0 36:40 
512 0:1 1:1 2:1 3:0 4:0 5:1 6:1 7:1 8:1 9:0 10:0 11:1 12:1 13:1 14:1 15:1 16:1 17:0 18:1 19:1 20:1 21:1 22:0 23:0 24:0 25:1 26:1 27:1 28:0 29:0 30:1 31:1 32:0 33:1 34:0 35:0 36:22 
512 0:0 1:1 2:1 3:0 4:0 5:0 6:1 7:0 8:1 9:0 10:1 11:1 12:1 13:1 14:1 15:0 16:0 17:0 18:0 19:0 20:0 21:1 22:1 23:1 24:1 25:1 26:1 27:1 28:1 29:1 30:0 31:1 32:0 33:1 34:0 35:0 36:27 
512 0:1 1:1 2:1 3:1 4:1 5:1 6:1 7:1 8:1 9:0 10:1 11:1 12:1 13:1 14:1 15:1 16:1 17:0 18:1 19:0 20:0 21:1 22:0 23:1 24:1 25:1 26:1 27:0 28:0 29:1 30:0 31:0 32:0 33:1 34:0 35:1 36:38 
512 0:1 1:0 2:0 3:1 4:0 5:0 6:1 7:1 8:1 9:0 10:1 11:1 12:0 13:1 14:1 15:0 16:0 17:0 18:0 19:0 20:0 21:0 22:0 23:0 24:0 25:1 26:1 27:0 28:1 29:1 30:0 31:0 32:0 33:0 34:0 35:0 36:1 
512 0:1 1:1 2:1 3:1 4:0 5:0 6:0 7:1 8:0 9:1 10:0 11:0 12:1 13:1 14:1 15:0 16:0 17:0 18:1 19:0 20:1 21:1 22:0 23:1 24:1 25:1 26:1 27:0 28:1 29:1 30:1 31:0 32:0 33:1 34:0 35:0 36:56 
512 0:0 1:1 2:1 3:1 4:0 5:0 6:1 7:1 8:1 9:1 10:1 11:0 12:1 13:1 14:0 15:1 16:1 17:0 18:1 19:0 20:1 21:1 22:1 23:0 24:1 25:1 26:0 27:1 28:1 29:0 30:1 31:0 32:0 33:1 34:0 35:0 36:33 
512 0:1 1:1 2:1 3:0 4:0 5:0 6:1 7:1 8:1 9:1 10:1 11:1 12:1 13:1 14:1 15:0 16:0 17:0 18:0 19:0 20:1 21:1 22:1 23:1 24:0 25:1 26:0 27:0 28:1 29:1 30:0 31:1 32:0 33:1 34:1 35:1 36:53 
228.5049189886301 0:1 1:1 2:1 3:1 4:0 5:0 6:1 7:1 8:1 9:0 10:0 11:0 12:1 13:1 14:1 15:1 16:1 17:0 18:0 19:0 20:0 21:1 22:0 23:1 24:1 25:1 26:0 27:1 28:0 29:1 30:0 31:1 32:1 33:0 34:0 35:1 36:22 
512 0:1 1:1 2:1 3:1 4:0 5:1 6:1 7:1 8:1 9:1 10:1 11:1 12:1 13:0 14:0 15:1 16:1 17:1 18:1 19:0 20:0 21:1 22:0 23:1 24:1 25:1 26:1 27:1 28:0 29:1 30:0 31:0 32:0 33:0 34:0 35:0 36:17 
512 0:1 1:0 2:0 3:1 4:0 5:0 6:0 7:0 8:1 9:0 10:1 11:1 12:1 13:1 14:1 15:0 16:0 17:1 18:1 19:1 20:0 21:0 22:0 23:1 24:1 25:1 26:0 27:0 28:1 29:1 30:1 31:1 32:0 33:0 34:0 35:0 36:35 
512 0:1 1:1 2:1 3:1 4:0 5:0 6:1 7:1 8:1 9:0 10:0 11:0 12:0 13:1 14:1 15:1 16:0 17:0 18:1 19:0 20:0 21:1 22:0 23:0 24:1 25:1 26:0 27:1 28:1 29:0 30:1 31:0 32:0 33:0 34:0 35:0 36:37 
512 0:1 1:1 2:0 3:1 4:1 5:1 6:1 7:1 8:1 9:0 10:0 11:1 12:1 13:1 14:1 15:1 16:0 17:0 18:0 19:0 20:0 21:1 22:0 23:0 24:1 25:1 26:1 27:0 28:0 29:1 30:1 31:1 32:0 33:1 34:0 35:0 36:76 
512 0:1 1:1 2:1 3:0 4:0 5:1 6:1 7:1 8:1 9:0 10:1 11:0 12:0 13:0 14:0 15:0 16:1 17:0 18:0 19:0 20:0 21:1 22:0 23:0 24:1 25:1 26:1 27:0 28:0 29:0 30:0 31:0 32:0 33:1 34:0 35:0 36:30 
512 0:1 1:0 2:0 3:1 4:0 5:0 6:0 7:1 8:0 9:0 10:1 11:1 12:1 13:0 14:0 15:1 16:1 17:0 18:1 19:0 20:1 21:1 22:0 23:0 24:1 25:1 26:0 27:1 28:1 29:1 30:0 31:1 32:0 33:0 34:1 35:0 36:45 
512 0:1 1:0 2:0 3:0 4:0 5:0 6:1 7:1 8:1 9:1 10:1 11:0 12:0 13:1 14:1 15:0 16:0 17:0 18:1 19:0 20:0 21:1 22:0 23:1 24:0 25:1 26:1 27:1 28:0 29:0 30:1 31:0 32:1 33:1 34:1 35:1 36:38 
512 0:0 1:1 2:1 3:1 4:0 5:0 6:1 7:1 8:1 9:1 10:1 11:1 12:1 13:1 14:1 15:1 16:0 17:0 18:0 19:0 20:0 21:1 22:0 23:0 24:0 25:1 26:1 27:0 28:0 29:1 30:0 31:0 32:0 33:1 34:0 35:0 36:52 
512 0:1 1:1 2:1 3:0 4:0 5:0 6:1 7:1 8:1 9:1 10:1 11:1 12:0 13:1 14:1 15:1 16:0 17:0 18:0 19:0 20:0 21:0 22:1 23:1 24:1 25:1 26:1 27:1 28:1 29:1 30:1 31:1 32:0 33:1 34:0 35:0 36:19 
512 0:0 1:1 2:1 3:0 4:1 5:0 6:0 7:1 8:1 9:0 10:0 11:0 12:1 13:0 14:1 15:1 16:0 17:1 18:0 19:1 20:1 21:1 22:0 23:0 24:0 25:1 26:0 27:1 28:0 29:1 30:1 31:1 32:0 33:1 34:1 35:0 36:68 
512 0:1 1:1 2:0 3:0 4:1 5:1 6:1 7:0 8:0 9:0 10:0 11:1 12:1 13:1 14:1 15:0 16:0 17:1 18:1 19:0 20:0 21:1 22:1 23:0 24:1 25:0 26:1 27:0 28:1 29:1 30:1 31:1 32:0 33:1 34:1 35:0 36:5 
512 0:0 1:0 2:1 3:1 4:0 5:0 6:0 7:0 8:1 9:1 10:1 11:0 12:1 13:1 14:0 15:0 16:0 17:0 18:1 19:1 20:0 21:1 22:0 23:0 24:1 25:1 26:1 27:0 28:0 29:0 30:0 31:0 32:0 33:0 34:0 35:0 36:4 
512 0:1 1:1 2:1 3:0 4:0 5:0 6:1 7:1 8:1 9:1 10:0 11:0 12:1 13:0 14:1 15:0 16:0 17:0 18:1 19:0 20:0 21:1 22:1 23:1 24:0 25:1 26:0 27:0 28:0 29:0 30:1 31:0 32:1 33:1 34:0 35:0 36:26 
512 0:1 1:1 2:1 3:1 4:0 5:0 6:1 7:1 8:1 9:0 10:0 11:1 12:1 13:0 14:1 15:1 16:0 17:0 18:1 19:0 20:1 21:1 22:1 23:1 24:1 25:1 26:1 27:1 28:1 29:1 30:0 31:1 32:1 33:0 34:1 35:0 36:21 
512 0:1 1:1 2:1 3:1 4:1 5:1 6:1 7:1 8:1 9:1 10:1 11:1 12:0 13:0 14:1 15:1 16:0 17:0 18:1 19:0 20:0 21:1 22:0 23:1 24:0 25:1 26:1 27:1 28:0 29:1 30:0 31:0 32:0 33:0 34:1 35:0 36:14 
512 0:1 1:1 2:0 3:0 4:0 5:0 6:1 7:1 8:1 9:1 10:1 11:0 12:0 13:1 14:1 15:0 16:0 17:0 18:0 19:0 20:0 21:1 22:0 23:0 24:1 25:1 26:0 27:1 28:1 29:1 30:1 31:1 32:0 33:1 34:0 35:1 36:28 
512 0:1 1:1 2:1 3:1 4:0 5:0 6:1 7:1 8:1 9:0 10:1 11:0 12:1 13:1 14:0 15:0 16:0 17:0 18:0 19:0 20:0 21:0 22:0 23:1 24:1 25:1 26:0 27:1 28:1 29:0 30:0 31:0 32:0 33:1 34:0 35:0 36:48 
512 0:0 1:1 2:1 3:1 4:1 5:1 6:1 7:0 8:1 9:0 10:1 11:1 12:1 13:1 14:1 15:1 16:0 17:1 18:1 19:0 20:0 21:1 22:0 23:0 24:1 25:1 26:1 27:1 28:1 29:0 30:1 31:1 32:0 33:1 34:1 35:0 36:57 
512 0:1 1:0 2:1 3:1 4:0 5:0 6:1 7:1 8:0 9:1 10:1 11:0 12:1 13:0 14:1 15:0 16:1 17:1 18:1 19:0 20:0 21:0 22:1 23:0 24:1 25:1 26:1 27:0 28:1 29:1 30:1 31:0 32:0 33:1 34:1 35:0 36:42 
512 0:1 1:1 2:0 3:0 4:0 5:0 6:1 7:1 8:1 9:1 10:1 11:0 12:1 13:1 14:1 15:1 16:1 17:1 18:1 19:0 20:1 21:0 22:0 23:0 24:1 25:1 26:1 27:0 28:1 29:1 30:0 31:0 32:0 33:0 34:0 35:0 36:22 
512 0:1 1:0 2:1 3:1 4:0 5:1 6:1 7:1 8:1 9:1 10:1 11:1 12:1 13:1 14:1 15:0 16:0 17:0 18:1 19:0 20:0 21:0 22:0 23:1 24:1 25:1 26:1 27:0 28:1 29:0 30:1 31:0 32:0 33:0 34:0 35:0 36:55 
512 0:1 1:1 2:1 3:1 4:1 5:0 6:1 7:1 8:1 9:0 10:1 11:1 12:1 13:1 14:1 15:1 16:0 17:0 18:1 19:1 20:0 21:1 22:1 23:0 24:1 25:1 26:0 27:0 28:1 29:1 30:0 31:1 32:0 33:0 34:0 35:1 36:10 
512 0:1 1:1 2:1 3:1 4:0 5:1 6:0 7:1 8:1 9:0 10:1 11:0 12:0 13:1 14:0 15:1 16:0 17:0 18:1 19:1 20:1 21:0 22:0 23:0 24:0 25:1 26:1 27:0 28:0 29:1 30:1 31:1 32:1 33:1 34:0 35:0 36:10 
512 0:1 1:1 2:0 3:1 4:1 5:0 6:1 7:1 8:1 9:1 10:1 11:1 12:1 13:1 14:1 15:1 16:0 17:0 18:0 19:1 20:1 21:0 22:1 23:1 24:1 25:1 26:1 27:1 28:1 29:1 30:0 31:1 32:0 33:1 34:1 35:0 36:6 
512 0:1 1:1 2:1 3:1 4:0 5:1 6:1 7:1 8:0 9:0 10:0 11:1 12:1 13:1 14:1 15:1 16:1 17:0 18:1 19:1 20:1 21:1 22:1 23:0 24:1 25:0 26:1 27:0 28:1 29:0 30:1 31:0 32:0 33:1 34:0 35:0 36:20 
512 0:0 1:1 2:1 3:1 4:1 5:0 6:1 7:1 8:0 9:1 10:1 11:1 12:1 13:1 14:0 15:1 16:1 17:0 18:1 19:1 20:0 21:1 22:1 23:1 24:1 25:0 26:0 27:1 28:0 29:1 30:0 31:0 32:0 33:1 34:0 35:1 36:64 
512 0:1 1:1 2:0 3:1 4:1 5:0 6:1 7:1 8:1 9:1 10:1 11:0 12:1 13:1 14:1 15:0 16:0 17:0 18:1 19:0 20:0 21:1 22:1 23:0 24:1 25:0 26:0 27:1 28:1 29:1 30:0 31:0 32:0 33:1 34:0 35:1 36:17 
512 0:0 1:1 2:1 3:1 4:0 5:0 6:1 7:1 8:1 9:0 10:0 11:0 12:1 13:0 14:1 15:0 16:1 17:0 18:0 19:0 20:0 21:1 22:0 23:0 24:1 25:0 26:0 27:0 28:1 29:0 30:0 31:0 32:0 33:1 34:0 35:0 36:23 
512 0:0 1:1 2:1 3:1 4:1 5:0 6:0 7:1 8:0 9:0 10:0 11:1 12:1 13:1 14:1 15:0 16:0 17:0 18:0 19:0 20:1 21:1 22:1 23:0 24:1 25:1 26:0 27:1 28:0 29:1 30:1 31:1 32:0 33:1 34:0 35:1 36:19 
512 0:1 1:1 2:0 3:1 4:0 5:0 6:1 7:1 8:1 9:0 10:1 11:1 12:1 13:1 14:1 15:0 16:0 17:0 18:0 19:0 20:1 21:0 22:0 23:0 24:0 25:1 26:1 27:1 28:1 29:0 30:1 31:1 32:0 33:0 34:0 35:0 36:22 
512 0:1 1:1 2:1 3:0 4:0 5:1 6:1 7:1 8:1 9:1 10:1 11:1 12:0 13:1 14:0 15:1 16:0 17:0 18:1 19:0 20:0 21:0 22:0 23:0 24:0 25:0 26:0 27:0 28:1 29:1 30:0 31:0 32:0 33:0 34:0 35:0 36:17 
512 0:0 1:0 2:1 3:0 4:0 5:0 6:0 7:1 8:1 9:0 10:1 11:1 12:1 13:1 14:0 15:1 16:0 17:0 18:1 19:0 20:0 21:1 22:1 23:1 24:0 25:0 26:0 27:1 28:0 29:1 30:1 31:0 32:1 33:1 34:0 35:1 36:18 
512 0:1 1:0 2:1 3:1 4:0 5:1 6:1 7:0 8:1 9:1 10:1 11:1 12:0 13:1 14:1 15:1 16:0 17:0 18:1 19:1 20:0 21:1 22:1 23:1 24:0 25:1 26:1 27:0 28:1 29:1 30:1 31:1 32:1 33:0 34:1 35:0 36:28 
512 0:0 1:1 2:1 3:1 4:0 5:0 6:1 7:1 8:1 9:1 10:1 11:0 12:1 13:1 14:1 15:1 16:1 17:0 18:0 19:0 20:1 21:1 22:0 23:0 24:1 25:1 26:1 27:0 28:0 29:0 30:1 31:0 32:0 33:1 34:0 35:0 36:67 
512 0:1 1:0 2:1 3:1 4:0 5:1 6:0 7:1 8:0 9:1 10:1 11:1 12:1 13:1 14:1 15:1 16:0 17:0 18:1 19:0 20:0 21:0 22:1 23:0 24:0 25:1 26:0 27:0 28:1 29:1 30:1 31:1 32:0 33:0 34:0 35:1 36:12 
512 0:1 1:1 2:1 3:1 4:0 5:0 6:1 7:1 8:1 9:0 10:0 11:1 12:0 13:1 14:1 15:0 16:0 17:0 18:0 19:0 20:0 21:1 22:0 23:1 24:1 25:0 26:1 27:0 28:1 29:1 30:1 31:0 32:0 33:0 34:1 35:0 36:65 
512 0:1 1:1 2:1 3:1 4:0 5:0 6:1 7:1 8:1 9:1 10:1 11:1 12:1 13:1 14:0 15:0 16:1 17:0 18:1 19:0 20:0 21:0 22:0 23:1 24:1 25:1 26:1 27:1 28:1 29:1 30:1 31:1 32:0 33:0 34:0 35:0 36:24 
512 0:1 1:0 2:1 3:1 4:1 5:0 6:1 7:1 8:0 9:1 10:0 11:0 12:0 13:1 14:1 15:1 16:0 17:1 18:1 19:1 20:1 21:1 22:1 23:1 24:0 25:0 26:1 27:1 28:1 29:1 30:1 31:0 32:0 33:1 34:1 35:1 36:48 
512 0:1 1:1 2:1 3:1 4:1 5:0 6:0 7:0 8:1 9:1 10:1 11:1 12:1 13:0 14:1 15:1 16:0 17:1 18:1 19:0 20:0 21:1 22:0 23:1 24:1 25:1 26:1 27:1 28:0 29:0 30:0 31:0 32:0 33:1 34:0 35:0 36:18 
512 0:0 1:1 2:1 3:1 4:0 5:0 6:1 7:1 8:1 9:1 10:1 11:1 12:1 13:1 14:1 15:1 16:0 17:0 18:1 19:0 20:0 21:0 22:0 23:0 24:0 25:1 26:1 27:1 28:1 29:1 30:1 31:0 32:0 33:1 34:0 35:1 36:170 
512 0:1 1:1 2:1 3:1 4:0 5:0 6:1 7:0 8:1 9:1 10:1 11:0 12:1 13:0 14:1 15:0 16:0 17:0 18:1 19:0 20:1 21:0 22:0 23:1 24:1 25:1 26:1 27:1 28:1 29:1 30:0 31:0 32:0 33:1 34:0 35:1 36:16 
512 0:0 1:0 2:1 3:0 4:0 5:1 6:1 7:1 8:0 9:0 10:0 11:1 12:1 13:1 14:1 15:0 16:0 17:0 18:0 19:0 20:0 21:0 22:0 23:0 24:1 25:1 26:0 27:0 28:1 29:1 30:1 31:1 32:1 33:0 34:1 35:0 36:85 
512 0:1 1:0 2:1 3:0 4:1 5:0 6:1 7:1 8:0 9:1 10:0 11:0 12:1 13:0 14:0 15:1 16:0 17:0 18:1 19:1 20:0 21:1 22:1 23:0 24:0 25:1 26:1 27:1 28:0 29:1 30:0 31:0 32:0 33:1 34:0 35:0 36:12 
512 0:0 1:1 2:1 3:1 4:0 5:0 6:1 7:1 8:1 9:1 10:0 11:0 12:0 13:1 14:1 15:1 16:0 17:0 18:1 19:1 20:0 21:0 22:0 23:0 24:0 25:1 26:0 27:0 28:0 29:0 30:0 31:0 32:0 33:1 34:0 35:0 36:27 
512 0:0 1:1 2:0 3:0 4:0 5:0 6:0 7:1 8:0 9:0 10:1 11:1 12:1 13:0 14:1 15:1 16:0 17:0 18:0 19:0 20:0 21:1 22:0 23:0 24:1 25:1 26:1 27:1 28:1 29:0 30:1 31:0 32:0 33:0 34:0 35:0 36:17 
512 0:1 1:1 2:1 3:1 4:0 5:1 6:1 7:1 8:1 9:1 10:1 11:1 12:1 13:1 14:1 15:0 16:0 17:0 18:1 19:0 20:0 21:1 22:0 23:1 24:0 25:1 26:0 27:1 28:1 29:1 30:0 31:0 32:1 33:0 34:0 35:1 36:28 
310.149987153422 0:1 1:0 2:1 3:0 4:0 5:0 6:0 7:1 8:1 9:1 10:1 11:1 12:1 13:1 14:1 15:1 16:0 17:0 18:1 19:1 20:0 21:0 22:1 23:0 24:0 25:1 26:1 27:0 28:0 29:1 30:0 31:0 32:0 33:1 34:1 35:0 36:3 
512 0:1 1:1 2:1 3:0 4:0 5:0 6:1 7:1 8:1 9:0 10:1 11:0 12:1 13:1 14:0 15:0 16:0 17:0 18:1 19:0 20:0 21:0 22:0 23:1 24:0 25:1 26:0 27:0 28:1 29:1 30:0 31:0 32:0 33:0 34:1 35:0 36:32 
512 0:1 1:1 2:1 3:0 4:0 5:0 6:1 7:1 8:1 9:1 10:1 11:1 12:1 13:1 14:1 15:0 16:0 17:0 18:1 19:0 20:1 21:1 22:0 23:0 24:1 25:1 26:1 27:0 28:1 29:0 30:1 31:0 32:0 33:1 34:1 35:0 36:35 
512 0:1 1:1 2:1 3:1 4:1 5:0 6:1 7:0 8:1 9:1 10:1 11:1 12:0 13:0 14:0 15:1 16:0 17:0 18:1 19:0 20:0 21:1 22:1 23:0 24:1 25:1 26:1 27:1 28:1 29:1 30:0 31:0 32:0 33:0 34:1 35:0 36:25 
512 0:1 1:0 2:0 3:1 4:0 5:1 6:0 7:1 8:1 9:0 10:0 11:1 12:1 13:1 14:1 15:0 16:1 17:1 18:1 19:0 20:0 21:1 22:0 23:0 24:1 25:1 26:1 27:0 28:1 29:1 30:0 31:0 32:0 33:1 34:0 35:0 36:58 
512 0:1 1:1 2:1 3:1 4:0 5:0 6:1 7:1 8:1 9:1 10:1 11:0 12:1 13:1 14:0 15:1 16:1 17:1 18:1 19:0 20:1 21:1 22:0 23:0 24:1 25:1 26:1 27:1 28:1 29:0 30:1 31:1 32:1 33:0 34:0 35:0 36:43 
512 0:1 1:1 2:1 3:1 4:0 5:0 6:1 7:0 8:1 9:1 10:0 11:1 12:1 13:1 14:1 15:0 16:0 17:0 18:1 19:0 20:1 21:0 22:0 23:0 24:0 25:0 26:0 27:1 28:0 29:0 30:0 31:0 32:0 33:1 34:0 35:0 36:55 
512 0:1 1:0 2:1 3:1 4:1 5:0 6:1 7:1 8:1 9:0 10:1 11:1 12:1 13:0 14:1 15:0 16:0 17:0 18:0 19:0 20:1 21:1 22:0 23:0 24:0 25:1 26:0 27:1 28:1 29:0 30:1 31:0 32:1 33:0 34:0 35:0 36:26 
512 0:1 1:0 2:0 3:1 4:0 5:1 6:0 7:1 8:1 9:0 10:0 11:0 12:1 13:0 14:1 15:1 16:1 17:0 18:0 19:0 20:0 21:1 22:1 23:1 24:0 25:0 26:0 27:1 28:1 29:1 30:1 31:0 32:0 33:1 34:1 35:0 36:11 
512 0:1 1:1 2:0 3:1 4:0 5:1 6:0 7:0 8:1 9:1 10:1 11:1 12:1 13:0 14:0 15:1 16:1 17:0 18:1 19:0 20:0 21:1 22:0 23:1 24:1 25:1 26:0 27:1 28:0 29:1 30:1 31:1 32:0 33:1 34:0 35:0 36:35 
512 0:1 1:1 2:1 3:1 4:0 5:0 6:1 7:1 8:1 9:1 10:1 11:1 12:1 13:1 14:1 15:1 16:0 17:0 18:1 19:0 20:0 21:1 22:0 23:1 24:0 25:1 26:1 27:1 28:1 29:1 30:1 31:0 32:0 33:1 34:0 35:0 36:39 
512 0:1 1:1 2:1 3:1 4:1 5:0 6:0 7:1 8:1 9:1 10:1 11:0 12:1 13:1 14:1 15:1 16:0 17:1 18:1 19:0 20:0 21:1 22:0 23:0 24:1 25:1 26:1 27:1 28:1 29:1 30:0 31:0 32:0 33:1 34:1 35:0 36:37 
147.2399523822768 0:0 1:1 2:1 3:1 4:0 5:0 6:0 7:0 8:1 9:1 10:1 11:1 12:1 13:1 14:1 15:1 16:1 17:1 18:1 19:1 20:1 21:1 22:0 23:1 24:0 25:1 26:1 27:1 28:1 29:1 30:0 31:0 32:0 33:1 34:0 35:1 36:10 
512 0:1 1:1 2:0 3:1 4:1 5:0 6:1 7:1 8:1 9:1 10:1 11:1 12:1 13:1 14:1 15:1 16:0 17:0 18:1 19:1 20:0 21:1 22:0 23:0 24:0 25:1 26:1 27:1 28:1 29:0 30:0 31:0 32:0 33:1 34:1 35:0 36:27 
512 0:1 1:0 2:1 3:1 4:0 5:0 6:1 7:0 8:1 9:0 10:0 11:1 12:1 13:1 14:1 15:0 16:0 17:0 18:0 19:0 20:1 21:1 22:0 23:1 24:1 25:0 26:1 27:0 28:1 29:1 30:1 31:0 32:0 33:0 34:0 35:0 36:26 
512 0:0 1:1 2:0 3:1 4:0 5:0 6:1 7:1 8:1 9:0 10:0 11:1 12:1 13:1 14:1 15:0 16:0 17:1 18:0 19:0 20:0 21:1 22:0 23:0 24:1 25:1 26:1 27:1 28:0 29:1 30:0 31:1 32:0 33:1 34:1 35:0 36:77 
512 0:1 1:0 2:1 3:1 4:0 5:0 6:1 7:0 8:0 9:0 10:0 11:1 12:0 13:0 14:1 15:0 16:1 17:1 18:1 19:0 20:1 21:1 22:0 23:0 24:0 25:0 26:0 27:1 28:1 29:1 30:0 31:0 32:0 33:1 34:1 35:0 36:10 
512 0:1 1:0 2:1 3:1 4:0 5:0 6:1 7:1 8:1 9:1 10:1 11:1 12:1 13:0 14:1 15:0 16:0 17:0 18:1 19:1 20:1 21:1 22:0 23:1 24:1 25:1 26:1 27:0 28:0 29:0 30:1 31:0 32:0 33:0 34:0 35:0 36:26 
512 0:1 1:1 2:1 3:0 4:0 5:0 6:0 7:1 8:1 9:1 10:1 11:0 12:1 13:1 14:1 15:1 16:0 17:0 18:1 19:1 20:1 21:1 22:0 23:1 24:0 25:0 26:1 27:1 28:1 29:0 30:0 31:1 32:0 33:0 34:1 35:0 36:18 
512 0:0 1:1 2:0 3:1 4:0 5:0 6:1 7:1 8:1 9:1 10:1 11:1 12:1 13:1 14:1 15:0 16:0 17:1 18:1 19:0 20:0 21:0 22:1 23:1 24:1 25:1 26:1 27:0 28:1 29:1 30:0 31:0 32:0 33:0 34:1 35:0 36:14 
512 0:1 1:1 2:0 3:1 4:0 5:1 6:1 7:1 8:1 9:1 10:1 11:1 12:1 13:1 14:0 15:1 16:1 17:0 18:1 19:0 20:1 21:1 22:0 23:0 24:1 25:1 26:1 27:1 28:1 29:0 30:1 31:1 32:0 33:1 34:0 35:1 36:34 
512 0:1 1:1 2:1 3:1 4:1 5:1 6:0 7:1 8:1 9:0 10:0 11:0 12:0 13:1 14:1 15:0 16:1 17:1 18:1 19:1 20:0 21:1 22:0 23:0 24:1 25:0 26:0 27:1 28:1 29:0 30:1 31:1 32:0 33:1 34:0 35:0 36:15 
512 0:1 1:1 2:0 3:1 4:1 5:1 6:1 7:1 8:1 9:0 10:1 11:1 12:1 13:1 14:1 15:0 16:0 17:0 18:1 19:0 20:0 21:1 22:0 23:0 24:1 25:1 26:0 27:0 28:1 29:1 30:1 31:0 32:0 33:0 34:1 35:0 36:23 
512 0:1 1:1 2:1 3:0 4:0 5:0 6:1 7:0 8:1 9:0 10:0 11:1 12:0 13:1 14:1 15:0 16:1 17:0 18:0 19:0 20:1 21:0 22:0 23:0 24:0 25:1 26:1 27:0 28:0 29:0 30:1 31:1 32:0 33:1 34:0 35:0 36:71 
512 0:1 1:1 2:0 3:1 4:0 5:0 6:0 7:1 8:0 9:1 10:1 11:1 12:1 13:1 14:1 15:1 16:1 17:0 18:1 19:0 20:0 21:1 22:1 23:0 24:1 25:1 26:0 27:1 28:1 29:1 30:0 31:0 32:0 33:1 34:1 35:1 36:90 
512 0:1 1:0 2:1 3:1 4:1 5:1 6:0 7:1 8:1 9:1 10:1 11:1 12:0 13:1 14:1 15:1 16:1 17:1 18:1 19:0 20:0 21:0 22:0 23:0 24:1 25:1 26:0 27:0 28:0 29:0 30:1 31:1 32:0 33:1 34:1 35:0 36:42 
512 0:1 1:1 2:1 3:1 4:0 5:1 6:1 7:0 8:0 9:1 10:1 11:1 12:0 13:1 14:1 15:0 16:0 17:0 18:1 19:0 20:1 21:0 22:0 23:0 24:1 25:0 26:0 27:0 28:1 29:0 30:1 31:1 32:0 33:1 34:1 35:0 36:15 
512 0:0 1:1 2:0 3:1 4:0 5:1 6:1 7:1 8:0 9:0 10:1 11:0 12:1 13:1 14:1 15:0 16:0 17:0 18:1 19:1 20:1 21:1 22:0 23:0 24:0 25:1 26:1 27:0 28:1 29:1 30:0 31:0 32:1 33:0 34:1 35:1 36:23 
512 0:1 1:1 2:1 3:1 4:0 5:0 6:1 7:1 8:1 9:0 10:0 11:1 12:1 13:1 14:1 15:0 16:0 17:0 18:0 19:0 20:1 21:1 22:1 23:0 24:0 25:0 26:0 27:0 28:1 29:0 30:1 31:0 32:0 33:1 34:0 35:0 36:26 
389.5009613422388 0:1 1:1 2:1 3:0 4:0 5:0 6:1 7:1 8:0 9:0 10:1 11:0 12:1 13:1 14:1 15:1 16:1 17:0 18:1 19:1 20:1 21:0 22:0 23:0 24:0 25:0 26:0 27:1 28:0 29:0 30:1 31:0 32:1 33:0 34:0 35:0 36:8 
512 0:1 1:1 2:1 3:1 4:0 5:0 6:1 7:1 8:1 9:0 10:1 11:1 12:1 13:1 14:1 15:1 16:0 17:0 18:1 19:1 20:0 21:1 22:0 23:1 24:1 25:1 26:1 27:0 28:1 29:1 30:1 31:0 32:0 33:0 34:0 35:1 36:25 
512 0:1 1:1 2:1 3:0 4:0 5:1 6:1 7:1 8:0 9:0 10:0 11:0 12:1 13:1 14:1 15:1 16:0 17:0 18:0 19:0 20:1 21:1 22:0 23:0 24:1 25:1 26:1 27:1 28:1 29:0 30:1 31:0 32:0 33:1 34:1 35:0 36:21 
512 0:1 1:0 2:0 3:1 4:0 5:1 6:1 7:1 8:1 9:0 10:1 11:0 12:1 13:0 14:1 15:0 16:0 17:0 18:1 19:0 20:0 21:0 22:0 23:0 24:0 25:1 26:1 27:0 28:1 29:0 30:1 31:0 32:0 33:1 34:0 35:0 36:19 
512 0:1 1:0 2:1 3:1 4:1 5:0 6:1 7:1 8:1 9:0 10:1 11:1 12:0 13:1 14:1 15:0 16:0 17:0 18:1 19:0 20:1 21:1 22:0 23:1 24:0 25:1 26:1 27:0 28:0 29:1 30:1 31:1 32:1 33:0 34:0 35:0 36:21 
512 0:1 1:1 2:1 3:1 4:0 5:0 6:1 7:1 8:1 9:1 10:1 11:1 12:1 13:1 14:0 15:1 16:0 17:0 18:1 19:1 20:0 21:1 22:1 23:1 24:0 25:1 26:1 27:0 28:1 29:0 30:1 31:1 32:0 33:1 34:0 35:0 36:28 
512 0:1 1:1 2:1 3:0 4:0 5:0 6:1 7:0 8:1 9:1 10:1 11:0 12:1 13:0 14:1 15:0 16:0 17:0 18:1 19:1 20:1 21:0 22:1 23:1 24:1 25:1 26:1 27:0 28:1 29:1 30:1 31:0 32:0 33:0 34:1 35:0 36:15 
512 0:1 1:1 2:0 3:1 4:0 5:0 6:0 7:0 8:1 9:1 10:1 11:0 12:1 13:1 14:1 15:0 16:0 17:1 18:1 19:1 20:0 21:1 22:0 23:0 24:1 25:0 26:1 27:0 28:0 29:0 30:0 31:1 32:0 33:0 34:0 35:0 36:53 
512 0:0 1:1 2:1 3:1 4:0 5:1 6:1 7:1 8:1 9:1 10:0 11:1 12:1 13:1 14:1 15:1 16:0 17:0 18:0 19:1 20:1 21:0 22:1 23:1 24:0 25:1 26:1 27:1 28:1 29:1 30:1 31:0 32:0 33:1 34:0 35:0 36:11 
512 0:1 1:0 2:1 3:1 4:1 5:0 6:1 7:1 8:0 9:1 10:1 11:1 12:1 13:1 14:1 15:1 16:0 17:1 18:1 19:1 20:0 21:1 22:0 23:0 24:1 25:0 26:0 27:0 28:1 29:0 30:0 31:0 32:0 33:1 34:0 35:0 36:22 
512 0:1 1:0 2:1 3:1 4:0 5:0 6:0 7:1 8:0 9:1 10:1 11:0 12:0 13:1 14:1 15:1 16:1 17:0 18:0 19:0 20:0 21:1 22:0 23:0 24:1 25:1 26:1 27:1 28:1 29:1 30:0 31:1 32:0 33:0 34:1 35:1 36:13 
512 0:1 1:1 2:0 3:1 4:1 5:0 6:1 7:1 8:1 9:0 10:1 11:0 12:1 13:1 14:1 15:1 16:0 17:0 18:1 19:0 20:1 21:1 22:0 23:0 24:1 25:1 26:1 27:1 28:1 29:0 30:0 31:0 32:0 33:1 34:1 35:0 36:53 
512 0:1 1:1 2:1 3:1 4:0 5:0 6:1 7:1 8:1 9:0 10:0 11:1 12:1 13:0 14:1 15:0 16:0 17:0 18:1 19:1 20:0 21:0 22:0 23:0 24:0 25:1 26:1 27:0 28:1 29:0 30:1 31:0 32:0 33:0 34:1 35:0 36:22 
512 0:1 1:1 2:0 3:1 4:0 5:0 6:1 7:1 8:1 9:1 10:1 11:0 12:1 13:1 14:1 15:0 16:0 17:1 18:1 19:0 20:1 21:1 22:1 23:0 24:0 25:1 26:1 27:1 28:1 29:1 30:0 31:1 32:0 33:1 34:0 35:0 36:70 
512 0:0 1:1 2:1 3:1 4:0 5:0 6:1 7:0 8:1 9:0 10:1 11:1 12:1 13:1 14:1 15:1 16:0 17:0 18:1 19:0 20:0 21:1 22:0 23:1 24:1 25:1 26:1 27:0 28:0 29:0 30:0 31:0 32:0 33:1 34:0 35:0 36:26 
512 0:1 1:1 2:1 3:1 4:1 5:1 6:1 7:1 8:1 9:1 10:0 11:1 12:1 13:1 14:1 15:1 16:0 17:0 18:1 19:1 20:1 21:0 22:1 23:1 24:0 25:1 26:1 27:1 28:1 29:0 30:1 31:0 32:0 33:1 34:0 35:0 36:11 
512 0:1 1:1 2:1 3:0 4:0 5:0 6:1 7:1 8:1 9:0 10:1 11:1 12:1 13:1 14:1 15:0 16:0 17:1 18:1 19:0 20:1 21:1 22:0 23:0 24:0 25:1 26:1 27:0 28:0 29:0 30:1 31:0 32:0 33:0 34:1 35:0 36:69 
512 0:1 1:1 2:1 3:1 4:0 5:0 6:1 7:1 8:1 9:0 10:0 11:1 12:1 13:1 14:1 15:0 16:0 17:0 18:1 19:0 20:0 21:1 22:0 23:0 24:1 25:1 26:1 27:1 28:0 29:0 30:0 31:0 32:0 33:1 34:0 35:0 36:71 
512 0:1 1:1 2:1 3:1 4:0 5:1 6:1 7:1 8:1 9:0 10:1 11:1 12:1 13:0 14:1 15:1 16:0 17:0 18:1 19:0 20:0 21:1 22:0 23:1 24:0 25:1 26:1 27:0 28:0 29:0 30:1 31:0 32:0 33:0 34:0 35:0 36:33 
512 0:1 1:1 2:0 3:0 4:0 5:1 6:1 7:1 8:0 9:0 10:1 11:1 12:1 13:1 14:1 15:1 16:0 17:0 18:1 19:0 20:1 21:1 22:0 23:0 24:0 25:1 26:1 27:0 28:1 29:1 30:0 31:0 32:0 33:0 34:0 35:1 36:36 
512 0:1 1:0 2:0 3:0 4:0 5:0 6:1 7:0 8:0 9:0 10:0 11:0 12:1 13:1 14:1 15:0 16:0 17:0 18:1 19:0 20:0 21:1 22:0 23:0 24:1 25:1 26:0 27:1 28:1 29:1 30:0 31:0 32:0 33:1 34:0 35:0 36:63 
512 0:0 1:1 2:1 3:1 4:0 5:0 6:0 7:0 8:1 9:1 10:1 11:0 12:1 13:1 14:1 15:1 16:0 17:1 18:1 19:0 20:0 21:1 22:0 23:0 24:1 25:1 26:0 27:1 28:1 29:1 30:0 31:0 32:0 33:1 34:1 35:0 36:45 
512 0:1 1:1 2:1 3:1 4:1 5:1 6:1 7:1 8:0 9:0 10:0 11:1 12:1 13:1 14:1 15:1 16:0 17:0 18:1 19:0 20:0 21:1 22:0 23:1 24:1 25:1 26:1 27:0 28:0 29:0 30:1 31:0 32:0 33:0 34:0 35:0 36:25 
512 0:1 1:1 2:0 3:1 4:0 5:0 6:1 7:1 8:1 9:0 10:1 11:1 12:1 13:1 14:0 15:1 16:0 17:0 18:1 19:0 20:0 21:1 22:1 23:1 24:1 25:1 26:1 27:0 28:1 29:0 30:1 31:0 32:0 33:1 34:1 35:0 36:25 
512 0:1 1:1 2:1 3:1 4:0 5:1 6:1 7:1 8:1 9:0 10:0 11:1 12:1 13:1 14:1 15:0 16:0 17:0 18:1 19:1 20:1 21:1 22:0 23:1 24:0 25:1 26:1 27:1 28:0 29:1 30:1 31:1 32:1 33:1 34:0 35:1 36:23 
512 0:1 1:1 2:1 3:0 4:0 5:1 6:1 7:1 8:0 9:1 10:1 11:1 12:1 13:1 14:1 15:0 16:0 17:0 18:1 19:0 20:0 21:1 22:0 23:0 24:1 25:1 26:1 27:1 28:0 29:0 30:1 31:0 32:0 33:1 34:0 35:0 36:27 
512 0:1 1:1 2:0 3:1 4:1 5:0 6:1 7:1 8:1 9:1 10:0 11:1 12:1 13:1 14:1 15:1 16:0 17:0 18:1 19:1 20:1 21:1 22:0 23:1 24:0 25:1 26:1 27:1 28:1 29:1 30:0 31:0 32:1 33:0 34:0 35:0 36:16 
512 0:1 1:1 2:1 3:0 4:0 5:1 6:0 7:1 8:1 9:1 10:1 11:1 12:0 13:1 14:1 15:1 16:0 17:0 18:1 19:1 20:0 21:0 22:0 23:0 24:0 25:1 26:1 27:0 28:1 29:1 30:1 31:0 32:0 33:1 34:1 35:1 36:11 
512 0:1 1:1 2:1 3:0 4:1 5:0 6:1 7:1 8:0 9:1 10:1 11:1 12:1 13:1 14:1 15:0 16:0 17:0 18:1 19:0 20:1 21:1 22:0 23:0 24:0 25:1 26:1 27:1 28:0 29:0 30:1 31:0 32:0 33:1 34:0 35:0 36:21 
512 0:0 1:1 2:1 3:1 4:0 5:1 6:1 7:1 8:1 9:1 10:1 11:1 12:1 13:1 14:1 15:0 16:0 17:0 18:0 19:0 20:0 21:0 22:0 23:1 24:1 25:1 26:1 27:0 28:1 29:0 30:1 31:0 32:0 33:0 34:0 35:1 36:18 
512 0:1 1:0 2:1 3:1 4:0 5:0 6:1 7:1 8:0 9:0 10:1 11:1 12:1 13:1 14:0 15:1 16:0 17:1 18:1 19:0 20:1 21:1 22:1 23:0 24:0 25:1 26:0 27:0 28:0 29:0 30:0 31:0 32:0 33:1 34:0 35:0 36:52 
512 0:1 1:0 2:0 3:1 4:0 5:0 6:0 7:1 8:1 9:0 10:1 11:0 12:0 13:1 14:1 15:1 16:1 17:0 18:1 19:0 20:0 21:0 22:0 23:0 24:0 25:1 26:0 27:1 28:0 29:0 30:1 31:1 32:0 33:1 34:0 35:0 36:50 
512 0:1 1:1 2:0 3:1 4:1 5:0 6:1 7:1 8:1 9:1 10:0 11:1 12:1 13:1 14:0 15:1 16:0 17:0 18:1 19:1 20:1 21:1 22:0 23:0 24:0 25:1 26:1 27:1 28:1 29:0 30:0 31:0 32:0 33:0 34:0 35:0 36:33 
512 0:1 1:1 2:0 3:1 4:0 5:0 6:1 7:1 8:0 9:0 10:0 11:0 12:1 13:1 14:1 15:0 16:1 17:0 18:1 19:1 20:1 21:1 22:1 23:0 24:0 25:0 26:1 27:1 28:0 29:0 30:0 31:0 32:0 33:1 34:0 35:1 36:48 
512 0:1 1:1 2:1 3:0 4:0 5:0 6:1 7:0 8:0 9:1 10:1 11:1 12:1 13:1 14:1 15:1 16:0 17:0 18:1 19:0 20:0 21:1 22:0 23:1 24:1 25:1 26:1 27:1 28:1 29:0 30:0 31:1 32:1 33:1 34:0 35:0 36:64 
512 0:1 1:1 2:1 3:1 4:1 5:0 6:1 7:1 8:1 9:0 10:0 11:0 12:1 13:1 14:1 15:0 16:1 17:0 18:1 19:0 20:1 21:1 22:0 23:0 24:1 25:1 26:1 27:0 28:0 29:0 30:1 31:0 32:0 33:0 34:0 35:0 36:20 
512 0:1 1:1 2:1 3:1 4:1 5:1 6:1 7:1 8:1 9:1 10:1 11:1 12:1 13:1 14:1 15:1 16:0 17:0 18:1 19:0 20:1 21:0 22:1 23:0 24:1 25:1 26:1 27:1 28:1 29:0 30:0 31:0 32:0 33:1 34:0 35:0 36:17 
512 0:1 1:0 2:0 3:1 4:1 5:1 6:1 7:1 8:1 9:1 10:1 11:1 12:1 13:0 14:1 15:0 16:1 17:0 18:1 19:1 20:1 21:0 22:1 23:0 24:1 25:1 26:1 27:0 28:1 29:0 30:1 31:1 32:0 33:0 34:0 35:1 36:23 
512 0:1 1:1 2:1 3:1 4:1 5:1 6:1 7:0 8:0 9:0 10:1 11:1 12:1 13:1 14:0 15:0 16:1 17:0 18:1 19:0 20:0 21:1 22:0 23:0 24:1 25:1 26:1 27:1 28:1 29:1 30:1 31:1 32:0 33:1 34:0 35:0 36:23 
512 0:1 1:1 2:1 3:1 4:0 5:0 6:1 7:1 8:1 9:1 10:0 11:0 12:0 13:1 14:0 15:1 16:0 17:0 18:1 19:1 20:0 21:1 22:1 23:0 24:1 25:0 26:0 27:1 28:1 29:0 30:0 31:0 32:0 33:1 34:0 35:0 36:41 
512 0:0 1:1 2:1 3:0 4:0 5:0 6:0 7:1 8:0 9:1 10:1 11:1 12:1 13:1 14:0 15:0 16:0 17:0 18:1 19:1 20:0 21:1 22:0 23:0 24:0 25:0 26:1 27:0 28:1 29:0 30:1 31:1 32:1 33:1 34:0 35:0 36:12 
512 0:1 1:1 2:1 3:1 4:1 5:0 6:1 7:1 8:1 9:0 10:1 11:0 12:1 13:1 14:1 15:0 16:0 17:1 18:1 19:0 20:1 21:1 22:0 23:1 24:1 25:1 26:0 27:1 28:0 29:1 30:0 31:0 32:1 33:0 34:0 35:1 36:17 
512 0:1 1:1 2:0 3:1 4:0 5:0 6:1 7:1 8:1 9:0 10:1 11:1 12:1 13:0 14:1 15:0 16:0 17:0 18:1 19:0 20:1 21:0 22:0 23:0 24:1 25:1 26:1 27:0 28:1 29:1 30:0 31:0 32:1 33:1 34:1 35:0 36:63 
512 0:0 1:1 2:1 3:0 4:0 5:1 6:1 7:1 8:1 9:1 10:1 11:1 12:1 13:1 14:1 15:0 16:0 17:0 18:1 19:0 20:0 21:1 22:0 23:0 24:1 25:0 26:0 27:1 28:0 29:0 30:0 31:0 32:0 33:1 34:0 35:0 36:22 
512 0:1 1:1 2:1 3:1 4:1 5:1 6:0 7:1 8:1 9:0 10:0 11:1 12:0 13:1 14:1 15:0 16:0 17:0 18:1 19:0 20:0 21:1 22:0 23:1 24:0 25:0 26:1 27:1 28:1 29:1 30:0 31:1 32:1 33:1 34:1 35:0 36:26 
512 0:0 1:1 2:1 3:1 4:1 5:1 6:1 7:1 8:1 9:1 10:1 11:1 12:1 13:1 14:0 15:1 16:0 17:0 18:0 19:0 20:1 21:1 22:1 23:0 24:0 25:0 26:1 27:1 28:1 29:1 30:0 31:0 32:1 33:1 34:0 35:1 36:11 
512 0:1 1:1 2:1 3:1 4:0 5:1 6:1 7:0 8:1 9:1 10:0 11:1 12:1 13:1 14:1 15:0 16:0 17:0 18:0 19:0 20:0 21:0 22:0 23:1 24:0 25:0 26:0 27:1 28:0 29:1 30:0 31:0 32:0 33:1 34:1 35:1 36:13 
512 0:1 1:1 2:1 3:1 4:1 5:1 6:1 7:1 8:1 9:0 10:0 11:1 12:0 13:0 14:1 15:0 16:0 17:0 18:1 19:1 20:1 21:1 22:0 23:0 24:1 25:0 26:1 27:1 28:0 29:0 30:0 31:0 32:0 33:0 34:0 35:0 36:69 
512 0:0 1:0 2:1 3:1 4:0 5:0 6:1 7:1 8:1 9:0 10:0 11:0 12:1 13:1 14:0 15:1 16:0 17:0 18:1 19:0 20:0 21:0 22:0 23:0 24:1 25:1 26:1 27:0 28:1 29:0 30:0 31:0 32:0 33:1 34:0 35:1 36:30 
512 0:1 1:1 2:1 3:0 4:1 5:0 6:1 7:1 8:0 9:0 10:1 11:1 12:0 13:1 14:1 15:1 16:0 17:0 18:1 19:1 20:1 21:0 22:0 23:0 24:1 25:1 26:1 27:0 28:1 29:1 30:1 31:0 32:0 33:1 34:0 35:0 36:10 
512 0:1 1:1 2:1 3:0 4:0 5:0 6:0 7:1 8:0 9:1 10:1 11:1 12:1 13:0 14:1 15:1 16:0 17:0 18:1 19:0 20:0 21:1 22:0 23:0 24:0 25:1 26:1 27:1 28:0 29:1 30:1 31:1 32:0 33:0 34:1 35:0 36:40 
512 0:1 1:0 2:1 3:0 4:0 5:0 6:1 7:1 8:0 9:1 10:1 11:0 12:1 13:1 14:1 15:0 16:1 17:0 18:1 19:1 20:1 21:1 22:0 23:1 24:0 25:1 26:1 27:1 28:0 29:1 30:0 31:1 32:1 33:1 34:0 35:0 36:9 
512 0:1 1:1 2:1 3:1 4:0 5:0 6:0 7:0 8:0 9:1 10:1 11:0 12:1 13:0 14:1 15:1 16:0 17:0 18:1 19:0 20:0 21:1 22:0 23:1 24:1 25:1 26:1 27:1 28:1 29:1 30:1 31:0 32:0 33:1 34:0 35:0 36:54 
512 0:1 1:1 2:1 3:1 4:0 5:0 6:1 7:1 8:0 9:0 10:1 11:1 12:1 13:1 14:1 15:1 16:0 17:0 18:0 19:1 20:0 21:0 22:0 23:1 24:1 25:1 26:1 27:0 28:1 29:1 30:1 31:1 32:0 33:0 34:1 35:0 36:22 
512 0:1 1:1 2:1 3:0 4:0 5:1 6:1 7:1 8:0 9:1 10:1 11:1 12:0 13:1 14:1 15:1 16:0 17:0 18:1 19:0 20:0 21:1 22:0 23:0 24:1 25:1 26:0 27:1 28:1 29:1 30:1 31:1 32:1 33:1 34:1 35:0 36:41 
512 0:1 1:1 2:1 3:1 4:1 5:0 6:1 7:1 8:1 9:0 10:1 11:1 12:1 13:1 14:1 15:1 16:0 17:0 18:1 19:1 20:0 21:0 22:0 23:0 24:1 25:1 26:1 27:1 28:0 29:1 30:1 31:0 32:0 33:1 34:0 35:0 36:29 
512 0:1 1:1 2:1 3:0 4:1 5:0 6:1 7:1 8:1 9:1 10:1 11:1 12:1 13:1 14:1 15:0 16:0 17:0 18:0 19:0 20:1 21:1 22:0 23:0 24:0 25:0 26:0 27:1 28:1 29:1 30:0 31:0 32:0 33:1 34:1 35:0 36:104 
512 0:1 1:0 2:1 3:1 4:1 5:1 6:1 7:1 8:1 9:0 10:1 11:1 12:1 13:1 14:1 15:1 16:0 17:0 18:1 19:1 20:0 21:1 22:0 23:1 24:0 25:1 26:1 27:1 28:0 29:0 30:0 31:0 32:0 33:1 34:0 35:0 36:26 
512 0:1 1:1 2:1 3:1 4:1 5:1 6:1 7:0 8:1 9:1 10:1 11:1 12:1 13:0 14:1 15:1 16:1 17:0 18:1 19:1 20:1 21:0 22:0 23:1 24:1 25:0 26:1 27:0 28:1 29:1 30:0 31:1 32:1 33:0 34:1 35:0 36:35 
512 0:1 1:1 2:1 3:0 4:0 5:0 6:0 7:1 8:1 9:1 10:1 11:1 12:0 13:1 14:1 15:1 16:1 17:0 18:1 19:1 20:0 21:1 22:1 23:0 24:1 25:1 26:0 27:1 28:1 29:1 30:1 31:0 32:0 33:1 34:1 35:1 36:16 
512 0:0 1:1 2:1 3:1 4:1 5:0 6:1 7:1 8:1 9:1 10:1 11:1 12:1 13:1 14:1 15:1 16:1 17:0 18:0 19:0 20:1 21:1 22:0 23:1 24:1 25:1 26:1 27:1 28:0 29:1 30:0 31:0 32:0 33:0 34:0 35:1 36:77 
512 0:1 1:0 2:0 3:0 4:0 5:1 6:1 7:1 8:1 9:1 10:1 11:1 12:0 13:0 14:1 15:0 16:0 17:0 18:0 19:0 20:1 21:1 22:0 23:1 24:0 25:0 26:0 27:0 28:0 29:1 30:0 31:0 32:0 33:0 34:0 35:0 36:26 
512 0:0 1:0 2:0 3:0 4:1 5:0 6:1 7:1 8:1 9:1 10:1 11:1 12:1 13:1 14:1 15:1 16:0 17:0 18:1 19:0 20:0 21:1 22:0 23:1 24:1 25:1 26:0 27:0 28:1 29:0 30:1 31:0 32:0 33:0 34:0 35:0 36:47 
512 0:1 1:1 2:1 3:1 4:1 5:0 6:1 7:1 8:0 9:1 10:1 11:1 12:1 13:1 14:1 15:0 16:0 17:0 18:1 19:1 20:0 21:1 22:1 23:1 24:1 25:1 26:1 27:1 28:0 29:1 30:1 31:0 32:0 33:1 34:0 35:0 36:49 
512 0:1 1:1 2:1 3:1 4:0 5:0 6:1 7:1 8:0 9:0 10:1 11:1 12:0 13:1 14:1 15:1 16:1 17:0 18:1 19:0 20:0 21:1 22:1 23:1 24:1 25:1 26:1 27:1 28:1 29:1 30:0 31:0 32:0 33:0 34:0 35:0 36:11 
512 0:1 1:0 2:1 3:0 4:0 5:0 6:0 7:1 8:0 9:1 10:0 11:1 12:1 13:1 14:1 15:1 16:0 17:0 18:1 19:1 20:1 21:0 22:0 23:1 24:0 25:1 26:1 27:0 28:0 29:1 30:1 31:0 32:1 33:1 34:1 35:0 36:10 
512 0:1 1:1 2:1 3:1 4:1 5:0 6:0 7:1 8:1 9:0 10:1 11:1 12:0 13:1 14:1 15:0 16:0 17:0 18:0 19:0 20:1 21:1 22:0 23:0 24:0 25:1 26:0 27:1 28:0 29:1 30:1 31:0 32:0 33:1 34:0 35:1 36:33 
458.5783679559801 0:1 1:0 2:1 3:0 4:0 5:0 6:1 7:1 8:1 9:1 10:1 11:1 12:1 13:1 14:1 15:0 16:0 17:0 18:0 19:0 20:0 21:1 22:0 23:0 24:1 25:0 26:0 27:0 28:0 29:1 30:1 31:1 32:0 33:1 34:0 35:1 36:21 
512 0:1 1:1 2:0 3:1 4:1 5:1 6:0 7:1 8:1 9:1 10:1 11:1 12:1 13:1 14:1 15:0 16:1 17:1 18:1 19:0 20:0 21:1 22:0 23:0 24:0 25:1 26:0 27:1 28:1 29:0 30:0 31:0 32:0 33:0 34:0 35:0 36:56 
512 0:1 1:0 2:0 3:1 4:0 5:0 6:1 7:1 8:0 9:1 10:1 11:1 12:1 13:1 14:1 15:1 16:0 17:0 18:0 19:0 20:0 21:0 22:0 23:0 24:1 25:1 26:1 27:0 28:0 29:1 30:1 31:0 32:1 33:1 34:0 35:1 36:19 
512 0:1 1:1 2:0 3:1 4:1 5:1 6:1 7:1 8:1 9:1 10:1 11:0 12:1 13:1 14:0 15:0 16:0 17:0 18:1 19:1 20:0 21:1 22:0 23:1 24:1 25:1 26:0 27:1 28:0 29:1 30:1 31:0 32:0 33:1 34:0 35:0 36:65 
512 0:1 1:1 2:0 3:1 4:0 5:0 6:1 7:0 8:1 9:1 10:1 11:0 12:1 13:1 14:1 15:1 16:0 17:0 18:1 19:0 20:0 21:1 22:0 23:0 24:0 25:1 26:1 27:0 28:1 29:1 30:1 31:0 32:0 33:1 34:0 35:0 36:66 
512 0:1 1:1 2:1 3:1 4:1 5:0 6:1 7:1 8:1 9:1 10:0 11:0 12:1 13:0 14:0 15:1 16:0 17:0 18:0 19:0 20:0 21:1 22:0 23:0 24:1 25:1 26:1 27:1 28:1 29:0 30:0 31:1 32:0 33:1 34:0 35:0 36:26 
512 0:1 1:1 2:1 3:0 4:0 5:1 6:0 7:1 8:1 9:1 10:1 11:0 12:0 13:0 14:1 15:0 16:0 17:0 18:1 19:0 20:0 21:0 22:0 23:0 24:0 25:0 26:1 27:0 28:0 29:0 30:1 31:1 32:0 33:0 34:0 35:0 36:49 
512 0:1 1:1 2:1 3:1 4:0 5:0 6:1 7:1 8:0 9:0 10:1 11:1 12:1 13:1 14:1 15:1 16:0 17:0 18:1 19:0 20:0 21:1 22:1 23:1 24:0 25:0 26:0 27:1 28:1 29:1 30:1 31:0 32:0 33:1 34:0 35:0 36:37 
512 0:0 1:0 2:1 3:1 4:1 5:1 6:1 7:1 8:1 9:0 10:0 11:0 12:1 13:1 14:1 15:0 16:0 17:0 18:0 19:1 20:1 21:1 22:0 23:1 24:1 25:1 26:0 27:0 28:0 29:1 30:1 31:0 32:0 33:1 34:0 35:0 36:13 
512 0:0 1:1 2:1 3:0 4:0 5:0 6:1 7:1 8:1 9:0 10:1 11:1 12:1 13:1 14:1 15:1 16:0 17:0 18:0 19:0 20:0 21:1 22:1 23:0 24:1 25:1 26:1 27:1 28:1 29:0 30:1 31:0 32:1 33:0 34:0 35:0 36:24 
512 0:1 1:1 2:1 3:0 4:1 5:0 6:1 7:0 8:1 9:1 10:1 11:1 12:1 13:1 14:0 15:1 16:1 17:0 18:1 19:0 20:0 21:1 22:0 23:1 24:1 25:1 26:0 27:1 28:1 29:0 30:1 31:0 32:0 33:0 34:0 35:0 36:31 
258.8830722827263 0:1 1:1 2:1 3:0 4:0 5:0 6:0 7:1 8:0 9:1 10:1 11:1 12:1 13:0 14:1 15:1 16:0 17:0 18:1 19:0 20:0 21:0 22:1 23:0 24:1 25:0 26:1 27:0 28:1 29:1 30:1 31:1 32:0 33:1 34:1 35:0 36:15 
512 0:1 1:0 2:1 3:1 4:0 5:0 6:1 7:1 8:1 9:0 10:0 11:1 12:1 13:1 14:1 15:0 16:0 17:0 18:1 19:0 20:0 21:1 22:0 23:0 24:0 25:0 26:1 27:1 28:0 29:0 30:1 31:0 32:0 33:0 34:0 35:0 36:35 
512 0:1 1:1 2:0 3:1 4:0 5:1 6:1 7:1 8:0 9:1 10:1 11:1 12:0 13:1 14:1 15:1 16:0 17:1 18:0 19:0 20:0 21:0 22:0 23:0 24:1 25:1 26:1 27:0 28:1 29:1 30:1 31:0 32:0 33:0 34:0 35:0 36:39 
512 0:1 1:1 2:1 3:1 4:0 5:1 6:1 7:0 8:0 9:1 10:1 11:0 12:1 13:1 14:1 15:1 16:1 17:0 18:1 19:0 20:0 21:1 22:1 23:1 24:0 25:1 26:1 27:0 28:1 29:1 30:1 31:0 32:1 33:1 34:1 35:0 36:18 
512 0:1 1:1 2:0 3:1 4:0 5:1 6:0 7:1 8:1 9:1 10:1 11:1 12:0 13:0 14:0 15:0 16:0 17:0 18:1 19:1 20:0 21:1 22:0 23:1 24:0 25:0 26:0 27:1 28:0 29:1 30:1 31:0 32:0 33:1 34:0 35:0 36:33 
512 0:0 1:1 2:1 3:1 4:0 5:0 6:1 7:1 8:1 9:1 10:1 11:1 12:1 13:1 14:1 15:1 16:0 17:0 18:0 19:0 20:0 21:1 22:0 23:1 24:1 25:1 26:1 27:0 28:1 29:1 30:0 31:0 32:0 33:1 34:0 35:1 36:46 
512 0:1 1:0 2:1 3:1 4:0 5:0 6:1 7:1 8:1 9:0 10:1 11:0 12:1 13:0 14:0 15:0 16:0 17:0 18:1 19:0 20:0 21:0 22:0 23:0 24:0 25:0 26:0 27:1 28:0 29:1 30:1 31:1 32:0 33:1 34:1 35:0 36:36 
512 0:1 1:1 2:1 3:1 4:0 5:0 6:1 7:1 8:0 9:1 10:1 11:1 12:1 13:1 14:1 15:1 16:1 17:0 18:1 19:0 20:0 21:1 22:0 23:0 24:0 25:0 26:1 27:1 28:0 29:1 30:1 31:0 32:0 33:1 34:0 35:1 36:35 
512 0:1 1:1 2:1 3:1 4:0 5:0 6:1 7:0 8:1 9:1 10:1 11:0 12:1 13:1 14:1 15:1 16:1 17:0 18:1 19:1 20:1 21:0 22:1 23:0 24:1 25:0 26:1 27:0 28:1 29:1 30:0 31:0 32:0 33:1 34:1 35:1 36:9 
512 0:1 1:0 2:0 3:1 4:0 5:0 6:1 7:0 8:1 9:0 10:1 11:1 12:1 13:1 14:1 15:0 16:1 17:0 18:1 19:0 20:0 21:1 22:0 23:0 24:0 25:0 26:0 27:1 28:1 29:0 30:0 31:1 32:0 33:1 34:0 35:1 36:66 
512 0:1 1:1 2:0 3:1 4:1 5:0 6:1 7:1 8:1 9:0 10:0 11:1 12:0 13:0 14:0 15:0 16:0 17:0 18:1 19:1 20:1 21:1 22:1 23:1 24:0 25:1 26:1 27:1 28:0 29:1 30:1 31:1 32:0 33:0 34:0 35:0 36:16 
512 0:1 1:1 2:1 3:1 4:0 5:0 6:1 7:1 8:1 9:1 10:1 11:1 12:1 13:0 14:1 15:0 16:0 17:0 18:1 19:0 20:0 21:0 22:1 23:0 24:1 25:0 26:1 27:0 28:1 29:0 30:1 31:1 32:0 33:1 34:1 35:0 36:40 
512 0:0 1:1 2:1 3:1 4:1 5:1 6:1 7:1 8:1 9:1 10:0 11:0 12:1 13:0 14:1 15:0 16:0 17:1 18:0 19:1 20:1 21:1 22:0 23:1 24:0 25:1 26:1 27:1 28:0 29:1 30:1 31:0 32:0 33:0 34:1 35:0 36:20 
512 0:1 1:0 2:0 3:1 4:1 5:1 6:1 7:1 8:1 9:1 10:1 11:1 12:1 13:1 14:1 15:1 16:0 17:1 18:1 19:0 20:1 21:1 22:1 23:0 24:1 25:1 26:0 27:1 28:1 29:0 30:0 31:0 32:0 33:0 34:0 35:0 36:6 
512 0:1 1:0 2:1 3:0 4:1 5:1 6:1 7:1 8:1 9:1 10:1 11:1 12:0 13:1 14:1 15:0 16:0 17:0 18:0 19:0 20:0 21:1 22:0 23:0 24:0 25:0 26:1 27:0 28:0 29:1 30:0 31:0 32:0 33:0 34:0 35:0 36:10 
512 0:1 1:0 2:1 3:1 4:0 5:1 6:0 7:0 8:1 9:1 10:1 11:1 12:1 13:1 14:1 15:0 16:0 17:1 18:0 19:0 20:0 21:1 22:0 23:0 24:1 25:1 26:1 27:0 28:1 29:0 30:1 31:1 32:0 33:0 34:1 35:0 36:44 
512 0:1 1:1 2:1 3:0 4:0 5:0 6:1 7:1 8:1 9:1 10:1 11:1 12:1 13:1 14:1 15:0 16:0 17:0 18:1 19:1 20:0 21:1 22:0 23:1 24:0 25:1 26:1 27:1 28:0 29:0 30:1 31:1 32:0 33:1 34:1 35:0 36:31 
512 0:1 1:1 2:1 3:1 4:0 5:0 6:1 7:1 8:1 9:0 10:1 11:0 12:1 13:1 14:1 15:1 16:0 17:0 18:1 19:0 20:0 21:1 22:0 23:0 24:1 25:1 26:0 27:0 28:1 29:1 30:0 31:0 32:0 33:0 34:1 35:0 36:44 
512 0:1 1:1 2:1 3:1 4:0 5:0 6:1 7:0 8:1 9:1 10:1 11:1 12:1 13:0 14:1 15:1 16:1 17:0 18:1 19:0 20:0 21:1 22:1 23:0 24:0 25:1 26:0 27:0 28:1 29:0 30:1 31:0 32:0 33:1 34:0 35:0 36:40 
512 0:1 1:1 2:1 3:0 4:0 5:0 6:1 7:1 8:0 9:0 10:1 11:1 12:1 13:1 14:1 15:0 16:0 17:0 18:1 19:0 20:0 21:0 22:0 23:1 24:1 25:1 26:1 27:1 28:0 29:1 30:0 31:0 32:0 33:1 34:0 35:0 36:96 
512 0:0 1:1 2:1 3:1 4:1 5:0 6:1 7:1 8:1 9:0 10:1 11:0 12:0 13:1 14:1 15:0 16:0 17:0 18:1 19:0 20:0 21:1 22:0 23:1 24:1 25:1 26:1 27:0 28:1 29:0 30:1 31:1 32:0 33:1 34:1 35:0 36:78 
512 0:0 1:1 2:1 3:1 4:0 5:0 6:0 7:1 8:1 9:1 10:1 11:0 12:0 13:1 14:1 15:1 16:0 17:0 18:1 19:1 20:1 21:0 22:0 23:0 24:0 25:0 26:1 27:1 28:1 29:0 30:1 31:0 32:0 33:1 34:0 35:0 36:28 
512 0:1 1:1 2:1 3:1 4:0 5:0 6:0 7:0 8:1 9:0 10:1 11:1 12:0 13:1 14:1 15:1 16:0 17:0 18:0 19:0 20:0 21:1 22:0 23:0 24:1 25:1 26:1 27:1 28:1 29:1 30:0 31:0 32:0 33:0 34:0 35:0 36:74 
512 0:0 1:1 2:1 3:1 4:0 5:0 6:1 7:0 8:0 9:0 10:0 11:0 12:1 13:1 14:1 15:1 16:1 17:1 18:0 19:0 20:0 21:1 22:1 23:0 24:0 25:1 26:1 27:1 28:1 29:0 30:0 31:0 32:0 33:1 34:1 35:0 36:21 
512 0:1 1:1 2:0 3:1 4:0 5:0 6:1 7:1 8:1 9:0 10:1 11:0 12:0 13:1 14:1 15:1 16:0 17:0 18:1 19:1 20:1 21:1 22:0 23:1 24:0 25:1 26:0 27:1 28:0 29:1 30:0 31:0 32:0 33:1 34:0 35:0 36:32 
512 0:1 1:0 2:1 3:1 4:0 5:1 6:1 7:1 8:1 9:1 10:0 11:0 12:1 13:0 14:1 15:1 16:0 17:0 18:0 19:0 20:0 21:1 22:0 23:0 24:0 25:1 26:1 27:0 28:0 29:0 30:1 31:1 32:0 33:0 34:0 35:0 36:29 
512 0:1 1:1 2:1 3:0 4:0 5:0 6:1 7:1 8:1 9:0 10:0 11:1 12:1 13:1 14:1 15:1 16:0 17:0 18:1 19:0 20:0 21:1 22:0 23:0 24:0 25:0 26:1 27:1 28:1 29:0 30:0 31:1 32:0 33:1 34:1 35:0 36:68 
79.05231979909878 0:1 1:1 2:0 3:1 4:0 5:0 6:1 7:1 8:1 9:1 10:1 11:1 12:1 13:1 14:0 15:1 16:1 17:0 18:1 19:1 20:0 21:1 22:0 23:1 24:1 25:0 26:0 27:0 28:0 29:1 30:1 31:0 32:0 33:0 34:1 35:1 36:9 
512 0:1 1:1 2:0 3:1 4:0 5:0 6:1 7:1 8:0 9:1 10:1 11:1 12:0 13:0 14:1 15:1 16:1 17:1 18:1 19:0 20:1 21:0 22:0 23:1 24:0 25:1 26:0 27:0 28:0 29:1 30:1 31:1 32:0 33:0 34:0 35:0 36:11 
512 0:1 1:1 2:0 3:1 4:1 5:1 6:1 7:1 8:1 9:0 10:0 11:1 12:1 13:1 14:1 15:1 16:0 17:0 18:1 19:0 20:0 21:1 22:0 23:0 24:1 25:1 26:1 27:0 28:0 29:1 30:0 31:0 32:0 33:1 34:1 35:0 36:33 
512 0:1 1:0 2:1 3:0 4:0 5:0 6:1 7:1 8:1 9:0 10:1 11:0 12:1 13:0 14:1 15:1 16:1 17:0 18:1 19:0 20:0 21:1 22:0 23:0 24:1 25:1 26:1 27:0 28:1 29:1 30:0 31:0 32:0 33:0 34:1 35:0 36:50 
512 0:1 1:0 2:1 3:1 4:1 5:0 6:1 7:1 8:1 9:1 10:1 11:1 12:1 13:1 14:1 15:0 16:0 17:0 18:0 19:0 20:0 21:1 22:0 23:0 24:1 25:0 26:1 27:1 28:1 29:0 30:1 31:1 32:1 33:0 34:1 35:1 36:15 
512 0:1 1:1 2:1 3:1 4:0 5:0 6:1 7:0 8:0 9:1 10:1 11:1 12:1 13:1 14:1 15:1 16:0 17:0 18:1 19:1 20:1 21:1 22:0 23:0 24:0 25:1 26:1 27:1 28:0 29:0 30:0 31:0 32:0 33:1 34:1 35:0 36:43 
512 0:1 1:0 2:1 3:1 4:0 5:0 6:1 7:1 8:1 9:0 10:1 11:1 12:0 13:1 14:1 15:0 16:0 17:0 18:1 19:1 20:1 21:1 22:0 23:1 24:1 25:1 26:0 27:1 28:0 29:1 30:1 31:0 32:0 33:1 34:0 35:0 36:26 
512 0:1 1:1 2:0 3:1 4:1 5:1 6:1 7:1 8:1 9:1 10:1 11:1 12:1 13:1 14:1 15:1 16:1 17:0 18:1 19:0 20:0 21:1 22:0 23:0 24:0 25:0 26:1 27:0 28:1 29:1 30:1 31:1 32:0 33:1 34:1 35:0 36:112 
512 0:1 1:1 2:0 3:0 4:0 5:0 6:1 7:0 8:1 9:1 10:1 11:1 12:1 13:1 14:1 15:0 16:0 17:0 18:1 19:1 20:0 21:1 22:0 23:1 24:1 25:1 26:0 27:0 28:0 29:0 30:1 31:0 32:0 33:1 34:0 35:0 36:19 
512 0:0 1:0 2:0 3:1 4:0 5:1 6:0 7:1 8:1 9:1 10:1 11:1 12:1 13:1 14:1 15:0 16:1 17:0 18:0 19:0 20:0 21:1 22:0 23:0 24:1 25:1 26:0 27:0 28:1 29:1 30:0 31:0 32:0 33:0 34:0 35:0 36:33 
512 0:1 1:1 2:0 3:0 4:0 5:0 6:1 7:1 8:1 9:0 10:1 11:1 12:1 13:1 14:1 15:0 16:0 17:0 18:1 19:1 20:0 21:1 22:1 23:1 24:0 25:1 26:1 27:0 28:1 29:1 30:1 31:0 32:0 33:0 34:0 35:0 36:5 
512 0:0 1:1 2:1 3:1 4:0 5:0 6:1 7:1 8:1 9:1 10:1 11:0 12:1 13:1 14:1 15:0 16:0 17:1 18:1 19:0 20:0 21:0 22:1 23:0 24:1 25:1 26:0 27:0 28:0 29:1 30:0 31:0 32:1 33:1 34:0 35:1 36:31 
512 0:1 1:1 2:1 3:0 4:0 5:0 6:1 7:1 8:1 9:1 10:0 11:1 12:1 13:1 14:1 15:1 16:0 17:0 18:0 19:0 20:0 21:1 22:1 23:0 24:0 25:0 26:1 27:0 28:1 29:1 30:1 31:0 32:0 33:0 34:1 35:0 36:57 
512 0:0 1:0 2:1 3:1 4:1 5:1 6:1 7:1 8:1 9:1 10:1 11:1 12:0 13:1 14:0 15:0 16:0 17:0 18:1 19:0 20:0 21:0 22:0 23:0 24:1 25:0 26:1 27:0 28:0 29:1 30:1 31:0 32:0 33:1 34:0 35:0 36:13 
386.7144040720396 0:1 1:1 2:0 3:0 4:0 5:0 6:0 7:1 8:1 9:0 10:1 11:1 12:1 13:1 14:1 15:1 16:1 17:0 18:1 19:1 20:1 21:1 22:0 23:0 24:1 25:1 26:0 27:1 28:0 29:0 30:0 31:1 32:1 33:1 34:0 35:1 36:13 
512 0:1 1:1 2:1 3:1 4:0 5:0 6:1 7:1 8:1 9:1 10:1 11:1 12:1 13:1 14:1 15:1 16:1 17:0 18:1 19:0 20:0 21:1 22:0 23:0 24:1 25:1 26:1 27:1 28:1 29:0 30:1 31:1 32:1 33:1 34:0 35:0 36:55 
512 0:1 1:1 2:1 3:1 4:0 5:0 6:0 7:1 8:1 9:0 10:1 11:1 12:1 13:1 14:1 15:0 16:0 17:0 18:1 19:0 20:0 21:1 22:0 23:1 24:1 25:0 26:0 27:1 28:0 29:1 30:1 31:0 32:0 33:1 34:0 35:0 36:31 
512 0:1 1:1 2:0 3:1 4:0 5:0 6:1 7:0 8:1 9:1 10:1 11:1 12:1 13:0 14:0 15:1 16:0 17:1 18:1 19:0 20:0 21:1 22:0 23:0 24:1 25:1 26:1 27:1 28:0 29:1 30:1 31:0 32:0 33:1 34:0 35:0 36:34 
512 0:0 1:1 2:1 3:1 4:1 5:1 6:1 7:0 8:1 9:0 10:0 11:0 12:1 13:1 14:1 15:1 16:0 17:0 18:1 19:0 20:0 21:0 22:0 23:1 24:1 25:1 26:0 27:0 28:1 29:1 30:1 31:0 32:0 33:0 34:0 35:0 36:17 
512 0:1 1:1 2:1 3:1 4:0 5:1 6:1 7:1 8:1 9:1 10:0 11:1 12:0 13:1 14:1 15:1 16:0 17:0 18:1 19:0 20:0 21:1 22:0 23:0 24:0 25:0 26:0 27:1 28:1 29:1 30:1 31:0 32:0 33:1 34:0 35:0 36:34 
512 0:1 1:1 2:1 3:1 4:1 5:0 6:0 7:1 8:1 9:0 10:0 11:0 12:0 13:1 14:1 15:1 16:1 17:0 18:1 19:0 20:0 21:1 22:0 23:0 24:0 25:1 26:1 27:1 28:1 29:1 30:0 31:0 32:0 33:1 34:0 35:0 36:143 
512 0:1 1:1 2:1 3:1 4:0 5:0 6:1 7:0 8:0 9:1 10:1 11:0 12:1 13:1 14:0 15:1 16:0 17:0 18:1 19:1 20:1 21:0 22:0 23:0 24:1 25:1 26:1 27:0 28:0 29:1 30:1 31:0 32:0 33:0 34:0 35:0 36:40 
512 0:1 1:1 2:1 3:1 4:0 5:0 6:0 7:1 8:1 9:1 10:1 11:0 12:1 13:1 14:1 15:0 16:0 17:0 18:1 19:0 20:0 21:0 22:0 23:0 24:0 25:0 26:0 27:1 28:1 29:1 30:1 31:1 32:1 33:1 34:1 35:1 36:51 
512 0:1 1:0 2:1 3:1 4:0 5:0 6:0 7:1 8:1 9:0 10:1 11:1 12:1 13:0 14:0 15:0 16:0 17:0 18:0 19:0 20:1 21:1 22:1 23:0 24:0 25:0 26:0 27:1 28:1 29:1 30:0 31:0 32:1 33:1 34:0 35:0 36:39 
512 0:1 1:0 2:1 3:1 4:0 5:1 6:1 7:1 8:1 9:1 10:1 11:1 12:1 13:1 14:0 15:0 16:0 17:0 18:0 19:0 20:0 21:1 22:1 23:0 24:1 25:1 26:1 27:1 28:0 29:1 30:1 31:0 32:1 33:0 34:0 35:0 36:89 
512 0:1 1:1 2:0 3:0 4:1 5:0 6:1 7:0 8:0 9:1 10:1 11:1 12:0 13:1 14:0 15:1 16:0 17:0 18:1 19:1 20:0 21:0 22:0 23:1 24:1 25:1 26:1 27:1 28:1 29:1 30:0 31:1 32:0 33:0 34:1 35:1 36:19 
512 0:0 1:1 2:1 3:0 4:0 5:0 6:1 7:1 8:1 9:1 10:1 11:1 12:1 13:0 14:1 15:1 16:1 17:0 18:0 19:0 20:0 21:1 22:0 23:1 24:0 25:0 26:0 27:1 28:0 29:1 30:1 31:1 32:0 33:1 34:0 35:0 36:47 
512 0:1 1:1 2:1 3:1 4:0 5:0 6:1 7:1 8:1 9:1 10:1 11:1 12:1 13:1 14:0 15:1 16:0 17:0 18:1 19:0 20:0 21:1 22:1 23:1 24:0 25:0 26:1 27:1 28:0 29:1 30:0 31:0 32:0 33:1 34:0 35:0 36:42 
512 0:1 1:1 2:1 3:0 4:0 5:0 6:1 7:1 8:1 9:0 10:1 11:1 12:1 13:0 14:1 15:0 16:0 17:0 18:1 19:0 20:0 21:1 22:0 23:0 24:1 25:1 26:1 27:0 28:1 29:0 30:0 31:0 32:0 33:0 34:0 35:0 36:60 
512 0:1 1:1 2:0 3:0 4:0 5:0 6:1 7:0 8:1 9:1 10:0 11:0 12:1 13:1 14:1 15:0 16:0 17:0 18:1 19:0 20:0 21:1 22:0 23:1 24:1 25:1 26:0 27:0 28:0 29:1 30:0 31:0 32:0 33:0 34:0 35:1 36:76 
512 0:1 1:1 2:1 3:0 4:1 5:0 6:1 7:1 8:1 9:1 10:1 11:0 12:0 13:1 14:1 15:0 16:0 17:0 18:1 19:0 20:0 21:1 22:0 23:0 24:1 25:1 26:1 27:0 28:1 29:0 30:0 31:1 32:0 33:1 34:0 35:0 36:122 
512 0:1 1:0 2:1 3:1 4:1 5:0 6:1 7:0 8:1 9:1 10:1 11:1 12:0 13:1 14:1 15:1 16:1 17:0 18:1 19:0 20:0 21:0 22:0 23:0 24:1 25:1 26:0 27:1 28:1 29:0 30:0 31:0 32:0 33:0 34:0 35:0 36:68 
512 0:0 1:1 2:1 3:1 4:1 5:0 6:1 7:0 8:0 9:1 10:1 11:0 12:1 13:1 14:1 15:0 16:0 17:0 18:1 19:1 20:0 21:1 22:0 23:0 24:1 25:1 26:1 27:0 28:0 29:1 30:1 31:0 32:0 33:0 34:0 35:0 36:12 
512 0:0 1:1 2:1 3:0 4:0 5:0 6:1 7:1 8:1 9:1 10:0 11:0 12:1 13:1 14:1 15:1 16:1 17:1 18:0 19:0 20:0 21:1 22:0 23:0 24:1 25:0 26:0 27:1 28:0 29:0 30:0 31:1 32:0 33:1 34:0 35:0 36:33 
512 0:1 1:1 2:1 3:1 4:0 5:0 6:1 7:1 8:1 9:1 10:1 11:0 12:1 13:1 14:1 15:1 16:0 17:0 18:1 19:0 20:0 21:1 22:1 23:1 24:1 25:1 26:1 27:1 28:0 29:0 30:0 31:0 32:0 33:0 34:1 35:0 36:24 
512 0:1 1:1 2:1 3:0 4:1 5:1 6:1 7:1 8:0 9:1 10:1 11:1 12:1 13:1 14:0 15:1 16:1 17:0 18:0 19:0 20:1 21:1 22:0 23:0 24:1 25:0 26:1 27:1 28:0 29:1 30:0 31:0 32:0 33:1 34:0 35:1 36:43 
512 0:1 1:0 2:1 3:1 4:1 5:0 6:1 7:1 8:1 9:1 10:1 11:1 12:1 13:1 14:1 15:0 16:1 17:0 18:1 19:0 20:1 21:1 22:0 23:0 24:1 25:0 26:1 27:0 28:0 29:1 30:0 31:0 32:0 33:1 34:0 35:0 36:17 
512 0:0 1:1 2:1 3:1 4:0 5:0 6:1 7:0 8:1 9:1 10:1 11:1 12:1 13:1 14:1 15:1 16:0 17:0 18:0 19:0 20:0 21:1 22:0 23:1 24:1 25:1 26:1 27:1 28:0 29:1 30:1 31:1 32:1 33:1 34:0 35:0 36:43 
512 0:0 1:1 2:0 3:1 4:0 5:0 6:0 7:1 8:1 9:1 10:1 11:0 12:1 13:1 14:1 15:1 16:0 17:0 18:1 19:0 20:1 21:1 22:0 23:1 24:1 25:1 26:1 27:0 28:1 29:1 30:1 31:0 32:0 33:1 34:0 35:0 36:45 
114.354549804697 0:1 1:0 2:1 3:0 4:0 5:0 6:0 7:0 8:1 9:0 10:1 11:0 12:1 13:1 14:1 15:0 16:0 17:0 18:1 19:0 20:0 21:1 22:0 23:0 24:1 25:0 26:0 27:1 28:1 29:0 30:1 31:0 32:0 33:1 34:0 35:0 36:23 
512 0:1 1:1 2:1 3:1 4:0 5:0 6:1 7:1 8:0 9:1 10:0 11:1 12:1 13:1 14:1 15:1 16:0 17:0 18:1 19:0 20:1 21:1 22:1 23:1 24:0 25:1 26:1 27:1 28:1 29:0 30:1 31:1 32:0 33:1 34:1 35:0 36:37 
512 0:1 1:1 2:0 3:0 4:0 5:0 6:1 7:1 8:1 9:1 10:1 11:1 12:0 13:1 14:1 15:0 16:0 17:0 18:1 19:0 20:0 21:1 22:1 23:0 24:1 25:0 26:1 27:1 28:1 29:1 30:1 31:0 32:0 33:1 34:0 35:0 36:38 
512 0:1 1:1 2:1 3:1 4:0 5:1 6:1 7:0 8:1 9:0 10:1 11:1 12:1 13:0 14:1 15:0 16:0 17:0 18:0 19:0 20:1 21:1 22:0 23:0 24:1 25:1 26:1 27:0 28:1 29:0 30:0 31:0 32:0 33:1 34:1 35:0 36:17 
512 0:1 1:1 2:1 3:1 4:0 5:0 6:0 7:1 8:1 9:0 10:1 11:1 12:0 13:1 14:1 15:0 16:0 17:0 18:1 19:0 20:0 21:0 22:0 23:0 24:0 25:1 26:1 27:1 28:1 29:1 30:1 31:0 32:0 33:1 34:0 35:1 36:35 
512 0:0 1:1 2:1 3:0 4:0 5:1 6:1 7:1 8:1 9:1 10:0 11:1 12:0 13:1 14:0 15:1 16:1 17:0 18:1 19:0 20:0 21:1 22:0 23:0 24:1 25:1 26:1 27:1 28:1 29:1 30:0 31:0 32:0 33:1 34:0 35:0 36:24 
512 0:1 1:0 2:1 3:0 4:0 5:1 6:1 7:1 8:0 9:0 10:1 11:1 12:0 13:1 14:1 15:0 16:0 17:0 18:1 19:0 20:0 21:1 22:0 23:0 24:1 25:1 26:1 27:0 28:0 29:0 30:1 31:1 32:0 33:0 34:0 35:0 36:53 
512 0:1 1:0 2:1 3:1 4:0 5:0 6:1 7:0 8:1 9:0 10:1 11:1 12:1 13:1 14:1 15:0 16:0 17:0 18:1 19:0 20:0 21:1 22:0 23:1 24:1 25:1 26:1 27:0 28:0 29:0 30:0 31:1 32:0 33:0 34:1 35:0 36:36 
512 0:1 1:1 2:1 3:1 4:1 5:0 6:1 7:1 8:1 9:0 10:1 11:1 12:1 13:1 14:1 15:1 16:1 17:0 18:0 19:0 20:1 21:1 22:0 23:1 24:1 25:1 26:1 27:0 28:0 29:1 30:1 31:0 32:0 33:0 34:0 35:0 36:43 
512 0:1 1:0 2:1 3:1 4:1 5:0 6:0 7:1 8:1 9:1 10:1 11:1 12:1 13:1 14:0 15:1 16:1 17:0 18:0 19:0 20:0 21:1 22:0 23:0 24:0 25:1 26:1 27:1 28:1 29:0 30:0 31:1 32:1 33:1 34:0 35:0 36:63 
512 0:0 1:1 2:0 3:1 4:0 5:1 6:1 7:1 8:0 9:0 10:0 11:1 12:1 13:1 14:0 15:0 16:0 17:0 18:1 19:0 20:0 21:1 22:0 23:0 24:1 25:1 26:1 27:1 28:1 29:1 30:1 31:0 32:0 33:0 34:0 35:1 36:14 
512 0:0 1:1 2:1 3:1 4:1 5:0 6:1 7:1 8:1 9:0 10:0 11:1 12:1 13:1 14:0 15:0 16:0 17:1 18:1 19:0 20:0 21:1 22:0 23:1 24:0 25:1 26:1 27:1 28:0 29:1 30:1 31:1 32:0 33:1 34:0 35:0 36:33 
512 0:1 1:1 2:1 3:1 4:0 5:0 6:1 7:1 8:1 9:1 10:1 11:1 12:0 13:1 14:1 15:1 16:1 17:0 18:1 19:0 20:0 21:1 22:0 23:0 24:0 25:1 26:1 27:1 28:1 29:1 30:0 31:0 32:0 33:0 34:1 35:0 36:48 
512 0:1 1:1 2:1 3:0 4:0 5:0 6:1 7:1 8:1 9:0 10:1 11:1 12:1 13:0 14:1 15:0 16:0 17:0 18:1 19:0 20:0 21:1 22:1 23:0 24:1 25:1 26:0 27:0 28:0 29:0 30:1 31:0 32:0 33:0 34:0 35:0 36:28 
512 0:1 1:0 2:1 3:1 4:1 5:1 6:1 7:1 8:1 9:1 10:0 11:1 12:0 13:1 14:1 15:0 16:0 17:0 18:1 19:0 20:1 21:1 22:1 23:0 24:0 25:0 26:1 27:1 28:0 29:0 30:0 31:0 32:1 33:0 34:0 35:0 36:17 
512 0:1 1:0 2:1 3:1 4:0 5:0 6:1 7:1 8:1 9:1 10:1 11:0 12:1 13:1 14:1 15:1 16:0 17:0 18:1 19:1 20:0 21:1 22:0 23:0 24:0 25:1 26:1 27:1 28:0 29:1 30:0 31:0 32:1 33:0 34:0 35:0 36:28 
512 0:1 1:0 2:1 3:1 4:0 5:1 6:0 7:1 8:1 9:1 10:1 11:1 12:1 13:1 14:1 15:0 16:1 17:0 18:0 19:0 20:1 21:0 22:0 23:1 24:0 25:1 26:1 27:1 28:1 29:1 30:1 31:1 32:0 33:0 34:1 35:0 36:21 
512 0:1 1:1 2:1 3:1 4:0 5:1 6:1 7:1 8:1 9:1 10:1 11:1 12:0 13:1 14:0 15:0 16:0 17:0 18:1 19:0 20:0 21:1 22:0 23:0 24:1 25:1 26:1 27:1 28:0 29:1 30:0 31:1 32:1 33:1 34:0 35:1 36:45 
512 0:0 1:1 2:1 3:1 4:1 5:0 6:1 7:1 8:1 9:1 10:1 11:1 12:1 13:1 14:1 15:1 16:1 17:0 18:0 19:0 20:0 21:1 22:0 23:1 24:1 25:1 26:1 27:0 28:0 29:0 30:0 31:0 32:0 33:1 34:0 35:0 36:60 
512 0:1 1:1 2:1 3:1 4:0 5:0 6:1 7:1 8:1 9:0 10:1 11:1 12:1 13:1 14:1 15:1 16:1 17:1 18:1 19:1 20:0 21:1 22:0 23:1 24:1 25:1 26:1 27:1 28:0 29:1 30:1 31:0 32:0 33:0 34:1 35:0 36:27 
512 0:0 1:1 2:0 3:0 4:0 5:0 6:1 7:1 8:1 9:1 10:1 11:1 12:1 13:0 14:0 15:0 16:0 17:1 18:0 19:0 20:0 21:1 22:1 23:1 24:0 25:0 26:1 27:1 28:1 29:1 30:1 31:0 32:0 33:1 34:0 35:0 36:10 
512 0:0 1:1 2:1 3:1 4:0 5:0 6:1 7:1 8:0 9:1 10:1 11:1 12:0 13:1 14:1 15:0 16:1 17:1 18:1 19:1 20:0 21:1 22:0 23:1 24:1 25:0 26:1 27:1 28:1 29:1 30:0 31:0 32:0 33:1 34:0 35:1 36:5 
512 0:1 1:0 2:1 3:1 4:0 5:1 6:1 7:1 8:1 9:1 10:1 11:1 12:1 13:1 14:1 15:0 16:0 17:0 18:1 19:0 20:0 21:1 22:0 23:0 24:1 25:1 26:1 27:1 28:1 29:1 30:1 31:0 32:1 33:0 34:0 35:0 36:50 
512 0:1 1:0 2:1 3:1 4:1 5:0 6:1 7:1 8:1 9:1 10:1 11:1 12:0 13:0 14:1 15:0 16:0 17:0 18:1 19:0 20:0 21:0 22:0 23:1 24:0 25:1 26:1 27:0 28:0 29:0 30:1 31:1 32:0 33:0 34:0 35:0 36:9 
512 0:1 1:1 2:1 3:0 4:0 5:0 6:0 7:1 8:1 9:0 10:0 11:0 12:1 13:1 14:1 15:1 16:0 17:1 18:0 19:0 20:0 21:1 22:0 23:1 24:1 25:0 26:0 27:1 28:1 29:0 30:0 31:0 32:0 33:1 34:0 35:0 36:41 
512 0:1 1:0 2:0 3:1 4:0 5:1 6:1 7:1 8:0 9:0 10:0 11:1 12:0 13:1 14:0 15:0 16:0 17:0 18:1 19:0 20:0 21:1 22:0 23:1 24:0 25:1 26:1 27:0 28:0 29:1 30:1 31:1 32:0 33:1 34:0 35:0 36:28 
512 0:1 1:1 2:1 3:0 4:0 5:0 6:0 7:1 8:1 9:1 10:1 11:1 12:1 13:0 14:0 15:1 16:0 17:1 18:1 19:0 20:0 21:1 22:0 23:0 24:0 25:1 26:1 27:1 28:1 29:1 30:0 31:0 32:0 33:1 34:0 35:0 36:34 
512 0:0 1:1 2:1 3:0 4:0 5:0 6:1 7:0 8:0 9:1 10:1 11:0 12:1 13:1 14:1 15:1 16:0 17:0 18:1 19:0 20:1 21:0 22:0 23:0 24:0 25:1 26:1 27:0 28:1 29:0 30:0 31:0 32:0 33:0 34:1 35:1 36:13 
512 0:1 1:1 2:0 3:1 4:0 5:0 6:0 7:1 8:1 9:1 10:1 11:1 12:0 13:1 14:1 15:0 16:0 17:0 18:1 19:1 20:0 21:1 22:1 23:0 24:1 25:1 26:0 27:1 28:1 29:0 30:0 31:0 32:1 33:1 34:0 35:1 36:61 
512 0:1 1:1 2:1 3:1 4:1 5:0 6:0 7:1 8:0 9:1 10:0 11:0 12:0 13:1 14:0 15:0 16:1 17:0 18:1 19:0 20:0 21:0 22:0 23:0 24:1 25:1 26:1 27:0 28:1 29:0 30:1 31:1 32:1 33:1 34:1 35:0 36:24 
512 0:1 1:1 2:0 3:1 4:0 5:0 6:0 7:0 8:1 9:1 10:1 11:0 12:1 13:1 14:1 15:1 16:0 17:0 18:0 19:0 20:0 21:1 22:1 23:0 24:0 25:0 26:0 27:1 28:1 29:0 30:1 31:0 32:0 33:0 34:0 35:0 36:28 
512 0:0 1:1 2:0 3:1 4:0 5:0 6:1 7:1 8:1 9:0 10:1 11:1 12:0 13:1 14:1 15:1 16:0 17:0 18:0 19:0 20:0 21:1 22:1 23:0 24:1 25:0 26:1 27:0 28:1 29:1 30:0 31:1 32:1 33:1 34:0 35:0 36:32 
512 0:1 1:1 2:1 3:0 4:1 5:1 6:1 7:0 8:1 9:1 10:1 11:1 12:1 13:0 14:1 15:1 16:1 17:0 18:1 19:0 20:0 21:1 22:1 23:0 24:0 25:0 26:1 27:0 28:1 29:0 30:1 31:0 32:0 33:0 34:1 35:0 36:12 
512 0:1 1:0 2:1 3:0 4:0 5:0 6:0 7:1 8:1 9:1 10:0 11:0 12:1 13:0 14:1 15:0 16:0 17:0 18:1 19:0 20:0 21:0 22:1 23:0 24:0 25:0 26:0 27:1 28:1 29:1 30:1 31:0 32:0 33:1 34:0 35:1 36:47 
512 0:0 1:1 2:1 3:0 4:0 5:1 6:0 7:0 8:1 9:1 10:1 11:1 12:0 13:1 14:1 15:0 16:0 17:0 18:1 19:0 20:1 21:0 22:0 23:0 24:0 25:0 26:0 27:1 28:0 29:1 30:0 31:0 32:0 33:0 34:0 35:0 36:21 
512 0:1 1:1 2:1 3:1 4:0 5:0 6:1 7:1 8:1 9:1 10:1 11:1 12:1 13:1 14:1 15:1 16:1 17:1 18:1 19:1 20:1 21:0 22:0 23:1 24:1 25:1 26:1 27:0 28:1 29:1 30:1 31:0 32:1 33:1 34:0 35:0 36:28 
512 0:1 1:0 2:1 3:0 4:1 5:0 6:1 7:1 8:1 9:1 10:0 11:0 12:1 13:1 14:1 15:1 16:1 17:1 18:1 19:0 20:0 21:1 22:1 23:0 24:1 25:1 26:1 27:0 28:1 29:1 30:1 31:0 32:0 33:0 34:1 35:0 36:94 
512 0:1 1:1 2:1 3:1 4:0 5:0 6:0 7:1 8:1 9:1 10:1 11:1 12:0 13:0 14:1 15:1 16:1 17:0 18:1 19:0 20:0 21:1 22:0 23:1 24:1 25:1 26:0 27:1 28:1 29:1 30:0 31:0 32:0 33:1 34:1 35:0 36:52 
512 0:0 1:1 2:0 3:1 4:0 5:0 6:1 7:1 8:1 9:1 10:1 11:1 12:0 13:1 14:1 15:0 16:1 17:0 18:1 19:0 20:1 21:1 22:0 23:0 24:0 25:1 26:1 27:0 28:0 29:1 30:0 31:0 32:0 33:1 34:0 35:1 36:33 
512 0:1 1:1 2:1 3:1 4:0 5:0 6:1 7:1 8:0 9:1 10:1 11:1 12:0 13:0 14:1 15:1 16:0 17:0 18:0 19:0 20:1 21:0 22:0 23:1 24:0 25:0 26:1 27:1 28:0 29:1 30:1 31:0 32:0 33:0 34:1 35:1 36:38 
512 0:1 1:1 2:1 3:1 4:1 5:1 6:1 7:1 8:1 9:0 10:1 11:1 12:0 13:1 14:0 15:0 16:0 17:0 18:1 19:0 20:0 21:0 22:1 23:1 24:1 25:1 26:1 27:1 28:1 29:1 30:1 31:1 32:0 33:1 34:1 35:1 36:11 
512 0:1 1:1 2:1 3:1 4:0 5:1 6:1 7:1 8:1 9:1 10:1 11:1 12:1 13:1 14:1 15:1 16:0 17:0 18:1 19:1 20:0 21:1 22:1 23:1 24:0 25:0 26:1 27:1 28:1 29:0 30:1 31:0 32:0 33:1 34:0 35:1 36:18 
512 0:1 1:1 2:1 3:1 4:0 5:0 6:1 7:1 8:1 9:0 10:0 11:1 12:1 13:1 14:1 15:1 16:0 17:0 18:0 19:0 20:0 21:1 22:0 23:0 24:1 25:1 26:1 27:0 28:1 29:1 30:1 31:1 32:0 33:1 34:1 35:0 36:35 
512 0:1 1:1 2:1 3:1 4:0 5:0 6:1 7:1 8:0 9:0 10:0 11:1 12:1 13:1 14:1 15:0 16:0 17:0 18:1 19:1 20:1 21:1 22:0 23:1 24:1 25:1 26:1 27:1 28:1 29:1 30:1 31:0 32:0 33:0 34:0 35:0 36:15 
512 0:1 1:0 2:1 3:1 4:0 5:0 6:1 7:0 8:1 9:1 10:1 11:1 12:1 13:1 14:1 15:0 16:0 17:0 18:1 19:0 20:0 21:1 22:1 23:1 24:1 25:1 26:1 27:0 28:1 29:1 30:1 31:0 32:0 33:0 34:0 35:0 36:39 
512 0:0 1:1 2:1 3:0 4:0 5:1 6:1 7:1 8:1 9:1 10:1 11:1 12:1 13:1 14:0 15:0 16:0 17:0 18:1 19:1 20:1 21:0 22:0 23:1 24:1 25:1 26:1 27:0 28:0 29:1 30:0 31:0 32:1 33:1 34:0 35:0 36:4 
512 0:0 1:1 2:1 3:1 4:1 5:0 6:0 7:0 8:1 9:0 10:1 11:1 12:1 13:0 14:1 15:0 16:0 17:0 18:1 19:0 20:0 21:0 22:0 23:1 24:0 25:1 26:1 27:0 28:1 29:1 30:1 31:0 32:0 33:1 34:0 35:1 36:13 
512 0:0 1:1 2:1 3:1 4:0 5:0 6:1 7:1 8:1 9:1 10:1 11:1 12:1 13:1 14:1 15:0 16:0 17:0 18:0 19:0 20:0 21:1 22:0 23:0 24:0 25:0 26:0 27:1 28:0 29:1 30:0 31:0 32:0 33:1 34:0 35:0 36:29 
512 0:1 1:1 2:0 3:1 4:1 5:0 6:1 7:1 8:1 9:1 10:1 11:1 12:0 13:1 14:1 15:1 16:0 17:0 18:1 19:1 20:1 21:1 22:0 23:1 24:1 25:1 26:1 27:0 28:0 29:1 30:0 31:1 32:0 33:0 34:1 35:1 36:9 
512 0:0 1:1 2:1 3:0 4:0 5:0 6:0 7:1 8:1 9:1 10:1 11:1 12:1 13:0 14:1 15:1 16:0 17:0 18:1 19:0 20:0 21:1 22:0 23:1 24:0 25:1 26:1 27:1 28:0 29:0 30:1 31:0 32:0 33:0 34:0 35:1 36:70 
512 0:1 1:0 2:1 3:1 4:0 5:0 6:0 7:0 8:1 9:0 10:1 11:1 12:1 13:1 14:1 15:1 16:1 17:0 18:0 19:0 20:1 21:0 22:0 23:1 24:0 25:0 26:1 27:0 28:1 29:0 30:1 31:1 32:0 33:0 34:1 35:1 36:7 
512 0:1 1:1 2:1 3:1 4:1 5:1 6:0 7:1 8:1 9:1 10:1 11:1 12:0 13:0 14:0 15:1 16:1 17:0 18:1 19:0 20:1 21:1 22:0 23:0 24:1 25:1 26:1 27:1 28:0 29:0 30:1 31:1 32:0 33:0 34:0 35:0 36:21 
512 0:0 1:1 2:1 3:0 4:0 5:0 6:1 7:1 8:0 9:0 10:0 11:0 12:1 13:1 14:1 15:1 16:0 17:0 18:0 19:0 20:1 21:0 22:0 23:1 24:0 25:0 26:1 27:0 28:1 29:1 30:0 31:1 32:0 33:0 34:1 35:0 36:26 
512 0:0 1:0 2:0 3:0 4:0 5:0 6:1 7:1 8:1 9:0 10:0 11:1 12:0 13:1 14:1 15:0 16:1 17:0 18:1 19:0 20:0 21:1 22:0 23:0 24:1 25:1 26:1 27:1 28:1 29:0 30:0 31:0 32:0 33:1 34:1 35:1 36:22 
512 0:1 1:1 2:1 3:1 4:0 5:0 6:0 7:0 8:0 9:1 10:1 11:1 12:0 13:1 14:0 15:1 16:0 17:0 18:1 19:0 20:0 21:1 22:1 23:0 24:1 25:0 26:0 27:0 28:0 29:1 30:0 31:1 32:0 33:0 34:0 35:0 36:19 
512 0:0 1:1 2:1 3:0 4:0 5:0 6:1 7:0 8:1 9:1 10:1 11:0 12:1 13:1 14:1 15:0 16:0 17:0 18:1 19:0 20:0 21:1 22:1 23:0 24:1 25:1 26:1 27:1 28:1 29:0 30:1 31:0 32:0 33:0 34:0 35:0 36:46 
512 0:1 1:1 2:1 3:0 4:0 5:0 6:1 7:1 8:0 9:0 10:1 11:1 12:1 13:1 14:1 15:1 16:0 17:0 18:1 19:1 20:0 21:1 22:0 23:1 24:1 25:1 26:0 27:1 28:0 29:1 30:1 31:0 32:0 33:0 34:0 35:1 36:14 
512 0:0 1:1 2:1 3:1 4:0 5:0 6:1 7:1 8:1 9:1 10:1 11:1 12:0 13:1 14:0 15:0 16:0 17:0 18:0 19:0 20:0 21:1 22:0 23:1 24:1 25:1 26:1 27:1 28:1 29:1 30:1 31:0 32:1 33:1 34:0 35:0 36:122 
512 0:1 1:1 2:1 3:1 4:0 5:0 6:1 7:1 8:1 9:0 10:0 11:0 12:1 13:1 14:1 15:1 16:0 17:0 18:1 19:0 20:1 21:1 22:0 23:0 24:1 25:1 26:1 27:0 28:1 29:1 30:0 31:1 32:0 33:0 34:0 35:0 36:45 
512 0:0 1:1 2:1 3:1 4:1 5:1 6:1 7:1 8:1 9:0 10:1 11:1 12:1 13:1 14:1 15:0 16:0 17:0 18:1 19:0 20:1 21:1 22:0 23:1 24:0 25:1 26:1 27:0 28:0 29:1 30:1 31:1 32:0 33:1 34:0 35:0 36:34 
512 0:1 1:1 2:1 3:1 4:0 5:0 6:1 7:1 8:1 9:0 10:0 11:1 12:1 13:1 14:1 15:1 16:0 17:0 18:1 19:1 20:1 21:1 22:0 23:0 24:1 25:1 26:1 27:1 28:1 29:1 30:0 31:0 32:0 33:1 34:1 35:0 36:92 
512 0:1 1:0 2:1 3:1 4:0 5:1 6:1 7:1 8:1 9:0 10:1 11:1 12:1 13:0 14:1 15:1 16:1 17:0 18:1 19:1 20:0 21:0 22:0 23:1 24:1 25:1 26:1 27:0 28:0 29:1 30:1 31:0 32:0 33:1 34:1 35:0 36:17 
512 0:0 1:1 2:1 3:0 4:1 5:0 6:1 7:1 8:1 9:1 10:0 11:1 12:1 13:1 14:1 15:0 16:1 17:1 18:1 19:0 20:0 21:0 22:0 23:0 24:1 25:1 26:1 27:0 28:0 29:0 30:0 31:0 32:0 33:0 34:0 35:0 36:27 
512 0:0 1:0 2:0 3:1 4:0 5:0 6:1 7:1 8:0 9:1 10:1 11:1 12:1 13:1 14:1 15:0 16:0 17:0 18:1 19:0 20:0 21:0 22:1 23:1 24:0 25:0 26:1 27:0 28:1 29:1 30:1 31:1 32:0 33:1 34:0 35:0 36:31 
67.41125359266721 0:1 1:1 2:1 3:0 4:0 5:0 6:1 7:1 8:0 9:0 10:1 11:1 12:1 13:1 14:1 15:0 16:0 17:0 18:0 19:0 20:1 21:1 22:0 23:1 24:0 25:1 26:1 27:1 28:0 29:1 30:0 31:0 32:0 33:1 34:0 35:0 36:12 
512 0:1 1:1 2:0 3:1 4:0 5:0 6:1 7:0 8:1 9:1 10:1 11:1 12:0 13:1 14:1 15:0 16:0 17:0 18:1 19:0 20:0 21:1 22:0 23:0 24:0 25:1 26:0 27:1 28:1 29:1 30:1 31:1 32:0 33:0 34:0 35:0 36:48 
512 0:1 1:1 2:1 3:1 4:0 5:0 6:0 7:0 8:0 9:0 10:1 11:1 12:1 13:1 14:1 15:1 16:0 17:0 18:1 19:0 20:0 21:1 22:1 23:0 24:1 25:1 26:1 27:1 28:0 29:1 30:0 31:0 32:0 33:0 34:0 35:0 36:30 
512 0:0 1:0 2:1 3:0 4:0 5:0 6:1 7:1 8:0 9:0 10:1 11:1 12:1 13:1 14:1 15:0 16:0 17:1 18:1 19:0 20:0 21:1 22:1 23:1 24:1 25:1 26:1 27:0 28:1 29:1 30:1 31:0 32:0 33:1 34:1 35:0 36:14 
512 0:1 1:1 2:1 3:1 4:0 5:0 6:0 7:1 8:1 9:0 10:0 11:1 12:1 13:1 14:1 15:0 16:0 17:0 18:1 19:0 20:0 21:1 22:1 23:1 24:0 25:1 26:1 27:1 28:1 29:1 30:1 31:1 32:1 33:1 34:1 35:1 36:21 
512 0:1 1:1 2:0 3:0 4:0 5:0 6:1 7:1 8:1 9:0 10:1 11:1 12:1 13:1 14:1 15:0 16:0 17:0 18:1 19:0 20:0 21:0 22:1 23:0 24:0 25:0 26:1 27:1 28:1 29:1 30:0 31:0 32:0 33:1 34:1 35:0 36:53 
512 0:0 1:0 2:1 3:0 4:1 5:1 6:1 7:0 8:1 9:1 10:1 11:0 12:1 13:1 14:1 15:1 16:0 17:0 18:1 19:0 20:1 21:1 22:1 23:1 24:1 25:1 26:1 27:1 28:1 29:0 30:1 31:0 32:0 33:1 34:0 35:0 36:53 
512 0:1 1:1 2:1 3:1 4:0 5:0 6:1 7:1 8:1 9:1 10:1 11:1 12:1 13:1 14:1 15:0 16:0 17:0 18:1 19:0 20:1 21:0 22:0 23:0 24:1 25:1 26:1 27:0 28:1 29:1 30:1 31:0 32:0 33:1 34:0 35:1 36:53 
512 0:0 1:1 2:1 3:1 4:1 5:0 6:0 7:1 8:1 9:1 10:1 11:0 12:1 13:1 14:0 15:1 16:1 17:0 18:1 19:0 20:0 21:0 22:1 23:0 24:1 25:1 26:0 27:1 28:1 29:0 30:1 31:0 32:1 33:1 34:0 35:1 36:44 
512 0:1 1:1 2:1 3:0 4:1 5:0 6:0 7:0 8:1 9:0 10:1 11:1 12:1 13:1 14:1 15:1 16:0 17:1 18:1 19:0 20:0 21:1 22:0 23:1 24:1 25:1 26:1 27:1 28:0 29:1 30:0 31:0 32:0 33:0 34:1 35:1 36:11 
512 0:1 1:1 2:1 3:1 4:0 5:1 6:0 7:0 8:0 9:0 10:1 11:1 12:1 13:1 14:1 15:1 16:1 17:1 18:0 19:0 20:0 21:1 22:0 23:0 24:0 25:1 26:1 27:1 28:0 29:0 30:1 31:0 32:0 33:1 34:1 35:0 36:34 
512 0:1 1:1 2:1 3:1 4:0 5:0 6:1 7:1 8:1 9:0 10:1 11:0 12:1 13:1 14:1 15:1 16:0 17:0 18:0 19:1 20:1 21:1 22:0 23:1 24:1 25:1 26:1 27:1 28:0 29:1 30:1 31:1 32:1 33:1 34:0 35:0 36:38 
512 0:1 1:1 2:0 3:1 4:0 5:0 6:1 7:1 8:1 9:0 10:1 11:1 12:1 13:1 14:1 15:1 16:0 17:0 18:1 19:0 20:0 21:1 22:0 23:0 24:1 25:1 26:1 27:0 28:0 29:1 30:1 31:0 32:0 33:1 34:0 35:0 36:43 
512 0:1 1:1 2:1 3:1 4:0 5:0 6:0 7:0 8:1 9:0 10:1 11:1 12:1 13:1 14:1 15:0 16:0 17:0 18:1 19:0 20:1 21:0 22:1 23:0 24:1 25:1 26:1 27:1 28:0 29:1 30:1 31:1 32:0 33:1 34:0 35:0 36:19 
512 0:1 1:1 2:0 3:1 4:0 5:0 6:1 7:1 8:1 9:1 10:0 11:1 12:1 13:0 14:1 15:0 16:0 17:0 18:0 19:1 20:0 21:1 22:0 23:1 24:1 25:1 26:1 27:1 28:1 29:1 30:0 31:0 32:0 33:1 34:0 35:0 36:28 
512 0:1 1:0 2:1 3:1 4:1 5:0 6:0 7:0 8:1 9:1 10:1 11:1 12:0 13:1 14:0 15:1 16:0 17:0 18:1 19:0 20:1 21:0 22:0 23:0 24:1 25:1 26:1 27:0 28:1 29:1 30:1 31:1 32:0 33:0 34:1 35:0 36:42 
512 0:1 1:0 2:0 3:1 4:0 5:0 6:0 7:0 8:1 9:1 10:1 11:1 12:0 13:1 14:1 15:1 16:1 17:0 18:0 19:0 20:0 21:1 22:1 23:1 24:0 25:0 26:0 27:1 28:0 29:0 30:0 31:1 32:0 33:1 34:0 35:0 36:12 
512 0:1 1:1 2:1 3:0 4:0 5:0 6:1 7:1 8:0 9:0 10:1 11:1 12:1 13:0 14:0 15:1 16:0 17:0 18:1 19:1 20:1 21:1 22:0 23:0 24:1 25:1 26:1 27:0 28:0 29:0 30:1 31:0 32:1 33:0 34:0 35:0 36:42 
512 0:0 1:1 2:1 3:0 4:1 5:0 6:1 7:1 8:0 9:1 10:1 11:0 12:1 13:0 14:1 15:1 16:0 17:0 18:1 19:0 20:0 21:0 22:0 23:1 24:0 25:0 26:1 27:0 28:0 29:1 30:0 31:0 32:1 33:1 34:1 35:0 36:19 
512 0:1 1:1 2:1 3:1 4:0 5:0 6:1 7:1 8:0 9:1 10:1 11:0 12:0 13:1 14:0 15:1 16:0 17:0 18:1 19:1 20:0 21:1 22:0 23:1 24:1 25:1 26:0 27:0 28:1 29:1 30:0 31:0 32:0 33:0 34:1 35:0 36:10 
512 0:1 1:1 2:1 3:1 4:1 5:1 6:1 7:1 8:1 9:1 10:1 11:0 12:0 13:1 14:1 15:1 16:1 17:0 18:0 19:0 20:0 21:1 22:0 23:1 24:0 25:0 26:1 27:1 28:0 29:0 30:1 31:0 32:0 33:0 34:0 35:0 36:60 
512 0:1 1:0 2:1 3:1 4:0 5:0 6:0 7:1 8:1 9:1 10:1 11:1 12:1 13:0 14:1 15:0 16:0 17:0 18:1 19:0 20:0 21:1 22:1 23:1 24:0 25:0 26:0 27:0 28:1 29:1 30:1 31:0 32:0 33:0 34:0 35:1 36:47 
512 0:1 1:0 2:1 3:1 4:0 5:1 6:1 7:1 8:1 9:1 10:1 11:1 12:1 13:1 14:1 15:1 16:1 17:0 18:0 19:0 20:0 21:1 22:0 23:1 24:1 25:1 26:1 27:1 28:0 29:1 30:0 31:0 32:0 33:0 34:0 35:0 36:27 
512 0:1 1:0 2:0 3:1 4:0 5:0 6:1 7:1 8:1 9:0 10:0 11:1 12:1 13:1 14:1 15:1 16:0 17:0 18:1 19:0 20:0 21:1 22:0 23:0 24:0 25:0 26:1 27:1 28:1 29:0 30:1 31:1 32:0 33:1 34:1 35:0 36:44 
512 0:1 1:0 2:1 3:1 4:0 5:0 6:1 7:1 8:1 9:0 10:1 11:1 12:1 13:0 14:1 15:1 16:1 17:0 18:1 19:0 20:0 21:0 22:0 23:0 24:0 25:1 26:0 27:0 28:1 29:0 30:1 31:1 32:1 33:0 34:0 35:1 36:59 
512 0:1 1:1 2:0 3:1 4:0 5:0 6:1 7:0 8:1 9:1 10:1 11:0 12:1 13:1 14:0 15:1 16:0 17:0 18:1 19:1 20:1 21:0 22:1 23:0 24:1 25:1 26:1 27:0 28:0 29:0 30:1 31:1 32:0 33:1 34:0 35:0 36:37 
512 0:0 1:1 2:1 3:0 4:0 5:0 6:1 7:1 8:1 9:1 10:1 11:1 12:1 13:1 14:1 15:1 16:0 17:0 18:1 19:1 20:0 21:0 22:0 23:0 24:1 25:1 26:1 27:1 28:1 29:1 30:1 31:0 32:0 33:1 34:0 35:0 36:33 
512 0:0 1:1 2:1 3:0 4:0 5:1 6:1 7:1 8:0 9:0 10:1 11:1 12:1 13:1 14:0 15:1 16:0 17:0 18:0 19:0 20:0 21:1 22:0 23:0 24:1 25:1 26:1 27:1 28:1 29:0 30:1 31:1 32:0 33:1 34:0 35:0 36:29 
512 0:0 1:1 2:1 3:1 4:0 5:0 6:1 7:0 8:1 9:0 10:0 11:0 12:0 13:1 14:1 15:1 16:1 17:0 18:1 19:1 20:0 21:1 22:0 23:1 24:0 25:1 26:1 27:1 28:0 29:1 30:1 31:0 32:0 33:1 34:0 35:0 36:40 
512 0:1 1:0 2:1 3:0 4:0 5:0 6:1 7:1 8:0 9:0 10:1 11:1 12:1 13:1 14:1 15:1 16:0 17:0 18:0 19:0 20:0 21:1 22:1 23:1 24:0 25:0 26:1 27:0 28:0 29:1 30:0 31:0 32:0 33:0 34:0 35:0 36:9 
512 0:0 1:1 2:1 3:1 4:0 5:0 6:0 7:1 8:1 9:1 10:0 11:1 12:1 13:1 14:1 15:1 16:0 17:0 18:1 19:0 20:1 21:1 22:0 23:1 24:0 25:1 26:0 27:0 28:1 29:1 30:1 31:0 32:0 33:1 34:1 35:0 36:47 
512 0:1 1:0 2:1 3:1 4:0 5:0 6:1 7:0 8:1 9:1 10:1 11:1 12:1 13:1 14:1 15:1 16:1 17:0 18:1 19:1 20:1 21:1 22:1 23:1 24:0 25:0 26:1 27:1 28:1 29:1 30:1 31:1 32:0 33:0 34:1 35:1 36:28 
512 0:1 1:1 2:1 3:1 4:1 5:0 6:1 7:1 8:1 9:1 10:1 11:0 12:1 13:1 14:0 15:0 16:0 17:0 18:0 19:1 20:0 21:1 22:0 23:0 24:0 25:0 26:1 27:1 28:0 29:0 30:0 31:0 32:0 33:1 34:0 35:0 36:42 
512 0:1 1:1 2:1 3:1 4:0 5:0 6:1 7:1 8:1 9:0 10:1 11:1 12:0 13:1 14:1 15:1 16:1 17:0 18:1 19:0 20:1 21:1 22:0 23:0 24:1 25:1 26:0 27:1 28:1 29:1 30:1 31:0 32:0 33:1 34:0 35:0 36:56 
512 0:1 1:1 2:1 3:1 4:0 5:0 6:1 7:1 8:0 9:0 10:1 11:1 12:1 13:1 14:0 15:0 16:1 17:0 18:1 19:0 20:1 21:1 22:0 23:1 24:1 25:1 26:1 27:1 28:0 29:1 30:0 31:1 32:0 33:1 34:1 35:1 36:27 
512 0:1 1:1 2:1 3:1 4:1 5:0 6:1 7:1 8:1 9:0 10:1 11:1 12:0 13:1 14:0 15:1 16:0 17:0 18:1 19:0 20:0 21:0 22:0 23:0 24:1 25:1 26:1 27:1 28:1 29:0 30:0 31:1 32:0 33:1 34:1 35:0 36:23 
512 0:0 1:1 2:1 3:1 4:1 5:0 6:1 7:1 8:1 9:1 10:1 11:1 12:0 13:0 14:0 15:1 16:1 17:0 18:0 19:0 20:0 21:1 22:0 23:0 24:1 25:1 26:0 27:0 28:1 29:0 30:0 31:0 32:0 33:1 34:0 35:0 36:27 
512 0:1 1:1 2:1 3:1 4:1 5:0 6:1 7:1 8:1 9:1 10:1 11:1 12:0 13:1 14:1 15:1 16:1 17:0 18:1 19:0 20:0 21:1 22:0 23:0 24:1 25:1 26:0 27:1 28:0 29:1 30:0 31:1 32:0 33:1 34:0 35:0 36:38 
512 0:1 1:1 2:1 3:1 4:0 5:0 6:1 7:1 8:0 9:0 10:0 11:0 12:0 13:1 14:1 15:0 16:0 17:0 18:1 19:1 20:1 21:1 22:0 23:0 24:0 25:0 26:0 27:1 28:1 29:1 30:0 31:0 32:0 33:1 34:0 35:1 36:17 
512 0:1 1:1 2:1 3:0 4:0 5:1 6:1 7:1 8:1 9:1 10:1 11:1 12:1 13:0 14:1 15:0 16:0 17:0 18:0 19:0 20:1 21:1 22:0 23:1 24:1 25:1 26:1 27:0 28:1 29:1 30:1 31:0 32:0 33:0 34:0 35:0 36:39 
512 0:1 1:1 2:1 3:1 4:0 5:0 6:1 7:1 8:1 9:0 10:1 11:1 12:1 13:1 14:1 15:1 16:1 17:1 18:1 19:1 20:1 21:0 22:0 23:1 24:0 25:1 26:1 27:0 28:1 29:0 30:0 31:0 32:0 33:0 34:1 35:0 36:35 
512 0:1 1:1 2:1 3:0 4:0 5:1 6:1 7:1 8:1 9:1 10:1 11:0 12:1 13:0 14:1 15:0 16:0 17:0 18:1 19:1 20:0 21:1 22:0 23:1 24:1 25:1 26:1 27:1 28:1 29:0 30:0 31:0 32:0 33:1 34:1 35:0 36:24 
512 0:1 1:1 2:0 3:1 4:0 5:0 6:0 7:1 8:1 9:0 10:1 11:1 12:1 13:1 14:1 15:0 16:0 17:0 18:1 19:0 20:0 21:1 22:1 23:0 24:1 25:1 26:1 27:1 28:0 29:1 30:1 31:0 32:0 33:1 34:1 35:1 36:36 
512 0:1 1:1 2:1 3:1 4:0 5:0 6:1 7:0 8:1 9:0 10:1 11:0 12:1 13:1 14:1 15:0 16:0 17:0 18:1 19:0 20:0 21:1 22:0 23:0 24:1 25:0 26:1 27:0 28:0 29:0 30:1 31:1 32:0 33:0 34:0 35:0 36:29 
512 0:1 1:0 2:1 3:1 4:1 5:1 6:1 7:1 8:1 9:0 10:0 11:0 12:1 13:1 14:0 15:0 16:0 17:0 18:1 19:0 20:0 21:1 22:0 23:0 24:0 25:0 26:1 27:1 28:1 29:0 30:0 31:0 32:0 33:1 34:1 35:0 36:25 
512 0:0 1:1 2:1 3:1 4:0 5:0 6:0 7:1 8:1 9:0 10:1 11:1 12:1 13:1 14:1 15:1 16:1 17:0 18:1 19:0 20:1 21:1 22:0 23:1 24:0 25:1 26:1 27:1 28:0 29:1 30:1 31:1 32:0 33:1 34:0 35:1 36:51 
512 0:1 1:1 2:1 3:1 4:0 5:0 6:1 7:1 8:1 9:0 10:1 11:1 12:0 13:1 14:0 15:0 16:0 17:0 18:1 19:0 20:0 21:1 22:0 23:1 24:0 25:1 26:1 27:1 28:0 29:0 30:0 31:0 32:0 33:0 34:0 35:0 36:86 
512 0:1 1:1 2:0 3:1 4:1 5:1 6:1 7:1 8:1 9:1 10:1 11:1 12:1 13:1 14:1 15:1 16:1 17:0 18:0 19:0 20:0 21:1 22:0 23:1 24:1 25:1 26:1 27:1 28:0 29:1 30:0 31:0 32:0 33:1 34:0 35:0 36:21 
512 0:1 1:1 2:0 3:1 4:1 5:1 6:1 7:1 8:1 9:0 10:1 11:0 12:1 13:1 14:1 15:1 16:1 17:0 18:0 19:0 20:0 21:1 22:0 23:1 24:0 25:1 26:1 27:0 28:0 29:1 30:0 31:0 32:0 33:0 34:0 35:1 36:26 
512 0:1 1:1 2:0 3:0 4:1 5:1 6:1 7:0 8:1 9:0 10:0 11:0 12:0 13:1 14:0 15:1 16:1 17:0 18:1 19:0 20:1 21:1 22:1 23:0 24:0 25:1 26:1 27:1 28:0 29:0 30:1 31:0 32:0 33:1 34:1 35:0 36:14 
512 0:1 1:1 2:1 3:1 4:1 5:0 6:1 7:1 8:1 9:1 10:1 11:1 12:1 13:0 14:1 15:0 16:0 17:1 18:1 19:1 20:1 21:0 22:0 23:0 24:1 25:1 26:0 27:0 28:1 29:1 30:1 31:1 32:0 33:0 34:0 35:0 36:12 
512 0:0 1:0 2:1 3:1 4:0 5:0 6:0 7:1 8:1 9:1 10:1 11:1 12:1 13:1 14:1 15:1 16:0 17:0 18:1 19:0 20:0 21:1 22:0 23:1 24:0 25:1 26:1 27:1 28:1 29:0 30:1 31:0 32:0 33:0 34:0 35:0 36:26 
512 0:1 1:1 2:1 3:1 4:0 5:0 6:1 7:1 8:1 9:1 10:1 11:1 12:1 13:0 14:1 15:1 16:0 17:0 18:1 19:1 20:0 21:0 22:0 23:0 24:1 25:1 26:0 27:0 28:1 29:0 30:1 31:0 32:0 33:0 34:0 35:0 36:32 
512 0:1 1:1 2:1 3:1 4:0 5:0 6:1 7:1 8:0 9:0 10:1 11:1 12:1 13:0 14:0 15:1 16:0 17:0 18:0 19:1 20:0 21:1 22:0 23:1 24:1 25:1 26:1 27:0 28:0 29:1 30:1 31:0 32:0 33:0 34:0 35:0 36:10 
512 0:1 1:1 2:1 3:1 4:0 5:1 6:1 7:1 8:1 9:0 10:1 11:1 12:1 13:1 14:0 15:0 16:0 17:0 18:0 19:0 20:0 21:0 22:0 23:1 24:0 25:0 26:1 27:1 28:1 29:0 30:1 31:0 32:0 33:1 34:0 35:0 36:62 
512 0:1 1:0 2:1 3:1 4:0 5:0 6:1 7:1 8:1 9:0 10:1 11:0 12:1 13:0 14:1 15:0 16:0 17:0 18:1 19:1 20:1 21:1 22:0 23:1 24:0 25:0 26:1 27:1 28:0 29:1 30:1 31:1 32:1 33:1 34:1 35:1 36:17 
512 0:0 1:1 2:1 3:0 4:0 5:0 6:1 7:1 8:1 9:0 10:1 11:1 12:1 13:0 14:1 15:0 16:0 17:1 18:1 19:1 20:0 21:0 22:0 23:0 24:1 25:1 26:1 27:0 28:0 29:1 30:1 31:1 32:0 33:1 34:0 35:1 36:18 
512 0:0 1:0 2:1 3:1 4:0 5:1 6:1 7:1 8:1 9:1 10:0 11:1 12:1 13:1 14:0 15:0 16:0 17:0 18:0 19:0 20:0 21:1 22:1 23:1 24:1 25:1 26:1 27:1 28:1 29:1 30:1 31:0 32:0 33:1 34:0 35:0 36:17 
512 0:1 1:0 2:1 3:0 4:0 5:0 6:1 7:1 8:1 9:1 10:1 11:0 12:0 13:1 14:1 15:1 16:0 17:0 18:0 19:1 20:0 21:1 22:0 23:0 24:1 25:1 26:1 27:1 28:0 29:1 30:1 31:0 32:0 33:1 34:0 35:0 36:56 
512 0:1 1:0 2:0 3:0 4:1 5:0 6:1 7:0 8:0 9:1 10:1 11:1 12:1 13:0 14:1 15:1 16:1 17:0 18:1 19:0 20:0 21:0 22:0 23:0 24:1 25:1 26:1 27:0 28:0 29:0 30:0 31:0 32:0 33:1 34:0 35:0 36:8 
512 0:1 1:1 2:1 3:1 4:0 5:0 6:0 7:0 8:1 9:0 10:0 11:0 12:1 13:1 14:1 15:0 16:0 17:0 18:0 19:1 20:0 21:1 22:1 23:1 24:1 25:1 26:1 27:1 28:0 29:1 30:0 31:1 32:0 33:1 34:0 35:1 36:25 
512 0:0 1:1 2:1 3:1 4:1 5:1 6:0 7:1 8:1 9:1 10:1 11:1 12:1 13:0 14:0 15:1 16:1 17:0 18:1 19:0 20:1 21:1 22:0 23:0 24:1 25:1 26:1 27:0 28:1 29:0 30:1 31:0 32:0 33:1 34:0 35:1 36:16 
512 0:1 1:1 2:1 3:1 4:0 5:1 6:1 7:1 8:1 9:1 10:1 11:1 12:0 13:1 14:1 15:1 16:1 17:0 18:1 19:0 20:0 21:1 22:1 23:0 24:1 25:1 26:1 27:1 28:1 29:0 30:0 31:0 32:0 33:1 34:1 35:0 36:30 
512 0:0 1:1 2:1 3:1 4:1 5:1 6:1 7:0 8:0 9:0 10:1 11:1 12:0 13:1 14:1 15:1 16:1 17:0 18:1 19:0 20:0 21:0 22:0 23:1 24:1 25:1 26:1 27:0 28:1 29:1 30:1 31:0 32:0 33:0 34:0 35:0 36:43 
512 0:1 1:1 2:0 3:0 4:1 5:1 6:1 7:1 8:1 9:0 10:1 11:0 12:1 13:1 14:1 15:0 16:0 17:0 18:1 19:1 20:0 21:1 22:1 23:0 24:1 25:1 26:1 27:1 28:0 29:1 30:1 31:0 32:1 33:1 34:0 35:0 36:16 
512 0:1 1:1 2:0 3:1 4:0 5:0 6:1 7:1 8:1 9:0 10:0 11:0 12:1 13:1 14:0 15:1 16:0 17:0 18:1 19:0 20:0 21:1 22:0 23:1 24:0 25:1 26:1 27:0 28:1 29:0 30:0 31:0 32:0 33:1 34:1 35:0 36:39 
512 0:1 1:1 2:1 3:0 4:0 5:0 6:1 7:1 8:0 9:1 10:1 11:0 12:1 13:0 14:1 15:1 16:1 17:1 18:1 19:0 20:0 21:1 22:0 23:0 24:0 25:1 26:1 27:1 28:1 29:1 30:1 31:1 32:0 33:1 34:1 35:1 36:36 
512 0:1 1:0 2:1 3:1 4:0 5:0 6:1 7:1 8:1 9:1 10:1 11:1 12:1 13:0 14:1 15:0 16:0 17:1 18:0 19:0 20:0 21:1 22:1 23:0 24:1 25:1 26:0 27:0 28:1 29:1 30:1 31:1 32:0 33:0 34:0 35:0 36:19 
512 0:1 1:1 2:1 3:1 4:1 5:1 6:0 7:1 8:1 9:1 10:1 11:1 12:0 13:1 14:1 15:0 16:0 17:0 18:1 19:0 20:0 21:1 22:1 23:1 24:1 25:1 26:1 27:1 28:1 29:0 30:0 31:0 32:0 33:1 34:1 35:0 36:25 
512 0:1 1:1 2:0 3:1 4:1 5:0 6:1 7:0 8:1 9:1 10:1 11:1 12:0 13:1 14:0 15:0 16:0 17:0 18:1 19:0 20:0 21:1 22:1 23:0 24:1 25:1 26:1 27:1 28:1 29:1 30:0 31:0 32:0 33:1 34:1 35:0 36:13 
512 0:1 1:0 2:1 3:1 4:0 5:1 6:0 7:1 8:1 9:0 10:1 11:0 12:1 13:1 14:1 15:1 16:1 17:0 18:0 19:0 20:0 21:1 22:1 23:0 24:1 25:0 26:1 27:1 28:1 29:1 30:0 31:1 32:0 33:1 34:1 35:0 36:15 
512 0:1 1:1 2:1 3:0 4:0 5:0 6:1 7:1 8:1 9:0 10:1 11:1 12:1 13:1 14:1 15:1 16:0 17:0 18:1 19:0 20:0 21:1 22:0 23:0 24:1 25:1 26:1 27:1 28:1 29:1 30:0 31:0 32:0 33:0 34:1 35:0 36:55 
512 0:1 1:0 2:1 3:1 4:1 5:0 6:1 7:1 8:1 9:0 10:1 11:1 12:1 13:1 14:1 15:0 16:0 17:0 18:1 19:0 20:0 21:1 22:0 23:1 24:1 25:1 26:1 27:1 28:1 29:1 30:1 31:0 32:1 33:1 34:1 35:0 36:44 
512 0:1 1:1 2:0 3:0 4:0 5:0 6:1 7:0 8:0 9:0 10:1 11:0 12:1 13:1 14:1 15:1 16:0 17:0 18:1 19:1 20:0 21:0 22:0 23:1 24:0 25:0 26:1 27:1 28:0 29:1 30:0 31:1 32:1 33:1 34:0 35:0 36:20 
512 0:1 1:1 2:1 3:0 4:1 5:0 6:0 7:1 8:1 9:1 10:1 11:1 12:1 13:1 14:1 15:1 16:0 17:0 18:0 19:0 20:1 21:1 22:1 23:0 24:0 25:1 26:1 27:1 28:1 29:1 30:0 31:0 32:0 33:1 34:1 35:1 36:19 
512 0:0 1:1 2:1 3:1 4:1 5:0 6:1 7:0 8:1 9:1 10:1 11:0 12:1 13:0 14:0 15:0 16:0 17:0 18:1 19:0 20:0 21:1 22:1 23:1 24:1 25:0 26:0 27:1 28:0 29:0 30:0 31:0 32:0 33:1 34:0 35:0 36:16 
512 0:1 1:1 2:1 3:1 4:0 5:0 6:0 7:0 8:1 9:0 10:1 11:1 12:1 13:1 14:1 15:0 16:0 17:0 18:1 19:0 20:0 21:0 22:0 23:0 24:0 25:0 26:1 27:0 28:1 29:0 30:0 31:0 32:0 33:0 34:1 35:0 36:27 
512 0:1 1:1 2:1 3:1 4:1 5:0 6:1 7:1 8:0 9:0 10:0 11:1 12:1 13:1 14:1 15:0 16:1 17:0 18:0 19:0 20:1 21:0 22:1 23:0 24:1 25:1 26:1 27:0 28:0 29:1 30:1 31:0 32:0 33:0 34:0 35:1 36:10 
512 0:1 1:0 2:1 3:1 4:0 5:0 6:0 7:1 8:1 9:1 10:1 11:1 12:1 13:1 14:0 15:1 16:0 17:0 18:1 19:0 20:1 21:0 22:0 23:1 24:1 25:1 26:1 27:0 28:0 29:1 30:1 31:1 32:0 33:1 34:0 35:0 36:36 
512 0:1 1:0 2:1 3:1 4:0 5:0 6:0 7:1 8:1 9:0 10:1 11:1 12:1 13:1 14:1 15:1 16:0 17:0 18:1 19:0 20:1 21:1 22:0 23:0 24:0 25:1 26:0 27:0 28:1 29:0 30:0 31:0 32:0 33:0 34:1 35:0 36:30 
512 0:1 1:0 2:1 3:1 4:0 5:0 6:1 7:0 8:1 9:0 10:0 11:0 12:1 13:0 14:1 15:0 16:0 17:0 18:0 19:0 20:0 21:0 22:0 23:0 24:0 25:1 26:1 27:0 28:1 29:0 30:0 31:0 32:1 33:0 34:0 35:0 36:19 
512 0:0 1:1 2:1 3:1 4:0 5:0 6:1 7:1 8:1 9:0 10:1 11:1 12:1 13:1 14:0 15:1 16:0 17:0 18:0 19:1 20:0 21:1 22:1 23:0 24:0 25:1 26:1 27:1 28:1 29:1 30:1 31:0 32:0 33:0 34:1 35:0 36:28 
512 0:1 1:0 2:1 3:1 4:0 5:1 6:1 7:1 8:1 9:1 10:1 11:1 12:1 13:0 14:1 15:1 16:1 17:0 18:1 19:0 20:0 21:0 22:1 23:1 24:1 25:1 26:1 27:1 28:1 29:1 30:0 31:0 32:0 33:0 34:1 35:0 36:52 
512 0:1 1:1 2:0 3:1 4:0 5:0 6:1 7:1 8:1 9:1 10:1 11:0 12:0 13:1 14:1 15:0 16:0 17:0 18:1 19:1 20:0 21:1 22:0 23:1 24:1 25:1 26:1 27:1 28:1 29:1 30:1 31:0 32:0 33:1 34:1 35:0 36:20 
512 0:1 1:0 2:1 3:0 4:0 5:0 6:1 7:1 8:0 9:1 10:0 11:1 12:1 13:1 14:0 15:0 16:0 17:0 18:1 19:1 20:0 21:1 22:0 23:0 24:1 25:1 26:1 27:0 28:1 29:0 30:1 31:0 32:0 33:1 34:0 35:0 36:25 
512 0:1 1:1 2:1 3:1 4:1 5:0 6:1 7:1 8:1 9:1 10:1 11:1 12:1 13:1 14:0 15:0 16:1 17:0 18:1 19:0 20:0 21:1 22:0 23:0 24:1 25:1 26:1 27:1 28:1 29:0 30:0 31:0 32:0 33:0 34:0 35:0 36:71 
512 0:1 1:1 2:1 3:1 4:1 5:1 6:0 7:0 8:0 9:1 10:1 11:0 12:1 13:0 14:1 15:0 16:0 17:0 18:1 19:0 20:1 21:1 22:1 23:1 24:0 25:1 26:0 27:1 28:1 29:1 30:1 31:0 32:0 33:1 34:0 35:1 36:15 
328.0436793833204 0:1 1:1 2:0 3:0 4:1 5:0 6:1 7:1 8:0 9:0 10:0 11:1 12:1 13:1 14:0 15:1 16:0 17:0 18:0 19:0 20:1 21:1 22:1 23:0 24:1 25:1 26:0 27:1 28:1 29:0 30:0 31:0 32:0 33:1 34:0 35:0 36:3 
512 0:1 1:0 2:1 3:0 4:0 5:1 6:1 7:1 8:1 9:0 10:1 11:1 12:1 13:0 14:1 15:0 16:0 17:0 18:1 19:1 20:0 21:1 22:0 23:1 24:1 25:0 26:0 27:1 28:1 29:0 30:0 31:1 32:0 33:1 34:0 35:0 36:99 
512 0:1 1:1 2:0 3:1 4:1 5:0 6:1 7:1 8:1 9:1 10:1 11:1 12:1 13:1 14:1 15:0 16:0 17:0 18:1 19:1 20:0 21:1 22:0 23:1 24:0 25:0 26:1 27:0 28:0 29:1 30:1 31:0 32:0 33:1 34:0 35:0 36:23 
512 0:1 1:0 2:1 3:1 4:0 5:0 6:1 7:1 8:1 9:1 10:1 11:1 12:1 13:1 14:1 15:1 16:1 17:1 18:1 19:1 20:1 21:1 22:0 23:0 24:0 25:1 26:1 27:1 28:0 29:0 30:0 31:1 32:0 33:1 34:1 35:0 36:33 
512 0:0 1:1 2:1 3:1 4:0 5:0 6:1 7:1 8:1 9:1 10:1 11:1 12:0 13:0 14:0 15:1 16:0 17:0 18:1 19:0 20:0 21:0 22:0 23:0 24:1 25:0 26:0 27:1 28:1 29:0 30:0 31:0 32:0 33:0 34:1 35:1 36:28 
512 0:1 1:1 2:1 3:1 4:0 5:0 6:1 7:1 8:1 9:1 10:1 11:1 12:0 13:1 14:1 15:0 16:0 17:0 18:1 19:1 20:0 21:1 22:0 23:1 24:0 25:1 26:1 27:1 28:1 29:0 30:0 31:1 32:0 33:1 34:0 35:0 36:57 
512 0:1 1:0 2:0 3:1 4:0 5:0 6:1 7:1 8:0 9:1 10:1 11:1 12:0 13:1 14:0 15:1 16:0 17:0 18:1 19:0 20:0 21:1 22:1 23:0 24:1 25:1 26:1 27:1 28:1 29:0 30:1 31:0 32:0 33:1 34:1 35:0 36:51 
512 0:0 1:1 2:1 3:0 4:0 5:1 6:1 7:1 8:0 9:1 10:1 11:1 12:1 13:1 14:1 15:0 16:0 17:0 18:1 19:0 20:1 21:1 22:0 23:0 24:1 25:1 26:0 27:1 28:1 29:1 30:1 31:0 32:0 33:0 34:1 35:0 36:26 
512 0:1 1:1 2:1 3:1 4:1 5:0 6:1 7:1 8:1 9:0 10:0 11:1 12:0 13:1 14:1 15:1 16:1 17:0 18:1 19:1 20:1 21:1 22:0 23:0 24:1 25:0 26:0 27:1 28:1 29:0 30:0 31:0 32:0 33:1 34:1 35:0 36:25 
512 0:0 1:1 2:1 3:1 4:0 5:0 6:1 7:0 8:1 9:1 10:1 11:0 12:0 13:0 14:1 15:0 16:0 17:1 18:0 19:0 20:0 21:0 22:0 23:0 24:1 25:1 26:1 27:1 28:1 29:0 30:1 31:0 32:0 33:1 34:1 35:0 36:92 
512 0:1 1:1 2:1 3:0 4:0 5:0 6:0 7:1 8:1 9:1 10:1 11:0 12:1 13:1 14:0 15:1 16:0 17:1 18:1 19:0 20:1 21:1 22:0 23:1 24:1 25:1 26:1 27:1 28:0 29:1 30:1 31:0 32:0 33:0 34:0 35:0 36:45 
512 0:1 1:1 2:1 3:1 4:0 5:0 6:1 7:1 8:1 9:0 10:1 11:1 12:1 13:1 14:1 15:0 16:0 17:0 18:1 19:0 20:0 21:1 22:0 23:0 24:0 25:0 26:0 27:1 28:0 29:1 30:0 31:0 32:0 33:0 34:0 35:0 36:62 
512 0:1 1:1 2:1 3:0 4:0 5:0 6:1 7:0 8:1 9:0 10:0 11:1 12:0 13:1 14:1 15:0 16:0 17:0 18:1 19:0 20:0 21:1 22:0 23:0 24:1 25:0 26:0 27:1 28:1 29:1 30:1 31:0 32:0 33:1 34:0 35:0 36:55 
512 0:0 1:1 2:1 3:1 4:0 5:0 6:1 7:1 8:0 9:0 10:1 11:1 12:1 13:0 14:1 15:0 16:0 17:0 18:1 19:0 20:0 21:1 22:0 23:0 24:1 25:1 26:1 27:1 28:1 29:1 30:0 31:0 32:0 33:1 34:0 35:0 36:24 
512 0:1 1:1 2:1 3:1 4:0 5:0 6:1 7:1 8:1 9:1 10:1 11:1 12:1 13:1 14:1 15:0 16:0 17:1 18:1 19:0 20:0 21:1 22:1 23:0 24:0 25:0 26:1 27:1 28:0 29:0 30:1 31:1 32:0 33:0 34:0 35:0 36:23 
512 0:1 1:1 2:1 3:1 4:0 5:0 6:1 7:0 8:1 9:1 10:1 11:1 12:1 13:1 14:0 15:0 16:1 17:0 18:1 19:0 20:0 21:1 22:0 23:1 24:1 25:1 26:1 27:1 28:0 29:1 30:1 31:1 32:0 33:1 34:0 35:0 36:39 
512 0:0 1:1 2:1 3:1 4:0 5:0 6:1 7:1 8:0 9:1 10:1 11:1 12:1 13:1 14:1 15:1 16:0 17:1 18:1 19:0 20:0 21:0 22:0 23:0 24:0 25:1 26:1 27:0 28:1 29:0 30:1 31:0 32:0 33:0 34:1 35:1 36:54 
512 0:1 1:1 2:1 3:1 4:0 5:0 6:1 7:1 8:1 9:1 10:1 11:1 12:1 13:1 14:1 15:0 16:1 17:0 18:0 19:0 20:1 21:1 22:0 23:0 24:1 25:1 26:1 27:1 28:0 29:1 30:0 31:0 32:1 33:1 34:0 35:1 36:27 
512 0:1 1:0 2:1 3:1 4:1 5:1 6:1 7:0 8:1 9:1 10:1 11:1 12:1 13:0 14:0 15:1 16:0 17:0 18:1 19:0 20:0 21:1 22:0 23:1 24:1 25:1 26:1 27:0 28:1 29:1 30:1 31:1 32:0 33:0 34:0 35:1 36:30 
512 0:1 1:0 2:1 3:1 4:0 5:0 6:1 7:1 8:1 9:1 10:0 11:1 12:0 13:1 14:0 15:1 16:1 17:0 18:1 19:0 20:0 21:1 22:1 23:1 24:1 25:0 26:0 27:1 28:0 29:0 30:0 31:0 32:0 33:0 34:0 35:0 36:15 
512 0:1 1:0 2:0 3:0 4:0 5:1 6:0 7:0 8:1 9:1 10:1 11:0 12:1 13:0 14:1 15:1 16:0 17:0 18:1 19:1 20:1 21:1 22:0 23:1 24:0 25:1 26:1 27:0 28:0 29:0 30:0 31:0 32:0 33:0 34:0 35:0 36:8 
512 0:1 1:1 2:1 3:0 4:0 5:1 6:1 7:1 8:1 9:1 10:0 11:1 12:1 13:0 14:1 15:1 16:0 17:0 18:1 19:1 20:0 21:1 22:0 23:1 24:1 25:1 26:1 27:1 28:0 29:1 30:1 31:1 32:0 33:1 34:0 35:0 36:23 
512 0:1 1:1 2:0 3:0 4:0 5:0 6:1 7:1 8:1 9:1 10:1 11:1 12:1 13:1 14:0 15:0 16:0 17:0 18:1 19:0 20:0 21:1 22:0 23:1 24:1 25:1 26:1 27:0 28:1 29:1 30:1 31:0 32:0 33:0 34:0 35:1 36:28 
512 0:1 1:0 2:1 3:1 4:0 5:1 6:0 7:1 8:1 9:1 10:0 11:0 12:0 13:1 14:0 15:1 16:0 17:0 18:1 19:0 20:1 21:1 22:0 23:0 24:0 25:1 26:0 27:0 28:1 29:1 30:0 31:0 32:0 33:0 34:1 35:0 36:14 
512 0:0 1:1 2:1 3:1 4:1 5:0 6:1 7:0 8:1 9:0 10:0 11:0 12:0 13:1 14:1 15:1 16:0 17:0 18:1 19:0 20:0 21:1 22:0 23:1 24:1 25:1 26:1 27:1 28:0 29:0 30:0 31:0 32:1 33:1 34:0 35:1 36:19 
512 0:1 1:1 2:1 3:1 4:0 5:0 6:1 7:1 8:0 9:0 10:1 11:0 12:0 13:1 14:1 15:0 16:0 17:0 18:1 19:0 20:1 21:1 22:0 23:0 24:0 25:1 26:0 27:1 28:1 29:0 30:1 31:0 32:0 33:0 34:1 35:0 36:47 
512 0:1 1:0 2:1 3:1 4:0 5:1 6:1 7:1 8:1 9:1 10:1 11:0 12:1 13:1 14:1 15:1 16:1 17:0 18:1 19:0 20:0 21:1 22:0 23:1 24:1 25:1 26:1 27:0 28:1 29:1 30:1 31:0 32:0 33:1 34:1 35:0 36:27 
512 0:1 1:0 2:0 3:0 4:0 5:0 6:1 7:1 8:1 9:0 10:0 11:1 12:1 13:1 14:1 15:1 16:1 17:0 18:1 19:0 20:0 21:1 22:1 23:1 24:1 25:1 26:0 27:1 28:1 29:1 30:1 31:1 32:0 33:0 34:1 35:0 36:32 
512 0:0 1:0 2:1 3:1 4:0 5:1 6:1 7:1 8:0 9:0 10:1 11:1 12:1 13:1 14:1 15:0 16:0 17:0 18:1 19:1 20:0 21:1 22:0 23:0 24:0 25:1 26:1 27:0 28:1 29:0 30:1 31:0 32:0 33:1 34:0 35:0 36:14 
512 0:1 1:1 2:0 3:1 4:0 5:0 6:0 7:1 8:1 9:0 10:1 11:0 12:1 13:1 14:1 15:0 16:0 17:0 18:0 19:0 20:1 21:1 22:1 23:1 24:1 25:1 26:1 27:0 28:1 29:0 30:1 31:0 32:0 33:1 34:0 35:1 36:47 
342.7622859302822 0:1 1:1 2:1 3:0 4:0 5:0 6:1 7:1 8:1 9:1 10:1 11:1 12:1 13:1 14:1 15:0 16:1 17:0 18:1 19:0 20:0 21:1 22:0 23:0 24:0 25:0 26:1 27:1 28:0 29:1 30:1 31:0 32:0 33:1 34:0 35:0 36:30 
512 0:0 1:1 2:0 3:0 4:0 5:0 6:1 7:1 8:1 9:1 10:1 11:1 12:0 13:0 14:0 15:1 16:1 17:0 18:1 19:0 20:0 21:1 22:1 23:1 24:1 25:1 26:1 27:0 28:1 29:1 30:1 31:0 32:0 33:0 34:0 35:0 36:7 
512 0:0 1:1 2:1 3:1 4:0 5:0 6:1 7:0 8:1 9:0 10:1 11:1 12:1 13:1 14:1 15:0 16:0 17:0 18:0 19:0 20:0 21:1 22:0 23:0 24:1 25:1 26:1 27:1 28:0 29:0 30:1 31:0 32:0 33:1 34:1 35:0 36:29 
512 0:0 1:1 2:1 3:1 4:0 5:0 6:1 7:1 8:1 9:1 10:1 11:0 12:1 13:1 14:1 15:0 16:0 17:0 18:0 19:0 20:1 21:1 22:1 23:1 24:1 25:0 26:1 27:0 28:1 29:1 30:0 31:0 32:0 33:1 34:0 35:0 36:22 
512 0:1 1:1 2:0 3:1 4:0 5:0 6:1 7:0 8:1 9:0 10:0 11:0 12:1 13:1 14:1 15:0 16:0 17:0 18:0 19:0 20:1 21:1 22:0 23:0 24:0 25:1 26:1 27:1 28:0 29:1 30:0 31:0 32:0 33:1 34:1 35:0 36:35 
512 0:1 1:0 2:1 3:1 4:0 5:1 6:0 7:1 8:1 9:1 10:1 11:1 12:1 13:0 14:1 15:0 16:0 17:0 18:0 19:0 20:0 21:0 22:1 23:0 24:1 25:0 26:1 27:1 28:0 29:0 30:0 31:1 32:1 33:1 34:0 35:0 36:24 
512 0:1 1:0 2:1 3:0 4:0 5:0 6:1 7:1 8:0 9:0 10:0 11:0 12:1 13:1 14:1 15:0 16:0 17:0 18:1 19:0 20:1 21:0 22:0 23:1 24:1 25:0 26:1 27:1 28:1 29:0 30:1 31:0 32:0 33:1 34:0 35:0 36:10 
512 0:1 1:0 2:1 3:1 4:0 5:0 6:1 7:1 8:1 9:1 10:1 11:1 12:1 13:1 14:0 15:0 16:0 17:1 18:0 19:0 20:1 21:1 22:0 23:0 24:1 25:1 26:1 27:1 28:1 29:1 30:0 31:0 32:0 33:0 34:0 35:1 36:58 
512 0:0 1:1 2:1 3:1 4:1 5:0 6:1 7:1 8:1 9:1 10:1 11:1 12:0 13:1 14:1 15:0 16:0 17:0 18:1 19:0 20:0 21:0 22:0 23:0 24:0 25:0 26:1 27:1 28:1 29:1 30:1 31:0 32:0 33:1 34:0 35:0 36:32 
512 0:1 1:1 2:1 3:0 4:0 5:0 6:1 7:1 8:1 9:1 10:1 11:1 12:1 13:1 14:0 15:0 16:1 17:1 18:1 19:0 20:0 21:1 22:1 23:0 24:1 25:1 26:1 27:1 28:1 29:1 30:0 31:0 32:0 33:0 34:1 35:0 36:25 
512 0:1 1:1 2:1 3:1 4:1 5:1 6:0 7:0 8:1 9:0 10:0 11:0 12:1 13:1 14:1 15:1 16:0 17:0 18:1 19:0 20:1 21:1 22:1 23:0 24:1 25:0 26:0 27:0 28:1 29:1 30:1 31:0 32:0 33:1 34:0 35:0 36:18 
512 0:1 1:0 2:0 3:1 4:0 5:1 6:1 7:0 8:1 9:0 10:0 11:1 12:1 13:1 14:0 15:1 16:1 17:1 18:0 19:0 20:0 21:1 22:0 23:1 24:1 25:1 26:1 27:1 28:0 29:1 30:0 31:0 32:0 33:1 34:0 35:0 36:70 
512 0:1 1:0 2:1 3:1 4:1 5:1 6:1 7:1 8:1 9:0 10:1 11:1 12:1 13:1 14:1 15:1 16:1 17:0 18:1 19:1 20:0 21:0 22:0 23:0 24:1 25:1 26:0 27:1 28:0 29:0 30:0 31:0 32:0 33:1 34:0 35:0 36:9 
512 0:0 1:0 2:1 3:0 4:0 5:0 6:1 7:1 8:1 9:1 10:1 11:1 12:1 13:1 14:1 15:1 16:1 17:0 18:1 19:0 20:0 21:1 22:1 23:0 24:1 25:1 26:0 27:0 28:1 29:0 30:1 31:0 32:0 33:1 34:1 35:0 36:51 
512 0:1 1:0 2:1 3:1 4:0 5:0 6:1 7:1 8:1 9:1 10:0 11:0 12:1 13:1 14:1 15:1 16:0 17:0 18:1 19:0 20:0 21:1 22:1 23:0 24:0 25:1 26:1 27:0 28:1 29:0 30:0 31:0 32:0 33:0 34:0 35:0 36:94 
512 0:0 1:1 2:0 3:0 4:0 5:0 6:0 7:1 8:0 9:0 10:1 11:1 12:1 13:0 14:1 15:0 16:0 17:0 18:1 19:1 20:0 21:0 22:0 23:1 24:0 25:1 26:1 27:1 28:1 29:1 30:0 31:0 32:0 33:1 34:0 35:0 36:9 
512 0:1 1:1 2:1 3:1 4:0 5:0 6:1 7:0 8:0 9:1 10:0 11:1 12:0 13:1 14:1 15:0 16:0 17:0 18:1 19:1 20:0 21:1 22:0 23:0 24:1 25:1 26:1 27:0 28:1 29:1 30:0 31:0 32:0 33:1 34:1 35:0 36:14 
512 0:1 1:1 2:1 3:1 4:1 5:0 6:1 7:1 8:1 9:0 10:0 11:1 12:1 13:1 14:1 15:1 16:0 17:0 18:0 19:0 20:0 21:1 22:1 23:0 24:1 25:1 26:1 27:0 28:1 29:0 30:1 31:0 32:0 33:1 34:1 35:0 36:66 
512 0:1 1:1 2:0 3:1 4:1 5:1 6:1 7:1 8:0 9:0 10:1 11:0 12:0 13:1 14:1 15:0 16:0 17:0 18:1 19:0 20:0 21:0 22:0 23:1 24:0 25:1 26:1 27:1 28:1 29:0 30:0 31:0 32:0 33:1 34:0 35:0 36:113 
512 0:1 1:1 2:1 3:0 4:0 5:0 6:1 7:0 8:1 9:0 10:1 11:1 12:1 13:1 14:1 15:1 16:1 17:1 18:1 19:0 20:0 21:0 22:0 23:0 24:0 25:0 26:0 27:0 28:0 29:0 30:0 31:1 32:0 33:1 34:0 35:0 36:31 
512 0:1 1:1 2:1 3:1 4:1 5:0 6:1 7:1 8:1 9:1 10:1 11:1 12:1 13:1 14:1 15:0 16:0 17:0 18:1 19:0 20:0 21:0 22:1 23:1 24:1 25:1 26:1 27:1 28:1 29:1 30:0 31:0 32:0 33:1 34:0 35:0 36:27 
60.46990545305404 0:1 1:1 2:1 3:0 4:1 5:1 6:1 7:0 8:0 9:0 10:1 11:0 12:0 13:0 14:0 15:1 16:1 17:0 18:1 19:0 20:0 21:1 22:0 23:0 24:0 25:1 26:1 27:0 28:1 29:0 30:1 31:0 32:0 33:1 34:0 35:0 36:12 
512 0:1 1:1 2:1 3:1 4:1 5:0 6:1 7:1 8:1 9:1 10:1 11:1 12:1 13:1 14:1 15:1 16:0 17:0 18:0 19:0 20:0 21:1 22:0 23:0 24:0 25:1 26:1 27:0 28:1 29:0 30:1 31:0 32:0 33:1 34:1 35:1 36:36 
473.0265922860705 0:1 1:1 2:1 3:0 4:0 5:0 6:1 7:1 8:1 9:1 10:1 11:1 12:1 13:0 14:1 15:0 16:0 17:0 18:1 19:1 20:1 21:1 22:1 23:0 24:0 25:1 26:1 27:1 28:1 29:0 30:0 31:0 32:0 33:1 34:1 35:0 36:11 
512 0:1 1:1 2:0 3:1 4:0 5:0 6:1 7:0 8:1 9:1 10:1 11:1 12:1 13:1 14:1 15:1 16:1 17:0 18:0 19:0 20:1 21:0 22:0 23:0 24:0 25:0 26:1 27:1 28:0 29:1 30:0 31:0 32:1 33:1 34:0 35:0 36:21 
512 0:1 1:1 2:0 3:1 4:0 5:0 6:0 7:1 8:1 9:0 10:1 11:1 12:1 13:1 14:0 15:0 16:0 17:0 18:0 19:0 20:0 21:1 22:0 23:0 24:0 25:1 26:1 27:1 28:0 29:1 30:0 31:0 32:1 33:1 34:1 35:0 36:69 
512 0:0 1:1 2:1 3:1 4:0 5:0 6:1 7:1 8:1 9:1 10:0 11:1 12:1 13:0 14:1 15:0 16:0 17:0 18:1 19:1 20:1 21:0 22:0 23:1 24:1 25:0 26:1 27:0 28:1 29:1 30:0 31:0 32:1 33:1 34:0 35:0 36:11 
512 0:1 1:1 2:1 3:0 4:1 5:1 6:1 7:1 8:1 9:1 10:1 11:1 12:1 13:1 14:1 15:1 16:0 17:0 18:1 19:0 20:1 21:1 22:0 23:1 24:1 25:1 26:1 27:1 28:0 29:1 30:0 31:0 32:0 33:0 34:0 35:0 36:26 
512 0:1 1:0 2:1 3:1 4:1 5:0 6:0 7:1 8:1 9:1 10:1 11:0 12:1 13:0 14:1 15:1 16:1 17:1 18:1 19:0 20:0 21:1 22:1 23:0 24:1 25:1 26:1 27:1 28:1 29:1 30:1 31:0 32:0 33:1 34:0 35:0 36:28 
512 0:1 1:0 2:1 3:1 4:0 5:0 6:0 7:0 8:1 9:0 10:1 11:1 12:1 13:0 14:1 15:0 16:0 17:0 18:0 19:0 20:1 21:0 22:0 23:1 24:0 25:1 26:0 27:0 28:0 29:0 30:1 31:1 32:0 33:1 34:0 35:0 36:11 
512 0:1 1:1 2:1 3:0 4:0 5:0 6:1 7:0 8:0 9:0 10:0 11:1 12:1 13:1 14:0 15:1 16:0 17:0 18:1 19:0 20:0 21:0 22:1 23:0 24:1 25:1 26:1 27:0 28:0 29:0 30:1 31:0 32:0 33:1 34:1 35:1 36:22 
512 0:1 1:0 2:1 3:1 4:0 5:1 6:1 7:1 8:1 9:1 10:1 11:0 12:1 13:1 14:1 15:0 16:0 17:0 18:0 19:0 20:0 21:0 22:0 23:0 24:1 25:0 26:0 27:0 28:0 29:1 30:1 31:0 32:0 33:1 34:0 35:0 36:24 
512 0:1 1:1 2:1 3:1 4:1 5:0 6:1 7:0 8:1 9:1 10:1 11:0 12:1 13:1 14:1 15:0 16:1 17:0 18:1 19:0 20:0 21:1 22:0 23:0 24:1 25:1 26:0 27:1 28:1 29:1 30:0 31:0 32:0 33:1 34:0 35:0 36:44 
512 0:1 1:1 2:0 3:1 4:0 5:0 6:1 7:1 8:0 9:1 10:1 11:1 12:1 13:1 14:0 15:0 16:0 17:0 18:1 19:0 20:0 21:1 22:0 23:1 24:1 25:1 26:1 27:1 28:0 29:1 30:1 31:1 32:1 33:1 34:0 35:0 36:28 
512 0:1 1:1 2:1 3:0 4:0 5:0 6:0 7:1 8:1 9:0 10:0 11:0 12:1 13:1 14:1 15:0 16:0 17:0 18:0 19:0 20:0 21:1 22:1 23:0 24:1 25:1 26:0 27:1 28:1 29:0 30:1 31:1 32:1 33:0 34:1 35:0 36:22 
512 0:1 1:0 2:1 3:1 4:0 5:0 6:0 7:1 8:1 9:1 10:0 11:1 12:1 13:0 14:1 15:0 16:0 17:0 18:1 19:0 20:0 21:1 22:0 23:0 24:1 25:0 26:1 27:1 28:0 29:1 30:0 31:0 32:0 33:1 34:0 35:1 36:18 
512 0:1 1:1 2:1 3:1 4:1 5:1 6:1 7:1 8:1 9:1 10:1 11:1 12:1 13:1 14:0 15:1 16:0 17:0 18:0 19:0 20:1 21:0 22:0 23:0 24:1 25:1 26:1 27:0 28:1 29:0 30:1 31:0 32:0 33:0 34:0 35:0 36:35 
512 0:1 1:0 2:0 3:1 4:1 5:0 6:1 7:1 8:1 9:0 10:1 11:1 12:1 13:1 14:1 15:1 16:0 17:0 18:1 19:0 20:0 21:1 22:0 23:0 24:1 25:1 26:1 27:0 28:0 29:1 30:1 31:0 32:0 33:1 34:0 35:0 36:44 
512 0:1 1:1 2:1 3:0 4:0 5:1 6:1 7:1 8:1 9:0 10:1 11:1 12:1 13:1 14:1 15:1 16:1 17:0 18:1 19:1 20:0 21:1 22:0 23:0 24:1 25:1 26:0 27:1 28:0 29:0 30:1 31:0 32:0 33:1 34:1 35:0 36:64 
512 0:1 1:0 2:1 3:1 4:1 5:1 6:1 7:0 8:0 9:0 10:1 11:0 12:1 13:1 14:1 15:1 16:0 17:0 18:1 19:0 20:1 21:1 22:1 23:0 24:0 25:0 26:1 27:1 28:0 29:0 30:1 31:0 32:0 33:1 34:0 35:0 36:10 
512 0:0 1:0 2:1 3:1 4:0 5:1 6:0 7:0 8:1 9:1 10:1 11:1 12:1 13:1 14:0 15:1 16:1 17:0 18:1 19:0 20:1 21:0 22:1 23:0 24:1 25:1 26:1 27:0 28:0 29:1 30:1 31:0 32:0 33:1 34:0 35:0 36:3 
512 0:1 1:1 2:1 3:0 4:0 5:0 6:1 7:1 8:0 9:1 10:1 11:1 12:1 13:1 14:1 15:1 16:0 17:0 18:1 19:0 20:1 21:1 22:0 23:0 24:1 25:1 26:1 27:1 28:1 29:0 30:0 31:0 32:0 33:1 34:0 35:0 36:41 
512 0:1 1:1 2:1 3:1 4:0 5:1 6:0 7:1 8:1 9:1 10:1 11:1 12:1 13:1 14:1 15:0 16:0 17:0 18:1 19:0 20:1 21:1 22:0 23:0 24:0 25:1 26:1 27:1 28:1 29:0 30:1 31:1 32:0 33:1 34:1 35:0 36:51 
512 0:1 1:1 2:1 3:1 4:1 5:1 6:1 7:1 8:1 9:1 10:1 11:1 12:1 13:0 14:1 15:1 16:0 17:0 18:1 19:0 20:0 21:0 22:0 23:1 24:0 25:1 26:0 27:0 28:0 29:0 30:1 31:1 32:0 33:1 34:0 35:0 36:22 
512 0:1 1:1 2:1 3:1 4:1 5:0 6:0 7:1 8:1 9:1 10:1 11:1 12:1 13:1 14:0 15:0 16:0 17:0 18:1 19:0 20:1 21:1 22:1 23:0 24:1 25:0 26:0 27:1 28:1 29:1 30:0 31:0 32:0 33:1 34:1 35:0 36:18 
512 0:1 1:0 2:0 3:1 4:1 5:0 6:1 7:1 8:1 9:1 10:0 11:1 12:1 13:1 14:1 15:1 16:1 17:0 18:1 19:0 20:0 21:1 22:0 23:1 24:1 25:1 26:0 27:0 28:0 29:1 30:0 31:0 32:0 33:0 34:0 35:0 36:54 
512 0:1 1:1 2:1 3:1 4:0 5:0 6:1 7:1 8:1 9:0 10:1 11:1 12:0 13:0 14:1 15:1 16:1 17:0 18:1 19:0 20:0 21:0 22:0 23:0 24:1 25:1 26:0 27:1 28:0 29:0 30:1 31:0 32:0 33:1 34:0 35:0 36:38 
512 0:1 1:0 2:1 3:1 4:0 5:0 6:0 7:1 8:1 9:1 10:1 11:0 12:1 13:1 14:1 15:1 16:1 17:1 18:0 19:0 20:0 21:1 22:1 23:1 24:0 25:1 26:1 27:0 28:0 29:0 30:0 31:0 32:0 33:0 34:1 35:0 36:6 
512 0:1 1:1 2:1 3:0 4:0 5:0 6:1 7:1 8:1 9:0 10:0 11:1 12:1 13:0 14:1 15:0 16:0 17:0 18:1 19:0 20:0 21:0 22:0 23:1 24:1 25:1 26:1 27:0 28:0 29:0 30:1 31:1 32:0 33:0 34:0 35:0 36:40 
512 0:1 1:0 2:1 3:1 4:1 5:1 6:1 7:1 8:1 9:1 10:1 11:1 12:1 13:1 14:1 15:1 16:1 17:0 18:0 19:0 20:1 21:1 22:0 23:1 24:1 25:1 26:0 27:1 28:0 29:1 30:1 31:0 32:0 33:1 34:1 35:0 36:21 
512 0:0 1:0 2:1 3:0 4:0 5:1 6:1 7:0 8:1 9:0 10:0 11:1 12:1 13:1 14:1 15:0 16:1 17:0 18:1 19:0 20:0 21:1 22:0 23:1 24:1 25:1 26:1 27:1 28:1 29:1 30:1 31:1 32:1 33:1 34:0 35:1 36:11 
512 0:1 1:1 2:1 3:0 4:0 5:0 6:1 7:1 8:0 9:0 10:0 11:1 12:0 13:1 14:0 15:1 16:1 17:0 18:0 19:0 20:0 21:1 22:1 23:1 24:1 25:1 26:1 27:0 28:1 29:1 30:0 31:0 32:0 33:0 34:0 35:0 36:33 
512 0:1 1:0 2:1 3:1 4:0 5:0 6:1 7:1 8:0 9:1 10:1 11:1 12:0 13:1 14:1 15:1 16:0 17:0 18:1 19:0 20:0 21:1 22:0 23:0 24:0 25:1 26:1 27:1 28:1 29:1 30:1 31:0 32:0 33:1 34:1 35:1 36:50 
512 0:1 1:0 2:1 3:1 4:0 5:1 6:1 7:1 8:1 9:1 10:1 11:1 12:1 13:1 14:1 15:1 16:0 17:0 18:0 19:0 20:0 21:0 22:1 23:0 24:1 25:1 26:1 27:0 28:1 29:0 30:1 31:0 32:0 33:1 34:0 35:0 36:19 
512 0:1 1:1 2:1 3:1 4:0 5:1 6:1 7:1 8:1 9:1 10:1 11:0 12:0 13:1 14:1 15:1 16:0 17:0 18:1 19:0 20:0 21:0 22:0 23:1 24:0 25:1 26:1 27:1 28:1 29:0 30:1 31:0 32:0 33:1 34:0 35:0 36:58 
308.6857390779891 0:1 1:1 2:1 3:0 4:0 5:0 6:1 7:1 8:1 9:0 10:1 11:1 12:0 13:1 14:1 15:1 16:0 17:0 18:1 19:0 20:0 21:1 22:0 23:1 24:1 25:1 26:0 27:0 28:1 29:1 30:1 31:1 32:1 33:0 34:0 35:1 36:20 
512 0:1 1:1 2:1 3:0 4:0 5:0 6:1 7:1 8:1 9:0 10:0 11:1 12:1 13:1 14:1 15:0 16:0 17:0 18:1 19:0 20:1 21:1 22:0 23:0 24:0 25:1 26:1 27:0 28:1 29:0 30:0 31:0 32:0 33:0 34:0 35:0 36:68 
512 0:0 1:1 2:1 3:1 4:1 5:0 6:1 7:1 8:1 9:1 10:0 11:1 12:1 13:1 14:0 15:0 16:1 17:1 18:1 19:0 20:0 21:1 22:0 23:0 24:1 25:1 26:1 27:0 28:1 29:1 30:0 31:0 32:0 33:1 34:1 35:1 36:20 
512 0:1 1:1 2:1 3:0 4:0 5:0 6:1 7:1 8:0 9:0 10:1 11:1 12:1 13:1 14:1 15:1 16:1 17:0 18:1 19:1 20:1 21:0 22:0 23:1 24:0 25:1 26:1 27:1 28:1 29:0 30:1 31:1 32:0 33:1 34:1 35:0 36:27 
512 0:1 1:1 2:1 3:0 4:0 5:0 6:1 7:1 8:1 9:0 10:1 11:1 12:1 13:1 14:1 15:0 16:0 17:0 18:1 19:0 20:0 21:1 22:0 23:0 24:1 25:1 26:0 27:0 28:1 29:0 30:0 31:0 32:0 33:1 34:1 35:0 36:41 
512 0:0 1:1 2:1 3:1 4:1 5:0 6:1 7:0 8:0 9:1 10:1 11:1 12:1 13:1 14:1 15:0 16:0 17:0 18:1 19:1 20:0 21:1 22:1 23:0 24:1 25:1 26:0 27:1 28:1 29:1 30:0 31:0 32:0 33:1 34:0 35:1 36:23 
512 0:0 1:0 2:1 3:0 4:0 5:0 6:1 7:1 8:1 9:1 10:1 11:1 12:1 13:1 14:1 15:0 16:0 17:0 18:1 19:0 20:0 21:0 22:0 23:0 24:0 25:0 26:0 27:1 28:1 29:0 30:0 31:0 32:0 33:1 34:1 35:0 36:18 
512 0:1 1:1 2:1 3:1 4:0 5:0 6:1 7:1 8:1 9:1 10:1 11:1 12:1 13:1 14:1 15:1 16:1 17:0 18:1 19:0 20:1 21:1 22:0 23:0 24:0 25:0 26:0 27:1 28:0 29:0 30:0 31:0 32:0 33:1 34:1 35:0 36:33 
512 0:1 1:1 2:0 3:1 4:0 5:0 6:0 7:1 8:0 9:1 10:0 11:0 12:1 13:1 14:1 15:0 16:0 17:0 18:1 19:1 20:1 21:1 22:0 23:0 24:0 25:0 26:0 27:1 28:0 29:0 30:0 31:1 32:0 33:0 34:0 35:0 36:27 
512 0:1 1:1 2:0 3:1 4:1 5:0 6:1 7:1 8:1 9:1 10:1 11:1 12:1 13:1 14:1 15:0 16:0 17:0 18:0 19:0 20:0 21:1 22:1 23:1 24:0 25:0 26:1 27:1 28:1 29:0 30:1 31:1 32:0 33:0 34:0 35:0 36:14 
512 0:1 1:1 2:1 3:1 4:0 5:0 6:1 7:1 8:1 9:1 10:1 11:1 12:1 13:1 14:1 15:1 16:0 17:0 18:1 19:1 20:1 21:1 22:0 23:0 24:0 25:0 26:0 27:1 28:1 29:1 30:1 31:1 32:0 33:0 34:0 35:0 36:79 
512 0:0 1:1 2:1 3:0 4:0 5:0 6:1 7:1 8:1 9:1 10:0 11:1 12:1 13:1 14:1 15:0 16:0 17:1 18:1 19:0 20:0 21:0 22:0 23:1 24:1 25:1 26:1 27:1 28:0 29:1 30:0 31:0 32:0 33:1 34:0 35:0 36:25 
512 0:1 1:0 2:1 3:1 4:0 5:0 6:0 7:1 8:1 9:1 10:1 11:0 12:0 13:0 14:1 15:1 16:1 17:1 18:0 19:0 20:0 21:1 22:0 23:0 24:1 25:1 26:1 27:1 28:0 29:0 30:1 31:0 32:0 33:0 34:0 35:0 36:20 
512 0:1 1:0 2:0 3:0 4:0 5:1 6:1 7:1 8:1 9:0 10:1 11:1 12:1 13:0 14:0 15:0 16:0 17:0 18:1 19:0 20:0 21:1 22:0 23:0 24:1 25:1 26:1 27:1 28:1 29:0 30:1 31:0 32:0 33:1 34:1 35:0 36:17 
512 0:0 1:1 2:1 3:1 4:1 5:1 6:1 7:1 8:1 9:1 10:1 11:1 12:1 13:0 14:0 15:0 16:1 17:0 18:0 19:1 20:0 21:0 22:0 23:1 24:0 25:1 26:1 27:1 28:1 29:0 30:0 31:0 32:0 33:1 34:0 35:0 36:13 
512 0:1 1:1 2:0 3:1 4:0 5:0 6:1 7:0 8:1 9:1 10:1 11:0 12:0 13:1 14:0 15:0 16:0 17:0 18:1 19:0 20:0 21:0 22:0 23:0 24:0 25:0 26:0 27:1 28:0 29:1 30:1 31:0 32:0 33:0 34:0 35:0 36:63 
512 0:1 1:0 2:1 3:1 4:0 5:0 6:1 7:0 8:1 9:0 10:1 11:1 12:1 13:1 14:1 15:1 16:0 17:0 18:1 19:1 20:1 21:1 22:0 23:0 24:1 25:1 26:1 27:1 28:1 29:1 30:0 31:0 32:0 33:1 34:0 35:1 36:94 
512 0:1 1:1 2:1 3:1 4:1 5:1 6:1 7:1 8:1 9:0 10:1 11:1 12:1 13:0 14:0 15:1 16:0 17:0 18:1 19:0 20:1 21:1 22:0 23:1 24:1 25:1 26:1 27:1 28:1 29:0 30:0 31:0 32:0 33:1 34:0 35:0 36:13 
512 0:1 1:1 2:1 3:1 4:1 5:0 6:1 7:1 8:1 9:1 10:1 11:1 12:1 13:0 14:1 15:0 16:0 17:1 18:1 19:0 20:0 21:0 22:0 23:0 24:0 25:0 26:1 27:0 28:0 29:1 30:1 31:0 32:0 33:0 34:0 35:0 36:35 
512 0:1 1:1 2:1 3:1 4:0 5:1 6:1 7:1 8:1 9:0 10:0 11:1 12:0 13:1 14:0 15:0 16:0 17:0 18:0 19:0 20:1 21:1 22:0 23:0 24:0 25:0 26:0 27:0 28:1 29:0 30:0 31:0 32:0 33:0 34:0 35:0 36:28 
512 0:0 1:0 2:1 3:0 4:0 5:0 6:1 7:1 8:1 9:1 10:1 11:0 12:1 13:0 14:0 15:1 16:0 17:0 18:0 19:0 20:0 21:1 22:0 23:0 24:1 25:1 26:1 27:1 28:1 29:1 30:0 31:0 32:0 33:1 34:0 35:0 36:40 
512 0:1 1:0 2:1 3:1 4:0 5:0 6:1 7:1 8:1 9:0 10:1 11:0 12:1 13:0 14:1 15:1 16:1 17:0 18:1 19:1 20:0 21:1 22:0 23:1 24:1 25:1 26:1 27:1 28:0 29:1 30:1 31:0 32:0 33:0 34:0 35:0 36:42 
512 0:0 1:1 2:0 3:0 4:0 5:0 6:1 7:1 8:0 9:1 10:0 11:0 12:1 13:1 14:0 15:0 16:0 17:0 18:1 19:1 20:0 21:1 22:1 23:0 24:0 25:1 26:1 27:1 28:1 29:0 30:1 31:0 32:0 33:0 34:1 35:0 36:14 
512 0:1 1:0 2:1 3:0 4:0 5:0 6:1 7:0 8:1 9:0 10:0 11:0 12:1 13:1 14:1 15:1 16:1 17:0 18:1 19:0 20:0 21:0 22:0 23:1 24:1 25:1 26:0 27:0 28:0 29:1 30:0 31:0 32:0 33:0 34:0 35:1 36:8 
