svm_type c_svc
kernel_type rbf
gamma 0.03125
nr_class 2
total_sv 2844
rho -0.938469
label 0 1
nr_sv 1521 1323
SV
2 0:1 1:0 2:1 3:1 4:0 5:0 6:1 7:1 8:1 9:1 10:0 11:1 12:1 13:1 14:1 15:0 16:1 17:0 18:1 19:1 20:0 21:1 22:1 23:0 24:1 25:1 26:0 27:0 28:1 29:0 30:1 31:1 32:1 33:1 34:0 35:0 36:-2 37:2 38:0 39:0 40:3 
0.7996915542632814 0:1 1:1 2:1 3:1 4:0 5:1 6:1 7:1 8:1 9:0 10:1 11:1 12:1 13:0 14:1 15:0 16:1 17:0 18:1 19:1 20:0 21:1 22:1 23:1 24:0 25:0 26:1 27:1 28:1 29:1 30:0 31:0 32:1 33:1 34:1 35:0 36:-15 37:-4 38:0 39:0 40:1 
0.5762716950923841 0:1 1:1 2:0 3:1 4:0 5:0 6:1 7:0 8:1 9:1 10:0 11:1 12:1 13:1 14:1 15:1 16:1 17:0 18:1 19:1 20:0 21:0 22:0 23:1 24:0 25:1 26:1 27:0 28:0 29:1 30:0 31:0 32:1 33:0 34:0 35:0 36:-7 37:5 38:0 39:0 40:1 
2 0:1 1:1 2:1 3:1 4:1 5:0 6:0 7:0 8:1 9:1 10:1 11:0 12:1 13:1 14:1 15:0 16:0 17:0 18:0 19:0 20:1 21:1 22:1 23:1 24:1 25:0 26:1 27:0 28:1 29:1 30:1 31:0 32:1 33:1 34:1 35:0 36:-3 37:0 38:0 39:2 40:2 
2 0:0 1:1 2:1 3:0 4:0 5:1 6:0 7:0 8:1 9:1 10:1 11:1 12:1 13:1 14:0 15:1 16:1 17:0 18:1 19:0 20:0 21:1 22:0 23:0 24:1 25:1 26:1 27:0 28:1 29:0 30:0 31:0 32:0 33:1 34:1 35:0 36:-2 37:-4 38:0 39:0 40:1 
0.7197316735590605 0:1 1:1 2:1 3:0 4:0 5:0 6:1 7:1 8:1 9:0 10:1 11:1 12:0 13:1 14:1 15:1 16:1 17:0 18:0 19:0 20:1 21:1 22:1 23:0 24:1 25:1 26:1 27:1 28:1 29:0 30:0 31:0 32:0 33:0 34:0 35:0 36:-5 37:6 38:0 39:0 40:1 
2 0:1 1:1 2:1 3:1 4:1 5:1 6:0 7:1 8:1 9:0 10:1 11:1 12:1 13:1 14:1 15:1 16:1 17:1 18:1 19:0 20:0 21:1 22:0 23:0 24:1 25:0 26:0 27:0 28:1 29:1 30:1 31:1 32:1 33:0 34:1 35:0 36:1 37:1 38:0 39:1 40:3 
0.360806129463407 0:1 1:1 2:0 3:0 4:0 5:0 6:1 7:0 8:1 9:0 10:1 11:1 12:1 13:0 14:1 15:1 16:0 17:1 18:0 19:0 20:0 21:1 22:0 23:0 24:0 25:1 26:1 27:0 28:1 29:0 30:0 31:1 32:0 33:0 34:1 35:0 36:-12 37:-4 38:0 39:0 40:2 
2 0:1 1:1 2:1 3:1 4:1 5:1 6:1 7:1 8:1 9:1 10:0 11:1 12:0 13:1 14:1 15:1 16:1 17:0 18:1 19:1 20:1 21:1 22:0 23:0 24:0 25:1 26:1 27:0 28:1 29:1 30:1 31:0 32:0 33:1 34:0 35:0 36:2 37:1 38:0 39:0 40:1 
2 0:1 1:1 2:1 3:0 4:1 5:0 6:1 7:0 8:1 9:0 10:1 11:1 12:1 13:0 14:1 15:0 16:0 17:0 18:1 19:0 20:0 21:1 22:0 23:1 24:1 25:1 26:1 27:0 28:1 29:1 30:0 31:0 32:0 33:0 34:0 35:0 36:2 37:-1 38:0 39:0 40:1 
0.6839725272107091 0:0 1:0 2:0 3:1 4:0 5:0 6:1 7:1 8:1 9:1 10:1 11:0 12:0 13:1 14:0 15:0 16:0 17:0 18:0 19:0 20:0 21:1 22:0 23:0 24:1 25:0 26:0 27:1 28:0 29:1 30:1 31:1 32:1 33:1 34:0 35:1 36:4 37:-1 38:0 39:0 40:1 
2 0:0 1:1 2:1 3:1 4:0 5:0 6:1 7:1 8:0 9:1 10:1 11:1 12:1 13:1 14:1 15:1 16:1 17:0 18:1 19:0 20:0 21:1 22:1 23:0 24:0 25:1 26:1 27:0 28:1 29:0 30:0 31:0 32:0 33:1 34:0 35:0 36:1 37:-6 38:0 39:0 40:1 
2 0:0 1:1 2:1 3:0 4:0 5:1 6:0 7:1 8:1 9:1 10:1 11:1 12:0 13:1 14:0 15:0 16:0 17:0 18:1 19:0 20:0 21:1 22:1 23:0 24:0 25:1 26:0 27:1 28:1 29:0 30:0 31:0 32:0 33:1 34:1 35:0 36:1 37:-1 38:0 39:1 40:4 
0.6762694629228579 0:0 1:1 2:0 3:1 4:0 5:0 6:1 7:1 8:1 9:1 10:0 11:0 12:1 13:1 14:1 15:0 16:0 17:0 18:0 19:0 20:1 21:1 22:1 23:0 24:0 25:1 26:1 27:0 28:0 29:1 30:0 31:0 32:0 33:1 34:0 35:0 36:3 37:-10 38:0 39:0 40:2 
2 0:1 1:1 2:1 3:1 4:1 5:1 6:1 7:0 8:1 9:1 10:1 11:1 12:1 13:1 14:1 15:0 16:0 17:0 18:0 19:1 20:0 21:0 22:1 23:1 24:1 25:1 26:1 27:1 28:1 29:1 30:0 31:0 32:0 33:1 34:0 35:0 36:1 37:-1 38:0 39:0 40:1 
2 0:0 1:1 2:1 3:0 4:0 5:1 6:1 7:1 8:0 9:1 10:1 11:0 12:0 13:1 14:0 15:1 16:0 17:0 18:1 19:1 20:0 21:1 22:1 23:0 24:1 25:1 26:1 27:0 28:1 29:1 30:1 31:0 32:0 33:0 34:0 35:0 36:3 37:0 38:0 39:0 40:1 
2 0:1 1:1 2:1 3:0 4:0 5:0 6:1 7:1 8:1 9:1 10:1 11:1 12:1 13:1 14:1 15:0 16:0 17:0 18:1 19:0 20:0 21:1 22:0 23:0 24:1 25:1 26:1 27:1 28:0 29:1 30:0 31:0 32:0 33:1 34:0 35:0 36:1 37:7 38:0 39:1 40:3 
0.1152862223114788 0:1 1:1 2:1 3:1 4:0 5:1 6:1 7:1 8:1 9:1 10:1 11:0 12:1 13:1 14:1 15:1 16:1 17:0 18:1 19:0 20:0 21:1 22:1 23:1 24:1 25:1 26:1 27:0 28:0 29:0 30:1 31:0 32:0 33:0 34:0 35:0 36:8 37:11 38:0 39:0 40:1 
0.5493782460183035 0:1 1:1 2:0 3:1 4:0 5:0 6:1 7:1 8:1 9:0 10:1 11:0 12:1 13:1 14:1 15:0 16:0 17:0 18:1 19:0 20:0 21:1 22:0 23:0 24:0 25:1 26:1 27:1 28:0 29:0 30:1 31:1 32:1 33:1 34:1 35:0 36:4 37:8 38:0 39:0 40:2 
2 0:1 1:1 2:1 3:1 4:0 5:0 6:1 7:1 8:1 9:0 10:1 11:1 12:0 13:1 14:0 15:1 16:1 17:1 18:0 19:0 20:1 21:0 22:0 23:1 24:1 25:1 26:1 27:0 28:0 29:0 30:0 31:0 32:0 33:0 34:0 35:0 36:1 37:1 38:0 39:0 40:1 
1.037948530346852 0:1 1:1 2:1 3:1 4:0 5:1 6:1 7:1 8:1 9:1 10:0 11:0 12:1 13:1 14:1 15:0 16:1 17:1 18:1 19:1 20:0 21:1 22:0 23:1 24:1 25:0 26:1 27:1 28:0 29:1 30:0 31:0 32:0 33:1 34:0 35:0 36:-5 37:3 38:0 39:0 40:1 
2 0:1 1:1 2:1 3:1 4:0 5:1 6:0 7:1 8:1 9:0 10:1 11:1 12:1 13:1 14:1 15:1 16:1 17:0 18:1 19:1 20:0 21:1 22:0 23:0 24:1 25:1 26:1 27:1 28:0 29:1 30:1 31:0 32:0 33:1 34:0 35:0 36:-3 37:4 38:0 39:0 40:1 
2 0:1 1:0 2:1 3:1 4:0 5:0 6:1 7:1 8:1 9:1 10:1 11:1 12:1 13:1 14:1 15:0 16:1 17:1 18:1 19:1 20:0 21:1 22:0 23:1 24:1 25:1 26:1 27:1 28:1 29:1 30:1 31:0 32:0 33:1 34:1 35:0 36:-4 37:-1 38:0 39:0 40:2 
1.211071831388755 0:1 1:1 2:1 3:1 4:0 5:0 6:1 7:1 8:0 9:1 10:1 11:1 12:1 13:1 14:1 15:0 16:0 17:0 18:1 19:0 20:0 21:1 22:1 23:0 24:1 25:0 26:1 27:0 28:1 29:1 30:1 31:0 32:0 33:1 34:0 35:1 36:0 37:5 38:0 39:0 40:1 
2 0:0 1:1 2:1 3:0 4:1 5:1 6:1 7:1 8:1 9:0 10:1 11:0 12:1 13:1 14:1 15:1 16:1 17:1 18:1 19:0 20:0 21:1 22:0 23:1 24:0 25:0 26:1 27:0 28:1 29:1 30:1 31:0 32:0 33:0 34:0 35:0 36:8 37:-3 38:0 39:0 40:3 
2 0:0 1:1 2:1 3:0 4:1 5:1 6:1 7:1 8:1 9:1 10:1 11:1 12:1 13:0 14:1 15:0 16:0 17:0 18:1 19:0 20:0 21:1 22:0 23:1 24:0 25:0 26:0 27:1 28:0 29:1 30:1 31:0 32:0 33:1 34:0 35:0 36:2 37:1 38:0 39:1 40:2 
2 0:1 1:1 2:1 3:1 4:1 5:1 6:1 7:0 8:1 9:0 10:1 11:1 12:1 13:1 14:0 15:0 16:1 17:0 18:0 19:0 20:0 21:1 22:1 23:0 24:1 25:1 26:1 27:0 28:0 29:0 30:1 31:0 32:0 33:0 34:0 35:0 36:0 37:-1 38:0 39:0 40:2 
2 0:1 1:1 2:1 3:1 4:0 5:0 6:0 7:1 8:0 9:0 10:0 11:1 12:1 13:1 14:1 15:0 16:0 17:0 18:1 19:0 20:1 21:1 22:0 23:0 24:1 25:1 26:1 27:0 28:1 29:1 30:1 31:0 32:0 33:1 34:0 35:0 36:3 37:0 38:0 39:0 40:3 
2 0:1 1:1 2:1 3:1 4:0 5:1 6:1 7:1 8:0 9:1 10:1 11:1 12:1 13:0 14:1 15:1 16:1 17:0 18:1 19:0 20:0 21:1 22:0 23:0 24:0 25:1 26:1 27:0 28:1 29:0 30:1 31:0 32:0 33:1 34:1 35:0 36:-1 37:-2 38:0 39:0 40:1 
2 0:1 1:1 2:1 3:0 4:0 5:1 6:0 7:1 8:1 9:1 10:1 11:1 12:1 13:1 14:1 15:1 16:1 17:0 18:1 19:0 20:0 21:0 22:0 23:1 24:0 25:1 26:1 27:1 28:0 29:1 30:1 31:0 32:0 33:1 34:0 35:1 36:4 37:1 38:0 39:0 40:3 
2 0:1 1:1 2:1 3:1 4:0 5:0 6:1 7:1 8:1 9:1 10:1 11:1 12:0 13:1 14:1 15:0 16:0 17:0 18:1 19:0 20:0 21:0 22:0 23:1 24:1 25:1 26:1 27:1 28:1 29:0 30:0 31:0 32:1 33:1 34:0 35:0 36:-3 37:2 38:0 39:0 40:1 
0.8930220620756358 0:0 1:0 2:1 3:0 4:0 5:1 6:0 7:0 8:1 9:0 10:1 11:1 12:1 13:1 14:1 15:1 16:0 17:0 18:0 19:0 20:0 21:1 22:1 23:0 24:0 25:0 26:0 27:1 28:0 29:0 30:0 31:0 32:0 33:0 34:0 35:0 36:1 37:3 38:0 39:0 40:1 
2 0:0 1:1 2:1 3:1 4:1 5:0 6:0 7:1 8:1 9:1 10:1 11:1 12:1 13:1 14:1 15:1 16:1 17:0 18:1 19:1 20:0 21:1 22:0 23:1 24:1 25:1 26:1 27:1 28:1 29:1 30:1 31:0 32:0 33:0 34:1 35:0 36:2 37:-5 38:0 39:0 40:1 
2 0:1 1:1 2:0 3:1 4:1 5:0 6:1 7:0 8:1 9:1 10:1 11:1 12:1 13:0 14:1 15:1 16:0 17:0 18:1 19:0 20:0 21:1 22:1 23:0 24:0 25:0 26:1 27:1 28:0 29:0 30:1 31:0 32:0 33:0 34:0 35:0 36:3 37:1 38:0 39:1 40:1 
2 0:1 1:1 2:1 3:1 4:1 5:1 6:1 7:0 8:0 9:1 10:1 11:0 12:0 13:0 14:1 15:0 16:0 17:0 18:1 19:0 20:0 21:1 22:1 23:0 24:0 25:0 26:0 27:1 28:1 29:1 30:0 31:0 32:0 33:1 34:1 35:0 36:-2 37:0 38:0 39:0 40:2 
2 0:1 1:1 2:1 3:1 4:0 5:1 6:1 7:1 8:1 9:0 10:1 11:1 12:0 13:1 14:1 15:1 16:0 17:0 18:0 19:1 20:0 21:1 22:0 23:1 24:0 25:1 26:1 27:0 28:0 29:0 30:1 31:0 32:1 33:0 34:0 35:0 36:1 37:0 38:0 39:0 40:2 
2 0:1 1:0 2:1 3:1 4:0 5:0 6:1 7:0 8:0 9:1 10:0 11:1 12:1 13:0 14:1 15:1 16:0 17:0 18:0 19:1 20:0 21:1 22:0 23:0 24:0 25:1 26:1 27:1 28:1 29:1 30:1 31:1 32:0 33:1 34:1 35:0 36:-3 37:0 38:0 39:0 40:1 
2 0:1 1:1 2:0 3:0 4:0 5:0 6:0 7:1 8:1 9:1 10:1 11:1 12:1 13:1 14:1 15:0 16:0 17:0 18:1 19:0 20:0 21:0 22:0 23:0 24:0 25:1 26:1 27:0 28:0 29:1 30:0 31:0 32:0 33:0 34:0 35:0 36:2 37:-1 38:0 39:0 40:1 
1.725742287655466 0:1 1:0 2:1 3:1 4:0 5:0 6:1 7:0 8:1 9:1 10:1 11:1 12:1 13:0 14:1 15:0 16:1 17:1 18:1 19:0 20:0 21:1 22:1 23:0 24:1 25:1 26:1 27:1 28:1 29:1 30:0 31:0 32:0 33:1 34:0 35:0 36:4 37:-5 38:0 39:0 40:1 
2 0:1 1:0 2:1 3:1 4:0 5:0 6:1 7:1 8:0 9:1 10:1 11:0 12:1 13:1 14:0 15:0 16:0 17:0 18:0 19:0 20:0 21:1 22:0 23:0 24:1 25:1 26:1 27:0 28:0 29:1 30:0 31:0 32:0 33:0 34:1 35:1 36:1 37:-2 38:0 39:0 40:1 
2 0:1 1:1 2:1 3:1 4:0 5:0 6:1 7:1 8:1 9:1 10:0 11:1 12:1 13:1 14:1 15:1 16:1 17:0 18:1 19:0 20:0 21:1 22:0 23:0 24:1 25:1 26:1 27:1 28:1 29:1 30:1 31:0 32:0 33:1 34:1 35:0 36:3 37:9 38:0 39:0 40:1 
2 0:1 1:0 2:1 3:1 4:0 5:0 6:1 7:1 8:1 9:1 10:1 11:1 12:1 13:1 14:1 15:0 16:0 17:0 18:1 19:1 20:1 21:1 22:1 23:0 24:1 25:0 26:1 27:0 28:1 29:0 30:0 31:0 32:0 33:1 34:0 35:0 36:1 37:1 38:0 39:0 40:2 
0.4081445546902679 0:1 1:1 2:1 3:1 4:1 5:1 6:1 7:1 8:1 9:0 10:0 11:1 12:1 13:1 14:1 15:0 16:0 17:0 18:0 19:0 20:0 21:1 22:0 23:0 24:1 25:1 26:1 27:1 28:1 29:0 30:0 31:0 32:0 33:1 34:1 35:0 36:6 37:-2 38:0 39:0 40:1 
2 0:1 1:1 2:1 3:0 4:0 5:0 6:1 7:1 8:1 9:0 10:1 11:0 12:1 13:1 14:0 15:0 16:0 17:0 18:1 19:0 20:1 21:1 22:0 23:0 24:0 25:1 26:1 27:0 28:1 29:0 30:1 31:0 32:0 33:1 34:1 35:0 36:5 37:1 38:0 39:0 40:1 
2 0:1 1:1 2:0 3:1 4:0 5:0 6:0 7:1 8:1 9:1 10:1 11:1 12:1 13:1 14:1 15:1 16:0 17:1 18:1 19:0 20:0 21:0 22:0 23:0 24:0 25:1 26:1 27:0 28:1 29:0 30:0 31:0 32:0 33:0 34:0 35:0 36:-5 37:-5 38:0 39:0 40:3 
0.166045002903566 0:1 1:1 2:1 3:0 4:0 5:0 6:1 7:1 8:0 9:1 10:1 11:0 12:1 13:1 14:1 15:0 16:1 17:0 18:0 19:0 20:0 21:0 22:1 23:1 24:1 25:0 26:0 27:0 28:1 29:1 30:1 31:0 32:0 33:1 34:0 35:1 36:-1 37:-10 38:0 39:0 40:3 
0.9527629105651513 0:1 1:1 2:1 3:1 4:1 5:0 6:1 7:1 8:1 9:1 10:0 11:1 12:1 13:0 14:1 15:1 16:0 17:0 18:0 19:0 20:1 21:0 22:0 23:0 24:0 25:1 26:1 27:0 28:0 29:0 30:1 31:0 32:0 33:1 34:1 35:0 36:-6 37:1 38:0 39:0 40:2 
2 0:1 1:1 2:0 3:1 4:1 5:1 6:1 7:1 8:1 9:0 10:0 11:0 12:1 13:1 14:1 15:0 16:0 17:0 18:1 19:0 20:0 21:1 22:0 23:0 24:0 25:1 26:0 27:0 28:0 29:0 30:0 31:0 32:0 33:1 34:1 35:0 36:-2 37:0 38:0 39:0 40:1 
2 0:1 1:0 2:1 3:0 4:0 5:0 6:0 7:1 8:1 9:1 10:1 11:1 12:0 13:1 14:1 15:0 16:0 17:0 18:1 19:1 20:0 21:1 22:0 23:0 24:1 25:0 26:1 27:0 28:0 29:0 30:0 31:0 32:0 33:1 34:0 35:1 36:0 37:3 38:0 39:0 40:1 
2 0:1 1:1 2:1 3:0 4:0 5:0 6:0 7:1 8:1 9:0 10:1 11:1 12:1 13:1 14:1 15:1 16:0 17:0 18:1 19:1 20:0 21:1 22:0 23:0 24:0 25:0 26:1 27:1 28:0 29:1 30:0 31:0 32:0 33:1 34:1 35:0 36:-2 37:-1 38:0 39:0 40:2 
2 0:1 1:0 2:1 3:1 4:0 5:1 6:1 7:1 8:0 9:1 10:1 11:1 12:1 13:0 14:1 15:0 16:0 17:0 18:1 19:0 20:0 21:1 22:0 23:0 24:1 25:1 26:1 27:1 28:0 29:1 30:1 31:0 32:0 33:1 34:0 35:0 36:-1 37:-1 38:0 39:1 40:4 
0.1237756823883346 0:0 1:1 2:0 3:1 4:0 5:0 6:1 7:1 8:1 9:1 10:1 11:1 12:1 13:1 14:1 15:0 16:0 17:0 18:0 19:0 20:0 21:1 22:1 23:0 24:0 25:1 26:1 27:0 28:1 29:0 30:1 31:0 32:0 33:1 34:0 35:0 36:12 37:12 38:0 39:0 40:2 
2 0:1 1:1 2:1 3:0 4:0 5:0 6:1 7:1 8:0 9:1 10:1 11:1 12:1 13:0 14:1 15:0 16:0 17:0 18:1 19:0 20:0 21:1 22:1 23:1 24:0 25:1 26:1 27:0 28:1 29:0 30:1 31:1 32:0 33:0 34:0 35:0 36:0 37:0 38:1 39:0 40:2 
2 0:1 1:1 2:1 3:1 4:1 5:1 6:0 7:1 8:1 9:0 10:1 11:1 12:1 13:1 14:0 15:1 16:0 17:0 18:0 19:0 20:0 21:0 22:0 23:0 24:1 25:1 26:1 27:0 28:1 29:1 30:1 31:0 32:0 33:1 34:0 35:1 36:1 37:0 38:0 39:0 40:3 
2 0:1 1:1 2:1 3:0 4:0 5:0 6:1 7:0 8:1 9:0 10:1 11:1 12:1 13:1 14:1 15:0 16:0 17:1 18:1 19:0 20:1 21:1 22:0 23:0 24:0 25:1 26:1 27:1 28:0 29:1 30:1 31:1 32:1 33:0 34:1 35:0 36:2 37:0 38:0 39:0 40:1 
2 0:0 1:1 2:1 3:1 4:0 5:1 6:1 7:1 8:1 9:1 10:1 11:0 12:1 13:0 14:1 15:1 16:0 17:0 18:1 19:1 20:0 21:1 22:0 23:1 24:0 25:1 26:1 27:0 28:0 29:1 30:0 31:0 32:0 33:0 34:0 35:0 36:-1 37:1 38:0 39:0 40:1 
2 0:1 1:1 2:1 3:1 4:0 5:0 6:1 7:1 8:1 9:1 10:1 11:0 12:1 13:1 14:0 15:1 16:0 17:0 18:1 19:1 20:1 21:1 22:1 23:1 24:1 25:1 26:1 27:1 28:1 29:1 30:1 31:0 32:1 33:1 34:1 35:1 36:-2 37:-2 38:0 39:1 40:1 
2 0:0 1:1 2:1 3:1 4:0 5:0 6:1 7:1 8:1 9:1 10:0 11:0 12:0 13:0 14:1 15:1 16:1 17:1 18:1 19:0 20:1 21:1 22:0 23:1 24:0 25:0 26:0 27:0 28:0 29:1 30:1 31:0 32:0 33:0 34:0 35:0 36:-1 37:3 38:0 39:0 40:1 
2 0:1 1:1 2:1 3:1 4:0 5:0 6:1 7:1 8:0 9:1 10:1 11:0 12:1 13:1 14:1 15:1 16:0 17:0 18:1 19:0 20:0 21:0 22:1 23:0 24:0 25:0 26:1 27:1 28:0 29:0 30:1 31:1 32:1 33:0 34:0 35:0 36:-1 37:-4 38:0 39:0 40:1 
1.292397976718795 0:1 1:1 2:1 3:0 4:1 5:0 6:1 7:0 8:1 9:1 10:1 11:1 12:1 13:1 14:1 15:0 16:0 17:1 18:1 19:0 20:0 21:1 22:0 23:1 24:0 25:1 26:0 27:1 28:1 29:1 30:1 31:1 32:0 33:1 34:1 35:0 36:-8 37:-2 38:0 39:0 40:3 
2 0:1 1:0 2:1 3:1 4:0 5:0 6:1 7:0 8:1 9:1 10:1 11:1 12:0 13:1 14:1 15:0 16:1 17:1 18:0 19:0 20:0 21:1 22:0 23:1 24:1 25:1 26:1 27:1 28:1 29:1 30:1 31:0 32:0 33:1 34:1 35:0 36:1 37:-2 38:0 39:0 40:2 
1.203217094436815 0:1 1:1 2:1 3:1 4:0 5:1 6:1 7:1 8:0 9:0 10:1 11:1 12:1 13:1 14:0 15:0 16:0 17:0 18:1 19:0 20:0 21:0 22:0 23:0 24:0 25:1 26:1 27:0 28:1 29:1 30:1 31:1 32:0 33:0 34:0 35:1 36:9 37:-5 38:0 39:0 40:1 
2 0:1 1:0 2:1 3:1 4:1 5:1 6:1 7:1 8:1 9:1 10:1 11:1 12:1 13:1 14:1 15:1 16:0 17:0 18:1 19:0 20:0 21:1 22:0 23:1 24:0 25:0 26:0 27:1 28:1 29:1 30:1 31:1 32:1 33:1 34:0 35:0 36:3 37:0 38:0 39:0 40:1 
2 0:1 1:0 2:1 3:1 4:1 5:0 6:0 7:1 8:1 9:0 10:1 11:0 12:1 13:1 14:1 15:1 16:0 17:1 18:1 19:0 20:0 21:0 22:1 23:1 24:0 25:0 26:0 27:1 28:0 29:1 30:1 31:0 32:0 33:1 34:0 35:0 36:-3 37:-1 38:0 39:0 40:1 
2 0:1 1:1 2:1 3:1 4:0 5:0 6:1 7:1 8:0 9:1 10:1 11:1 12:1 13:1 14:1 15:1 16:0 17:0 18:1 19:1 20:1 21:1 22:0 23:1 24:1 25:0 26:1 27:1 28:1 29:0 30:1 31:0 32:0 33:1 34:0 35:0 36:-3 37:-4 38:0 39:1 40:1 
2 0:1 1:0 2:1 3:1 4:0 5:0 6:0 7:0 8:1 9:0 10:1 11:1 12:0 13:1 14:1 15:1 16:0 17:1 18:1 19:1 20:0 21:1 22:0 23:1 24:1 25:1 26:0 27:0 28:1 29:1 30:0 31:0 32:0 33:1 34:1 35:0 36:1 37:0 38:0 39:0 40:1 
2 0:1 1:1 2:1 3:1 4:1 5:0 6:1 7:1 8:1 9:1 10:1 11:1 12:1 13:1 14:0 15:1 16:0 17:0 18:1 19:1 20:1 21:0 22:0 23:0 24:0 25:1 26:1 27:0 28:0 29:1 30:0 31:1 32:0 33:0 34:0 35:0 36:-3 37:0 38:0 39:0 40:2 
2 0:1 1:1 2:0 3:1 4:0 5:0 6:1 7:0 8:0 9:0 10:0 11:1 12:1 13:1 14:0 15:0 16:0 17:0 18:0 19:1 20:1 21:0 22:0 23:0 24:0 25:1 26:0 27:0 28:0 29:0 30:0 31:0 32:0 33:0 34:0 35:1 36:-2 37:0 38:0 39:1 40:3 
2 0:1 1:1 2:1 3:1 4:0 5:1 6:1 7:1 8:1 9:0 10:0 11:1 12:1 13:1 14:1 15:1 16:0 17:1 18:1 19:0 20:0 21:1 22:0 23:0 24:0 25:0 26:0 27:1 28:0 29:1 30:1 31:1 32:1 33:0 34:0 35:0 36:-4 37:-1 38:0 39:0 40:1 
2 0:1 1:0 2:1 3:0 4:1 5:1 6:1 7:1 8:1 9:1 10:0 11:0 12:0 13:1 14:0 15:1 16:1 17:0 18:1 19:0 20:1 21:0 22:0 23:1 24:1 25:1 26:1 27:0 28:1 29:0 30:1 31:1 32:0 33:0 34:0 35:0 36:-3 37:-2 38:0 39:0 40:1 
0.2515645713575666 0:0 1:1 2:1 3:1 4:1 5:1 6:0 7:1 8:1 9:1 10:1 11:1 12:0 13:0 14:1 15:1 16:0 17:1 18:0 19:0 20:0 21:1 22:0 23:0 24:0 25:0 26:1 27:1 28:0 29:1 30:1 31:0 32:0 33:0 34:0 35:1 36:1 37:-6 38:0 39:1 40:2 
2 0:1 1:1 2:1 3:1 4:0 5:0 6:1 7:1 8:1 9:1 10:1 11:1 12:0 13:1 14:1 15:0 16:1 17:1 18:0 19:0 20:0 21:1 22:0 23:0 24:0 25:1 26:0 27:1 28:0 29:0 30:1 31:1 32:0 33:1 34:1 35:0 36:0 37:-1 38:0 39:0 40:1 
1.96800928700601 0:1 1:1 2:1 3:1 4:0 5:0 6:0 7:1 8:0 9:1 10:1 11:1 12:0 13:1 14:1 15:1 16:0 17:0 18:0 19:0 20:0 21:1 22:0 23:1 24:0 25:0 26:0 27:0 28:1 29:1 30:1 31:0 32:0 33:1 34:0 35:0 36:-11 37:-2 38:0 39:0 40:1 
2 0:1 1:1 2:1 3:0 4:1 5:0 6:1 7:1 8:0 9:1 10:1 11:0 12:1 13:0 14:1 15:0 16:0 17:0 18:0 19:0 20:0 21:1 22:0 23:0 24:1 25:1 26:1 27:1 28:1 29:0 30:1 31:0 32:0 33:1 34:1 35:0 36:-1 37:3 38:0 39:1 40:1 
2 0:1 1:0 2:1 3:1 4:1 5:0 6:0 7:1 8:1 9:1 10:0 11:1 12:1 13:1 14:1 15:1 16:0 17:0 18:1 19:0 20:0 21:1 22:0 23:0 24:1 25:1 26:1 27:0 28:1 29:0 30:0 31:0 32:0 33:0 34:1 35:0 36:-3 37:-2 38:0 39:0 40:2 
2 0:0 1:0 2:0 3:0 4:0 5:0 6:1 7:1 8:1 9:1 10:1 11:1 12:0 13:1 14:1 15:1 16:1 17:0 18:1 19:0 20:0 21:1 22:0 23:1 24:0 25:1 26:1 27:0 28:0 29:1 30:1 31:0 32:0 33:1 34:0 35:0 36:2 37:0 38:0 39:0 40:1 
0.7932059469834366 0:1 1:1 2:1 3:1 4:1 5:1 6:1 7:1 8:1 9:1 10:0 11:0 12:0 13:1 14:1 15:0 16:0 17:0 18:0 19:0 20:0 21:0 22:0 23:1 24:1 25:1 26:1 27:0 28:1 29:0 30:1 31:0 32:0 33:0 34:0 35:0 36:-16 37:-4 38:0 39:1 40:2 
2 0:1 1:1 2:1 3:0 4:0 5:1 6:1 7:1 8:1 9:1 10:0 11:1 12:1 13:1 14:0 15:1 16:0 17:0 18:1 19:0 20:0 21:0 22:1 23:0 24:1 25:1 26:1 27:1 28:1 29:0 30:1 31:1 32:0 33:1 34:0 35:0 36:-1 37:-1 38:0 39:0 40:1 
2 0:0 1:1 2:0 3:1 4:0 5:0 6:1 7:1 8:1 9:1 10:1 11:0 12:1 13:0 14:1 15:1 16:1 17:0 18:1 19:0 20:1 21:1 22:0 23:1 24:0 25:0 26:1 27:1 28:1 29:1 30:1 31:0 32:0 33:1 34:1 35:0 36:-2 37:-1 38:0 39:0 40:3 
2 0:0 1:1 2:1 3:1 4:1 5:1 6:1 7:1 8:1 9:1 10:1 11:1 12:1 13:0 14:1 15:1 16:0 17:0 18:0 19:0 20:0 21:0 22:0 23:0 24:0 25:0 26:0 27:0 28:0 29:0 30:0 31:0 32:0 33:1 34:0 35:0 36:2 37:-2 38:0 39:0 40:1 
1.798713676419111 0:1 1:0 2:0 3:1 4:0 5:0 6:1 7:1 8:1 9:0 10:1 11:1 12:1 13:1 14:1 15:0 16:0 17:0 18:1 19:0 20:1 21:0 22:1 23:0 24:1 25:1 26:1 27:1 28:1 29:1 30:0 31:0 32:0 33:1 34:1 35:1 36:-4 37:1 38:0 39:0 40:2 
2 0:1 1:1 2:1 3:1 4:0 5:0 6:1 7:1 8:1 9:0 10:0 11:0 12:1 13:1 14:0 15:1 16:1 17:1 18:1 19:1 20:0 21:1 22:0 23:0 24:0 25:1 26:1 27:1 28:0 29:1 30:0 31:1 32:0 33:0 34:0 35:1 36:0 37:3 38:0 39:0 40:1 
2 0:1 1:1 2:1 3:0 4:0 5:0 6:1 7:1 8:1 9:0 10:0 11:1 12:1 13:1 14:1 15:1 16:0 17:0 18:1 19:0 20:0 21:1 22:0 23:1 24:1 25:0 26:1 27:1 28:0 29:0 30:1 31:0 32:0 33:1 34:0 35:0 36:-3 37:5 38:0 39:0 40:1 
2 0:0 1:0 2:1 3:1 4:1 5:1 6:1 7:1 8:1 9:1 10:0 11:0 12:1 13:1 14:1 15:1 16:0 17:0 18:0 19:1 20:1 21:1 22:1 23:1 24:1 25:1 26:1 27:0 28:1 29:1 30:1 31:0 32:1 33:0 34:1 35:0 36:1 37:-2 38:1 39:0 40:2 
2 0:1 1:1 2:1 3:0 4:0 5:0 6:1 7:0 8:1 9:0 10:1 11:1 12:1 13:0 14:0 15:1 16:1 17:0 18:1 19:1 20:0 21:1 22:0 23:1 24:0 25:1 26:1 27:0 28:1 29:0 30:1 31:1 32:1 33:0 34:0 35:0 36:1 37:-4 38:0 39:0 40:1 
2 0:1 1:1 2:1 3:1 4:1 5:1 6:1 7:1 8:1 9:0 10:1 11:0 12:1 13:1 14:1 15:0 16:0 17:1 18:1 19:0 20:1 21:1 22:0 23:1 24:1 25:1 26:0 27:1 28:1 29:1 30:0 31:0 32:0 33:0 34:1 35:1 36:3 37:-1 38:0 39:0 40:2 
1.347153617494136 0:1 1:1 2:1 3:1 4:0 5:1 6:1 7:1 8:1 9:1 10:0 11:1 12:1 13:1 14:1 15:1 16:0 17:0 18:1 19:0 20:1 21:1 22:0 23:0 24:1 25:1 26:1 27:0 28:1 29:1 30:1 31:0 32:0 33:1 34:0 35:0 36:11 37:0 38:0 39:0 40:1 
1.382183842466225 0:1 1:1 2:1 3:0 4:0 5:0 6:1 7:0 8:1 9:1 10:1 11:1 12:1 13:1 14:1 15:1 16:1 17:1 18:1 19:1 20:1 21:1 22:0 23:0 24:1 25:0 26:1 27:1 28:1 29:1 30:1 31:1 32:0 33:1 34:0 35:1 36:-3 37:4 38:0 39:1 40:1 
2 0:1 1:1 2:0 3:1 4:0 5:0 6:1 7:1 8:1 9:0 10:0 11:0 12:1 13:0 14:1 15:1 16:1 17:0 18:0 19:0 20:0 21:0 22:1 23:0 24:1 25:1 26:1 27:1 28:1 29:1 30:0 31:1 32:0 33:1 34:0 35:0 36:-1 37:4 38:0 39:0 40:1 
0.8988079935355827 0:1 1:1 2:1 3:0 4:0 5:0 6:0 7:1 8:1 9:0 10:1 11:0 12:1 13:1 14:1 15:1 16:0 17:1 18:1 19:1 20:0 21:1 22:0 23:0 24:1 25:1 26:0 27:0 28:0 29:1 30:0 31:0 32:0 33:1 34:0 35:0 36:6 37:1 38:0 39:0 40:3 
0.5811334797252518 0:0 1:1 2:1 3:0 4:0 5:0 6:1 7:1 8:1 9:0 10:1 11:1 12:0 13:1 14:1 15:1 16:0 17:0 18:0 19:0 20:0 21:0 22:0 23:1 24:1 25:0 26:1 27:0 28:0 29:1 30:1 31:0 32:0 33:1 34:0 35:0 36:-6 37:-4 38:0 39:0 40:1 
2 0:1 1:1 2:0 3:1 4:0 5:0 6:1 7:0 8:1 9:1 10:1 11:0 12:1 13:1 14:1 15:0 16:1 17:0 18:0 19:0 20:1 21:0 22:0 23:1 24:0 25:1 26:1 27:0 28:1 29:1 30:1 31:0 32:0 33:0 34:0 35:0 36:2 37:1 38:0 39:1 40:2 
1.394595399958775 0:1 1:1 2:1 3:1 4:1 5:0 6:1 7:0 8:1 9:1 10:1 11:1 12:1 13:0 14:1 15:1 16:1 17:0 18:1 19:0 20:0 21:1 22:0 23:1 24:1 25:1 26:1 27:1 28:1 29:1 30:1 31:1 32:0 33:1 34:1 35:1 36:6 37:1 38:0 39:0 40:1 
0.5022528344300504 0:1 1:1 2:1 3:1 4:0 5:0 6:1 7:0 8:0 9:1 10:1 11:0 12:1 13:1 14:1 15:1 16:0 17:0 18:0 19:0 20:0 21:1 22:0 23:0 24:0 25:0 26:1 27:1 28:0 29:1 30:1 31:0 32:0 33:0 34:0 35:0 36:8 37:-2 38:0 39:0 40:1 
0.3416205239793015 0:1 1:0 2:0 3:0 4:0 5:0 6:1 7:0 8:0 9:0 10:1 11:0 12:1 13:0 14:0 15:1 16:0 17:0 18:0 19:0 20:0 21:0 22:0 23:1 24:1 25:1 26:1 27:0 28:1 29:0 30:0 31:0 32:0 33:1 34:1 35:0 36:-10 37:-2 38:0 39:0 40:1 
2 0:1 1:1 2:1 3:1 4:1 5:1 6:1 7:0 8:1 9:1 10:1 11:0 12:1 13:0 14:1 15:0 16:0 17:0 18:0 19:1 20:1 21:1 22:1 23:0 24:1 25:1 26:1 27:1 28:1 29:1 30:1 31:0 32:0 33:1 34:0 35:0 36:0 37:0 38:0 39:0 40:2 
2 0:1 1:1 2:0 3:1 4:0 5:1 6:1 7:1 8:1 9:1 10:1 11:1 12:1 13:1 14:1 15:0 16:0 17:1 18:1 19:0 20:0 21:1 22:0 23:0 24:1 25:1 26:1 27:1 28:1 29:0 30:0 31:0 32:0 33:0 34:0 35:0 36:3 37:-3 38:0 39:0 40:1 
0.9250771581661316 0:0 1:1 2:1 3:0 4:0 5:0 6:0 7:0 8:1 9:0 10:1 11:1 12:1 13:1 14:0 15:1 16:0 17:0 18:1 19:0 20:1 21:1 22:1 23:0 24:0 25:1 26:1 27:1 28:0 29:0 30:0 31:0 32:0 33:1 34:0 35:0 36:-10 37:8 38:0 39:0 40:1 
1.136310154429848 0:1 1:1 2:1 3:0 4:0 5:0 6:1 7:1 8:1 9:1 10:1 11:1 12:0 13:0 14:1 15:0 16:0 17:0 18:1 19:0 20:1 21:1 22:0 23:1 24:1 25:1 26:0 27:0 28:0 29:0 30:1 31:1 32:0 33:1 34:0 35:0 36:4 37:0 38:0 39:0 40:2 
2 0:1 1:1 2:1 3:1 4:1 5:0 6:0 7:1 8:1 9:1 10:1 11:1 12:0 13:0 14:1 15:0 16:1 17:0 18:1 19:1 20:1 21:1 22:0 23:0 24:0 25:0 26:1 27:1 28:1 29:0 30:0 31:0 32:0 33:0 34:1 35:0 36:2 37:1 38:0 39:0 40:1 
0.8911110765931966 0:1 1:0 2:1 3:1 4:1 5:0 6:1 7:1 8:1 9:0 10:1 11:1 12:1 13:0 14:1 15:1 16:0 17:0 18:1 19:0 20:1 21:0 22:1 23:1 24:1 25:1 26:1 27:0 28:1 29:0 30:0 31:0 32:0 33:1 34:0 35:0 36:-2 37:-4 38:0 39:0 40:1 
2 0:1 1:1 2:1 3:1 4:0 5:0 6:1 7:1 8:1 9:1 10:1 11:1 12:1 13:1 14:1 15:1 16:0 17:1 18:1 19:1 20:1 21:0 22:0 23:0 24:0 25:1 26:1 27:0 28:0 29:1 30:1 31:0 32:1 33:1 34:0 35:0 36:-2 37:0 38:0 39:0 40:2 
0.4150947994512046 0:1 1:0 2:1 3:1 4:1 5:0 6:0 7:1 8:1 9:0 10:0 11:0 12:1 13:0 14:1 15:0 16:0 17:0 18:1 19:0 20:1 21:1 22:0 23:0 24:0 25:1 26:1 27:1 28:1 29:1 30:1 31:1 32:0 33:1 34:1 35:0 36:6 37:-2 38:0 39:1 40:1 
2 0:1 1:1 2:1 3:1 4:0 5:1 6:0 7:1 8:1 9:1 10:1 11:1 12:0 13:1 14:1 15:0 16:0 17:0 18:1 19:0 20:0 21:1 22:1 23:0 24:0 25:0 26:1 27:0 28:0 29:1 30:0 31:0 32:0 33:0 34:1 35:0 36:-1 37:0 38:1 39:0 40:4 
2 0:1 1:1 2:0 3:1 4:0 5:0 6:1 7:1 8:1 9:1 10:1 11:0 12:0 13:1 14:1 15:1 16:0 17:0 18:1 19:0 20:1 21:1 22:0 23:0 24:1 25:1 26:0 27:0 28:1 29:1 30:0 31:0 32:0 33:1 34:0 35:0 36:-1 37:0 38:0 39:0 40:1 
2 0:0 1:1 2:1 3:1 4:0 5:1 6:1 7:1 8:1 9:0 10:0 11:1 12:1 13:0 14:0 15:1 16:0 17:0 18:1 19:0 20:0 21:1 22:0 23:0 24:1 25:0 26:0 27:0 28:1 29:1 30:1 31:0 32:1 33:0 34:0 35:0 36:0 37:-3 38:0 39:0 40:1 
0.2604929259344035 0:1 1:0 2:0 3:1 4:0 5:0 6:1 7:1 8:0 9:0 10:1 11:1 12:0 13:0 14:0 15:1 16:0 17:0 18:1 19:0 20:1 21:1 22:0 23:1 24:1 25:0 26:1 27:1 28:1 29:0 30:1 31:0 32:0 33:1 34:0 35:1 36:-3 37:10 38:0 39:0 40:1 
2 0:1 1:0 2:0 3:1 4:0 5:0 6:1 7:0 8:1 9:0 10:1 11:1 12:1 13:1 14:1 15:1 16:0 17:0 18:1 19:1 20:0 21:1 22:0 23:1 24:0 25:0 26:0 27:1 28:0 29:0 30:0 31:1 32:0 33:1 34:1 35:0 36:-3 37:2 38:0 39:0 40:1 
2 0:1 1:1 2:0 3:1 4:1 5:1 6:0 7:1 8:1 9:1 10:1 11:1 12:1 13:1 14:1 15:0 16:1 17:0 18:1 19:1 20:0 21:1 22:0 23:1 24:0 25:0 26:1 27:1 28:0 29:1 30:1 31:1 32:0 33:1 34:0 35:0 36:0 37:0 38:0 39:0 40:1 
2 0:1 1:1 2:1 3:0 4:0 5:1 6:1 7:1 8:1 9:1 10:1 11:1 12:1 13:1 14:1 15:1 16:0 17:1 18:1 19:0 20:0 21:1 22:0 23:0 24:0 25:0 26:1 27:0 28:1 29:1 30:1 31:0 32:0 33:0 34:1 35:1 36:2 37:-5 38:0 39:0 40:1 
2 0:1 1:1 2:0 3:1 4:1 5:1 6:0 7:1 8:1 9:0 10:1 11:1 12:0 13:0 14:0 15:1 16:0 17:0 18:1 19:0 20:1 21:1 22:1 23:0 24:1 25:0 26:1 27:0 28:1 29:1 30:1 31:0 32:0 33:1 34:1 35:0 36:1 37:3 38:0 39:0 40:2 
2 0:1 1:1 2:1 3:1 4:0 5:0 6:1 7:0 8:1 9:1 10:0 11:1 12:1 13:1 14:1 15:0 16:0 17:1 18:0 19:0 20:0 21:1 22:1 23:1 24:1 25:1 26:1 27:0 28:1 29:1 30:0 31:1 32:0 33:0 34:1 35:1 36:3 37:2 38:0 39:0 40:2 
2 0:1 1:0 2:1 3:0 4:0 5:0 6:1 7:1 8:0 9:1 10:0 11:1 12:0 13:1 14:1 15:1 16:1 17:0 18:0 19:0 20:0 21:1 22:0 23:0 24:1 25:1 26:1 27:0 28:1 29:0 30:1 31:0 32:0 33:0 34:0 35:1 36:-2 37:-3 38:0 39:0 40:1 
0.6672580052020917 0:0 1:1 2:1 3:0 4:0 5:0 6:0 7:0 8:1 9:0 10:0 11:0 12:1 13:1 14:1 15:0 16:1 17:0 18:1 19:1 20:1 21:0 22:1 23:1 24:0 25:0 26:1 27:0 28:1 29:1 30:1 31:0 32:1 33:0 34:1 35:0 36:-1 37:3 38:0 39:1 40:1 
1.749334003581179 0:0 1:1 2:1 3:1 4:1 5:0 6:1 7:0 8:1 9:1 10:1 11:1 12:0 13:1 14:1 15:1 16:0 17:0 18:1 19:1 20:0 21:0 22:0 23:1 24:0 25:0 26:1 27:0 28:0 29:1 30:1 31:0 32:1 33:0 34:1 35:0 36:-2 37:-4 38:0 39:0 40:1 
0.004562150871409903 0:1 1:1 2:1 3:1 4:0 5:1 6:1 7:1 8:1 9:1 10:1 11:1 12:1 13:0 14:0 15:0 16:1 17:1 18:1 19:1 20:0 21:1 22:1 23:1 24:0 25:0 26:1 27:1 28:1 29:0 30:0 31:0 32:0 33:0 34:0 35:0 36:11 37:-14 38:0 39:0 40:1 
2 0:1 1:0 2:1 3:0 4:0 5:0 6:1 7:1 8:1 9:0 10:0 11:0 12:0 13:1 14:1 15:0 16:0 17:0 18:1 19:0 20:1 21:1 22:0 23:1 24:1 25:0 26:1 27:1 28:1 29:1 30:1 31:0 32:0 33:1 34:0 35:0 36:-2 37:-2 38:0 39:0 40:3 
0.1646300025339466 0:1 1:1 2:1 3:1 4:0 5:1 6:1 7:0 8:1 9:1 10:1 11:1 12:0 13:1 14:1 15:0 16:0 17:0 18:1 19:1 20:0 21:1 22:0 23:0 24:1 25:1 26:1 27:1 28:1 29:1 30:1 31:0 32:0 33:1 34:1 35:0 36:-4 37:-3 38:0 39:0 40:1 
2 0:1 1:1 2:1 3:1 4:1 5:0 6:1 7:1 8:1 9:1 10:1 11:1 12:0 13:1 14:1 15:0 16:0 17:0 18:0 19:0 20:0 21:0 22:0 23:0 24:1 25:1 26:1 27:0 28:1 29:0 30:1 31:0 32:0 33:1 34:1 35:0 36:-2 37:4 38:0 39:0 40:1 
2 0:1 1:1 2:1 3:1 4:0 5:1 6:1 7:1 8:1 9:1 10:1 11:1 12:1 13:1 14:1 15:0 16:0 17:1 18:0 19:0 20:0 21:1 22:0 23:0 24:0 25:0 26:1 27:1 28:0 29:1 30:0 31:0 32:0 33:1 34:0 35:0 36:-2 37:-4 38:0 39:0 40:1 
2 0:1 1:1 2:1 3:1 4:0 5:0 6:0 7:0 8:1 9:1 10:1 11:1 12:1 13:1 14:1 15:1 16:0 17:0 18:1 19:0 20:1 21:1 22:1 23:0 24:0 25:1 26:1 27:1 28:1 29:1 30:1 31:0 32:0 33:1 34:1 35:0 36:6 37:-1 38:0 39:0 40:2 
0.4461188392657783 0:1 1:1 2:0 3:1 4:0 5:0 6:1 7:1 8:0 9:1 10:0 11:1 12:1 13:1 14:1 15:0 16:0 17:0 18:1 19:0 20:0 21:0 22:0 23:1 24:0 25:0 26:0 27:1 28:0 29:1 30:1 31:0 32:0 33:1 34:0 35:0 36:-13 37:0 38:0 39:0 40:1 
2 0:1 1:0 2:1 3:1 4:0 5:0 6:0 7:1 8:1 9:1 10:1 11:1 12:1 13:1 14:1 15:1 16:1 17:0 18:0 19:0 20:0 21:0 22:0 23:0 24:1 25:1 26:1 27:0 28:1 29:0 30:1 31:1 32:0 33:1 34:1 35:1 36:0 37:1 38:0 39:1 40:3 
1.644134332998677 0:0 1:1 2:1 3:0 4:1 5:1 6:0 7:1 8:1 9:1 10:1 11:1 12:1 13:1 14:0 15:1 16:0 17:0 18:1 19:1 20:1 21:1 22:1 23:0 24:0 25:0 26:1 27:1 28:1 29:0 30:0 31:0 32:0 33:1 34:0 35:0 36:-6 37:1 38:0 39:0 40:1 
0.6841866878168643 0:1 1:1 2:0 3:1 4:0 5:0 6:0 7:1 8:1 9:1 10:1 11:1 12:1 13:1 14:1 15:1 16:0 17:0 18:1 19:1 20:1 21:1 22:0 23:0 24:1 25:1 26:1 27:1 28:1 29:0 30:1 31:0 32:0 33:1 34:1 35:0 36:5 37:6 38:0 39:0 40:1 
2 0:1 1:1 2:0 3:1 4:1 5:0 6:1 7:1 8:0 9:1 10:1 11:1 12:1 13:1 14:1 15:1 16:0 17:0 18:0 19:0 20:0 21:1 22:0 23:0 24:0 25:1 26:1 27:0 28:0 29:0 30:0 31:0 32:1 33:0 34:1 35:0 36:-4 37:2 38:0 39:0 40:1 
2 0:1 1:1 2:1 3:1 4:1 5:1 6:1 7:1 8:1 9:1 10:1 11:1 12:0 13:0 14:0 15:0 16:0 17:0 18:1 19:0 20:0 21:1 22:0 23:1 24:1 25:1 26:1 27:1 28:1 29:0 30:0 31:0 32:0 33:1 34:1 35:0 36:-4 37:1 38:0 39:0 40:1 
2 0:0 1:1 2:1 3:1 4:1 5:0 6:1 7:0 8:1 9:1 10:1 11:1 12:1 13:1 14:0 15:1 16:1 17:1 18:1 19:1 20:0 21:1 22:0 23:0 24:0 25:1 26:0 27:1 28:0 29:1 30:0 31:0 32:0 33:0 34:0 35:1 36:-3 37:-1 38:0 39:2 40:2 
2 0:1 1:1 2:0 3:0 4:0 5:0 6:1 7:1 8:1 9:1 10:1 11:1 12:1 13:0 14:0 15:0 16:0 17:0 18:0 19:0 20:0 21:0 22:1 23:0 24:0 25:0 26:0 27:1 28:0 29:0 30:1 31:0 32:0 33:0 34:0 35:0 36:-5 37:-1 38:0 39:0 40:2 
2 0:1 1:1 2:1 3:1 4:0 5:0 6:1 7:1 8:1 9:0 10:1 11:1 12:1 13:1 14:1 15:1 16:1 17:0 18:0 19:0 20:0 21:1 22:0 23:0 24:1 25:1 26:1 27:1 28:0 29:0 30:0 31:1 32:0 33:1 34:0 35:0 36:5 37:-2 38:0 39:0 40:1 
2 0:0 1:1 2:1 3:1 4:0 5:1 6:1 7:1 8:0 9:1 10:1 11:0 12:1 13:0 14:1 15:1 16:1 17:0 18:1 19:0 20:0 21:1 22:1 23:0 24:0 25:0 26:0 27:1 28:1 29:1 30:1 31:0 32:0 33:1 34:1 35:0 36:1 37:4 38:0 39:0 40:1 
0.8827333703966084 0:1 1:1 2:1 3:1 4:0 5:1 6:1 7:1 8:1 9:0 10:1 11:0 12:1 13:1 14:0 15:1 16:0 17:0 18:1 19:1 20:0 21:1 22:1 23:0 24:0 25:1 26:1 27:1 28:1 29:1 30:0 31:0 32:0 33:0 34:1 35:0 36:3 37:3 38:0 39:1 40:3 
2 0:1 1:1 2:1 3:1 4:0 5:1 6:1 7:1 8:1 9:1 10:1 11:1 12:1 13:1 14:1 15:0 16:0 17:0 18:1 19:0 20:0 21:1 22:0 23:0 24:0 25:0 26:1 27:0 28:1 29:0 30:0 31:0 32:0 33:0 34:1 35:0 36:-2 37:-4 38:0 39:1 40:2 
2 0:1 1:1 2:1 3:1 4:0 5:0 6:0 7:1 8:1 9:1 10:0 11:1 12:1 13:1 14:1 15:1 16:1 17:0 18:1 19:1 20:0 21:1 22:0 23:1 24:0 25:1 26:1 27:1 28:0 29:1 30:1 31:0 32:0 33:0 34:0 35:0 36:2 37:5 38:0 39:0 40:1 
1.382694144929781 0:1 1:0 2:1 3:0 4:1 5:0 6:1 7:0 8:1 9:1 10:1 11:1 12:0 13:1 14:1 15:0 16:1 17:1 18:1 19:1 20:1 21:1 22:1 23:1 24:0 25:0 26:1 27:0 28:1 29:1 30:0 31:0 32:1 33:1 34:0 35:0 36:-1 37:2 38:0 39:0 40:2 
2 0:1 1:0 2:1 3:1 4:1 5:0 6:0 7:1 8:1 9:0 10:1 11:1 12:1 13:1 14:1 15:0 16:1 17:1 18:1 19:0 20:0 21:1 22:0 23:0 24:0 25:0 26:1 27:1 28:1 29:1 30:0 31:0 32:0 33:1 34:1 35:0 36:-5 37:1 38:0 39:0 40:1 
2 0:1 1:1 2:1 3:0 4:0 5:0 6:1 7:0 8:1 9:1 10:1 11:1 12:1 13:0 14:0 15:0 16:0 17:0 18:1 19:1 20:1 21:1 22:0 23:0 24:1 25:1 26:1 27:1 28:0 29:1 30:1 31:0 32:1 33:1 34:1 35:0 36:-1 37:0 38:0 39:0 40:2 
0.4870324670007479 0:1 1:0 2:0 3:1 4:0 5:0 6:1 7:1 8:1 9:1 10:0 11:1 12:1 13:1 14:1 15:0 16:1 17:0 18:1 19:0 20:0 21:1 22:0 23:0 24:1 25:1 26:1 27:1 28:0 29:0 30:0 31:0 32:0 33:1 34:0 35:0 36:3 37:6 38:0 39:1 40:2 
2 0:1 1:1 2:0 3:1 4:1 5:0 6:1 7:1 8:1 9:1 10:1 11:0 12:1 13:0 14:1 15:0 16:0 17:0 18:1 19:1 20:0 21:1 22:0 23:0 24:0 25:1 26:1 27:1 28:1 29:0 30:1 31:1 32:1 33:0 34:1 35:0 36:0 37:0 38:0 39:0 40:1 
2 0:0 1:0 2:0 3:1 4:1 5:0 6:0 7:1 8:1 9:1 10:1 11:1 12:1 13:1 14:1 15:0 16:0 17:0 18:1 19:0 20:0 21:1 22:1 23:0 24:1 25:1 26:1 27:1 28:1 29:1 30:0 31:1 32:0 33:1 34:0 35:0 36:-3 37:1 38:0 39:0 40:2 
0.8575939440073737 0:1 1:0 2:1 3:1 4:0 5:0 6:0 7:1 8:1 9:0 10:1 11:1 12:1 13:1 14:0 15:0 16:0 17:0 18:0 19:0 20:0 21:1 22:0 23:0 24:1 25:0 26:0 27:0 28:0 29:0 30:0 31:0 32:0 33:0 34:0 35:0 36:3 37:11 38:0 39:0 40:1 
0.9160365642195525 0:1 1:1 2:1 3:0 4:0 5:1 6:1 7:1 8:1 9:0 10:1 11:0 12:1 13:1 14:0 15:1 16:1 17:0 18:1 19:0 20:0 21:0 22:0 23:1 24:0 25:1 26:1 27:1 28:0 29:0 30:1 31:1 32:0 33:1 34:0 35:0 36:-3 37:5 38:0 39:0 40:1 
0.4895798851892309 0:0 1:1 2:1 3:1 4:1 5:1 6:1 7:1 8:1 9:0 10:0 11:1 12:1 13:1 14:1 15:1 16:1 17:0 18:0 19:0 20:0 21:1 22:1 23:0 24:1 25:1 26:1 27:1 28:1 29:1 30:1 31:0 32:1 33:1 34:0 35:0 36:-8 37:-2 38:0 39:0 40:1 
2 0:1 1:1 2:1 3:1 4:0 5:0 6:1 7:0 8:0 9:1 10:1 11:1 12:1 13:1 14:1 15:0 16:0 17:0 18:1 19:0 20:0 21:0 22:0 23:0 24:1 25:1 26:0 27:0 28:0 29:0 30:0 31:0 32:0 33:0 34:0 35:0 36:0 37:2 38:0 39:0 40:1 
2 0:1 1:1 2:0 3:1 4:1 5:1 6:0 7:0 8:1 9:0 10:1 11:1 12:0 13:1 14:1 15:0 16:0 17:0 18:1 19:0 20:1 21:1 22:0 23:1 24:0 25:1 26:1 27:0 28:1 29:1 30:1 31:0 32:0 33:1 34:0 35:0 36:1 37:1 38:0 39:0 40:2 
1.304623265828674 0:1 1:0 2:0 3:0 4:0 5:0 6:1 7:1 8:0 9:1 10:1 11:1 12:0 13:1 14:1 15:1 16:0 17:0 18:1 19:0 20:0 21:1 22:1 23:1 24:0 25:1 26:1 27:0 28:1 29:1 30:1 31:0 32:0 33:0 34:0 35:1 36:-2 37:4 38:0 39:0 40:1 
1.60531050442006 0:1 1:0 2:1 3:1 4:0 5:1 6:1 7:1 8:1 9:0 10:1 11:0 12:1 13:0 14:1 15:1 16:0 17:0 18:0 19:0 20:0 21:1 22:1 23:0 24:1 25:1 26:0 27:1 28:1 29:1 30:1 31:1 32:1 33:1 34:0 35:0 36:2 37:-6 38:0 39:0 40:1 
2 0:0 1:1 2:0 3:1 4:1 5:0 6:1 7:1 8:1 9:0 10:0 11:1 12:1 13:1 14:1 15:1 16:1 17:1 18:0 19:0 20:1 21:1 22:0 23:0 24:1 25:1 26:0 27:1 28:0 29:0 30:1 31:0 32:1 33:1 34:0 35:0 36:1 37:-4 38:0 39:0 40:2 
2 0:1 1:1 2:1 3:1 4:0 5:0 6:1 7:0 8:1 9:1 10:1 11:1 12:1 13:1 14:1 15:1 16:0 17:0 18:0 19:0 20:0 21:1 22:1 23:0 24:1 25:1 26:1 27:0 28:0 29:1 30:1 31:1 32:0 33:1 34:1 35:0 36:0 37:-1 38:0 39:0 40:1 
1.865845569273324 0:0 1:0 2:1 3:0 4:0 5:0 6:1 7:1 8:1 9:1 10:1 11:1 12:1 13:0 14:1 15:0 16:0 17:0 18:1 19:0 20:1 21:1 22:0 23:1 24:0 25:1 26:0 27:0 28:0 29:1 30:0 31:1 32:0 33:1 34:1 35:1 36:-4 37:-1 38:0 39:0 40:1 
2 0:1 1:1 2:1 3:0 4:1 5:1 6:1 7:1 8:1 9:0 10:1 11:1 12:1 13:1 14:1 15:1 16:0 17:0 18:1 19:1 20:0 21:1 22:0 23:0 24:1 25:1 26:0 27:1 28:1 29:0 30:0 31:0 32:0 33:1 34:0 35:0 36:2 37:-9 38:0 39:0 40:2 
2 0:1 1:0 2:0 3:1 4:1 5:0 6:1 7:1 8:0 9:1 10:1 11:0 12:1 13:1 14:1 15:1 16:0 17:1 18:1 19:0 20:0 21:1 22:0 23:0 24:1 25:1 26:0 27:1 28:1 29:0 30:1 31:1 32:1 33:1 34:1 35:0 36:-3 37:1 38:0 39:0 40:1 
0.9866596063179502 0:1 1:1 2:1 3:1 4:0 5:0 6:0 7:1 8:1 9:1 10:1 11:1 12:1 13:1 14:1 15:0 16:0 17:1 18:1 19:0 20:0 21:0 22:0 23:1 24:1 25:1 26:0 27:1 28:0 29:1 30:1 31:1 32:0 33:1 34:0 35:0 36:-2 37:-9 38:0 39:1 40:2 
0.1104913528869979 0:1 1:1 2:1 3:1 4:1 5:0 6:0 7:0 8:1 9:0 10:0 11:1 12:0 13:1 14:1 15:0 16:0 17:0 18:0 19:0 20:0 21:0 22:1 23:1 24:0 25:0 26:0 27:1 28:1 29:1 30:1 31:0 32:1 33:1 34:1 35:1 36:11 37:4 38:0 39:0 40:2 
0.1199647056709109 0:1 1:0 2:1 3:0 4:0 5:0 6:1 7:1 8:0 9:0 10:1 11:1 12:1 13:1 14:0 15:1 16:0 17:1 18:1 19:1 20:1 21:1 22:0 23:0 24:0 25:1 26:1 27:1 28:0 29:0 30:1 31:0 32:0 33:1 34:0 35:0 36:-2 37:6 38:0 39:0 40:3 
2 0:1 1:1 2:1 3:0 4:0 5:1 6:1 7:1 8:1 9:1 10:1 11:1 12:1 13:1 14:1 15:0 16:0 17:1 18:0 19:0 20:1 21:1 22:1 23:0 24:1 25:1 26:1 27:0 28:1 29:0 30:0 31:0 32:0 33:0 34:0 35:0 36:2 37:0 38:0 39:0 40:1 
0.3490153716878769 0:1 1:1 2:1 3:1 4:1 5:1 6:0 7:1 8:1 9:0 10:1 11:1 12:1 13:1 14:1 15:1 16:1 17:1 18:1 19:1 20:1 21:1 22:0 23:0 24:1 25:1 26:1 27:1 28:0 29:0 30:0 31:0 32:0 33:1 34:1 35:0 36:-16 37:-7 38:0 39:0 40:1 
2 0:1 1:1 2:1 3:1 4:1 5:0 6:0 7:1 8:0 9:0 10:1 11:1 12:1 13:1 14:1 15:1 16:1 17:0 18:1 19:1 20:0 21:1 22:1 23:0 24:0 25:0 26:1 27:1 28:1 29:0 30:0 31:0 32:0 33:1 34:0 35:0 36:1 37:-1 38:0 39:1 40:2 
0.4840055728294582 0:1 1:1 2:1 3:1 4:0 5:1 6:1 7:1 8:1 9:1 10:0 11:1 12:1 13:0 14:1 15:1 16:1 17:0 18:1 19:0 20:0 21:0 22:0 23:1 24:1 25:1 26:1 27:1 28:1 29:1 30:1 31:1 32:0 33:1 34:0 35:0 36:1 37:7 38:0 39:1 40:1 
2 0:1 1:1 2:1 3:1 4:0 5:1 6:1 7:1 8:1 9:1 10:1 11:1 12:0 13:1 14:1 15:0 16:0 17:1 18:1 19:0 20:0 21:1 22:0 23:0 24:1 25:1 26:0 27:1 28:1 29:0 30:1 31:0 32:0 33:0 34:1 35:0 36:1 37:3 38:0 39:0 40:1 
2 0:1 1:0 2:1 3:1 4:1 5:1 6:1 7:1 8:0 9:1 10:1 11:1 12:1 13:1 14:1 15:1 16:1 17:0 18:1 19:0 20:0 21:1 22:0 23:0 24:0 25:1 26:1 27:1 28:1 29:1 30:0 31:0 32:1 33:1 34:1 35:0 36:2 37:-3 38:0 39:0 40:2 
2 0:0 1:1 2:1 3:1 4:1 5:0 6:1 7:1 8:1 9:1 10:1 11:1 12:1 13:1 14:1 15:1 16:0 17:0 18:1 19:1 20:0 21:1 22:0 23:1 24:1 25:1 26:1 27:1 28:1 29:1 30:1 31:0 32:0 33:1 34:0 35:0 36:1 37:-4 38:0 39:0 40:3 
2 0:1 1:1 2:1 3:0 4:0 5:0 6:1 7:0 8:1 9:0 10:1 11:0 12:1 13:1 14:1 15:0 16:0 17:0 18:1 19:1 20:1 21:1 22:0 23:0 24:0 25:1 26:1 27:1 28:1 29:0 30:0 31:0 32:0 33:0 34:0 35:0 36:4 37:-3 38:0 39:1 40:1 
2 0:1 1:1 2:1 3:0 4:1 5:0 6:0 7:0 8:1 9:1 10:1 11:1 12:1 13:1 14:1 15:0 16:0 17:1 18:1 19:0 20:0 21:1 22:1 23:1 24:1 25:0 26:0 27:1 28:1 29:0 30:1 31:1 32:0 33:1 34:0 35:0 36:-4 37:0 38:0 39:0 40:1 
1.025788547844767 0:1 1:1 2:1 3:0 4:0 5:0 6:0 7:0 8:1 9:0 10:1 11:1 12:1 13:1 14:1 15:0 16:0 17:0 18:1 19:0 20:0 21:0 22:0 23:1 24:0 25:1 26:1 27:1 28:1 29:1 30:1 31:1 32:0 33:1 34:0 35:0 36:5 37:3 38:0 39:0 40:1 
0.3766072541712319 0:1 1:1 2:1 3:1 4:0 5:0 6:1 7:1 8:1 9:0 10:1 11:1 12:1 13:1 14:1 15:0 16:0 17:0 18:1 19:0 20:1 21:0 22:1 23:1 24:1 25:1 26:1 27:0 28:1 29:1 30:0 31:0 32:0 33:1 34:0 35:0 36:-16 37:-6 38:0 39:0 40:1 
2 0:1 1:1 2:1 3:0 4:1 5:0 6:1 7:1 8:0 9:0 10:0 11:0 12:1 13:0 14:1 15:1 16:1 17:0 18:0 19:0 20:0 21:0 22:0 23:0 24:0 25:1 26:1 27:1 28:1 29:1 30:1 31:0 32:0 33:0 34:0 35:1 36:-2 37:-3 38:0 39:0 40:2 
2 0:0 1:0 2:1 3:0 4:0 5:0 6:1 7:1 8:1 9:1 10:1 11:1 12:1 13:0 14:1 15:1 16:0 17:0 18:1 19:0 20:0 21:1 22:0 23:1 24:0 25:0 26:0 27:1 28:1 29:1 30:0 31:0 32:0 33:1 34:1 35:0 36:1 37:-4 38:0 39:0 40:1 
2 0:0 1:0 2:1 3:0 4:0 5:1 6:0 7:1 8:0 9:1 10:1 11:1 12:1 13:1 14:0 15:1 16:0 17:0 18:0 19:0 20:0 21:1 22:0 23:0 24:1 25:1 26:1 27:1 28:1 29:1 30:1 31:1 32:0 33:1 34:0 35:0 36:-1 37:-1 38:0 39:0 40:2 
2 0:0 1:1 2:0 3:1 4:0 5:0 6:1 7:0 8:0 9:0 10:1 11:1 12:1 13:1 14:0 15:1 16:0 17:1 18:1 19:0 20:0 21:1 22:1 23:1 24:1 25:1 26:0 27:0 28:1 29:1 30:1 31:0 32:0 33:0 34:1 35:0 36:-1 37:-3 38:0 39:1 40:4 
1.073543256609356 0:1 1:1 2:1 3:1 4:1 5:0 6:0 7:1 8:0 9:0 10:1 11:1 12:1 13:1 14:0 15:1 16:1 17:0 18:1 19:1 20:1 21:0 22:1 23:1 24:0 25:0 26:1 27:0 28:1 29:1 30:1 31:1 32:1 33:0 34:1 35:0 36:-2 37:2 38:0 39:0 40:2 
2 0:0 1:1 2:1 3:1 4:0 5:0 6:0 7:1 8:1 9:1 10:0 11:0 12:1 13:1 14:1 15:1 16:0 17:1 18:0 19:0 20:0 21:1 22:0 23:0 24:1 25:1 26:0 27:1 28:1 29:1 30:0 31:0 32:0 33:0 34:0 35:0 36:-6 37:-3 38:0 39:1 40:1 
2 0:1 1:1 2:1 3:1 4:0 5:0 6:1 7:1 8:1 9:1 10:1 11:1 12:1 13:1 14:0 15:0 16:0 17:0 18:1 19:0 20:1 21:1 22:1 23:1 24:1 25:0 26:0 27:1 28:1 29:1 30:1 31:1 32:1 33:1 34:0 35:1 36:0 37:1 38:0 39:0 40:1 
2 0:0 1:1 2:1 3:1 4:1 5:1 6:1 7:1 8:1 9:1 10:1 11:1 12:1 13:1 14:1 15:1 16:0 17:0 18:0 19:0 20:0 21:1 22:1 23:1 24:0 25:0 26:0 27:1 28:0 29:1 30:0 31:0 32:0 33:1 34:0 35:1 36:0 37:0 38:0 39:2 40:3 
2 0:1 1:0 2:1 3:0 4:0 5:1 6:1 7:1 8:1 9:0 10:1 11:1 12:0 13:1 14:1 15:0 16:0 17:0 18:1 19:1 20:1 21:0 22:1 23:0 24:1 25:1 26:0 27:0 28:1 29:1 30:1 31:0 32:0 33:0 34:0 35:0 36:-1 37:1 38:0 39:0 40:4 
2 0:1 1:0 2:1 3:0 4:1 5:0 6:1 7:1 8:1 9:1 10:0 11:1 12:1 13:1 14:1 15:0 16:0 17:0 18:0 19:0 20:1 21:1 22:0 23:0 24:1 25:1 26:1 27:1 28:1 29:1 30:1 31:0 32:0 33:1 34:0 35:0 36:1 37:1 38:0 39:0 40:3 
2 0:1 1:1 2:1 3:1 4:1 5:0 6:0 7:1 8:1 9:1 10:0 11:1 12:1 13:1 14:0 15:0 16:0 17:0 18:1 19:0 20:0 21:0 22:0 23:0 24:1 25:1 26:1 27:0 28:1 29:0 30:1 31:1 32:0 33:1 34:0 35:0 36:-1 37:3 38:0 39:1 40:1 
2 0:1 1:1 2:1 3:1 4:1 5:0 6:1 7:0 8:1 9:1 10:0 11:1 12:1 13:1 14:1 15:0 16:0 17:0 18:0 19:0 20:0 21:0 22:0 23:0 24:0 25:0 26:0 27:0 28:1 29:1 30:1 31:0 32:0 33:0 34:0 35:0 36:2 37:-8 38:0 39:0 40:2 
2 0:1 1:1 2:0 3:1 4:0 5:1 6:1 7:1 8:1 9:1 10:1 11:0 12:1 13:1 14:1 15:0 16:0 17:0 18:0 19:0 20:0 21:1 22:1 23:0 24:0 25:1 26:0 27:1 28:1 29:1 30:1 31:0 32:0 33:0 34:1 35:0 36:-1 37:0 38:0 39:1 40:3 
1.254994619613763 0:0 1:1 2:1 3:0 4:0 5:0 6:0 7:1 8:0 9:1 10:1 11:1 12:1 13:0 14:1 15:1 16:0 17:0 18:1 19:0 20:1 21:1 22:0 23:0 24:0 25:0 26:1 27:1 28:0 29:1 30:0 31:1 32:0 33:0 34:0 35:0 36:4 37:-1 38:0 39:0 40:1 
1.956013896828444 0:1 1:1 2:0 3:0 4:0 5:0 6:1 7:1 8:1 9:0 10:1 11:1 12:1 13:1 14:1 15:1 16:0 17:0 18:1 19:0 20:0 21:0 22:0 23:0 24:0 25:0 26:1 27:1 28:1 29:1 30:1 31:0 32:0 33:1 34:1 35:1 36:-10 37:6 38:0 39:0 40:1 
0.5493589745925432 0:1 1:0 2:0 3:1 4:0 5:0 6:1 7:1 8:1 9:0 10:1 11:1 12:0 13:1 14:0 15:0 16:0 17:0 18:0 19:0 20:0 21:1 22:1 23:0 24:1 25:0 26:1 27:0 28:1 29:1 30:1 31:0 32:0 33:0 34:0 35:1 36:0 37:6 38:0 39:0 40:1 
2 0:1 1:1 2:0 3:0 4:0 5:0 6:0 7:1 8:1 9:0 10:1 11:1 12:0 13:1 14:1 15:0 16:0 17:0 18:1 19:1 20:0 21:1 22:0 23:0 24:1 25:1 26:1 27:1 28:0 29:0 30:0 31:1 32:0 33:0 34:0 35:0 36:-1 37:2 38:0 39:1 40:4 
2 0:1 1:1 2:0 3:1 4:0 5:0 6:1 7:0 8:1 9:1 10:1 11:1 12:1 13:1 14:1 15:0 16:1 17:0 18:0 19:0 20:0 21:1 22:0 23:1 24:0 25:0 26:1 27:1 28:1 29:1 30:0 31:1 32:0 33:0 34:0 35:0 36:-2 37:-1 38:0 39:0 40:1 
0.427096003598889 0:1 1:1 2:1 3:0 4:0 5:0 6:1 7:0 8:1 9:0 10:1 11:1 12:1 13:1 14:1 15:1 16:1 17:1 18:1 19:0 20:0 21:1 22:0 23:1 24:0 25:0 26:0 27:1 28:1 29:1 30:0 31:0 32:1 33:1 34:0 35:1 36:13 37:2 38:0 39:0 40:2 
2 0:1 1:1 2:1 3:1 4:0 5:0 6:0 7:1 8:1 9:1 10:1 11:1 12:1 13:1 14:1 15:1 16:0 17:1 18:0 19:0 20:0 21:1 22:1 23:1 24:1 25:0 26:1 27:0 28:1 29:1 30:1 31:0 32:0 33:0 34:0 35:0 36:1 37:0 38:1 39:0 40:1 
2 0:0 1:1 2:0 3:0 4:1 5:0 6:1 7:0 8:1 9:1 10:1 11:1 12:1 13:0 14:1 15:1 16:0 17:0 18:1 19:0 20:0 21:1 22:0 23:1 24:1 25:1 26:1 27:1 28:1 29:0 30:0 31:0 32:0 33:1 34:0 35:1 36:-6 37:-1 38:0 39:0 40:2 
2 0:0 1:1 2:1 3:0 4:0 5:0 6:0 7:1 8:1 9:1 10:1 11:1 12:1 13:1 14:0 15:0 16:0 17:0 18:1 19:1 20:0 21:0 22:1 23:1 24:0 25:0 26:1 27:1 28:1 29:1 30:0 31:1 32:0 33:1 34:1 35:0 36:2 37:-2 38:0 39:0 40:2 
2 0:0 1:0 2:1 3:1 4:0 5:0 6:1 7:0 8:1 9:0 10:1 11:1 12:1 13:1 14:1 15:1 16:0 17:0 18:0 19:0 20:1 21:0 22:1 23:1 24:1 25:1 26:1 27:0 28:1 29:0 30:1 31:0 32:0 33:0 34:0 35:0 36:3 37:1 38:0 39:0 40:1 
2 0:1 1:1 2:1 3:1 4:0 5:1 6:0 7:1 8:1 9:1 10:1 11:1 12:0 13:1 14:0 15:0 16:0 17:0 18:0 19:0 20:1 21:1 22:0 23:0 24:0 25:1 26:1 27:1 28:0 29:0 30:0 31:1 32:0 33:0 34:0 35:0 36:-4 37:-1 38:0 39:0 40:1 
1.546681126465554 0:0 1:1 2:0 3:1 4:1 5:0 6:1 7:1 8:1 9:0 10:1 11:1 12:1 13:1 14:1 15:0 16:0 17:0 18:1 19:0 20:0 21:1 22:0 23:1 24:0 25:0 26:0 27:1 28:1 29:0 30:0 31:1 32:0 33:1 34:1 35:0 36:-4 37:-4 38:0 39:1 40:3 
2 0:1 1:1 2:1 3:0 4:0 5:0 6:1 7:0 8:0 9:1 10:1 11:1 12:1 13:1 14:1 15:1 16:0 17:0 18:1 19:0 20:1 21:1 22:0 23:0 24:1 25:0 26:1 27:0 28:1 29:0 30:1 31:1 32:0 33:0 34:0 35:1 36:5 37:-2 38:0 39:0 40:2 
2 0:1 1:1 2:1 3:1 4:0 5:1 6:1 7:0 8:0 9:1 10:0 11:1 12:1 13:1 14:1 15:0 16:1 17:0 18:1 19:0 20:1 21:1 22:0 23:0 24:1 25:1 26:1 27:1 28:1 29:0 30:1 31:0 32:0 33:1 34:0 35:0 36:-4 37:-1 38:0 39:1 40:1 
2 0:1 1:1 2:0 3:1 4:0 5:0 6:0 7:1 8:1 9:0 10:0 11:0 12:1 13:0 14:1 15:0 16:1 17:0 18:1 19:0 20:0 21:1 22:0 23:1 24:0 25:1 26:1 27:1 28:0 29:1 30:1 31:0 32:0 33:0 34:0 35:0 36:-3 37:1 38:0 39:1 40:2 
2 0:1 1:1 2:1 3:1 4:0 5:0 6:1 7:1 8:1 9:0 10:1 11:1 12:1 13:1 14:1 15:0 16:0 17:0 18:0 19:1 20:1 21:1 22:0 23:0 24:0 25:0 26:1 27:1 28:0 29:1 30:0 31:0 32:0 33:1 34:0 35:0 36:0 37:-3 38:0 39:0 40:3 
0.1193797830388764 0:1 1:0 2:1 3:1 4:1 5:1 6:1 7:1 8:1 9:1 10:1 11:1 12:1 13:1 14:0 15:1 16:1 17:1 18:1 19:0 20:0 21:1 22:0 23:0 24:1 25:1 26:1 27:0 28:0 29:1 30:0 31:0 32:0 33:0 34:0 35:0 36:2 37:7 38:0 39:0 40:2 
0.1761497556291748 0:1 1:0 2:1 3:1 4:1 5:1 6:1 7:0 8:1 9:0 10:0 11:1 12:1 13:1 14:1 15:0 16:0 17:0 18:0 19:1 20:0 21:0 22:0 23:0 24:0 25:0 26:1 27:0 28:0 29:1 30:0 31:0 32:0 33:0 34:0 35:1 36:5 37:7 38:0 39:0 40:1 
2 0:1 1:1 2:1 3:1 4:1 5:0 6:1 7:1 8:1 9:1 10:1 11:1 12:1 13:1 14:1 15:1 16:0 17:0 18:0 19:1 20:1 21:1 22:0 23:1 24:0 25:0 26:1 27:0 28:1 29:1 30:1 31:1 32:0 33:0 34:0 35:1 36:-1 37:3 38:0 39:0 40:1 
0.183945714508378 0:1 1:1 2:0 3:1 4:0 5:0 6:0 7:1 8:1 9:0 10:0 11:0 12:1 13:1 14:1 15:1 16:0 17:0 18:1 19:1 20:1 21:1 22:0 23:0 24:0 25:1 26:1 27:0 28:0 29:1 30:1 31:0 32:1 33:0 34:0 35:0 36:9 37:6 38:0 39:0 40:1 
2 0:0 1:1 2:1 3:1 4:0 5:0 6:1 7:0 8:1 9:0 10:0 11:1 12:1 13:1 14:1 15:1 16:1 17:1 18:1 19:0 20:0 21:1 22:0 23:1 24:0 25:1 26:1 27:1 28:0 29:1 30:1 31:0 32:0 33:1 34:1 35:1 36:0 37:5 38:0 39:0 40:1 
2 0:0 1:1 2:1 3:1 4:0 5:0 6:1 7:0 8:1 9:1 10:1 11:1 12:0 13:1 14:1 15:0 16:0 17:0 18:1 19:1 20:1 21:1 22:0 23:1 24:1 25:1 26:1 27:1 28:0 29:1 30:1 31:1 32:0 33:0 34:0 35:0 36:1 37:0 38:0 39:0 40:3 
2 0:1 1:0 2:1 3:1 4:0 5:0 6:1 7:1 8:1 9:0 10:0 11:1 12:1 13:1 14:1 15:1 16:1 17:0 18:0 19:0 20:1 21:1 22:0 23:1 24:1 25:1 26:1 27:1 28:0 29:0 30:0 31:0 32:0 33:1 34:0 35:0 36:1 37:2 38:0 39:0 40:3 
2 0:1 1:1 2:1 3:1 4:0 5:0 6:1 7:1 8:1 9:1 10:1 11:1 12:1 13:1 14:1 15:1 16:0 17:1 18:1 19:0 20:0 21:1 22:1 23:0 24:0 25:0 26:1 27:0 28:1 29:1 30:0 31:0 32:0 33:1 34:1 35:0 36:1 37:-2 38:0 39:0 40:1 
2 0:1 1:1 2:1 3:1 4:1 5:1 6:1 7:0 8:1 9:1 10:1 11:1 12:1 13:1 14:0 15:1 16:0 17:0 18:1 19:0 20:0 21:1 22:0 23:0 24:0 25:1 26:1 27:1 28:0 29:1 30:0 31:1 32:0 33:0 34:0 35:0 36:1 37:3 38:0 39:0 40:2 
2 0:1 1:0 2:1 3:1 4:0 5:0 6:0 7:1 8:1 9:0 10:0 11:1 12:1 13:1 14:1 15:0 16:0 17:0 18:1 19:1 20:1 21:1 22:0 23:0 24:0 25:0 26:0 27:1 28:1 29:0 30:1 31:0 32:0 33:1 34:0 35:0 36:-4 37:-1 38:0 39:0 40:1 
2 0:0 1:1 2:1 3:1 4:1 5:0 6:1 7:1 8:0 9:1 10:1 11:1 12:0 13:1 14:1 15:1 16:1 17:0 18:1 19:1 20:0 21:1 22:0 23:0 24:1 25:1 26:1 27:0 28:1 29:0 30:0 31:0 32:0 33:0 34:0 35:0 36:4 37:-3 38:0 39:0 40:2 
2 0:1 1:1 2:1 3:1 4:1 5:0 6:1 7:1 8:1 9:1 10:1 11:1 12:0 13:1 14:0 15:1 16:1 17:1 18:1 19:1 20:0 21:1 22:1 23:1 24:1 25:0 26:1 27:1 28:1 29:1 30:1 31:0 32:0 33:1 34:1 35:0 36:0 37:-3 38:1 39:0 40:2 
2 0:1 1:1 2:0 3:1 4:1 5:1 6:1 7:1 8:1 9:0 10:0 11:0 12:1 13:1 14:1 15:0 16:0 17:0 18:1 19:1 20:0 21:0 22:0 23:1 24:0 25:0 26:1 27:0 28:1 29:1 30:1 31:1 32:0 33:1 34:0 35:0 36:-2 37:0 38:0 39:2 40:4 
2 0:0 1:1 2:1 3:1 4:0 5:0 6:1 7:1 8:1 9:1 10:1 11:1 12:0 13:1 14:1 15:0 16:0 17:0 18:1 19:0 20:1 21:1 22:0 23:0 24:1 25:1 26:1 27:1 28:0 29:1 30:1 31:1 32:0 33:1 34:0 35:0 36:-2 37:3 38:0 39:0 40:1 
0.09606867953312895 0:1 1:1 2:1 3:0 4:0 5:0 6:1 7:1 8:1 9:0 10:1 11:0 12:1 13:0 14:1 15:0 16:1 17:1 18:1 19:0 20:0 21:1 22:0 23:0 24:1 25:1 26:1 27:1 28:1 29:0 30:1 31:0 32:0 33:1 34:0 35:0 36:4 37:9 38:0 39:1 40:1 
2 0:1 1:1 2:1 3:1 4:0 5:0 6:1 7:1 8:0 9:1 10:1 11:1 12:1 13:1 14:1 15:0 16:1 17:0 18:0 19:0 20:0 21:1 22:0 23:1 24:1 25:1 26:1 27:0 28:1 29:1 30:1 31:0 32:0 33:1 34:0 35:0 36:1 37:2 38:0 39:0 40:2 
2 0:0 1:1 2:1 3:1 4:1 5:1 6:1 7:1 8:1 9:1 10:1 11:0 12:1 13:1 14:1 15:1 16:0 17:0 18:1 19:0 20:0 21:1 22:1 23:1 24:1 25:0 26:1 27:1 28:1 29:0 30:0 31:0 32:0 33:1 34:0 35:0 36:-1 37:-2 38:0 39:1 40:1 
0.6367781300479728 0:1 1:1 2:1 3:0 4:0 5:0 6:1 7:1 8:1 9:1 10:1 11:0 12:1 13:1 14:0 15:1 16:1 17:0 18:0 19:0 20:1 21:1 22:0 23:0 24:0 25:1 26:1 27:1 28:1 29:1 30:0 31:0 32:0 33:1 34:1 35:0 36:1 37:5 38:0 39:0 40:1 
2 0:1 1:1 2:1 3:1 4:0 5:0 6:1 7:0 8:1 9:0 10:1 11:1 12:1 13:1 14:1 15:0 16:0 17:0 18:0 19:0 20:0 21:1 22:0 23:1 24:1 25:0 26:1 27:1 28:0 29:1 30:0 31:0 32:0 33:0 34:1 35:0 36:-3 37:4 38:0 39:0 40:1 
0.5752658340551407 0:0 1:1 2:1 3:1 4:0 5:0 6:1 7:1 8:0 9:1 10:0 11:1 12:1 13:1 14:1 15:0 16:0 17:0 18:0 19:0 20:1 21:1 22:1 23:0 24:0 25:1 26:0 27:0 28:1 29:0 30:0 31:0 32:0 33:0 34:1 35:1 36:-4 37:1 38:0 39:0 40:4 
2 0:1 1:1 2:1 3:1 4:1 5:0 6:1 7:1 8:0 9:0 10:0 11:1 12:1 13:1 14:1 15:1 16:0 17:1 18:1 19:0 20:1 21:1 22:0 23:0 24:0 25:1 26:1 27:1 28:1 29:0 30:0 31:0 32:0 33:1 34:0 35:0 36:-2 37:-1 38:0 39:0 40:2 
2 0:1 1:1 2:1 3:1 4:0 5:0 6:1 7:1 8:1 9:0 10:0 11:1 12:1 13:1 14:1 15:1 16:1 17:0 18:1 19:0 20:0 21:1 22:0 23:0 24:0 25:1 26:0 27:1 28:0 29:1 30:0 31:1 32:0 33:0 34:0 35:0 36:1 37:1 38:0 39:0 40:3 
2 0:1 1:1 2:1 3:1 4:0 5:0 6:1 7:1 8:1 9:1 10:1 11:0 12:0 13:1 14:0 15:1 16:0 17:0 18:0 19:0 20:0 21:1 22:0 23:1 24:0 25:1 26:1 27:0 28:0 29:0 30:1 31:0 32:1 33:1 34:0 35:0 36:3 37:5 38:0 39:0 40:3 
2 0:1 1:1 2:1 3:0 4:0 5:0 6:1 7:0 8:1 9:1 10:1 11:1 12:1 13:1 14:0 15:0 16:0 17:0 18:1 19:1 20:0 21:1 22:1 23:0 24:1 25:1 26:1 27:1 28:1 29:0 30:1 31:0 32:0 33:0 34:0 35:0 36:-1 37:1 38:0 39:0 40:3 
0.7259489632437942 0:1 1:1 2:1 3:1 4:0 5:1 6:0 7:1 8:1 9:1 10:1 11:1 12:1 13:1 14:0 15:1 16:0 17:0 18:1 19:0 20:0 21:1 22:0 23:1 24:0 25:1 26:1 27:1 28:0 29:1 30:1 31:0 32:0 33:1 34:0 35:1 36:9 37:-3 38:0 39:1 40:4 
2 0:0 1:1 2:1 3:1 4:1 5:0 6:0 7:1 8:0 9:0 10:0 11:1 12:1 13:1 14:1 15:1 16:0 17:0 18:1 19:0 20:0 21:1 22:0 23:1 24:0 25:0 26:0 27:1 28:1 29:1 30:0 31:0 32:0 33:1 34:0 35:0 36:1 37:1 38:0 39:0 40:1 
2 0:1 1:1 2:1 3:1 4:1 5:0 6:1 7:1 8:1 9:1 10:0 11:0 12:0 13:1 14:0 15:0 16:0 17:0 18:0 19:0 20:1 21:1 22:0 23:1 24:1 25:1 26:1 27:1 28:1 29:1 30:1 31:0 32:0 33:1 34:0 35:1 36:-1 37:-3 38:0 39:0 40:4 
2 0:0 1:1 2:0 3:1 4:0 5:0 6:0 7:1 8:1 9:0 10:1 11:1 12:1 13:1 14:1 15:0 16:0 17:0 18:0 19:1 20:0 21:0 22:1 23:0 24:0 25:1 26:1 27:0 28:1 29:0 30:1 31:0 32:0 33:1 34:0 35:0 36:-5 37:-3 38:0 39:0 40:3 
2 0:1 1:1 2:1 3:1 4:0 5:0 6:1 7:1 8:0 9:1 10:1 11:1 12:1 13:1 14:1 15:0 16:0 17:1 18:1 19:0 20:0 21:1 22:0 23:1 24:0 25:1 26:1 27:0 28:0 29:1 30:1 31:1 32:0 33:1 34:0 35:0 36:-1 37:-1 38:0 39:0 40:1 
0.3267520230747387 0:0 1:1 2:1 3:1 4:1 5:1 6:1 7:1 8:1 9:1 10:1 11:1 12:0 13:1 14:1 15:1 16:0 17:0 18:0 19:0 20:0 21:1 22:0 23:0 24:0 25:1 26:1 27:1 28:0 29:1 30:1 31:1 32:0 33:1 34:0 35:1 36:-1 37:-10 38:0 39:0 40:1 
0.7018424754044395 0:1 1:1 2:1 3:1 4:1 5:0 6:1 7:0 8:1 9:1 10:1 11:1 12:1 13:1 14:1 15:1 16:1 17:0 18:1 19:0 20:0 21:1 22:0 23:1 24:1 25:1 26:0 27:1 28:0 29:0 30:0 31:0 32:0 33:1 34:0 35:0 36:2 37:-12 38:0 39:0 40:1 
2 0:1 1:1 2:1 3:0 4:0 5:0 6:0 7:1 8:1 9:1 10:1 11:1 12:1 13:1 14:1 15:1 16:1 17:0 18:1 19:0 20:0 21:1 22:0 23:0 24:1 25:1 26:1 27:1 28:1 29:1 30:1 31:1 32:0 33:1 34:0 35:1 36:4 37:-3 38:0 39:1 40:2 
0.02263437292513826 0:1 1:1 2:1 3:1 4:0 5:0 6:1 7:1 8:1 9:1 10:1 11:1 12:1 13:0 14:1 15:0 16:1 17:1 18:1 19:0 20:0 21:1 22:0 23:1 24:0 25:1 26:1 27:0 28:1 29:0 30:1 31:0 32:0 33:0 34:0 35:0 36:8 37:1 38:0 39:0 40:1 
2 0:1 1:1 2:1 3:1 4:0 5:0 6:1 7:1 8:1 9:0 10:0 11:1 12:0 13:0 14:1 15:1 16:0 17:0 18:1 19:1 20:1 21:0 22:0 23:0 24:0 25:0 26:0 27:1 28:0 29:1 30:0 31:0 32:0 33:1 34:0 35:0 36:0 37:0 38:0 39:0 40:1 
2 0:1 1:0 2:1 3:1 4:1 5:1 6:1 7:1 8:1 9:0 10:1 11:1 12:1 13:1 14:1 15:1 16:0 17:0 18:1 19:0 20:1 21:0 22:1 23:0 24:0 25:0 26:1 27:0 28:0 29:1 30:1 31:1 32:0 33:1 34:0 35:0 36:-3 37:2 38:0 39:1 40:2 
2 0:0 1:0 2:1 3:0 4:0 5:0 6:1 7:0 8:0 9:1 10:1 11:1 12:1 13:1 14:1 15:1 16:0 17:0 18:1 19:0 20:1 21:0 22:0 23:1 24:1 25:1 26:1 27:0 28:1 29:0 30:0 31:0 32:0 33:0 34:1 35:0 36:0 37:-1 38:0 39:1 40:2 
2 0:1 1:1 2:0 3:1 4:1 5:0 6:1 7:1 8:1 9:0 10:1 11:1 12:1 13:1 14:1 15:1 16:1 17:0 18:1 19:0 20:0 21:1 22:0 23:1 24:0 25:0 26:1 27:0 28:0 29:1 30:0 31:0 32:0 33:1 34:0 35:0 36:0 37:-1 38:0 39:0 40:1 
1.634803442658608 0:1 1:1 2:1 3:1 4:1 5:1 6:0 7:1 8:1 9:1 10:0 11:1 12:1 13:1 14:1 15:1 16:1 17:0 18:0 19:0 20:0 21:0 22:0 23:1 24:0 25:0 26:0 27:1 28:0 29:0 30:1 31:0 32:0 33:1 34:0 35:0 36:9 37:2 38:0 39:1 40:1 
2 0:0 1:1 2:1 3:1 4:0 5:0 6:1 7:1 8:1 9:0 10:1 11:1 12:1 13:1 14:1 15:0 16:1 17:1 18:1 19:1 20:1 21:1 22:0 23:0 24:0 25:0 26:1 27:1 28:1 29:0 30:1 31:0 32:0 33:1 34:1 35:0 36:4 37:-1 38:0 39:0 40:2 
2 0:1 1:1 2:0 3:1 4:1 5:1 6:1 7:1 8:1 9:1 10:1 11:1 12:1 13:1 14:0 15:1 16:0 17:0 18:1 19:1 20:0 21:1 22:0 23:1 24:0 25:1 26:1 27:1 28:0 29:1 30:0 31:0 32:0 33:0 34:0 35:1 36:-2 37:1 38:0 39:0 40:4 
1.27179024579952 0:1 1:1 2:1 3:1 4:0 5:0 6:1 7:0 8:1 9:1 10:1 11:1 12:1 13:1 14:1 15:0 16:0 17:0 18:1 19:1 20:0 21:0 22:0 23:0 24:1 25:1 26:1 27:1 28:0 29:0 30:0 31:0 32:0 33:1 34:0 35:0 36:7 37:6 38:0 39:0 40:1 
0.03805697284545767 0:1 1:1 2:1 3:1 4:1 5:0 6:1 7:1 8:1 9:0 10:0 11:1 12:1 13:1 14:1 15:0 16:1 17:1 18:1 19:1 20:0 21:1 22:0 23:0 24:1 25:1 26:1 27:0 28:1 29:1 30:1 31:0 32:0 33:0 34:0 35:0 36:-8 37:4 38:0 39:2 40:4 
0.8167396570033478 0:1 1:1 2:0 3:1 4:0 5:1 6:1 7:1 8:1 9:0 10:1 11:1 12:1 13:0 14:1 15:0 16:0 17:0 18:1 19:1 20:1 21:1 22:0 23:0 24:1 25:1 26:1 27:1 28:0 29:0 30:0 31:0 32:0 33:0 34:0 35:1 36:1 37:-4 38:0 39:0 40:1 
2 0:0 1:1 2:1 3:1 4:1 5:1 6:1 7:1 8:0 9:0 10:0 11:1 12:1 13:1 14:0 15:0 16:1 17:0 18:0 19:0 20:0 21:1 22:0 23:1 24:0 25:1 26:1 27:1 28:0 29:1 30:1 31:0 32:0 33:1 34:0 35:0 36:-3 37:-1 38:0 39:0 40:1 
1.629296560888244 0:1 1:1 2:1 3:1 4:1 5:1 6:1 7:1 8:1 9:1 10:0 11:1 12:1 13:1 14:1 15:0 16:0 17:0 18:1 19:0 20:0 21:1 22:0 23:0 24:1 25:1 26:1 27:1 28:1 29:0 30:1 31:0 32:0 33:1 34:0 35:0 36:-1 37:5 38:0 39:0 40:1 
2 0:1 1:1 2:0 3:1 4:1 5:0 6:1 7:1 8:1 9:0 10:0 11:1 12:0 13:0 14:1 15:1 16:0 17:0 18:1 19:0 20:0 21:1 22:1 23:1 24:1 25:0 26:1 27:0 28:1 29:1 30:1 31:1 32:1 33:0 34:1 35:0 36:3 37:0 38:0 39:0 40:1 
2 0:0 1:1 2:1 3:1 4:0 5:0 6:1 7:1 8:1 9:0 10:1 11:1 12:1 13:1 14:1 15:0 16:0 17:0 18:1 19:0 20:0 21:1 22:1 23:0 24:1 25:1 26:1 27:0 28:1 29:1 30:1 31:0 32:0 33:0 34:0 35:0 36:-6 37:2 38:0 39:0 40:1 
2 0:1 1:1 2:1 3:1 4:0 5:0 6:1 7:0 8:1 9:1 10:1 11:1 12:1 13:0 14:1 15:0 16:0 17:0 18:1 19:0 20:0 21:1 22:0 23:0 24:1 25:1 26:0 27:1 28:1 29:1 30:1 31:0 32:0 33:0 34:0 35:1 36:-3 37:2 38:0 39:0 40:1 
2 0:1 1:1 2:1 3:1 4:0 5:1 6:0 7:1 8:0 9:1 10:1 11:1 12:0 13:1 14:0 15:1 16:0 17:0 18:0 19:0 20:0 21:0 22:1 23:1 24:0 25:1 26:1 27:0 28:0 29:1 30:0 31:0 32:0 33:1 34:0 35:0 36:-1 37:2 38:0 39:0 40:1 
2 0:1 1:1 2:1 3:0 4:0 5:0 6:0 7:1 8:1 9:0 10:0 11:0 12:0 13:1 14:1 15:0 16:0 17:0 18:1 19:0 20:1 21:1 22:0 23:1 24:0 25:1 26:1 27:0 28:1 29:1 30:0 31:0 32:1 33:0 34:1 35:0 36:-1 37:-2 38:1 39:1 40:2 
2 0:0 1:1 2:1 3:0 4:0 5:0 6:1 7:1 8:1 9:0 10:0 11:0 12:1 13:1 14:1 15:1 16:0 17:0 18:0 19:0 20:0 21:0 22:0 23:0 24:0 25:1 26:1 27:1 28:1 29:1 30:0 31:1 32:0 33:1 34:0 35:0 36:-3 37:-2 38:0 39:0 40:1 
0.6963536127281654 0:1 1:1 2:1 3:1 4:0 5:0 6:1 7:0 8:0 9:0 10:1 11:0 12:1 13:1 14:1 15:0 16:0 17:0 18:0 19:0 20:0 21:1 22:0 23:1 24:1 25:1 26:0 27:0 28:0 29:1 30:0 31:0 32:0 33:0 34:0 35:0 36:-4 37:2 38:0 39:0 40:1 
0.4738914799929794 0:1 1:0 2:1 3:1 4:0 5:0 6:1 7:0 8:1 9:1 10:1 11:1 12:1 13:1 14:1 15:0 16:1 17:1 18:1 19:0 20:0 21:1 22:1 23:1 24:1 25:0 26:0 27:0 28:1 29:1 30:0 31:0 32:0 33:1 34:1 35:1 36:8 37:-1 38:0 39:0 40:2 
2 0:0 1:1 2:1 3:1 4:0 5:0 6:0 7:1 8:0 9:0 10:1 11:0 12:1 13:1 14:1 15:1 16:1 17:0 18:1 19:0 20:0 21:1 22:0 23:0 24:0 25:0 26:1 27:0 28:1 29:1 30:0 31:1 32:0 33:0 34:1 35:0 36:1 37:4 38:0 39:0 40:1 
2 0:0 1:0 2:1 3:1 4:0 5:0 6:1 7:1 8:1 9:0 10:0 11:1 12:1 13:1 14:1 15:1 16:0 17:0 18:1 19:0 20:1 21:1 22:1 23:1 24:1 25:0 26:0 27:1 28:1 29:0 30:0 31:0 32:0 33:1 34:0 35:0 36:-2 37:-3 38:0 39:2 40:3 
2 0:1 1:1 2:0 3:1 4:0 5:0 6:1 7:1 8:1 9:0 10:0 11:1 12:1 13:1 14:0 15:1 16:0 17:0 18:1 19:0 20:1 21:1 22:0 23:0 24:1 25:1 26:0 27:1 28:1 29:0 30:0 31:0 32:0 33:1 34:0 35:0 36:5 37:0 38:0 39:1 40:2 
1.071108540851874 0:1 1:1 2:1 3:0 4:0 5:0 6:1 7:0 8:0 9:0 10:1 11:1 12:1 13:1 14:1 15:1 16:1 17:0 18:1 19:1 20:0 21:1 22:0 23:0 24:1 25:1 26:0 27:1 28:1 29:0 30:0 31:0 32:0 33:1 34:0 35:0 36:-8 37:-1 38:0 39:0 40:1 
0.3397879401801502 0:1 1:1 2:1 3:0 4:1 5:1 6:1 7:1 8:0 9:0 10:1 11:1 12:0 13:1 14:0 15:0 16:0 17:0 18:1 19:0 20:0 21:1 22:0 23:0 24:0 25:0 26:1 27:1 28:1 29:1 30:0 31:0 32:0 33:0 34:0 35:1 36:-4 37:-1 38:0 39:1 40:2 
2 0:1 1:1 2:1 3:0 4:0 5:0 6:1 7:1 8:1 9:0 10:1 11:1 12:1 13:1 14:0 15:1 16:1 17:0 18:1 19:0 20:0 21:0 22:1 23:0 24:0 25:0 26:1 27:1 28:1 29:1 30:0 31:0 32:0 33:1 34:1 35:0 36:2 37:0 38:0 39:0 40:1 
2 0:1 1:0 2:1 3:0 4:0 5:0 6:1 7:1 8:1 9:1 10:1 11:1 12:1 13:0 14:1 15:0 16:0 17:0 18:1 19:1 20:0 21:0 22:0 23:0 24:1 25:1 26:1 27:1 28:1 29:1 30:1 31:0 32:0 33:0 34:0 35:0 36:-1 37:1 38:0 39:0 40:1 
2 0:0 1:0 2:1 3:1 4:0 5:1 6:1 7:1 8:0 9:0 10:0 11:0 12:1 13:1 14:0 15:0 16:0 17:0 18:0 19:0 20:0 21:1 22:0 23:1 24:1 25:1 26:1 27:1 28:1 29:1 30:0 31:0 32:0 33:1 34:1 35:1 36:-2 37:3 38:0 39:0 40:1 
2 0:1 1:1 2:1 3:1 4:1 5:1 6:1 7:1 8:1 9:1 10:1 11:1 12:1 13:1 14:1 15:0 16:0 17:0 18:0 19:0 20:0 21:1 22:1 23:1 24:1 25:0 26:0 27:0 28:1 29:0 30:0 31:1 32:0 33:0 34:0 35:1 36:-2 37:-3 38:0 39:1 40:2 
2 0:1 1:1 2:0 3:1 4:1 5:1 6:1 7:1 8:1 9:0 10:1 11:1 12:1 13:1 14:1 15:1 16:1 17:0 18:0 19:0 20:0 21:1 22:1 23:1 24:0 25:1 26:1 27:1 28:0 29:1 30:1 31:0 32:0 33:1 34:1 35:0 36:-1 37:4 38:0 39:1 40:2 
2 0:1 1:1 2:0 3:0 4:0 5:1 6:1 7:0 8:1 9:1 10:1 11:1 12:1 13:1 14:1 15:1 16:0 17:0 18:1 19:1 20:0 21:1 22:1 23:0 24:1 25:0 26:1 27:0 28:0 29:1 30:1 31:0 32:0 33:0 34:0 35:0 36:3 37:-1 38:0 39:0 40:2 
0.7590180379464181 0:0 1:1 2:0 3:1 4:0 5:1 6:1 7:0 8:1 9:1 10:1 11:1 12:1 13:1 14:1 15:1 16:0 17:0 18:1 19:0 20:0 21:1 22:1 23:0 24:1 25:1 26:1 27:1 28:0 29:1 30:1 31:1 32:0 33:1 34:1 35:0 36:2 37:-9 38:0 39:0 40:1 
2 0:1 1:0 2:1 3:1 4:0 5:1 6:0 7:1 8:1 9:1 10:1 11:0 12:1 13:0 14:1 15:0 16:0 17:0 18:1 19:0 20:0 21:0 22:0 23:0 24:1 25:1 26:1 27:1 28:0 29:1 30:0 31:0 32:0 33:1 34:0 35:0 36:4 37:-1 38:0 39:0 40:1 
2 0:1 1:0 2:1 3:0 4:0 5:0 6:1 7:0 8:0 9:0 10:1 11:1 12:1 13:0 14:1 15:0 16:0 17:0 18:0 19:0 20:0 21:0 22:0 23:1 24:1 25:1 26:1 27:0 28:1 29:1 30:0 31:0 32:0 33:0 34:0 35:1 36:0 37:-1 38:0 39:0 40:4 
2 0:1 1:1 2:1 3:1 4:0 5:0 6:0 7:1 8:1 9:0 10:1 11:1 12:1 13:1 14:1 15:0 16:0 17:0 18:1 19:1 20:1 21:1 22:0 23:0 24:0 25:0 26:0 27:0 28:0 29:1 30:1 31:1 32:1 33:1 34:0 35:0 36:-2 37:-1 38:0 39:1 40:3 
2 0:1 1:1 2:1 3:1 4:0 5:1 6:0 7:1 8:0 9:0 10:1 11:1 12:0 13:1 14:0 15:0 16:0 17:0 18:1 19:1 20:0 21:1 22:0 23:0 24:1 25:1 26:1 27:1 28:0 29:0 30:1 31:0 32:0 33:1 34:0 35:0 36:-5 37:0 38:0 39:1 40:1 
1.160721737802247 0:0 1:1 2:1 3:0 4:0 5:0 6:1 7:1 8:1 9:1 10:1 11:1 12:1 13:0 14:0 15:0 16:0 17:1 18:1 19:0 20:0 21:1 22:0 23:1 24:1 25:1 26:1 27:1 28:0 29:1 30:1 31:0 32:0 33:0 34:0 35:0 36:-4 37:8 38:0 39:1 40:3 
2 0:0 1:1 2:1 3:1 4:0 5:0 6:1 7:0 8:1 9:1 10:1 11:1 12:0 13:0 14:0 15:1 16:1 17:0 18:1 19:1 20:1 21:0 22:0 23:1 24:0 25:1 26:1 27:0 28:0 29:0 30:1 31:0 32:0 33:0 34:0 35:0 36:-3 37:-2 38:0 39:0 40:1 
0.02806681077405938 0:1 1:0 2:0 3:1 4:0 5:0 6:1 7:0 8:0 9:0 10:1 11:1 12:1 13:0 14:1 15:0 16:0 17:0 18:1 19:0 20:0 21:1 22:0 23:1 24:1 25:1 26:1 27:0 28:0 29:0 30:1 31:0 32:0 33:1 34:0 35:0 36:1 37:7 38:0 39:0 40:1 
2 0:0 1:1 2:1 3:1 4:1 5:1 6:1 7:1 8:0 9:0 10:1 11:1 12:1 13:1 14:1 15:1 16:0 17:0 18:1 19:0 20:0 21:1 22:0 23:0 24:0 25:1 26:1 27:1 28:1 29:1 30:1 31:0 32:0 33:1 34:0 35:0 36:-8 37:2 38:0 39:0 40:2 
0.1496096263687385 0:1 1:0 2:0 3:1 4:1 5:1 6:1 7:1 8:0 9:0 10:1 11:1 12:0 13:1 14:0 15:1 16:0 17:0 18:0 19:0 20:0 21:0 22:0 23:1 24:0 25:1 26:1 27:1 28:1 29:0 30:0 31:0 32:0 33:1 34:0 35:0 36:2 37:9 38:0 39:0 40:1 
2 0:1 1:1 2:1 3:1 4:0 5:0 6:0 7:1 8:1 9:1 10:1 11:0 12:1 13:0 14:1 15:1 16:1 17:0 18:1 19:0 20:0 21:1 22:1 23:0 24:0 25:1 26:0 27:0 28:1 29:1 30:0 31:0 32:0 33:0 34:0 35:0 36:-1 37:0 38:0 39:0 40:3 
0.9523873423595408 0:1 1:1 2:0 3:0 4:0 5:1 6:1 7:1 8:1 9:0 10:1 11:1 12:0 13:0 14:1 15:1 16:0 17:0 18:0 19:0 20:0 21:1 22:0 23:1 24:1 25:1 26:1 27:1 28:0 29:0 30:1 31:0 32:0 33:0 34:1 35:0 36:-2 37:-8 38:0 39:1 40:1 
0.7748074373428463 0:0 1:0 2:1 3:1 4:1 5:0 6:0 7:1 8:0 9:0 10:1 11:0 12:1 13:0 14:0 15:1 16:0 17:0 18:0 19:0 20:0 21:1 22:0 23:0 24:0 25:1 26:0 27:1 28:0 29:0 30:0 31:0 32:0 33:1 34:0 35:0 36:-13 37:-5 38:0 39:0 40:1 
2 0:1 1:1 2:1 3:1 4:1 5:0 6:0 7:1 8:1 9:0 10:1 11:1 12:1 13:1 14:1 15:0 16:0 17:0 18:1 19:0 20:0 21:1 22:1 23:0 24:1 25:1 26:1 27:1 28:0 29:1 30:0 31:0 32:0 33:1 34:1 35:0 36:-4 37:-1 38:0 39:0 40:1 
2 0:0 1:1 2:1 3:1 4:0 5:0 6:0 7:1 8:1 9:0 10:1 11:1 12:1 13:1 14:1 15:0 16:0 17:0 18:1 19:1 20:0 21:1 22:1 23:1 24:0 25:0 26:1 27:0 28:0 29:0 30:1 31:0 32:0 33:1 34:0 35:0 36:1 37:-3 38:0 39:0 40:1 
1.097526528039473 0:1 1:0 2:1 3:1 4:0 5:0 6:1 7:1 8:1 9:0 10:1 11:1 12:1 13:0 14:1 15:1 16:0 17:1 18:1 19:1 20:0 21:1 22:0 23:1 24:1 25:1 26:1 27:1 28:0 29:1 30:0 31:0 32:0 33:0 34:0 35:0 36:0 37:-8 38:0 39:0 40:1 
2 0:0 1:1 2:1 3:0 4:0 5:1 6:0 7:1 8:1 9:0 10:1 11:1 12:0 13:1 14:1 15:1 16:1 17:0 18:1 19:0 20:0 21:1 22:0 23:1 24:1 25:0 26:1 27:1 28:1 29:1 30:0 31:0 32:0 33:0 34:1 35:0 36:-4 37:0 38:0 39:0 40:1 
2 0:1 1:1 2:1 3:1 4:0 5:0 6:1 7:1 8:1 9:0 10:1 11:0 12:0 13:1 14:0 15:0 16:0 17:0 18:1 19:0 20:0 21:1 22:1 23:1 24:0 25:0 26:0 27:0 28:1 29:1 30:1 31:0 32:0 33:1 34:0 35:0 36:-2 37:-3 38:0 39:0 40:1 
2 0:0 1:1 2:1 3:1 4:0 5:0 6:1 7:1 8:1 9:0 10:1 11:1 12:0 13:1 14:1 15:1 16:1 17:0 18:1 19:0 20:0 21:1 22:0 23:1 24:1 25:1 26:1 27:1 28:1 29:0 30:1 31:1 32:1 33:1 34:0 35:0 36:-5 37:2 38:0 39:0 40:2 
0.03554736229536849 0:1 1:1 2:0 3:1 4:1 5:1 6:1 7:1 8:1 9:1 10:1 11:0 12:1 13:1 14:1 15:1 16:0 17:0 18:0 19:0 20:1 21:1 22:0 23:0 24:0 25:1 26:1 27:0 28:0 29:0 30:1 31:0 32:0 33:0 34:1 35:0 36:3 37:-10 38:0 39:0 40:1 
1.04576686205034 0:0 1:0 2:0 3:1 4:0 5:0 6:0 7:1 8:1 9:1 10:1 11:1 12:1 13:0 14:1 15:1 16:0 17:0 18:0 19:0 20:0 21:0 22:0 23:1 24:1 25:0 26:1 27:0 28:0 29:1 30:0 31:0 32:0 33:0 34:0 35:0 36:3 37:1 38:0 39:0 40:1 
2 0:1 1:1 2:1 3:1 4:0 5:0 6:0 7:1 8:1 9:0 10:0 11:0 12:1 13:1 14:1 15:0 16:0 17:1 18:0 19:0 20:0 21:1 22:0 23:0 24:0 25:1 26:1 27:0 28:1 29:0 30:0 31:0 32:0 33:0 34:0 35:0 36:-2 37:6 38:0 39:0 40:2 
0.5115460622778791 0:0 1:0 2:1 3:1 4:0 5:1 6:1 7:0 8:1 9:0 10:0 11:0 12:1 13:1 14:0 15:0 16:0 17:0 18:0 19:1 20:0 21:0 22:0 23:0 24:0 25:0 26:0 27:0 28:0 29:1 30:0 31:0 32:0 33:1 34:1 35:1 36:4 37:-4 38:0 39:0 40:1 
2 0:1 1:1 2:0 3:1 4:1 5:1 6:1 7:1 8:1 9:1 10:1 11:0 12:0 13:1 14:1 15:1 16:0 17:0 18:1 19:1 20:1 21:0 22:0 23:1 24:1 25:0 26:1 27:0 28:1 29:1 30:0 31:1 32:0 33:0 34:0 35:1 36:-1 37:0 38:0 39:1 40:3 
0.5083831869034442 0:0 1:0 2:1 3:1 4:0 5:0 6:0 7:1 8:1 9:1 10:1 11:0 12:1 13:1 14:1 15:1 16:0 17:0 18:1 19:0 20:1 21:1 22:1 23:1 24:0 25:0 26:1 27:1 28:1 29:1 30:0 31:1 32:1 33:1 34:0 35:0 36:-8 37:2 38:0 39:0 40:2 
2 0:1 1:1 2:0 3:1 4:0 5:0 6:1 7:0 8:1 9:1 10:1 11:1 12:1 13:1 14:1 15:0 16:0 17:0 18:1 19:0 20:0 21:1 22:1 23:1 24:0 25:1 26:1 27:1 28:1 29:1 30:0 31:0 32:0 33:1 34:1 35:1 36:1 37:-4 38:0 39:0 40:2 
2 0:1 1:1 2:1 3:1 4:1 5:0 6:1 7:1 8:1 9:0 10:0 11:0 12:0 13:1 14:1 15:0 16:0 17:0 18:1 19:0 20:0 21:1 22:1 23:0 24:1 25:1 26:1 27:0 28:1 29:1 30:1 31:1 32:0 33:0 34:0 35:0 36:-3 37:-4 38:0 39:1 40:2 
2 0:1 1:1 2:1 3:1 4:1 5:1 6:0 7:1 8:1 9:0 10:1 11:1 12:1 13:1 14:1 15:0 16:0 17:0 18:0 19:0 20:0 21:1 22:1 23:1 24:0 25:0 26:1 27:1 28:1 29:1 30:1 31:0 32:0 33:0 34:0 35:1 36:-1 37:-2 38:1 39:0 40:1 
0.06364586953068996 0:0 1:1 2:0 3:0 4:0 5:0 6:1 7:1 8:1 9:1 10:1 11:0 12:1 13:1 14:1 15:0 16:0 17:0 18:1 19:0 20:0 21:0 22:0 23:1 24:0 25:0 26:1 27:0 28:0 29:1 30:1 31:0 32:0 33:0 34:0 35:0 36:8 37:10 38:0 39:1 40:1 
2 0:0 1:1 2:0 3:1 4:0 5:1 6:1 7:1 8:1 9:0 10:0 11:1 12:0 13:0 14:1 15:1 16:1 17:0 18:0 19:0 20:0 21:1 22:0 23:0 24:1 25:1 26:1 27:1 28:1 29:1 30:0 31:0 32:0 33:0 34:1 35:0 36:2 37:-2 38:0 39:0 40:1 
2 0:1 1:1 2:1 3:1 4:0 5:0 6:1 7:1 8:0 9:0 10:1 11:1 12:1 13:1 14:1 15:1 16:0 17:0 18:1 19:0 20:0 21:1 22:0 23:0 24:0 25:1 26:1 27:0 28:0 29:1 30:1 31:1 32:0 33:0 34:0 35:0 36:-1 37:3 38:0 39:0 40:1 
0.5472123430566969 0:1 1:0 2:0 3:0 4:0 5:0 6:0 7:0 8:0 9:0 10:0 11:1 12:0 13:1 14:1 15:1 16:1 17:1 18:1 19:0 20:0 21:1 22:0 23:0 24:0 25:1 26:0 27:1 28:1 29:0 30:0 31:0 32:0 33:1 34:0 35:0 36:-3 37:11 38:0 39:1 40:1 
0.6136774164128912 0:1 1:1 2:1 3:1 4:0 5:0 6:0 7:1 8:1 9:0 10:1 11:1 12:0 13:1 14:1 15:1 16:1 17:0 18:1 19:0 20:0 21:1 22:1 23:0 24:1 25:1 26:1 27:1 28:1 29:0 30:1 31:0 32:0 33:0 34:0 35:1 36:-2 37:7 38:0 39:0 40:1 
2 0:1 1:1 2:1 3:1 4:1 5:0 6:1 7:1 8:1 9:1 10:1 11:1 12:1 13:0 14:1 15:0 16:0 17:1 18:1 19:0 20:0 21:1 22:0 23:0 24:0 25:1 26:0 27:1 28:1 29:0 30:1 31:1 32:0 33:0 34:1 35:0 36:-2 37:1 38:0 39:0 40:4 
2 0:1 1:1 2:0 3:0 4:0 5:1 6:0 7:1 8:1 9:1 10:1 11:1 12:1 13:1 14:1 15:1 16:1 17:0 18:0 19:1 20:0 21:1 22:1 23:0 24:0 25:1 26:1 27:1 28:0 29:0 30:0 31:0 32:1 33:1 34:0 35:0 36:-3 37:-4 38:0 39:1 40:3 
0.9450217947025361 0:1 1:1 2:1 3:1 4:0 5:0 6:1 7:1 8:0 9:1 10:1 11:1 12:0 13:1 14:1 15:1 16:1 17:0 18:1 19:1 20:0 21:1 22:0 23:1 24:1 25:1 26:1 27:0 28:1 29:1 30:1 31:0 32:0 33:1 34:1 35:0 36:-8 37:-5 38:0 39:0 40:1 
0.7936189663893423 0:1 1:1 2:1 3:0 4:0 5:0 6:1 7:1 8:0 9:1 10:1 11:0 12:1 13:0 14:1 15:0 16:0 17:0 18:0 19:1 20:0 21:1 22:0 23:0 24:1 25:0 26:0 27:0 28:1 29:0 30:0 31:0 32:0 33:1 34:0 35:1 36:6 37:-2 38:0 39:0 40:1 
2 0:1 1:1 2:1 3:1 4:0 5:0 6:1 7:1 8:1 9:1 10:1 11:1 12:1 13:1 14:0 15:1 16:0 17:0 18:1 19:0 20:1 21:0 22:1 23:0 24:1 25:1 26:0 27:0 28:1 29:0 30:0 31:0 32:0 33:1 34:0 35:0 36:-4 37:1 38:0 39:0 40:3 
2 0:1 1:1 2:1 3:1 4:0 5:0 6:1 7:1 8:1 9:0 10:1 11:1 12:0 13:0 14:1 15:1 16:0 17:0 18:1 19:0 20:1 21:1 22:0 23:1 24:1 25:0 26:0 27:0 28:1 29:1 30:1 31:1 32:0 33:0 34:0 35:0 36:2 37:-3 38:0 39:0 40:3 
0.886295248212041 0:1 1:1 2:1 3:0 4:0 5:0 6:1 7:1 8:1 9:1 10:1 11:1 12:1 13:1 14:0 15:1 16:0 17:0 18:1 19:1 20:0 21:1 22:1 23:1 24:0 25:1 26:1 27:1 28:0 29:1 30:1 31:1 32:0 33:0 34:0 35:1 36:4 37:-1 38:0 39:1 40:1 
0.7254610124552148 0:1 1:1 2:1 3:0 4:0 5:0 6:1 7:1 8:0 9:0 10:1 11:1 12:0 13:1 14:1 15:1 16:1 17:0 18:0 19:1 20:0 21:1 22:0 23:0 24:1 25:1 26:1 27:0 28:1 29:0 30:0 31:1 32:0 33:1 34:0 35:0 36:-4 37:3 38:0 39:1 40:1 
1.160099981330305 0:1 1:1 2:1 3:1 4:1 5:0 6:1 7:1 8:1 9:1 10:1 11:1 12:1 13:0 14:0 15:0 16:0 17:0 18:1 19:0 20:1 21:1 22:0 23:0 24:0 25:1 26:1 27:1 28:0 29:0 30:1 31:0 32:0 33:1 34:0 35:1 36:9 37:2 38:0 39:0 40:1 
2 0:1 1:1 2:1 3:1 4:1 5:1 6:1 7:1 8:1 9:1 10:1 11:1 12:1 13:0 14:1 15:1 16:1 17:0 18:1 19:0 20:1 21:1 22:0 23:0 24:1 25:1 26:1 27:1 28:1 29:0 30:0 31:0 32:0 33:1 34:0 35:0 36:0 37:-6 38:0 39:1 40:3 
2 0:1 1:1 2:1 3:1 4:0 5:1 6:1 7:1 8:1 9:1 10:1 11:1 12:1 13:1 14:1 15:1 16:0 17:0 18:1 19:1 20:1 21:1 22:0 23:0 24:1 25:1 26:1 27:1 28:1 29:0 30:1 31:1 32:0 33:1 34:1 35:0 36:-7 37:2 38:0 39:0 40:2 
0.7928916945362944 0:1 1:1 2:1 3:1 4:0 5:0 6:1 7:0 8:0 9:0 10:1 11:1 12:1 13:0 14:1 15:0 16:1 17:1 18:1 19:1 20:1 21:0 22:1 23:1 24:0 25:0 26:0 27:1 28:0 29:0 30:1 31:0 32:0 33:1 34:0 35:0 36:-4 37:-1 38:0 39:0 40:1 
2 0:1 1:1 2:1 3:1 4:1 5:0 6:0 7:1 8:1 9:0 10:0 11:1 12:0 13:0 14:1 15:0 16:1 17:0 18:1 19:1 20:1 21:1 22:1 23:1 24:1 25:0 26:1 27:1 28:1 29:1 30:0 31:0 32:0 33:1 34:1 35:0 36:2 37:0 38:0 39:1 40:2 
2 0:1 1:1 2:1 3:1 4:0 5:0 6:1 7:0 8:1 9:1 10:1 11:1 12:1 13:0 14:0 15:1 16:0 17:0 18:1 19:0 20:1 21:1 22:1 23:0 24:0 25:1 26:1 27:0 28:1 29:1 30:1 31:1 32:0 33:0 34:1 35:0 36:2 37:-7 38:0 39:0 40:3 
2 0:1 1:1 2:1 3:1 4:0 5:1 6:1 7:1 8:1 9:0 10:0 11:0 12:0 13:0 14:1 15:0 16:1 17:0 18:1 19:0 20:0 21:1 22:1 23:0 24:1 25:1 26:1 27:0 28:1 29:0 30:1 31:1 32:1 33:1 34:1 35:0 36:2 37:-1 38:0 39:0 40:2 
2 0:1 1:1 2:1 3:0 4:0 5:0 6:1 7:1 8:1 9:1 10:0 11:1 12:1 13:0 14:1 15:0 16:0 17:0 18:1 19:1 20:1 21:1 22:0 23:0 24:1 25:1 26:1 27:0 28:0 29:0 30:0 31:0 32:0 33:0 34:1 35:0 36:-3 37:-1 38:0 39:1 40:2 
2 0:0 1:0 2:1 3:1 4:0 5:0 6:1 7:0 8:1 9:1 10:1 11:1 12:1 13:1 14:1 15:0 16:0 17:0 18:1 19:1 20:1 21:0 22:0 23:0 24:0 25:1 26:1 27:1 28:0 29:1 30:1 31:0 32:0 33:1 34:0 35:0 36:-2 37:3 38:0 39:0 40:1 
2 0:1 1:1 2:1 3:1 4:0 5:1 6:1 7:0 8:1 9:1 10:1 11:0 12:1 13:1 14:1 15:1 16:1 17:0 18:1 19:1 20:0 21:1 22:0 23:0 24:1 25:1 26:1 27:1 28:1 29:1 30:1 31:0 32:0 33:1 34:0 35:0 36:2 37:-2 38:0 39:0 40:1 
2 0:1 1:1 2:0 3:1 4:0 5:1 6:1 7:1 8:1 9:1 10:1 11:0 12:0 13:1 14:1 15:0 16:0 17:0 18:0 19:1 20:1 21:1 22:1 23:1 24:0 25:1 26:1 27:0 28:0 29:1 30:1 31:0 32:0 33:1 34:1 35:0 36:0 37:0 38:0 39:1 40:4 
2 0:0 1:1 2:1 3:1 4:0 5:0 6:1 7:1 8:1 9:1 10:0 11:1 12:1 13:1 14:0 15:1 16:1 17:0 18:1 19:0 20:0 21:1 22:1 23:1 24:1 25:0 26:1 27:1 28:1 29:1 30:0 31:0 32:0 33:1 34:0 35:1 36:0 37:2 38:0 39:0 40:1 
1.438840277291619 0:1 1:1 2:0 3:0 4:0 5:1 6:0 7:1 8:1 9:0 10:1 11:1 12:1 13:1 14:1 15:0 16:0 17:0 18:1 19:1 20:0 21:0 22:0 23:0 24:1 25:1 26:0 27:0 28:1 29:0 30:0 31:0 32:0 33:0 34:0 35:0 36:-4 37:0 38:0 39:0 40:1 
2 0:1 1:1 2:1 3:1 4:0 5:0 6:1 7:0 8:0 9:0 10:0 11:0 12:0 13:1 14:1 15:0 16:0 17:1 18:1 19:0 20:1 21:1 22:0 23:0 24:1 25:1 26:1 27:0 28:1 29:1 30:1 31:0 32:0 33:0 34:0 35:0 36:1 37:2 38:0 39:0 40:4 
2 0:1 1:0 2:1 3:0 4:0 5:0 6:1 7:1 8:1 9:0 10:0 11:0 12:1 13:1 14:1 15:1 16:1 17:0 18:1 19:0 20:1 21:1 22:0 23:0 24:1 25:1 26:1 27:0 28:0 29:0 30:1 31:1 32:0 33:1 34:0 35:0 36:-3 37:0 38:0 39:0 40:1 
2 0:1 1:1 2:1 3:1 4:0 5:0 6:1 7:0 8:0 9:1 10:1 11:1 12:1 13:1 14:1 15:0 16:0 17:0 18:1 19:1 20:0 21:1 22:0 23:0 24:1 25:1 26:1 27:0 28:0 29:1 30:0 31:0 32:0 33:0 34:0 35:1 36:-2 37:-1 38:0 39:1 40:4 
2 0:1 1:1 2:1 3:1 4:0 5:0 6:1 7:0 8:1 9:1 10:1 11:1 12:0 13:0 14:0 15:1 16:0 17:0 18:1 19:0 20:0 21:1 22:0 23:1 24:1 25:1 26:1 27:0 28:0 29:1 30:0 31:0 32:0 33:1 34:0 35:0 36:-1 37:-2 38:0 39:1 40:1 
2 0:1 1:0 2:0 3:1 4:0 5:0 6:1 7:1 8:1 9:1 10:1 11:1 12:1 13:1 14:0 15:1 16:0 17:0 18:0 19:0 20:0 21:1 22:0 23:0 24:1 25:0 26:1 27:0 28:0 29:0 30:1 31:0 32:0 33:1 34:1 35:0 36:1 37:0 38:0 39:0 40:1 
2 0:1 1:1 2:1 3:1 4:1 5:0 6:0 7:1 8:0 9:1 10:1 11:1 12:1 13:1 14:1 15:1 16:0 17:0 18:0 19:0 20:0 21:1 22:0 23:0 24:1 25:1 26:1 27:0 28:1 29:1 30:1 31:0 32:0 33:1 34:1 35:0 36:-2 37:-3 38:0 39:0 40:3 
2 0:1 1:1 2:1 3:1 4:0 5:0 6:1 7:1 8:1 9:0 10:1 11:1 12:0 13:1 14:1 15:1 16:1 17:0 18:0 19:0 20:0 21:1 22:0 23:1 24:0 25:0 26:1 27:0 28:1 29:1 30:1 31:0 32:0 33:1 34:0 35:1 36:-5 37:-1 38:0 39:0 40:1 
2 0:1 1:1 2:1 3:1 4:1 5:1 6:0 7:1 8:1 9:1 10:1 11:1 12:1 13:0 14:1 15:0 16:1 17:0 18:0 19:0 20:1 21:1 22:1 23:1 24:0 25:0 26:0 27:1 28:1 29:1 30:1 31:0 32:0 33:1 34:0 35:0 36:-2 37:-3 38:0 39:0 40:2 
1.87155494806209 0:1 1:1 2:1 3:1 4:0 5:0 6:0 7:1 8:1 9:1 10:1 11:1 12:0 13:1 14:1 15:1 16:0 17:0 18:1 19:0 20:0 21:1 22:1 23:0 24:0 25:0 26:0 27:1 28:0 29:0 30:1 31:1 32:0 33:1 34:0 35:0 36:4 37:3 38:0 39:1 40:2 
2 0:1 1:1 2:1 3:1 4:1 5:0 6:1 7:0 8:1 9:1 10:0 11:1 12:1 13:1 14:0 15:1 16:0 17:0 18:1 19:1 20:0 21:0 22:1 23:0 24:0 25:1 26:0 27:1 28:1 29:0 30:0 31:0 32:0 33:0 34:0 35:0 36:1 37:1 38:0 39:0 40:1 
2 0:1 1:1 2:1 3:1 4:0 5:0 6:0 7:1 8:1 9:0 10:1 11:0 12:1 13:0 14:1 15:1 16:1 17:1 18:1 19:0 20:0 21:0 22:0 23:0 24:1 25:1 26:1 27:1 28:1 29:0 30:0 31:0 32:0 33:0 34:0 35:0 36:2 37:3 38:0 39:0 40:2 
0.09064507658411958 0:0 1:1 2:1 3:0 4:0 5:1 6:1 7:0 8:1 9:0 10:0 11:1 12:0 13:0 14:1 15:0 16:0 17:0 18:1 19:0 20:0 21:1 22:0 23:1 24:1 25:1 26:1 27:0 28:1 29:1 30:0 31:0 32:1 33:0 34:0 35:1 36:9 37:7 38:0 39:0 40:1 
0.6832121285383679 0:1 1:1 2:1 3:1 4:0 5:0 6:0 7:1 8:1 9:1 10:1 11:1 12:1 13:1 14:1 15:1 16:0 17:0 18:0 19:1 20:1 21:0 22:0 23:0 24:0 25:1 26:1 27:0 28:1 29:0 30:0 31:0 32:1 33:0 34:0 35:0 36:-1 37:3 38:0 39:0 40:1 
2 0:1 1:1 2:1 3:1 4:0 5:0 6:1 7:1 8:1 9:0 10:0 11:1 12:1 13:1 14:1 15:1 16:1 17:1 18:1 19:0 20:0 21:1 22:0 23:0 24:0 25:1 26:0 27:1 28:1 29:0 30:0 31:0 32:0 33:1 34:1 35:0 36:6 37:3 38:0 39:0 40:2 
0.6594507741428881 0:1 1:1 2:1 3:0 4:1 5:0 6:1 7:0 8:1 9:0 10:1 11:1 12:1 13:1 14:0 15:0 16:1 17:0 18:0 19:1 20:1 21:1 22:0 23:0 24:0 25:0 26:1 27:0 28:1 29:1 30:1 31:0 32:0 33:0 34:1 35:0 36:0 37:4 38:0 39:0 40:1 
2 0:1 1:1 2:1 3:0 4:0 5:1 6:0 7:1 8:1 9:0 10:1 11:1 12:0 13:0 14:1 15:1 16:0 17:0 18:1 19:1 20:0 21:1 22:0 23:0 24:1 25:1 26:1 27:1 28:0 29:1 30:1 31:0 32:0 33:1 34:0 35:1 36:2 37:-1 38:0 39:0 40:2 
2 0:0 1:1 2:1 3:0 4:0 5:0 6:1 7:1 8:1 9:0 10:0 11:0 12:1 13:0 14:1 15:1 16:0 17:0 18:1 19:1 20:1 21:1 22:0 23:1 24:1 25:1 26:1 27:1 28:0 29:1 30:0 31:0 32:0 33:0 34:0 35:0 36:-1 37:-2 38:0 39:0 40:2 
2 0:0 1:1 2:1 3:1 4:0 5:0 6:1 7:0 8:1 9:0 10:1 11:1 12:0 13:1 14:0 15:0 16:0 17:1 18:0 19:0 20:0 21:1 22:0 23:0 24:0 25:0 26:0 27:0 28:1 29:1 30:1 31:1 32:0 33:1 34:1 35:0 36:-2 37:1 38:0 39:0 40:1 
0.1689406136723999 0:1 1:0 2:1 3:0 4:1 5:1 6:1 7:1 8:0 9:1 10:1 11:0 12:1 13:0 14:1 15:0 16:0 17:0 18:1 19:0 20:0 21:1 22:0 23:0 24:0 25:0 26:1 27:1 28:0 29:1 30:1 31:1 32:1 33:1 34:0 35:1 36:7 37:13 38:0 39:1 40:2 
2 0:1 1:1 2:1 3:1 4:0 5:1 6:1 7:1 8:1 9:0 10:1 11:1 12:1 13:1 14:1 15:0 16:0 17:0 18:1 19:0 20:0 21:1 22:0 23:0 24:0 25:1 26:1 27:0 28:0 29:0 30:1 31:1 32:0 33:0 34:1 35:0 36:-5 37:-2 38:0 39:1 40:3 
2 0:1 1:0 2:0 3:0 4:1 5:1 6:1 7:1 8:0 9:1 10:1 11:1 12:1 13:1 14:1 15:1 16:0 17:0 18:1 19:0 20:0 21:1 22:1 23:1 24:0 25:1 26:1 27:1 28:0 29:1 30:0 31:0 32:0 33:1 34:0 35:0 36:1 37:0 38:0 39:0 40:2 
2 0:1 1:1 2:1 3:0 4:0 5:0 6:1 7:1 8:1 9:0 10:1 11:1 12:1 13:0 14:1 15:0 16:0 17:1 18:1 19:1 20:0 21:1 22:1 23:0 24:0 25:1 26:1 27:1 28:1 29:0 30:1 31:0 32:1 33:1 34:1 35:0 36:-7 37:2 38:0 39:0 40:1 
0.1083857963768482 0:0 1:0 2:1 3:1 4:0 5:0 6:0 7:1 8:1 9:1 10:1 11:1 12:1 13:1 14:1 15:1 16:1 17:0 18:1 19:0 20:0 21:1 22:1 23:1 24:0 25:0 26:1 27:1 28:1 29:1 30:1 31:0 32:0 33:1 34:0 35:1 36:-2 37:6 38:0 39:0 40:1 
2 0:1 1:0 2:1 3:1 4:1 5:0 6:0 7:1 8:1 9:1 10:1 11:0 12:0 13:0 14:0 15:0 16:0 17:0 18:1 19:0 20:0 21:0 22:1 23:1 24:0 25:0 26:0 27:1 28:1 29:0 30:1 31:1 32:0 33:1 34:0 35:0 36:0 37:2 38:0 39:0 40:1 
2 0:0 1:1 2:1 3:1 4:0 5:1 6:1 7:1 8:1 9:1 10:0 11:1 12:1 13:0 14:1 15:0 16:0 17:0 18:1 19:1 20:0 21:1 22:0 23:0 24:0 25:0 26:0 27:0 28:0 29:0 30:1 31:0 32:0 33:0 34:0 35:0 36:2 37:-3 38:0 39:0 40:2 
2 0:1 1:1 2:1 3:0 4:0 5:0 6:1 7:1 8:1 9:1 10:1 11:1 12:1 13:1 14:1 15:0 16:0 17:0 18:0 19:0 20:1 21:1 22:0 23:0 24:1 25:1 26:1 27:1 28:0 29:0 30:0 31:0 32:1 33:0 34:0 35:0 36:1 37:3 38:0 39:1 40:2 
2 0:1 1:1 2:1 3:1 4:1 5:1 6:0 7:1 8:1 9:0 10:1 11:1 12:1 13:1 14:0 15:0 16:0 17:0 18:1 19:0 20:0 21:1 22:0 23:1 24:1 25:1 26:1 27:0 28:0 29:0 30:1 31:0 32:0 33:1 34:0 35:0 36:-1 37:4 38:0 39:0 40:2 
0.3025850117816425 0:0 1:0 2:0 3:1 4:0 5:0 6:1 7:1 8:1 9:1 10:1 11:1 12:1 13:1 14:1 15:1 16:1 17:0 18:1 19:1 20:0 21:1 22:1 23:0 24:0 25:1 26:1 27:0 28:1 29:0 30:0 31:1 32:0 33:1 34:0 35:0 36:0 37:-9 38:0 39:0 40:4 
2 0:0 1:1 2:0 3:1 4:0 5:0 6:1 7:1 8:0 9:1 10:1 11:1 12:1 13:0 14:0 15:0 16:0 17:0 18:1 19:1 20:1 21:1 22:0 23:0 24:1 25:0 26:0 27:0 28:1 29:0 30:1 31:0 32:1 33:1 34:1 35:1 36:-1 37:-3 38:0 39:0 40:1 
2 0:1 1:1 2:1 3:0 4:1 5:1 6:0 7:1 8:1 9:1 10:1 11:1 12:1 13:0 14:1 15:1 16:0 17:0 18:1 19:0 20:0 21:1 22:0 23:0 24:1 25:1 26:1 27:1 28:0 29:1 30:0 31:0 32:0 33:1 34:1 35:0 36:3 37:1 38:0 39:0 40:4 
0.470877145578083 0:1 1:0 2:1 3:0 4:0 5:0 6:1 7:1 8:1 9:0 10:1 11:1 12:1 13:0 14:1 15:0 16:1 17:0 18:1 19:1 20:0 21:1 22:0 23:0 24:0 25:0 26:1 27:1 28:0 29:1 30:1 31:0 32:1 33:0 34:1 35:0 36:5 37:-6 38:0 39:0 40:1 
2 0:0 1:1 2:1 3:1 4:0 5:0 6:1 7:1 8:1 9:0 10:1 11:1 12:0 13:1 14:1 15:0 16:0 17:0 18:1 19:0 20:0 21:0 22:0 23:0 24:1 25:1 26:1 27:1 28:0 29:1 30:1 31:0 32:0 33:1 34:1 35:0 36:-2 37:-3 38:0 39:0 40:1 
0.7976844795211557 0:1 1:1 2:1 3:0 4:0 5:0 6:1 7:0 8:1 9:1 10:1 11:1 12:1 13:1 14:1 15:1 16:0 17:0 18:1 19:0 20:1 21:1 22:1 23:1 24:1 25:1 26:1 27:0 28:0 29:1 30:1 31:0 32:0 33:0 34:0 35:1 36:-6 37:0 38:0 39:0 40:2 
2 0:1 1:0 2:1 3:1 4:1 5:1 6:1 7:0 8:1 9:1 10:1 11:1 12:1 13:1 14:0 15:1 16:0 17:0 18:1 19:0 20:1 21:1 22:0 23:0 24:0 25:1 26:1 27:1 28:1 29:1 30:0 31:0 32:0 33:0 34:0 35:1 36:-2 37:-3 38:0 39:0 40:1 
2 0:1 1:1 2:1 3:0 4:0 5:1 6:0 7:1 8:0 9:0 10:0 11:0 12:1 13:1 14:1 15:1 16:0 17:0 18:1 19:0 20:0 21:1 22:0 23:0 24:0 25:1 26:1 27:0 28:0 29:0 30:0 31:0 32:1 33:0 34:0 35:0 36:0 37:-1 38:0 39:0 40:1 
2 0:1 1:1 2:0 3:1 4:0 5:0 6:1 7:0 8:1 9:1 10:1 11:1 12:1 13:1 14:1 15:0 16:0 17:0 18:0 19:1 20:0 21:1 22:0 23:0 24:0 25:1 26:0 27:1 28:1 29:1 30:0 31:0 32:0 33:1 34:1 35:0 36:1 37:1 38:0 39:0 40:2 
2 0:1 1:0 2:1 3:1 4:1 5:0 6:1 7:0 8:1 9:1 10:1 11:0 12:1 13:0 14:1 15:0 16:0 17:1 18:1 19:0 20:0 21:1 22:0 23:0 24:0 25:1 26:1 27:0 28:1 29:0 30:1 31:1 32:1 33:0 34:0 35:0 36:-4 37:0 38:0 39:0 40:2 
2 0:1 1:1 2:1 3:1 4:0 5:0 6:1 7:0 8:1 9:1 10:1 11:0 12:1 13:0 14:0 15:1 16:0 17:0 18:1 19:0 20:0 21:1 22:0 23:0 24:0 25:1 26:0 27:0 28:1 29:0 30:0 31:0 32:0 33:1 34:0 35:0 36:3 37:2 38:0 39:1 40:3 
2 0:1 1:0 2:1 3:1 4:0 5:0 6:1 7:1 8:1 9:0 10:1 11:1 12:0 13:1 14:1 15:0 16:0 17:0 18:1 19:0 20:0 21:1 22:0 23:1 24:1 25:1 26:0 27:0 28:1 29:0 30:0 31:0 32:1 33:0 34:0 35:0 36:1 37:-4 38:0 39:0 40:1 
2 0:0 1:1 2:1 3:1 4:1 5:0 6:1 7:0 8:1 9:0 10:1 11:1 12:1 13:1 14:0 15:0 16:0 17:0 18:0 19:0 20:0 21:0 22:0 23:0 24:0 25:1 26:1 27:1 28:0 29:1 30:0 31:0 32:0 33:1 34:0 35:0 36:3 37:1 38:0 39:1 40:1 
2 0:1 1:1 2:1 3:0 4:0 5:0 6:1 7:1 8:1 9:0 10:0 11:0 12:1 13:1 14:1 15:0 16:0 17:0 18:1 19:1 20:0 21:0 22:0 23:1 24:1 25:1 26:1 27:1 28:1 29:1 30:0 31:0 32:0 33:1 34:0 35:0 36:-5 37:-3 38:0 39:0 40:1 
2 0:1 1:1 2:1 3:1 4:0 5:1 6:1 7:1 8:1 9:1 10:1 11:1 12:1 13:0 14:1 15:0 16:0 17:0 18:1 19:1 20:1 21:0 22:1 23:0 24:1 25:1 26:0 27:1 28:1 29:0 30:0 31:0 32:0 33:1 34:1 35:1 36:3 37:1 38:0 39:0 40:1 
2 0:1 1:1 2:1 3:1 4:0 5:1 6:1 7:0 8:0 9:1 10:1 11:1 12:1 13:1 14:1 15:1 16:0 17:0 18:1 19:1 20:0 21:0 22:1 23:1 24:1 25:0 26:1 27:1 28:0 29:0 30:1 31:0 32:0 33:1 34:0 35:0 36:-1 37:2 38:0 39:0 40:1 
2 0:1 1:1 2:0 3:1 4:0 5:0 6:1 7:0 8:1 9:1 10:1 11:1 12:0 13:1 14:0 15:1 16:1 17:0 18:1 19:1 20:0 21:1 22:1 23:1 24:1 25:0 26:1 27:1 28:0 29:0 30:1 31:1 32:0 33:0 34:0 35:0 36:-4 37:2 38:0 39:0 40:1 
2 0:0 1:1 2:1 3:1 4:0 5:0 6:1 7:1 8:1 9:1 10:1 11:1 12:1 13:1 14:1 15:0 16:0 17:0 18:0 19:0 20:1 21:1 22:0 23:0 24:1 25:1 26:0 27:1 28:1 29:0 30:1 31:1 32:0 33:1 34:1 35:1 36:-5 37:-3 38:0 39:0 40:1 
0.6889624762841539 0:1 1:1 2:1 3:0 4:0 5:1 6:1 7:1 8:1 9:0 10:1 11:1 12:1 13:0 14:1 15:1 16:1 17:0 18:0 19:0 20:0 21:1 22:0 23:1 24:0 25:1 26:0 27:0 28:1 29:1 30:1 31:0 32:0 33:1 34:1 35:1 36:1 37:7 38:0 39:1 40:1 
2 0:1 1:1 2:1 3:0 4:0 5:0 6:0 7:1 8:1 9:1 10:0 11:1 12:1 13:1 14:1 15:0 16:0 17:0 18:0 19:0 20:1 21:1 22:0 23:0 24:0 25:1 26:1 27:1 28:0 29:0 30:0 31:0 32:0 33:1 34:1 35:0 36:2 37:-3 38:0 39:1 40:1 
2 0:1 1:0 2:1 3:1 4:1 5:0 6:1 7:1 8:1 9:0 10:0 11:0 12:1 13:0 14:1 15:1 16:0 17:0 18:1 19:0 20:0 21:1 22:0 23:0 24:0 25:0 26:1 27:1 28:0 29:1 30:0 31:1 32:1 33:1 34:0 35:1 36:-3 37:-3 38:0 39:0 40:2 
1.798797080204446 0:1 1:1 2:1 3:0 4:0 5:0 6:1 7:1 8:1 9:1 10:1 11:1 12:0 13:0 14:1 15:1 16:0 17:0 18:1 19:1 20:0 21:1 22:0 23:1 24:1 25:1 26:1 27:0 28:1 29:0 30:0 31:0 32:0 33:0 34:0 35:0 36:3 37:-3 38:0 39:0 40:1 
2 0:1 1:0 2:1 3:0 4:0 5:0 6:1 7:1 8:1 9:1 10:1 11:0 12:1 13:1 14:0 15:1 16:1 17:0 18:0 19:0 20:1 21:1 22:0 23:0 24:1 25:0 26:0 27:1 28:1 29:1 30:0 31:1 32:1 33:0 34:0 35:0 36:-5 37:-1 38:0 39:0 40:2 
2 0:1 1:1 2:1 3:1 4:0 5:0 6:1 7:0 8:0 9:1 10:1 11:1 12:1 13:1 14:1 15:1 16:0 17:0 18:1 19:1 20:0 21:1 22:0 23:0 24:0 25:0 26:0 27:1 28:1 29:0 30:1 31:0 32:0 33:1 34:1 35:0 36:-3 37:4 38:0 39:1 40:2 
2 0:0 1:0 2:1 3:1 4:0 5:0 6:0 7:1 8:1 9:1 10:1 11:1 12:1 13:1 14:0 15:0 16:0 17:0 18:0 19:0 20:1 21:0 22:0 23:0 24:1 25:1 26:1 27:1 28:1 29:0 30:0 31:0 32:0 33:0 34:0 35:0 36:-2 37:2 38:0 39:0 40:1 
2 0:1 1:1 2:0 3:1 4:0 5:1 6:1 7:1 8:0 9:1 10:1 11:1 12:1 13:0 14:1 15:1 16:0 17:0 18:0 19:0 20:0 21:1 22:1 23:1 24:0 25:1 26:1 27:1 28:1 29:1 30:1 31:1 32:0 33:1 34:0 35:1 36:0 37:1 38:0 39:0 40:2 
0.9479844210392155 0:1 1:1 2:0 3:1 4:0 5:0 6:1 7:0 8:1 9:1 10:0 11:1 12:1 13:0 14:0 15:0 16:0 17:0 18:1 19:1 20:0 21:0 22:0 23:0 24:0 25:0 26:1 27:0 28:1 29:1 30:0 31:0 32:0 33:0 34:0 35:1 36:5 37:0 38:0 39:0 40:2 
1.332101292932591 0:0 1:1 2:1 3:1 4:0 5:1 6:1 7:0 8:1 9:1 10:1 11:1 12:1 13:1 14:1 15:1 16:0 17:1 18:1 19:1 20:1 21:1 22:1 23:0 24:1 25:1 26:1 27:0 28:1 29:0 30:1 31:0 32:0 33:1 34:1 35:0 36:4 37:1 38:0 39:1 40:3 
2 0:1 1:1 2:0 3:1 4:0 5:1 6:1 7:0 8:1 9:1 10:1 11:1 12:1 13:1 14:0 15:0 16:0 17:0 18:1 19:0 20:0 21:1 22:1 23:1 24:1 25:1 26:1 27:1 28:1 29:1 30:0 31:0 32:0 33:1 34:1 35:0 36:2 37:-1 38:1 39:0 40:2 
0.5592039085047552 0:1 1:0 2:0 3:1 4:0 5:1 6:0 7:1 8:1 9:1 10:1 11:1 12:1 13:0 14:1 15:0 16:0 17:0 18:1 19:1 20:0 21:1 22:1 23:1 24:1 25:1 26:1 27:1 28:1 29:0 30:1 31:0 32:0 33:0 34:0 35:0 36:1 37:-5 38:0 39:1 40:3 
0.1316463484776453 0:1 1:1 2:1 3:0 4:0 5:0 6:1 7:1 8:0 9:0 10:1 11:1 12:1 13:1 14:0 15:0 16:0 17:1 18:0 19:0 20:1 21:1 22:0 23:1 24:0 25:1 26:1 27:1 28:0 29:1 30:1 31:1 32:1 33:1 34:0 35:0 36:0 37:12 38:0 39:1 40:1 
2 0:0 1:1 2:1 3:0 4:0 5:0 6:1 7:1 8:1 9:0 10:0 11:0 12:1 13:1 14:1 15:1 16:1 17:1 18:1 19:0 20:0 21:1 22:1 23:1 24:0 25:0 26:1 27:1 28:0 29:1 30:1 31:1 32:0 33:1 34:1 35:0 36:-2 37:5 38:0 39:0 40:1 
2 0:1 1:0 2:1 3:1 4:0 5:0 6:1 7:1 8:1 9:0 10:1 11:1 12:1 13:1 14:1 15:0 16:0 17:0 18:0 19:0 20:0 21:1 22:0 23:0 24:1 25:0 26:0 27:0 28:1 29:1 30:1 31:0 32:0 33:0 34:1 35:0 36:4 37:0 38:0 39:1 40:4 
2 0:0 1:1 2:1 3:1 4:1 5:1 6:1 7:1 8:1 9:0 10:0 11:1 12:1 13:1 14:0 15:1 16:1 17:1 18:1 19:0 20:0 21:1 22:1 23:0 24:1 25:1 26:1 27:0 28:1 29:0 30:1 31:1 32:1 33:1 34:0 35:0 36:0 37:3 38:0 39:1 40:1 
2 0:0 1:1 2:1 3:1 4:1 5:1 6:1 7:1 8:1 9:1 10:0 11:1 12:0 13:1 14:1 15:1 16:1 17:0 18:1 19:0 20:0 21:1 22:1 23:0 24:0 25:1 26:1 27:1 28:1 29:1 30:0 31:0 32:0 33:0 34:0 35:1 36:-3 37:0 38:0 39:1 40:1 
2 0:1 1:1 2:0 3:1 4:0 5:0 6:1 7:1 8:1 9:0 10:0 11:0 12:1 13:1 14:1 15:0 16:0 17:0 18:1 19:1 20:0 21:0 22:0 23:1 24:0 25:1 26:0 27:1 28:0 29:0 30:0 31:0 32:0 33:1 34:0 35:0 36:2 37:-3 38:0 39:0 40:1 
0.3939854714482607 0:1 1:1 2:1 3:1 4:0 5:0 6:0 7:1 8:1 9:0 10:1 11:0 12:1 13:1 14:1 15:1 16:0 17:0 18:1 19:1 20:1 21:1 22:1 23:0 24:1 25:1 26:0 27:1 28:1 29:1 30:1 31:0 32:1 33:0 34:0 35:0 36:-6 37:3 38:0 39:0 40:2 
2 0:1 1:1 2:0 3:0 4:0 5:0 6:1 7:1 8:0 9:1 10:1 11:0 12:1 13:1 14:1 15:1 16:0 17:0 18:1 19:0 20:0 21:1 22:0 23:1 24:1 25:1 26:0 27:0 28:0 29:1 30:1 31:0 32:0 33:1 34:0 35:0 36:1 37:0 38:0 39:0 40:1 
0.7234375455754136 0:0 1:0 2:1 3:1 4:0 5:1 6:1 7:1 8:1 9:1 10:1 11:0 12:1 13:1 14:1 15:0 16:0 17:0 18:0 19:0 20:0 21:1 22:1 23:0 24:1 25:1 26:1 27:1 28:1 29:0 30:0 31:0 32:0 33:1 34:1 35:0 36:11 37:-2 38:0 39:1 40:1 
2 0:1 1:0 2:1 3:1 4:1 5:0 6:1 7:1 8:0 9:0 10:1 11:1 12:1 13:1 14:1 15:0 16:0 17:0 18:1 19:0 20:0 21:1 22:0 23:1 24:0 25:0 26:0 27:0 28:1 29:1 30:0 31:0 32:0 33:1 34:1 35:0 36:3 37:0 38:0 39:1 40:4 
0.6014007139371748 0:0 1:0 2:0 3:1 4:0 5:0 6:0 7:1 8:1 9:1 10:1 11:1 12:1 13:0 14:0 15:0 16:0 17:0 18:1 19:1 20:0 21:1 22:0 23:0 24:0 25:1 26:1 27:1 28:1 29:1 30:0 31:0 32:0 33:1 34:1 35:0 36:-12 37:-2 38:0 39:0 40:1 
2 0:1 1:0 2:1 3:0 4:0 5:0 6:1 7:1 8:1 9:0 10:1 11:1 12:1 13:1 14:0 15:1 16:0 17:0 18:1 19:1 20:0 21:1 22:0 23:1 24:1 25:0 26:1 27:1 28:1 29:0 30:0 31:0 32:0 33:0 34:0 35:0 36:1 37:-3 38:0 39:0 40:3 
2 0:1 1:1 2:1 3:1 4:1 5:0 6:1 7:1 8:0 9:0 10:1 11:0 12:0 13:0 14:1 15:0 16:0 17:0 18:1 19:0 20:0 21:1 22:0 23:1 24:1 25:1 26:1 27:0 28:1 29:0 30:1 31:1 32:0 33:1 34:1 35:0 36:0 37:-1 38:0 39:0 40:1 
2 0:1 1:1 2:0 3:0 4:0 5:1 6:0 7:1 8:0 9:0 10:1 11:0 12:0 13:0 14:0 15:1 16:1 17:0 18:0 19:0 20:1 21:1 22:0 23:1 24:1 25:1 26:1 27:0 28:0 29:0 30:0 31:0 32:0 33:1 34:0 35:0 36:0 37:0 38:0 39:1 40:3 
2 0:1 1:1 2:1 3:1 4:0 5:0 6:1 7:1 8:1 9:0 10:1 11:1 12:0 13:1 14:1 15:1 16:0 17:0 18:0 19:0 20:0 21:1 22:1 23:0 24:0 25:1 26:1 27:0 28:1 29:1 30:0 31:0 32:0 33:1 34:1 35:0 36:-3 37:-4 38:0 39:0 40:1 
2 0:0 1:1 2:1 3:1 4:0 5:0 6:0 7:0 8:1 9:1 10:1 11:1 12:1 13:1 14:1 15:0 16:0 17:0 18:1 19:1 20:1 21:1 22:0 23:0 24:0 25:1 26:1 27:0 28:0 29:0 30:1 31:0 32:0 33:1 34:0 35:0 36:-4 37:3 38:0 39:1 40:1 
0.4393539347674403 0:0 1:1 2:1 3:1 4:0 5:0 6:1 7:1 8:1 9:0 10:0 11:0 12:1 13:1 14:1 15:0 16:0 17:0 18:0 19:0 20:0 21:1 22:0 23:1 24:0 25:0 26:0 27:0 28:1 29:0 30:1 31:0 32:0 33:0 34:0 35:0 36:-4 37:-7 38:0 39:0 40:1 
0.4046380687850039 0:0 1:0 2:0 3:1 4:0 5:0 6:1 7:1 8:1 9:0 10:1 11:1 12:1 13:0 14:1 15:1 16:0 17:0 18:1 19:1 20:1 21:1 22:0 23:0 24:0 25:0 26:1 27:0 28:0 29:1 30:1 31:0 32:0 33:1 34:0 35:0 36:8 37:15 38:0 39:1 40:1 
0.02526139453699122 0:1 1:1 2:1 3:1 4:0 5:0 6:1 7:1 8:1 9:1 10:1 11:1 12:1 13:1 14:1 15:1 16:1 17:1 18:1 19:0 20:1 21:1 22:1 23:0 24:0 25:1 26:1 27:0 28:1 29:0 30:0 31:0 32:0 33:1 34:1 35:0 36:-23 37:-4 38:0 39:0 40:2 
0.6072393906933046 0:1 1:0 2:0 3:1 4:1 5:1 6:1 7:1 8:1 9:1 10:1 11:1 12:1 13:1 14:0 15:0 16:0 17:0 18:1 19:0 20:0 21:0 22:0 23:1 24:0 25:1 26:1 27:0 28:1 29:0 30:0 31:0 32:0 33:1 34:0 35:0 36:2 37:-6 38:0 39:0 40:3 
2 0:1 1:0 2:1 3:1 4:0 5:0 6:0 7:1 8:1 9:0 10:0 11:0 12:1 13:1 14:0 15:0 16:0 17:0 18:1 19:1 20:1 21:1 22:0 23:1 24:1 25:1 26:1 27:0 28:0 29:0 30:0 31:1 32:0 33:0 34:0 35:0 36:-2 37:2 38:0 39:0 40:1 
0.6087604020493584 0:0 1:1 2:1 3:1 4:1 5:0 6:1 7:1 8:1 9:0 10:1 11:1 12:1 13:0 14:1 15:1 16:0 17:0 18:1 19:0 20:0 21:1 22:0 23:1 24:0 25:1 26:1 27:1 28:0 29:0 30:1 31:1 32:0 33:1 34:1 35:0 36:3 37:11 38:0 39:0 40:1 
2 0:1 1:0 2:1 3:1 4:1 5:0 6:1 7:1 8:1 9:0 10:0 11:0 12:1 13:0 14:1 15:0 16:0 17:0 18:1 19:0 20:0 21:1 22:0 23:1 24:1 25:1 26:0 27:1 28:0 29:1 30:1 31:0 32:0 33:0 34:0 35:0 36:2 37:-5 38:0 39:0 40:1 
2 0:1 1:1 2:1 3:0 4:0 5:0 6:1 7:1 8:1 9:0 10:1 11:0 12:1 13:1 14:1 15:1 16:0 17:0 18:1 19:0 20:0 21:0 22:0 23:0 24:1 25:1 26:1 27:0 28:1 29:0 30:0 31:0 32:0 33:1 34:1 35:0 36:1 37:4 38:0 39:0 40:1 
2 0:1 1:1 2:1 3:1 4:1 5:0 6:0 7:1 8:1 9:1 10:1 11:1 12:1 13:1 14:1 15:0 16:0 17:0 18:0 19:0 20:1 21:1 22:0 23:0 24:1 25:1 26:1 27:0 28:1 29:1 30:1 31:0 32:1 33:1 34:1 35:1 36:-1 37:-4 38:0 39:0 40:2 
1.384560405051753 0:1 1:1 2:1 3:0 4:0 5:0 6:1 7:1 8:0 9:1 10:0 11:1 12:1 13:1 14:0 15:1 16:1 17:0 18:1 19:0 20:1 21:1 22:0 23:1 24:0 25:0 26:1 27:1 28:0 29:1 30:1 31:0 32:0 33:0 34:1 35:0 36:7 37:-8 38:0 39:0 40:1 
1.163195937428099 0:1 1:1 2:1 3:0 4:0 5:1 6:0 7:0 8:1 9:0 10:1 11:1 12:1 13:0 14:1 15:1 16:0 17:0 18:1 19:0 20:0 21:0 22:0 23:0 24:1 25:1 26:1 27:0 28:1 29:1 30:0 31:0 32:0 33:0 34:0 35:0 36:-3 37:3 38:0 39:0 40:1 
2 0:0 1:1 2:1 3:1 4:0 5:1 6:1 7:1 8:1 9:1 10:1 11:0 12:1 13:1 14:1 15:1 16:0 17:0 18:0 19:0 20:0 21:1 22:0 23:0 24:1 25:1 26:0 27:1 28:0 29:1 30:0 31:0 32:0 33:0 34:1 35:0 36:-3 37:6 38:0 39:1 40:3 
2 0:1 1:1 2:1 3:1 4:1 5:1 6:1 7:1 8:1 9:0 10:1 11:1 12:1 13:0 14:1 15:0 16:0 17:0 18:0 19:1 20:0 21:1 22:0 23:1 24:1 25:0 26:1 27:1 28:0 29:1 30:0 31:1 32:1 33:1 34:0 35:0 36:-2 37:-1 38:0 39:0 40:1 
2 0:1 1:0 2:1 3:0 4:0 5:0 6:1 7:1 8:1 9:1 10:1 11:1 12:1 13:1 14:1 15:1 16:1 17:0 18:0 19:0 20:1 21:0 22:0 23:0 24:0 25:1 26:1 27:0 28:0 29:1 30:1 31:1 32:1 33:1 34:0 35:0 36:-1 37:0 38:1 39:0 40:4 
2 0:1 1:1 2:1 3:1 4:1 5:1 6:0 7:1 8:1 9:1 10:1 11:1 12:1 13:1 14:0 15:0 16:1 17:0 18:0 19:0 20:0 21:1 22:0 23:1 24:0 25:0 26:0 27:1 28:1 29:0 30:1 31:0 32:0 33:1 34:1 35:0 36:1 37:-2 38:0 39:0 40:1 
2 0:1 1:1 2:1 3:1 4:1 5:0 6:1 7:0 8:0 9:1 10:1 11:1 12:1 13:1 14:1 15:0 16:0 17:0 18:1 19:0 20:0 21:1 22:0 23:0 24:0 25:1 26:1 27:0 28:1 29:1 30:0 31:0 32:1 33:0 34:0 35:0 36:0 37:2 38:0 39:0 40:2 
1.316350655283476 0:0 1:1 2:1 3:1 4:0 5:0 6:1 7:1 8:1 9:0 10:1 11:1 12:1 13:1 14:0 15:1 16:0 17:0 18:1 19:1 20:1 21:0 22:1 23:0 24:1 25:1 26:1 27:1 28:1 29:0 30:0 31:0 32:0 33:1 34:1 35:0 36:5 37:1 38:0 39:0 40:2 
2 0:0 1:1 2:1 3:0 4:0 5:0 6:0 7:1 8:1 9:1 10:1 11:0 12:0 13:1 14:0 15:1 16:1 17:0 18:0 19:1 20:0 21:1 22:0 23:0 24:0 25:0 26:1 27:1 28:1 29:0 30:1 31:0 32:0 33:0 34:1 35:0 36:0 37:-4 38:0 39:0 40:1 
2 0:1 1:1 2:1 3:0 4:0 5:0 6:0 7:1 8:1 9:1 10:1 11:1 12:0 13:1 14:0 15:1 16:0 17:0 18:1 19:0 20:0 21:1 22:0 23:0 24:1 25:1 26:0 27:1 28:0 29:1 30:1 31:0 32:0 33:1 34:0 35:0 36:2 37:4 38:0 39:0 40:1 
2 0:1 1:1 2:0 3:1 4:0 5:1 6:1 7:1 8:1 9:0 10:0 11:1 12:1 13:1 14:0 15:0 16:0 17:1 18:1 19:1 20:0 21:1 22:1 23:0 24:0 25:1 26:0 27:0 28:0 29:1 30:0 31:0 32:0 33:1 34:0 35:0 36:2 37:-5 38:0 39:0 40:1 
0.4349605856803992 0:0 1:1 2:1 3:0 4:1 5:1 6:1 7:1 8:1 9:0 10:1 11:1 12:1 13:1 14:0 15:0 16:0 17:0 18:0 19:0 20:1 21:1 22:0 23:0 24:1 25:1 26:1 27:0 28:0 29:0 30:0 31:0 32:0 33:1 34:1 35:0 36:3 37:-3 38:0 39:0 40:1 
2 0:1 1:1 2:1 3:1 4:0 5:0 6:1 7:1 8:0 9:0 10:1 11:1 12:1 13:0 14:1 15:0 16:0 17:0 18:0 19:0 20:1 21:1 22:1 23:1 24:1 25:1 26:0 27:0 28:1 29:1 30:1 31:1 32:1 33:1 34:1 35:0 36:0 37:0 38:1 39:0 40:4 
2 0:1 1:1 2:1 3:1 4:1 5:0 6:1 7:1 8:1 9:0 10:1 11:1 12:0 13:1 14:1 15:1 16:0 17:0 18:1 19:0 20:0 21:1 22:0 23:0 24:1 25:1 26:1 27:1 28:0 29:0 30:0 31:1 32:0 33:0 34:0 35:0 36:4 37:0 38:0 39:0 40:1 
0.8060100872574115 0:0 1:1 2:1 3:0 4:0 5:0 6:1 7:1 8:1 9:0 10:1 11:1 12:1 13:1 14:1 15:0 16:0 17:0 18:1 19:0 20:1 21:0 22:1 23:0 24:0 25:1 26:1 27:1 28:1 29:1 30:1 31:1 32:0 33:1 34:1 35:0 36:1 37:11 38:0 39:1 40:1 
2 0:1 1:1 2:0 3:1 4:0 5:0 6:1 7:0 8:1 9:1 10:0 11:1 12:1 13:1 14:1 15:1 16:0 17:0 18:1 19:0 20:0 21:1 22:0 23:1 24:1 25:1 26:1 27:1 28:0 29:1 30:1 31:0 32:0 33:0 34:0 35:1 36:-1 37:3 38:0 39:1 40:1 
2 0:0 1:1 2:1 3:1 4:0 5:1 6:1 7:0 8:1 9:1 10:1 11:0 12:1 13:1 14:1 15:1 16:1 17:1 18:1 19:1 20:1 21:1 22:0 23:0 24:1 25:1 26:1 27:1 28:1 29:0 30:1 31:1 32:0 33:0 34:1 35:1 36:0 37:1 38:0 39:0 40:2 
2 0:1 1:1 2:1 3:1 4:1 5:1 6:1 7:0 8:1 9:1 10:1 11:1 12:0 13:1 14:1 15:1 16:0 17:0 18:1 19:0 20:1 21:1 22:0 23:1 24:0 25:1 26:0 27:1 28:0 29:1 30:0 31:0 32:0 33:0 34:0 35:0 36:0 37:-5 38:0 39:0 40:1 
2 0:1 1:1 2:0 3:0 4:0 5:0 6:1 7:1 8:0 9:1 10:1 11:0 12:1 13:0 14:1 15:0 16:0 17:0 18:0 19:0 20:0 21:1 22:0 23:0 24:1 25:1 26:1 27:0 28:0 29:1 30:1 31:1 32:1 33:0 34:0 35:0 36:-1 37:2 38:0 39:0 40:1 
1.42907091013632 0:0 1:1 2:0 3:1 4:1 5:1 6:1 7:0 8:1 9:1 10:1 11:1 12:1 13:1 14:0 15:0 16:0 17:0 18:1 19:1 20:1 21:0 22:0 23:0 24:0 25:1 26:1 27:1 28:1 29:0 30:0 31:0 32:0 33:1 34:1 35:0 36:-2 37:2 38:0 39:1 40:1 
2 0:1 1:1 2:1 3:1 4:0 5:1 6:0 7:0 8:1 9:0 10:1 11:1 12:0 13:0 14:1 15:1 16:1 17:0 18:1 19:0 20:0 21:0 22:0 23:0 24:0 25:1 26:1 27:0 28:1 29:1 30:0 31:0 32:0 33:1 34:0 35:0 36:2 37:-1 38:0 39:0 40:1 
0.6375278582052061 0:1 1:1 2:1 3:0 4:0 5:0 6:1 7:1 8:1 9:0 10:0 11:1 12:1 13:1 14:1 15:0 16:1 17:0 18:1 19:1 20:0 21:1 22:1 23:1 24:1 25:1 26:1 27:0 28:0 29:0 30:0 31:0 32:0 33:1 34:0 35:0 36:8 37:-6 38:0 39:0 40:1 
2 0:0 1:1 2:0 3:1 4:0 5:1 6:1 7:1 8:1 9:0 10:1 11:0 12:1 13:0 14:1 15:0 16:0 17:0 18:0 19:1 20:0 21:1 22:1 23:1 24:0 25:0 26:1 27:0 28:1 29:0 30:0 31:0 32:0 33:1 34:0 35:0 36:1 37:1 38:0 39:0 40:1 
2 0:1 1:1 2:1 3:1 4:0 5:0 6:1 7:1 8:1 9:0 10:1 11:1 12:1 13:1 14:1 15:0 16:0 17:0 18:1 19:0 20:0 21:1 22:1 23:0 24:1 25:1 26:1 27:1 28:1 29:0 30:1 31:1 32:1 33:1 34:1 35:0 36:4 37:4 38:0 39:1 40:1 
2 0:1 1:0 2:1 3:0 4:1 5:0 6:1 7:0 8:1 9:1 10:1 11:1 12:1 13:1 14:1 15:1 16:0 17:0 18:1 19:0 20:0 21:1 22:0 23:0 24:1 25:1 26:1 27:0 28:1 29:1 30:0 31:0 32:0 33:1 34:1 35:0 36:-8 37:6 38:0 39:0 40:2 
2 0:0 1:1 2:1 3:1 4:1 5:0 6:0 7:0 8:0 9:1 10:1 11:1 12:1 13:1 14:1 15:1 16:1 17:0 18:1 19:0 20:1 21:1 22:0 23:0 24:1 25:0 26:0 27:0 28:1 29:0 30:0 31:0 32:0 33:1 34:1 35:0 36:1 37:2 38:0 39:0 40:1 
2 0:1 1:0 2:1 3:1 4:1 5:1 6:0 7:1 8:1 9:1 10:1 11:1 12:1 13:1 14:1 15:0 16:0 17:0 18:1 19:1 20:0 21:1 22:1 23:1 24:0 25:0 26:1 27:0 28:1 29:1 30:1 31:0 32:1 33:1 34:1 35:0 36:0 37:-2 38:0 39:0 40:1 
2 0:1 1:0 2:1 3:1 4:0 5:0 6:0 7:1 8:0 9:0 10:0 11:1 12:1 13:1 14:0 15:0 16:0 17:0 18:1 19:0 20:0 21:1 22:0 23:0 24:0 25:0 26:1 27:1 28:0 29:0 30:1 31:0 32:0 33:1 34:0 35:1 36:-3 37:-2 38:0 39:0 40:1 
0.05284620776520142 0:1 1:1 2:0 3:1 4:1 5:1 6:1 7:1 8:0 9:1 10:1 11:1 12:1 13:1 14:1 15:0 16:0 17:0 18:0 19:0 20:1 21:1 22:0 23:0 24:0 25:0 26:0 27:0 28:0 29:1 30:0 31:0 32:1 33:1 34:1 35:0 36:-10 37:-2 38:0 39:0 40:2 
2 0:1 1:1 2:1 3:1 4:0 5:0 6:1 7:1 8:1 9:1 10:1 11:1 12:0 13:1 14:1 15:1 16:1 17:0 18:1 19:0 20:0 21:0 22:0 23:0 24:0 25:0 26:0 27:0 28:1 29:0 30:0 31:0 32:0 33:1 34:0 35:0 36:1 37:-2 38:0 39:1 40:2 
2 0:1 1:1 2:1 3:0 4:0 5:0 6:0 7:1 8:1 9:1 10:1 11:1 12:1 13:0 14:1 15:1 16:0 17:0 18:1 19:0 20:0 21:1 22:1 23:0 24:1 25:1 26:1 27:1 28:1 29:1 30:0 31:0 32:0 33:1 34:1 35:0 36:0 37:-1 38:0 39:0 40:3 
2 0:1 1:1 2:1 3:1 4:1 5:1 6:1 7:1 8:1 9:0 10:0 11:1 12:0 13:1 14:0 15:1 16:0 17:0 18:1 19:0 20:1 21:1 22:1 23:1 24:0 25:1 26:1 27:0 28:1 29:1 30:1 31:0 32:0 33:1 34:1 35:0 36:1 37:2 38:0 39:0 40:1 
0.7611227038855936 0:1 1:0 2:0 3:1 4:0 5:0 6:1 7:1 8:1 9:1 10:1 11:1 12:1 13:1 14:1 15:1 16:0 17:1 18:1 19:1 20:1 21:1 22:1 23:0 24:1 25:0 26:1 27:1 28:1 29:0 30:1 31:0 32:0 33:0 34:0 35:0 36:-3 37:5 38:0 39:0 40:3 
2 0:0 1:1 2:1 3:1 4:1 5:0 6:1 7:1 8:0 9:1 10:1 11:1 12:1 13:1 14:0 15:1 16:0 17:0 18:1 19:1 20:1 21:1 22:0 23:0 24:1 25:1 26:1 27:0 28:0 29:1 30:1 31:0 32:0 33:1 34:0 35:1 36:-8 37:-2 38:0 39:0 40:1 
2 0:1 1:1 2:1 3:0 4:0 5:0 6:0 7:1 8:1 9:1 10:1 11:0 12:1 13:1 14:0 15:1 16:1 17:0 18:1 19:0 20:0 21:0 22:0 23:1 24:0 25:1 26:1 27:1 28:0 29:0 30:1 31:0 32:0 33:0 34:0 35:0 36:3 37:0 38:0 39:0 40:1 
2 0:0 1:1 2:0 3:1 4:0 5:1 6:1 7:1 8:1 9:1 10:1 11:1 12:0 13:1 14:1 15:1 16:0 17:0 18:0 19:1 20:1 21:1 22:0 23:0 24:1 25:1 26:1 27:1 28:1 29:0 30:0 31:1 32:0 33:1 34:0 35:0 36:-2 37:2 38:0 39:0 40:1 
2 0:1 1:1 2:1 3:1 4:0 5:0 6:1 7:1 8:1 9:1 10:0 11:0 12:0 13:0 14:1 15:1 16:1 17:0 18:1 19:0 20:1 21:1 22:1 23:1 24:0 25:1 26:1 27:1 28:1 29:1 30:1 31:0 32:1 33:1 34:1 35:1 36:-3 37:0 38:0 39:1 40:3 
0.03224707609084264 0:1 1:1 2:1 3:1 4:0 5:0 6:0 7:1 8:0 9:0 10:1 11:1 12:1 13:1 14:0 15:0 16:0 17:0 18:0 19:0 20:0 21:1 22:0 23:0 24:0 25:0 26:0 27:1 28:0 29:0 30:0 31:0 32:1 33:1 34:1 35:0 36:11 37:9 38:0 39:0 40:1 
0.3175669958383136 0:1 1:1 2:1 3:1 4:1 5:1 6:1 7:1 8:1 9:1 10:1 11:1 12:1 13:1 14:1 15:1 16:0 17:0 18:1 19:0 20:0 21:1 22:1 23:1 24:0 25:0 26:1 27:0 28:1 29:1 30:0 31:0 32:0 33:0 34:1 35:0 36:15 37:2 38:0 39:0 40:1 
2 0:1 1:1 2:1 3:1 4:0 5:0 6:1 7:1 8:0 9:0 10:1 11:1 12:0 13:1 14:1 15:1 16:1 17:0 18:1 19:0 20:0 21:1 22:0 23:0 24:1 25:0 26:0 27:1 28:0 29:1 30:0 31:0 32:0 33:1 34:1 35:0 36:3 37:-5 38:0 39:0 40:1 
0.1531209013040905 0:1 1:1 2:1 3:1 4:0 5:1 6:1 7:1 8:1 9:0 10:1 11:0 12:1 13:1 14:1 15:0 16:0 17:0 18:1 19:1 20:0 21:1 22:1 23:1 24:1 25:1 26:1 27:0 28:1 29:1 30:1 31:0 32:0 33:0 34:0 35:0 36:-2 37:-14 38:0 39:0 40:1 
2 0:0 1:1 2:1 3:1 4:0 5:0 6:1 7:0 8:1 9:1 10:0 11:1 12:0 13:1 14:1 15:0 16:1 17:1 18:0 19:0 20:0 21:1 22:0 23:1 24:0 25:1 26:1 27:0 28:1 29:1 30:1 31:0 32:0 33:1 34:0 35:0 36:3 37:0 38:0 39:0 40:1 
0.4357540552995586 0:0 1:1 2:0 3:0 4:0 5:0 6:0 7:1 8:1 9:1 10:1 11:1 12:1 13:1 14:1 15:1 16:1 17:1 18:1 19:1 20:1 21:1 22:0 23:1 24:0 25:1 26:1 27:1 28:1 29:0 30:0 31:0 32:0 33:1 34:0 35:0 36:-5 37:7 38:0 39:0 40:1 
2 0:1 1:1 2:1 3:0 4:1 5:1 6:1 7:1 8:1 9:0 10:1 11:1 12:0 13:1 14:1 15:0 16:0 17:1 18:0 19:0 20:0 21:1 22:1 23:0 24:1 25:0 26:0 27:1 28:0 29:1 30:1 31:0 32:0 33:1 34:0 35:0 36:0 37:-2 38:0 39:1 40:3 
2 0:1 1:1 2:1 3:1 4:0 5:0 6:1 7:1 8:0 9:0 10:0 11:1 12:1 13:1 14:1 15:0 16:0 17:0 18:1 19:0 20:1 21:0 22:0 23:1 24:0 25:1 26:1 27:1 28:0 29:1 30:0 31:0 32:0 33:0 34:0 35:0 36:0 37:2 38:0 39:0 40:1 
2 0:0 1:1 2:1 3:1 4:0 5:0 6:0 7:1 8:1 9:1 10:1 11:1 12:1 13:1 14:1 15:1 16:1 17:0 18:0 19:1 20:0 21:0 22:0 23:1 24:1 25:0 26:0 27:0 28:1 29:1 30:1 31:1 32:0 33:0 34:1 35:0 36:2 37:-1 38:0 39:0 40:3 
2 0:1 1:1 2:1 3:0 4:1 5:1 6:1 7:1 8:1 9:1 10:1 11:1 12:0 13:1 14:1 15:0 16:1 17:0 18:0 19:0 20:0 21:0 22:1 23:0 24:0 25:1 26:1 27:0 28:1 29:0 30:0 31:1 32:1 33:1 34:0 35:0 36:-1 37:2 38:0 39:0 40:1 
2 0:1 1:0 2:1 3:1 4:0 5:0 6:1 7:1 8:1 9:0 10:0 11:1 12:1 13:1 14:1 15:0 16:0 17:0 18:0 19:0 20:0 21:1 22:1 23:0 24:0 25:1 26:1 27:0 28:1 29:1 30:0 31:1 32:0 33:1 34:1 35:1 36:-1 37:3 38:0 39:1 40:3 
2 0:1 1:1 2:1 3:1 4:1 5:0 6:1 7:0 8:0 9:1 10:0 11:0 12:1 13:1 14:1 15:1 16:1 17:1 18:1 19:1 20:1 21:1 22:0 23:1 24:1 25:1 26:1 27:1 28:0 29:1 30:0 31:1 32:1 33:0 34:0 35:0 36:-1 37:1 38:0 39:0 40:4 
2 0:1 1:1 2:1 3:1 4:1 5:0 6:1 7:1 8:1 9:0 10:0 11:0 12:1 13:1 14:1 15:1 16:0 17:0 18:1 19:0 20:0 21:1 22:0 23:0 24:1 25:1 26:1 27:1 28:0 29:0 30:0 31:0 32:0 33:1 34:0 35:0 36:5 37:-1 38:0 39:0 40:1 
0.798174935335494 0:1 1:1 2:1 3:1 4:0 5:0 6:0 7:1 8:0 9:1 10:0 11:1 12:1 13:1 14:1 15:0 16:0 17:0 18:1 19:0 20:0 21:1 22:0 23:0 24:0 25:0 26:1 27:1 28:0 29:0 30:0 31:0 32:0 33:1 34:0 35:0 36:7 37:12 38:0 39:0 40:1 
0.6642214388162964 0:0 1:1 2:0 3:1 4:0 5:0 6:1 7:1 8:0 9:1 10:1 11:1 12:1 13:1 14:0 15:1 16:0 17:0 18:0 19:0 20:0 21:1 22:0 23:0 24:1 25:1 26:0 27:0 28:1 29:0 30:0 31:0 32:0 33:0 34:0 35:0 36:3 37:3 38:0 39:0 40:1 
2 0:0 1:1 2:1 3:1 4:0 5:0 6:1 7:1 8:1 9:0 10:0 11:1 12:0 13:0 14:1 15:0 16:0 17:0 18:0 19:0 20:0 21:1 22:0 23:0 24:0 25:1 26:1 27:0 28:1 29:0 30:1 31:0 32:0 33:1 34:0 35:0 36:1 37:0 38:0 39:0 40:1 
2 0:1 1:1 2:0 3:1 4:0 5:0 6:1 7:0 8:1 9:1 10:1 11:0 12:1 13:1 14:1 15:0 16:0 17:1 18:0 19:0 20:0 21:1 22:0 23:0 24:1 25:1 26:1 27:0 28:1 29:1 30:0 31:0 32:0 33:1 34:1 35:0 36:-4 37:1 38:0 39:0 40:1 
2 0:1 1:1 2:1 3:0 4:0 5:1 6:1 7:1 8:0 9:1 10:1 11:1 12:1 13:1 14:1 15:0 16:1 17:1 18:0 19:0 20:0 21:0 22:1 23:1 24:1 25:1 26:0 27:0 28:1 29:0 30:1 31:1 32:1 33:1 34:1 35:0 36:-2 37:-3 38:0 39:1 40:1 
2 0:0 1:1 2:1 3:1 4:0 5:0 6:0 7:1 8:1 9:1 10:1 11:1 12:1 13:0 14:1 15:1 16:0 17:0 18:1 19:0 20:1 21:1 22:0 23:0 24:1 25:0 26:0 27:1 28:1 29:0 30:1 31:1 32:0 33:1 34:0 35:0 36:3 37:-1 38:0 39:1 40:2 
0.02953736981717716 0:1 1:1 2:1 3:1 4:1 5:1 6:0 7:1 8:1 9:0 10:0 11:0 12:1 13:1 14:1 15:1 16:1 17:0 18:1 19:1 20:0 21:1 22:1 23:1 24:0 25:1 26:0 27:1 28:0 29:1 30:0 31:0 32:1 33:1 34:0 35:0 36:-6 37:7 38:0 39:0 40:1 
1.499825248606034 0:0 1:0 2:1 3:1 4:1 5:1 6:1 7:1 8:1 9:0 10:1 11:1 12:1 13:1 14:1 15:0 16:0 17:0 18:0 19:0 20:0 21:1 22:1 23:0 24:0 25:0 26:0 27:0 28:0 29:1 30:0 31:0 32:0 33:0 34:0 35:1 36:2 37:-3 38:0 39:0 40:1 
2 0:1 1:1 2:1 3:0 4:0 5:0 6:1 7:0 8:1 9:1 10:1 11:1 12:1 13:1 14:1 15:0 16:0 17:0 18:1 19:1 20:0 21:1 22:0 23:0 24:1 25:0 26:1 27:0 28:0 29:1 30:1 31:1 32:1 33:0 34:0 35:0 36:-2 37:-1 38:0 39:0 40:4 
2 0:1 1:1 2:1 3:1 4:1 5:1 6:1 7:1 8:1 9:0 10:0 11:1 12:1 13:0 14:1 15:1 16:1 17:0 18:1 19:0 20:0 21:1 22:0 23:0 24:1 25:1 26:1 27:0 28:0 29:1 30:1 31:0 32:0 33:1 34:1 35:0 36:3 37:5 38:0 39:0 40:1 
2 0:0 1:1 2:0 3:0 4:1 5:1 6:1 7:1 8:0 9:0 10:0 11:1 12:1 13:1 14:1 15:0 16:0 17:0 18:1 19:1 20:1 21:1 22:1 23:0 24:1 25:1 26:1 27:0 28:1 29:1 30:1 31:0 32:0 33:0 34:0 35:1 36:0 37:1 38:0 39:0 40:1 
0.07118481830315755 0:1 1:1 2:1 3:0 4:0 5:0 6:1 7:0 8:1 9:1 10:1 11:1 12:1 13:1 14:1 15:0 16:0 17:0 18:1 19:1 20:0 21:1 22:1 23:0 24:1 25:1 26:1 27:1 28:0 29:1 30:0 31:0 32:0 33:1 34:0 35:1 36:-21 37:-5 38:0 39:0 40:2 
0.7834162361131805 0:1 1:1 2:0 3:0 4:1 5:1 6:0 7:1 8:1 9:1 10:1 11:1 12:1 13:1 14:1 15:1 16:0 17:0 18:1 19:0 20:0 21:1 22:0 23:0 24:1 25:1 26:1 27:1 28:1 29:0 30:0 31:0 32:0 33:0 34:1 35:0 36:3 37:-4 38:0 39:0 40:1 
2 0:1 1:1 2:1 3:1 4:1 5:1 6:1 7:0 8:1 9:0 10:0 11:0 12:1 13:0 14:1 15:0 16:0 17:0 18:1 19:0 20:0 21:0 22:0 23:1 24:0 25:1 26:1 27:0 28:1 29:0 30:0 31:0 32:0 33:0 34:0 35:0 36:-1 37:0 38:0 39:0 40:1 
2 0:1 1:1 2:1 3:1 4:0 5:1 6:1 7:1 8:1 9:1 10:1 11:1 12:0 13:1 14:1 15:0 16:0 17:1 18:0 19:1 20:0 21:1 22:0 23:0 24:1 25:0 26:1 27:1 28:0 29:0 30:0 31:0 32:0 33:1 34:0 35:0 36:-3 37:-2 38:0 39:0 40:2 
1.393619746532516 0:1 1:1 2:1 3:1 4:0 5:0 6:1 7:1 8:1 9:0 10:0 11:1 12:1 13:1 14:1 15:0 16:1 17:1 18:1 19:1 20:0 21:1 22:1 23:0 24:1 25:1 26:1 27:1 28:1 29:0 30:1 31:0 32:1 33:1 34:0 35:0 36:-5 37:-3 38:0 39:1 40:3 
2 0:1 1:1 2:1 3:1 4:0 5:0 6:0 7:1 8:1 9:1 10:0 11:1 12:1 13:1 14:1 15:1 16:0 17:0 18:1 19:1 20:0 21:1 22:0 23:0 24:1 25:1 26:1 27:0 28:0 29:0 30:0 31:0 32:0 33:0 34:0 35:0 36:-1 37:0 38:0 39:0 40:1 
2 0:1 1:1 2:1 3:1 4:1 5:1 6:1 7:0 8:1 9:0 10:1 11:1 12:1 13:1 14:1 15:1 16:1 17:0 18:1 19:1 20:1 21:1 22:0 23:0 24:0 25:0 26:0 27:0 28:0 29:0 30:1 31:1 32:0 33:0 34:0 35:0 36:2 37:1 38:0 39:1 40:2 
2 0:1 1:1 2:1 3:1 4:0 5:1 6:1 7:1 8:1 9:0 10:1 11:1 12:1 13:1 14:1 15:1 16:1 17:0 18:1 19:1 20:0 21:1 22:0 23:1 24:0 25:1 26:1 27:0 28:0 29:1 30:0 31:0 32:0 33:0 34:0 35:0 36:0 37:1 38:0 39:0 40:1 
0.04705225745738883 0:0 1:1 2:1 3:1 4:0 5:0 6:1 7:1 8:1 9:0 10:1 11:1 12:1 13:1 14:0 15:1 16:0 17:0 18:1 19:0 20:1 21:0 22:1 23:0 24:0 25:0 26:0 27:1 28:1 29:1 30:1 31:1 32:1 33:0 34:0 35:0 36:-7 37:-5 38:0 39:0 40:1 
2 0:0 1:1 2:0 3:0 4:1 5:0 6:1 7:0 8:1 9:1 10:1 11:1 12:1 13:1 14:1 15:0 16:0 17:0 18:1 19:0 20:1 21:1 22:0 23:1 24:1 25:1 26:1 27:1 28:1 29:1 30:1 31:0 32:0 33:0 34:0 35:0 36:-2 37:2 38:0 39:0 40:2 
2 0:1 1:1 2:0 3:1 4:0 5:0 6:1 7:1 8:0 9:0 10:1 11:1 12:0 13:0 14:1 15:1 16:0 17:0 18:1 19:1 20:0 21:1 22:1 23:1 24:0 25:1 26:1 27:1 28:1 29:1 30:0 31:0 32:0 33:1 34:0 35:0 36:-2 37:-1 38:0 39:0 40:1 
2 0:1 1:0 2:1 3:1 4:0 5:0 6:1 7:1 8:1 9:1 10:0 11:1 12:1 13:1 14:1 15:1 16:1 17:1 18:1 19:1 20:1 21:1 22:0 23:0 24:0 25:1 26:0 27:1 28:1 29:0 30:1 31:1 32:0 33:1 34:0 35:0 36:1 37:-1 38:0 39:0 40:1 
2 0:1 1:1 2:1 3:1 4:0 5:0 6:0 7:1 8:0 9:1 10:1 11:1 12:1 13:0 14:0 15:0 16:0 17:0 18:1 19:1 20:1 21:0 22:0 23:1 24:1 25:1 26:1 27:1 28:0 29:1 30:0 31:0 32:0 33:0 34:0 35:0 36:-1 37:-2 38:0 39:0 40:3 
0.449234550490479 0:1 1:1 2:1 3:1 4:0 5:1 6:0 7:1 8:1 9:0 10:1 11:1 12:1 13:1 14:0 15:0 16:0 17:1 18:1 19:0 20:0 21:0 22:0 23:1 24:0 25:1 26:1 27:1 28:0 29:1 30:0 31:0 32:0 33:1 34:0 35:1 36:3 37:-2 38:0 39:0 40:2 
1.575447568338234 0:1 1:0 2:0 3:1 4:0 5:0 6:1 7:1 8:1 9:0 10:0 11:1 12:1 13:0 14:1 15:1 16:1 17:0 18:0 19:0 20:0 21:1 22:0 23:1 24:1 25:1 26:0 27:1 28:1 29:1 30:1 31:0 32:0 33:1 34:1 35:0 36:-3 37:-9 38:0 39:0 40:3 
2 0:1 1:1 2:0 3:1 4:0 5:0 6:1 7:1 8:0 9:0 10:1 11:1 12:1 13:1 14:1 15:1 16:0 17:1 18:1 19:1 20:1 21:0 22:1 23:0 24:1 25:1 26:1 27:0 28:1 29:1 30:1 31:1 32:0 33:0 34:1 35:0 36:-3 37:0 38:0 39:1 40:1 
0.1980264987525143 0:0 1:1 2:0 3:1 4:1 5:0 6:1 7:1 8:1 9:1 10:1 11:1 12:1 13:1 14:1 15:1 16:1 17:0 18:1 19:1 20:0 21:0 22:0 23:0 24:0 25:1 26:1 27:1 28:1 29:0 30:1 31:0 32:0 33:0 34:0 35:0 36:-13 37:-2 38:0 39:0 40:1 
1.300734116407287 0:1 1:1 2:0 3:1 4:1 5:0 6:1 7:0 8:1 9:0 10:0 11:0 12:1 13:0 14:0 15:0 16:0 17:1 18:1 19:0 20:0 21:0 22:0 23:0 24:0 25:1 26:1 27:0 28:0 29:1 30:0 31:0 32:0 33:1 34:0 35:1 36:4 37:1 38:0 39:0 40:4 
2 0:0 1:1 2:1 3:1 4:0 5:1 6:1 7:1 8:1 9:1 10:1 11:1 12:1 13:1 14:1 15:0 16:0 17:0 18:0 19:0 20:0 21:1 22:0 23:1 24:1 25:1 26:1 27:0 28:1 29:1 30:0 31:0 32:0 33:0 34:1 35:0 36:0 37:-2 38:1 39:0 40:3 
2 0:1 1:0 2:0 3:0 4:0 5:0 6:1 7:1 8:1 9:1 10:1 11:1 12:1 13:1 14:1 15:1 16:1 17:0 18:0 19:0 20:0 21:1 22:0 23:0 24:1 25:1 26:1 27:0 28:1 29:1 30:0 31:0 32:0 33:1 34:1 35:0 36:1 37:3 38:0 39:0 40:1 
2 0:0 1:0 2:1 3:0 4:0 5:0 6:1 7:1 8:1 9:0 10:1 11:1 12:1 13:1 14:1 15:1 16:1 17:1 18:1 19:0 20:1 21:0 22:0 23:1 24:0 25:1 26:1 27:0 28:0 29:1 30:1 31:1 32:1 33:0 34:0 35:0 36:3 37:-1 38:0 39:2 40:3 
2 0:1 1:0 2:0 3:1 4:1 5:1 6:0 7:1 8:0 9:0 10:1 11:1 12:1 13:1 14:1 15:0 16:0 17:0 18:0 19:0 20:0 21:1 22:1 23:0 24:1 25:1 26:0 27:1 28:1 29:1 30:0 31:1 32:0 33:0 34:1 35:0 36:-1 37:-1 38:0 39:0 40:1 
2 0:1 1:0 2:1 3:1 4:0 5:1 6:1 7:1 8:1 9:0 10:1 11:1 12:1 13:1 14:1 15:0 16:0 17:0 18:0 19:0 20:0 21:1 22:0 23:0 24:0 25:1 26:1 27:1 28:1 29:0 30:1 31:0 32:0 33:0 34:0 35:0 36:5 37:1 38:0 39:0 40:1 
1.310074393685049 0:1 1:1 2:1 3:1 4:0 5:1 6:1 7:1 8:0 9:0 10:1 11:1 12:1 13:1 14:1 15:1 16:0 17:0 18:1 19:1 20:0 21:0 22:1 23:0 24:0 25:1 26:1 27:0 28:1 29:0 30:0 31:0 32:0 33:0 34:0 35:0 36:-1 37:-5 38:0 39:0 40:2 
0.4227657180083925 0:1 1:0 2:1 3:1 4:0 5:0 6:1 7:1 8:1 9:1 10:1 11:1 12:1 13:1 14:1 15:0 16:0 17:0 18:1 19:1 20:0 21:1 22:0 23:1 24:1 25:1 26:1 27:1 28:1 29:1 30:0 31:0 32:0 33:0 34:0 35:1 36:3 37:8 38:0 39:1 40:1 
0.5770558347086717 0:1 1:0 2:1 3:1 4:0 5:1 6:1 7:0 8:1 9:1 10:1 11:1 12:1 13:1 14:1 15:1 16:0 17:0 18:1 19:1 20:1 21:1 22:0 23:0 24:1 25:1 26:1 27:1 28:1 29:0 30:1 31:0 32:0 33:1 34:0 35:1 36:8 37:-9 38:0 39:0 40:1 
2 0:1 1:1 2:1 3:1 4:0 5:0 6:1 7:1 8:1 9:1 10:1 11:1 12:1 13:1 14:0 15:0 16:0 17:1 18:1 19:0 20:0 21:1 22:0 23:1 24:1 25:0 26:1 27:1 28:0 29:1 30:0 31:0 32:0 33:1 34:0 35:1 36:-2 37:1 38:0 39:0 40:2 
0.6932699166433957 0:1 1:1 2:1 3:0 4:0 5:0 6:1 7:1 8:1 9:0 10:1 11:1 12:1 13:0 14:1 15:0 16:1 17:1 18:1 19:0 20:1 21:1 22:0 23:0 24:1 25:1 26:1 27:0 28:1 29:1 30:1 31:1 32:0 33:1 34:0 35:1 36:-9 37:2 38:0 39:1 40:2 
0.4411104464253394 0:1 1:1 2:0 3:1 4:0 5:0 6:1 7:1 8:1 9:1 10:1 11:1 12:1 13:1 14:1 15:1 16:1 17:0 18:1 19:0 20:0 21:1 22:1 23:1 24:1 25:0 26:0 27:1 28:1 29:0 30:1 31:1 32:0 33:1 34:0 35:0 36:5 37:5 38:0 39:1 40:1 
2 0:1 1:1 2:0 3:1 4:1 5:0 6:1 7:0 8:1 9:1 10:1 11:1 12:1 13:1 14:1 15:1 16:0 17:0 18:1 19:1 20:0 21:1 22:1 23:1 24:1 25:1 26:1 27:1 28:1 29:1 30:0 31:1 32:0 33:1 34:0 35:1 36:-1 37:1 38:0 39:0 40:2 
