svm_type c_svc
kernel_type rbf
gamma 1e-005
nr_class 2
total_sv 4253
rho 1.43859
label 1 0
nr_sv 2126 2127
SV
256 0:1 1:1 2:0 3:1 4:0 5:0 6:1 7:1 8:1 9:0 10:1 11:1 12:1 13:0 14:1 15:1 16:0 17:0 18:1 19:0 20:0 21:1 22:0 23:1 24:1 25:1 26:1 27:1 28:1 29:1 30:1 31:1 32:1 33:1 34:1 35:0 
256 0:1 1:1 2:1 3:0 4:0 5:0 6:1 7:1 8:1 9:0 10:1 11:1 12:1 13:1 14:1 15:1 16:1 17:0 18:1 19:1 20:0 21:1 22:1 23:1 24:0 25:1 26:1 27:1 28:1 29:1 30:1 31:1 32:0 33:1 34:1 35:0 
256 0:1 1:1 2:1 3:1 4:1 5:1 6:1 7:1 8:0 9:1 10:1 11:0 12:1 13:1 14:1 15:1 16:1 17:0 18:1 19:0 20:0 21:0 22:0 23:1 24:0 25:1 26:0 27:0 28:1 29:1 30:1 31:0 32:0 33:1 34:0 35:0 
256 0:1 1:1 2:1 3:1 4:0 5:0 6:1 7:1 8:1 9:1 10:1 11:0 12:0 13:0 14:0 15:1 16:0 17:1 18:0 19:0 20:0 21:0 22:0 23:1 24:1 25:0 26:1 27:0 28:0 29:0 30:1 31:0 32:0 33:0 34:0 35:0 
256 0:1 1:1 2:1 3:1 4:1 5:0 6:1 7:1 8:0 9:0 10:0 11:1 12:0 13:1 14:1 15:1 16:0 17:0 18:1 19:0 20:0 21:1 22:0 23:1 24:0 25:0 26:1 27:1 28:1 29:1 30:0 31:0 32:0 33:1 34:1 35:0 
256 0:0 1:1 2:1 3:1 4:1 5:0 6:1 7:1 8:1 9:0 10:1 11:1 12:1 13:1 14:0 15:1 16:0 17:0 18:1 19:0 20:0 21:1 22:0 23:1 24:1 25:1 26:1 27:0 28:1 29:0 30:1 31:0 32:0 33:0 34:0 35:0 
256 0:0 1:1 2:0 3:1 4:0 5:0 6:1 7:1 8:1 9:0 10:1 11:1 12:1 13:1 14:0 15:0 16:0 17:0 18:1 19:0 20:0 21:1 22:0 23:0 24:0 25:0 26:0 27:1 28:1 29:0 30:0 31:0 32:0 33:1 34:0 35:0 
256 0:1 1:0 2:1 3:1 4:1 5:0 6:1 7:0 8:0 9:1 10:1 11:1 12:1 13:1 14:0 15:1 16:1 17:0 18:1 19:1 20:0 21:1 22:0 23:1 24:0 25:0 26:1 27:1 28:0 29:1 30:1 31:0 32:0 33:1 34:0 35:0 
256 0:1 1:1 2:0 3:1 4:0 5:0 6:1 7:0 8:1 9:1 10:1 11:1 12:1 13:1 14:1 15:0 16:0 17:0 18:1 19:0 20:0 21:1 22:0 23:0 24:1 25:0 26:1 27:0 28:1 29:1 30:0 31:0 32:0 33:0 34:1 35:0 
256 0:1 1:0 2:1 3:1 4:1 5:1 6:1 7:1 8:1 9:1 10:1 11:1 12:0 13:0 14:1 15:0 16:0 17:0 18:1 19:0 20:0 21:1 22:0 23:1 24:1 25:1 26:1 27:1 28:0 29:1 30:1 31:0 32:0 33:1 34:0 35:0 
256 0:1 1:1 2:1 3:1 4:0 5:0 6:1 7:0 8:1 9:0 10:0 11:0 12:1 13:0 14:0 15:0 16:0 17:0 18:1 19:0 20:0 21:1 22:0 23:1 24:1 25:1 26:1 27:0 28:1 29:0 30:0 31:0 32:0 33:1 34:1 35:0 
256 0:1 1:1 2:1 3:0 4:1 5:0 6:1 7:1 8:1 9:1 10:1 11:1 12:1 13:1 14:0 15:0 16:0 17:0 18:0 19:0 20:0 21:1 22:0 23:0 24:0 25:1 26:1 27:0 28:0 29:1 30:1 31:1 32:0 33:1 34:0 35:0 
256 0:1 1:1 2:1 3:0 4:0 5:0 6:0 7:1 8:1 9:0 10:1 11:1 12:1 13:0 14:1 15:1 16:0 17:1 18:1 19:0 20:0 21:0 22:1 23:1 24:1 25:1 26:1 27:1 28:0 29:1 30:1 31:0 32:0 33:1 34:0 35:0 
256 0:1 1:1 2:1 3:0 4:0 5:0 6:1 7:1 8:1 9:0 10:0 11:0 12:0 13:1 14:1 15:0 16:0 17:0 18:1 19:1 20:0 21:1 22:0 23:1 24:0 25:1 26:1 27:0 28:1 29:1 30:0 31:0 32:0 33:0 34:1 35:0 
256 0:1 1:1 2:1 3:1 4:0 5:1 6:0 7:1 8:1 9:1 10:1 11:1 12:0 13:1 14:1 15:1 16:0 17:0 18:1 19:0 20:0 21:0 22:0 23:0 24:0 25:1 26:1 27:1 28:1 29:0 30:1 31:0 32:0 33:0 34:0 35:0 
256 0:1 1:1 2:0 3:1 4:0 5:0 6:1 7:0 8:1 9:0 10:0 11:1 12:1 13:1 14:1 15:1 16:1 17:0 18:1 19:1 20:0 21:1 22:0 23:0 24:0 25:1 26:1 27:1 28:1 29:1 30:0 31:0 32:0 33:1 34:0 35:0 
256 0:1 1:1 2:1 3:1 4:0 5:0 6:0 7:1 8:1 9:0 10:1 11:1 12:1 13:1 14:1 15:1 16:0 17:0 18:1 19:0 20:0 21:1 22:1 23:1 24:1 25:1 26:1 27:1 28:1 29:1 30:0 31:0 32:0 33:1 34:1 35:0 
256 0:1 1:0 2:1 3:1 4:1 5:0 6:1 7:1 8:1 9:0 10:1 11:1 12:1 13:0 14:1 15:1 16:0 17:0 18:1 19:0 20:1 21:1 22:0 23:0 24:0 25:0 26:1 27:1 28:1 29:1 30:1 31:1 32:0 33:1 34:1 35:0 
256 0:1 1:1 2:0 3:1 4:0 5:0 6:1 7:0 8:1 9:0 10:1 11:0 12:1 13:1 14:1 15:1 16:1 17:0 18:0 19:0 20:0 21:0 22:0 23:0 24:0 25:0 26:1 27:1 28:1 29:1 30:0 31:1 32:0 33:1 34:0 35:1 
256 0:0 1:1 2:1 3:0 4:0 5:0 6:1 7:1 8:1 9:1 10:1 11:1 12:1 13:0 14:0 15:1 16:0 17:0 18:1 19:0 20:0 21:1 22:0 23:1 24:1 25:1 26:1 27:1 28:0 29:1 30:1 31:0 32:0 33:1 34:0 35:0 
256 0:1 1:1 2:1 3:1 4:0 5:0 6:1 7:1 8:1 9:0 10:0 11:0 12:0 13:1 14:1 15:0 16:0 17:0 18:0 19:0 20:0 21:0 22:0 23:1 24:1 25:1 26:1 27:1 28:1 29:0 30:1 31:1 32:1 33:0 34:1 35:0 
256 0:1 1:0 2:1 3:1 4:1 5:0 6:1 7:1 8:0 9:1 10:0 11:1 12:1 13:1 14:1 15:1 16:1 17:1 18:1 19:0 20:0 21:0 22:1 23:0 24:1 25:1 26:1 27:0 28:1 29:0 30:0 31:0 32:0 33:0 34:0 35:0 
256 0:1 1:1 2:1 3:1 4:1 5:1 6:1 7:1 8:1 9:0 10:0 11:1 12:0 13:1 14:1 15:1 16:0 17:1 18:1 19:0 20:0 21:0 22:0 23:1 24:1 25:1 26:1 27:0 28:0 29:1 30:1 31:1 32:0 33:1 34:0 35:0 
256 0:1 1:1 2:0 3:1 4:1 5:0 6:1 7:1 8:1 9:1 10:1 11:1 12:1 13:0 14:1 15:1 16:0 17:0 18:1 19:0 20:0 21:1 22:0 23:1 24:0 25:1 26:1 27:0 28:0 29:1 30:0 31:0 32:0 33:1 34:0 35:0 
256 0:0 1:1 2:1 3:1 4:0 5:0 6:0 7:0 8:1 9:1 10:1 11:1 12:1 13:1 14:0 15:1 16:1 17:1 18:1 19:0 20:1 21:1 22:0 23:0 24:0 25:1 26:1 27:1 28:0 29:1 30:1 31:0 32:0 33:1 34:0 35:1 
256 0:1 1:1 2:1 3:1 4:0 5:1 6:1 7:1 8:1 9:0 10:1 11:1 12:1 13:1 14:0 15:0 16:0 17:0 18:1 19:1 20:0 21:0 22:0 23:0 24:1 25:1 26:1 27:0 28:1 29:0 30:1 31:1 32:0 33:1 34:0 35:0 
256 0:1 1:1 2:0 3:1 4:1 5:0 6:1 7:1 8:1 9:0 10:0 11:0 12:0 13:1 14:1 15:0 16:0 17:0 18:1 19:0 20:0 21:1 22:0 23:0 24:1 25:1 26:0 27:0 28:0 29:0 30:0 31:0 32:0 33:1 34:0 35:0 
256 0:1 1:1 2:1 3:1 4:0 5:0 6:1 7:1 8:1 9:0 10:0 11:1 12:1 13:1 14:0 15:0 16:0 17:0 18:1 19:0 20:0 21:1 22:0 23:1 24:0 25:1 26:1 27:1 28:0 29:0 30:0 31:0 32:0 33:1 34:0 35:0 
256 0:0 1:0 2:1 3:1 4:0 5:0 6:1 7:1 8:1 9:1 10:0 11:0 12:1 13:1 14:1 15:0 16:0 17:0 18:0 19:0 20:0 21:1 22:0 23:0 24:0 25:1 26:1 27:1 28:0 29:1 30:0 31:1 32:0 33:0 34:0 35:0 
256 0:0 1:0 2:0 3:0 4:0 5:0 6:1 7:1 8:1 9:1 10:1 11:1 12:1 13:1 14:1 15:0 16:0 17:1 18:1 19:1 20:1 21:1 22:0 23:0 24:0 25:0 26:1 27:1 28:1 29:1 30:0 31:0 32:0 33:1 34:1 35:0 
256 0:1 1:1 2:1 3:1 4:0 5:0 6:1 7:1 8:1 9:0 10:0 11:0 12:0 13:1 14:1 15:1 16:0 17:0 18:0 19:0 20:0 21:1 22:0 23:0 24:1 25:1 26:1 27:0 28:0 29:0 30:0 31:0 32:0 33:0 34:1 35:0 
256 0:0 1:1 2:1 3:1 4:1 5:0 6:1 7:1 8:0 9:0 10:1 11:1 12:1 13:1 14:1 15:1 16:0 17:0 18:0 19:0 20:0 21:0 22:0 23:0 24:0 25:1 26:1 27:0 28:1 29:1 30:0 31:0 32:0 33:0 34:0 35:1 
256 0:1 1:1 2:1 3:1 4:0 5:0 6:1 7:1 8:1 9:1 10:1 11:0 12:1 13:0 14:1 15:0 16:1 17:1 18:0 19:0 20:0 21:1 22:0 23:1 24:0 25:1 26:1 27:0 28:0 29:1 30:1 31:0 32:0 33:1 34:0 35:1 
256 0:0 1:1 2:1 3:1 4:0 5:0 6:1 7:1 8:1 9:1 10:0 11:1 12:0 13:1 14:0 15:0 16:0 17:0 18:1 19:0 20:0 21:0 22:0 23:0 24:1 25:1 26:1 27:0 28:1 29:0 30:1 31:0 32:0 33:0 34:0 35:0 
256 0:1 1:1 2:1 3:0 4:0 5:1 6:0 7:1 8:1 9:1 10:1 11:1 12:0 13:1 14:1 15:1 16:0 17:0 18:1 19:1 20:1 21:1 22:0 23:1 24:1 25:1 26:1 27:1 28:0 29:1 30:1 31:0 32:0 33:1 34:0 35:0 
256 0:1 1:1 2:1 3:0 4:0 5:0 6:1 7:0 8:0 9:0 10:1 11:1 12:1 13:0 14:1 15:1 16:0 17:0 18:0 19:0 20:0 21:0 22:0 23:1 24:0 25:1 26:1 27:0 28:1 29:1 30:1 31:0 32:0 33:1 34:1 35:1 
256 0:1 1:1 2:1 3:0 4:0 5:0 6:1 7:1 8:1 9:0 10:0 11:0 12:1 13:1 14:1 15:0 16:1 17:1 18:0 19:0 20:0 21:1 22:1 23:0 24:1 25:1 26:1 27:0 28:1 29:0 30:0 31:0 32:0 33:0 34:1 35:0 
256 0:1 1:1 2:1 3:1 4:1 5:1 6:1 7:1 8:0 9:1 10:1 11:1 12:0 13:1 14:1 15:0 16:0 17:0 18:0 19:0 20:1 21:1 22:0 23:0 24:1 25:1 26:1 27:1 28:0 29:1 30:0 31:0 32:0 33:1 34:0 35:0 
256 0:0 1:1 2:1 3:0 4:0 5:0 6:1 7:0 8:1 9:1 10:0 11:0 12:1 13:1 14:1 15:1 16:0 17:0 18:1 19:0 20:0 21:1 22:1 23:0 24:1 25:1 26:0 27:1 28:1 29:0 30:0 31:0 32:0 33:1 34:1 35:0 
256 0:0 1:1 2:0 3:1 4:0 5:0 6:1 7:0 8:1 9:0 10:1 11:0 12:0 13:1 14:1 15:0 16:0 17:1 18:0 19:0 20:1 21:1 22:0 23:0 24:0 25:1 26:1 27:1 28:1 29:0 30:0 31:0 32:0 33:0 34:1 35:0 
256 0:0 1:1 2:0 3:1 4:0 5:0 6:0 7:1 8:1 9:1 10:1 11:1 12:1 13:1 14:1 15:1 16:1 17:0 18:1 19:0 20:1 21:1 22:0 23:1 24:1 25:0 26:0 27:1 28:1 29:0 30:0 31:0 32:0 33:1 34:0 35:0 
256 0:1 1:1 2:0 3:1 4:1 5:0 6:1 7:0 8:1 9:1 10:1 11:0 12:0 13:0 14:1 15:0 16:1 17:0 18:1 19:0 20:0 21:1 22:0 23:0 24:0 25:1 26:1 27:0 28:0 29:0 30:0 31:0 32:0 33:1 34:0 35:0 
256 0:0 1:1 2:1 3:1 4:1 5:0 6:0 7:0 8:1 9:0 10:0 11:1 12:0 13:1 14:1 15:1 16:0 17:0 18:1 19:0 20:0 21:1 22:0 23:0 24:1 25:1 26:1 27:0 28:1 29:0 30:1 31:1 32:0 33:1 34:0 35:0 
256 0:0 1:1 2:1 3:1 4:0 5:0 6:1 7:1 8:1 9:1 10:1 11:1 12:1 13:1 14:1 15:0 16:0 17:0 18:0 19:0 20:0 21:0 22:0 23:0 24:0 25:1 26:1 27:1 28:1 29:1 30:0 31:0 32:0 33:1 34:0 35:0 
256 0:1 1:0 2:1 3:1 4:0 5:0 6:1 7:1 8:0 9:0 10:1 11:1 12:1 13:1 14:1 15:0 16:0 17:0 18:1 19:0 20:1 21:1 22:0 23:0 24:1 25:0 26:1 27:0 28:0 29:0 30:1 31:0 32:0 33:0 34:0 35:0 
256 0:1 1:1 2:1 3:1 4:1 5:1 6:0 7:1 8:1 9:1 10:1 11:1 12:0 13:1 14:1 15:0 16:0 17:0 18:0 19:0 20:0 21:0 22:1 23:0 24:1 25:0 26:1 27:1 28:0 29:1 30:1 31:0 32:0 33:1 34:0 35:0 
256 0:0 1:1 2:0 3:1 4:0 5:1 6:1 7:0 8:1 9:0 10:0 11:0 12:0 13:1 14:0 15:0 16:0 17:1 18:1 19:1 20:1 21:0 22:0 23:1 24:0 25:1 26:1 27:1 28:0 29:1 30:0 31:0 32:0 33:1 34:0 35:1 
256 0:1 1:0 2:1 3:1 4:0 5:0 6:1 7:1 8:1 9:0 10:1 11:1 12:1 13:1 14:1 15:1 16:1 17:0 18:1 19:0 20:1 21:0 22:0 23:1 24:1 25:1 26:1 27:0 28:0 29:1 30:0 31:0 32:0 33:1 34:0 35:0 
256 0:1 1:1 2:1 3:1 4:0 5:1 6:1 7:1 8:1 9:0 10:0 11:0 12:1 13:1 14:1 15:0 16:1 17:0 18:1 19:0 20:0 21:0 22:0 23:0 24:0 25:0 26:0 27:0 28:1 29:0 30:1 31:0 32:0 33:1 34:0 35:0 
256 0:1 1:0 2:1 3:1 4:1 5:0 6:1 7:1 8:1 9:1 10:1 11:0 12:0 13:1 14:1 15:1 16:0 17:0 18:0 19:0 20:0 21:1 22:0 23:1 24:0 25:0 26:0 27:0 28:1 29:1 30:1 31:0 32:0 33:0 34:0 35:1 
256 0:1 1:1 2:1 3:1 4:0 5:0 6:1 7:1 8:1 9:1 10:1 11:1 12:1 13:1 14:1 15:0 16:0 17:0 18:0 19:0 20:0 21:0 22:1 23:1 24:1 25:1 26:1 27:1 28:1 29:0 30:0 31:0 32:0 33:1 34:0 35:0 
256 0:1 1:1 2:1 3:1 4:1 5:0 6:1 7:0 8:0 9:0 10:0 11:1 12:1 13:1 14:1 15:1 16:1 17:0 18:1 19:0 20:1 21:0 22:0 23:0 24:1 25:0 26:0 27:1 28:0 29:0 30:1 31:1 32:0 33:1 34:0 35:0 
256 0:1 1:0 2:1 3:0 4:0 5:0 6:1 7:1 8:1 9:1 10:1 11:1 12:1 13:0 14:1 15:1 16:0 17:0 18:1 19:0 20:1 21:0 22:0 23:0 24:1 25:1 26:1 27:0 28:0 29:1 30:0 31:1 32:0 33:0 34:0 35:0 
256 0:1 1:1 2:1 3:1 4:0 5:0 6:1 7:0 8:1 9:1 10:1 11:0 12:1 13:0 14:1 15:1 16:0 17:0 18:0 19:1 20:0 21:1 22:1 23:0 24:0 25:1 26:1 27:1 28:1 29:1 30:0 31:0 32:0 33:1 34:0 35:0 
256 0:1 1:1 2:1 3:1 4:1 5:1 6:1 7:0 8:0 9:1 10:1 11:1 12:1 13:0 14:1 15:1 16:1 17:0 18:0 19:0 20:0 21:1 22:1 23:0 24:1 25:1 26:1 27:0 28:1 29:0 30:1 31:1 32:1 33:1 34:0 35:0 
256 0:1 1:0 2:1 3:0 4:0 5:0 6:1 7:1 8:1 9:1 10:1 11:1 12:1 13:1 14:1 15:1 16:0 17:0 18:1 19:0 20:1 21:1 22:0 23:1 24:1 25:1 26:1 27:0 28:0 29:1 30:0 31:0 32:1 33:1 34:0 35:1 
256 0:1 1:0 2:1 3:1 4:0 5:0 6:1 7:0 8:1 9:1 10:1 11:0 12:1 13:1 14:0 15:0 16:0 17:0 18:0 19:1 20:0 21:0 22:0 23:1 24:1 25:1 26:1 27:0 28:0 29:1 30:1 31:1 32:0 33:1 34:0 35:0 
256 0:1 1:0 2:0 3:1 4:0 5:1 6:1 7:0 8:0 9:1 10:1 11:1 12:1 13:1 14:1 15:1 16:0 17:0 18:1 19:0 20:0 21:1 22:0 23:1 24:1 25:0 26:0 27:1 28:1 29:1 30:1 31:0 32:0 33:1 34:0 35:1 
256 0:0 1:1 2:1 3:1 4:0 5:1 6:1 7:1 8:1 9:1 10:1 11:1 12:1 13:1 14:1 15:1 16:1 17:1 18:1 19:0 20:0 21:1 22:0 23:1 24:0 25:1 26:1 27:1 28:0 29:1 30:0 31:0 32:0 33:1 34:0 35:0 
256 0:1 1:1 2:0 3:1 4:0 5:1 6:0 7:1 8:0 9:0 10:1 11:1 12:1 13:0 14:1 15:1 16:0 17:0 18:1 19:0 20:0 21:0 22:0 23:1 24:0 25:1 26:1 27:1 28:0 29:1 30:0 31:1 32:0 33:1 34:0 35:0 
256 0:1 1:1 2:0 3:0 4:0 5:1 6:1 7:1 8:0 9:0 10:1 11:1 12:1 13:0 14:1 15:1 16:0 17:0 18:1 19:0 20:0 21:1 22:0 23:0 24:0 25:1 26:1 27:0 28:0 29:0 30:1 31:1 32:0 33:1 34:1 35:0 
256 0:0 1:0 2:1 3:1 4:0 5:0 6:1 7:1 8:1 9:0 10:1 11:0 12:1 13:1 14:1 15:1 16:1 17:0 18:1 19:0 20:0 21:1 22:1 23:0 24:1 25:1 26:1 27:1 28:1 29:1 30:1 31:1 32:1 33:0 34:0 35:0 
256 0:1 1:1 2:1 3:0 4:0 5:1 6:1 7:1 8:0 9:1 10:1 11:1 12:1 13:0 14:1 15:0 16:0 17:0 18:1 19:0 20:0 21:0 22:0 23:0 24:0 25:1 26:1 27:0 28:1 29:1 30:0 31:1 32:0 33:1 34:0 35:1 
256 0:1 1:1 2:1 3:1 4:1 5:1 6:1 7:1 8:1 9:0 10:1 11:0 12:0 13:1 14:1 15:0 16:0 17:0 18:1 19:0 20:0 21:1 22:0 23:0 24:0 25:1 26:1 27:0 28:0 29:0 30:0 31:1 32:0 33:1 34:0 35:0 
256 0:1 1:1 2:0 3:1 4:1 5:1 6:1 7:1 8:0 9:1 10:1 11:1 12:1 13:1 14:1 15:0 16:0 17:0 18:1 19:1 20:0 21:1 22:0 23:0 24:1 25:1 26:1 27:1 28:0 29:1 30:1 31:0 32:0 33:1 34:0 35:0 
256 0:1 1:1 2:0 3:1 4:1 5:0 6:1 7:0 8:1 9:0 10:1 11:1 12:1 13:1 14:1 15:1 16:1 17:0 18:1 19:1 20:0 21:1 22:1 23:1 24:1 25:1 26:1 27:1 28:0 29:1 30:1 31:0 32:0 33:0 34:0 35:1 
256 0:1 1:0 2:0 3:0 4:0 5:0 6:1 7:1 8:1 9:1 10:0 11:1 12:1 13:1 14:1 15:0 16:0 17:0 18:0 19:0 20:0 21:0 22:0 23:1 24:0 25:1 26:1 27:1 28:1 29:0 30:1 31:0 32:0 33:1 34:0 35:0 
256 0:1 1:0 2:1 3:1 4:0 5:1 6:1 7:1 8:0 9:1 10:0 11:0 12:1 13:1 14:1 15:1 16:1 17:1 18:0 19:0 20:0 21:1 22:1 23:0 24:0 25:1 26:1 27:1 28:1 29:1 30:1 31:0 32:0 33:1 34:0 35:0 
256 0:0 1:1 2:0 3:1 4:0 5:0 6:1 7:0 8:1 9:1 10:1 11:1 12:0 13:1 14:1 15:0 16:0 17:0 18:1 19:1 20:1 21:1 22:1 23:0 24:1 25:1 26:1 27:1 28:0 29:0 30:0 31:0 32:0 33:1 34:0 35:0 
256 0:1 1:1 2:1 3:1 4:0 5:0 6:1 7:1 8:1 9:1 10:1 11:0 12:1 13:1 14:1 15:1 16:0 17:0 18:0 19:0 20:1 21:1 22:0 23:1 24:0 25:1 26:1 27:1 28:0 29:0 30:1 31:1 32:0 33:0 34:0 35:1 
256 0:1 1:1 2:1 3:1 4:0 5:0 6:1 7:1 8:1 9:1 10:1 11:1 12:1 13:1 14:0 15:1 16:0 17:1 18:1 19:1 20:0 21:1 22:0 23:0 24:0 25:1 26:1 27:1 28:0 29:1 30:0 31:0 32:0 33:1 34:0 35:0 
256 0:1 1:1 2:1 3:0 4:0 5:0 6:1 7:1 8:0 9:0 10:1 11:1 12:1 13:1 14:1 15:0 16:0 17:0 18:1 19:1 20:0 21:1 22:1 23:0 24:0 25:0 26:0 27:0 28:1 29:0 30:1 31:1 32:0 33:0 34:1 35:0 
256 0:1 1:1 2:1 3:0 4:0 5:1 6:1 7:0 8:1 9:1 10:0 11:1 12:1 13:1 14:1 15:1 16:1 17:0 18:0 19:0 20:0 21:1 22:0 23:0 24:1 25:1 26:0 27:0 28:0 29:1 30:0 31:0 32:1 33:0 34:1 35:0 
256 0:1 1:0 2:1 3:1 4:0 5:0 6:1 7:0 8:1 9:0 10:0 11:1 12:1 13:0 14:1 15:0 16:0 17:0 18:1 19:0 20:1 21:0 22:1 23:1 24:1 25:0 26:0 27:0 28:1 29:0 30:1 31:0 32:0 33:0 34:0 35:0 
256 0:1 1:1 2:1 3:1 4:0 5:0 6:1 7:1 8:1 9:0 10:0 11:0 12:0 13:1 14:1 15:1 16:1 17:0 18:0 19:0 20:0 21:1 22:1 23:1 24:1 25:0 26:1 27:0 28:1 29:1 30:0 31:0 32:0 33:1 34:0 35:1 
256 0:1 1:1 2:0 3:1 4:0 5:1 6:1 7:1 8:1 9:1 10:1 11:1 12:0 13:1 14:1 15:0 16:0 17:0 18:1 19:0 20:0 21:1 22:0 23:0 24:0 25:0 26:0 27:1 28:0 29:1 30:1 31:0 32:1 33:0 34:0 35:0 
256 0:1 1:0 2:0 3:0 4:0 5:1 6:0 7:0 8:0 9:0 10:1 11:1 12:0 13:1 14:1 15:0 16:0 17:0 18:1 19:0 20:0 21:1 22:0 23:0 24:0 25:0 26:1 27:1 28:1 29:1 30:1 31:0 32:0 33:1 34:0 35:1 
256 0:1 1:1 2:1 3:0 4:0 5:1 6:1 7:1 8:1 9:0 10:0 11:0 12:1 13:1 14:1 15:0 16:0 17:0 18:1 19:0 20:0 21:1 22:1 23:1 24:0 25:0 26:1 27:0 28:0 29:0 30:0 31:0 32:1 33:0 34:0 35:0 
256 0:1 1:1 2:0 3:1 4:1 5:0 6:1 7:1 8:1 9:1 10:1 11:1 12:1 13:1 14:0 15:1 16:1 17:0 18:0 19:0 20:0 21:1 22:0 23:0 24:0 25:1 26:1 27:1 28:1 29:1 30:1 31:0 32:0 33:0 34:0 35:0 
256 0:1 1:1 2:0 3:0 4:0 5:0 6:1 7:1 8:0 9:0 10:0 11:1 12:1 13:1 14:1 15:0 16:1 17:0 18:1 19:0 20:1 21:1 22:0 23:0 24:0 25:0 26:1 27:0 28:0 29:0 30:0 31:1 32:0 33:0 34:0 35:0 
256 0:0 1:1 2:1 3:1 4:0 5:0 6:1 7:1 8:1 9:0 10:0 11:1 12:1 13:0 14:1 15:1 16:0 17:0 18:1 19:0 20:0 21:1 22:1 23:0 24:1 25:0 26:1 27:1 28:0 29:1 30:0 31:0 32:1 33:0 34:0 35:1 
256 0:1 1:1 2:1 3:1 4:0 5:1 6:0 7:0 8:1 9:0 10:0 11:0 12:1 13:1 14:1 15:1 16:0 17:1 18:1 19:1 20:0 21:1 22:0 23:1 24:1 25:1 26:1 27:1 28:0 29:1 30:1 31:0 32:0 33:1 34:0 35:0 
256 0:1 1:0 2:1 3:1 4:0 5:0 6:1 7:1 8:1 9:1 10:1 11:1 12:0 13:1 14:1 15:0 16:0 17:0 18:1 19:0 20:0 21:1 22:0 23:0 24:1 25:1 26:0 27:1 28:0 29:0 30:0 31:1 32:1 33:0 34:0 35:0 
256 0:1 1:1 2:1 3:1 4:1 5:1 6:1 7:1 8:1 9:0 10:1 11:1 12:0 13:1 14:1 15:0 16:0 17:0 18:1 19:1 20:0 21:0 22:0 23:0 24:1 25:1 26:1 27:0 28:0 29:1 30:0 31:0 32:0 33:1 34:0 35:0 
256 0:1 1:0 2:0 3:1 4:0 5:1 6:1 7:1 8:1 9:1 10:1 11:1 12:1 13:1 14:1 15:0 16:0 17:0 18:1 19:0 20:1 21:1 22:0 23:1 24:1 25:1 26:1 27:1 28:0 29:0 30:1 31:0 32:0 33:1 34:1 35:0 
256 0:1 1:1 2:1 3:0 4:0 5:0 6:1 7:1 8:1 9:0 10:1 11:1 12:0 13:1 14:1 15:0 16:0 17:1 18:1 19:0 20:0 21:1 22:0 23:0 24:1 25:1 26:1 27:0 28:0 29:1 30:0 31:0 32:0 33:1 34:0 35:0 
256 0:1 1:1 2:1 3:1 4:0 5:0 6:0 7:0 8:1 9:1 10:1 11:1 12:1 13:0 14:1 15:0 16:0 17:0 18:1 19:0 20:0 21:0 22:0 23:1 24:0 25:1 26:0 27:1 28:1 29:1 30:1 31:1 32:0 33:1 34:0 35:0 
256 0:1 1:1 2:1 3:1 4:0 5:0 6:1 7:1 8:1 9:1 10:0 11:0 12:1 13:1 14:1 15:1 16:0 17:0 18:0 19:1 20:0 21:1 22:1 23:1 24:0 25:0 26:0 27:1 28:0 29:1 30:0 31:0 32:0 33:1 34:1 35:0 
256 0:1 1:1 2:1 3:1 4:0 5:0 6:1 7:1 8:1 9:1 10:0 11:0 12:1 13:1 14:1 15:0 16:0 17:0 18:1 19:0 20:0 21:1 22:0 23:0 24:0 25:0 26:1 27:1 28:1 29:1 30:0 31:0 32:0 33:0 34:0 35:1 
256 0:1 1:1 2:1 3:1 4:0 5:1 6:1 7:1 8:1 9:1 10:1 11:1 12:1 13:1 14:1 15:0 16:0 17:0 18:1 19:0 20:1 21:1 22:1 23:0 24:0 25:1 26:1 27:1 28:1 29:0 30:1 31:0 32:0 33:1 34:0 35:0 
256 0:1 1:1 2:1 3:1 4:1 5:1 6:1 7:0 8:1 9:1 10:1 11:1 12:0 13:1 14:1 15:0 16:0 17:1 18:1 19:1 20:1 21:1 22:1 23:0 24:1 25:1 26:1 27:0 28:1 29:0 30:1 31:1 32:1 33:1 34:1 35:0 
256 0:1 1:1 2:1 3:0 4:0 5:0 6:1 7:0 8:1 9:0 10:1 11:1 12:1 13:1 14:1 15:1 16:1 17:0 18:1 19:1 20:0 21:0 22:0 23:0 24:0 25:0 26:0 27:1 28:1 29:0 30:1 31:1 32:0 33:0 34:1 35:0 
256 0:1 1:1 2:1 3:1 4:0 5:1 6:1 7:1 8:0 9:1 10:1 11:0 12:1 13:1 14:1 15:0 16:0 17:0 18:1 19:0 20:0 21:1 22:0 23:1 24:1 25:1 26:1 27:0 28:1 29:0 30:1 31:0 32:0 33:0 34:0 35:0 
256 0:1 1:1 2:1 3:0 4:0 5:1 6:1 7:1 8:1 9:0 10:1 11:1 12:1 13:1 14:1 15:1 16:0 17:0 18:1 19:1 20:1 21:1 22:0 23:0 24:0 25:0 26:0 27:1 28:0 29:1 30:0 31:0 32:0 33:1 34:1 35:0 
256 0:1 1:1 2:1 3:1 4:0 5:0 6:0 7:1 8:1 9:0 10:0 11:0 12:1 13:1 14:1 15:1 16:0 17:0 18:0 19:0 20:1 21:1 22:1 23:0 24:0 25:1 26:1 27:1 28:1 29:1 30:0 31:0 32:0 33:1 34:1 35:0 
256 0:1 1:1 2:1 3:0 4:0 5:0 6:1 7:1 8:0 9:0 10:1 11:1 12:1 13:1 14:0 15:1 16:0 17:0 18:1 19:1 20:1 21:0 22:0 23:1 24:0 25:0 26:1 27:0 28:1 29:0 30:1 31:1 32:1 33:0 34:0 35:0 
256 0:1 1:0 2:1 3:1 4:0 5:0 6:1 7:1 8:0 9:0 10:0 11:1 12:1 13:1 14:1 15:1 16:0 17:0 18:1 19:0 20:0 21:1 22:1 23:1 24:1 25:1 26:0 27:1 28:1 29:1 30:1 31:1 32:0 33:1 34:0 35:0 
256 0:0 1:1 2:1 3:0 4:0 5:0 6:1 7:1 8:0 9:0 10:0 11:1 12:1 13:0 14:1 15:0 16:0 17:0 18:1 19:0 20:0 21:1 22:0 23:1 24:1 25:1 26:1 27:1 28:0 29:1 30:0 31:0 32:0 33:1 34:0 35:1 
256 0:1 1:1 2:1 3:1 4:1 5:0 6:1 7:1 8:1 9:0 10:1 11:1 12:0 13:1 14:1 15:0 16:0 17:0 18:1 19:0 20:0 21:1 22:0 23:0 24:0 25:1 26:1 27:0 28:1 29:1 30:0 31:1 32:0 33:0 34:1 35:0 
256 0:1 1:0 2:1 3:1 4:1 5:0 6:1 7:1 8:1 9:1 10:1 11:1 12:0 13:1 14:1 15:1 16:1 17:0 18:1 19:0 20:0 21:0 22:1 23:0 24:0 25:0 26:1 27:1 28:1 29:0 30:1 31:1 32:0 33:1 34:0 35:0 
256 0:0 1:1 2:1 3:1 4:0 5:0 6:1 7:1 8:1 9:0 10:1 11:1 12:0 13:1 14:1 15:1 16:0 17:0 18:1 19:0 20:1 21:1 22:0 23:1 24:0 25:1 26:0 27:1 28:0 29:1 30:1 31:1 32:1 33:1 34:0 35:0 
256 0:1 1:1 2:1 3:1 4:0 5:0 6:1 7:0 8:1 9:0 10:1 11:0 12:0 13:1 14:0 15:1 16:0 17:0 18:0 19:0 20:0 21:1 22:0 23:0 24:0 25:0 26:0 27:0 28:1 29:1 30:1 31:1 32:0 33:0 34:1 35:0 
256 0:1 1:0 2:1 3:1 4:0 5:0 6:1 7:1 8:1 9:0 10:1 11:1 12:1 13:1 14:1 15:0 16:0 17:0 18:1 19:1 20:0 21:1 22:0 23:1 24:0 25:0 26:1 27:1 28:0 29:1 30:1 31:1 32:1 33:1 34:0 35:0 
256 0:0 1:1 2:0 3:1 4:0 5:1 6:1 7:0 8:1 9:1 10:1 11:0 12:1 13:1 14:1 15:1 16:1 17:0 18:1 19:0 20:0 21:1 22:1 23:0 24:1 25:1 26:1 27:0 28:1 29:0 30:0 31:0 32:1 33:1 34:0 35:0 
256 0:1 1:1 2:1 3:1 4:1 5:0 6:0 7:1 8:1 9:1 10:1 11:0 12:0 13:1 14:1 15:1 16:0 17:0 18:1 19:1 20:1 21:0 22:0 23:0 24:0 25:1 26:1 27:0 28:0 29:1 30:1 31:0 32:0 33:1 34:0 35:0 
256 0:0 1:1 2:1 3:0 4:0 5:0 6:1 7:0 8:1 9:0 10:1 11:1 12:1 13:1 14:1 15:1 16:1 17:0 18:1 19:0 20:0 21:1 22:1 23:0 24:0 25:1 26:1 27:1 28:1 29:1 30:1 31:0 32:0 33:1 34:1 35:1 
256 0:1 1:1 2:0 3:1 4:0 5:0 6:0 7:0 8:1 9:0 10:0 11:0 12:1 13:1 14:0 15:1 16:0 17:0 18:1 19:1 20:0 21:1 22:0 23:0 24:1 25:1 26:1 27:0 28:0 29:0 30:1 31:0 32:0 33:1 34:1 35:0 
256 0:1 1:0 2:1 3:1 4:0 5:1 6:1 7:1 8:1 9:1 10:1 11:1 12:0 13:1 14:1 15:0 16:0 17:0 18:1 19:0 20:0 21:0 22:0 23:0 24:0 25:1 26:1 27:1 28:1 29:1 30:1 31:1 32:0 33:1 34:1 35:0 
256 0:1 1:0 2:1 3:1 4:0 5:0 6:1 7:1 8:1 9:0 10:1 11:1 12:0 13:1 14:1 15:1 16:0 17:0 18:0 19:0 20:0 21:1 22:1 23:1 24:1 25:0 26:0 27:1 28:1 29:0 30:1 31:0 32:0 33:1 34:1 35:1 
256 0:1 1:1 2:1 3:0 4:0 5:1 6:0 7:0 8:1 9:1 10:1 11:1 12:1 13:1 14:1 15:0 16:0 17:0 18:1 19:0 20:0 21:1 22:1 23:1 24:1 25:1 26:1 27:1 28:1 29:1 30:1 31:1 32:0 33:1 34:1 35:0 
256 0:1 1:0 2:1 3:1 4:0 5:0 6:1 7:0 8:1 9:1 10:1 11:1 12:1 13:1 14:0 15:1 16:1 17:0 18:1 19:1 20:1 21:1 22:1 23:1 24:1 25:0 26:0 27:1 28:0 29:0 30:0 31:1 32:0 33:1 34:0 35:0 
256 0:1 1:1 2:1 3:0 4:0 5:0 6:1 7:1 8:1 9:1 10:1 11:1 12:1 13:1 14:0 15:0 16:0 17:0 18:1 19:0 20:1 21:0 22:0 23:1 24:1 25:0 26:1 27:1 28:1 29:0 30:1 31:0 32:1 33:1 34:1 35:0 
256 0:1 1:1 2:1 3:1 4:1 5:0 6:0 7:1 8:1 9:1 10:1 11:1 12:1 13:1 14:1 15:0 16:1 17:0 18:1 19:0 20:1 21:1 22:1 23:0 24:0 25:0 26:1 27:1 28:0 29:1 30:0 31:1 32:1 33:1 34:0 35:0 
256 0:1 1:1 2:1 3:1 4:0 5:0 6:1 7:1 8:1 9:1 10:1 11:0 12:0 13:0 14:1 15:0 16:0 17:1 18:1 19:0 20:0 21:1 22:1 23:1 24:1 25:1 26:1 27:1 28:1 29:1 30:0 31:0 32:1 33:1 34:0 35:0 
256 0:1 1:1 2:1 3:1 4:0 5:0 6:1 7:1 8:1 9:1 10:1 11:1 12:0 13:1 14:1 15:0 16:0 17:0 18:1 19:1 20:1 21:1 22:0 23:0 24:0 25:0 26:1 27:1 28:1 29:1 30:0 31:0 32:0 33:1 34:0 35:0 
256 0:1 1:0 2:1 3:1 4:0 5:1 6:1 7:1 8:0 9:1 10:1 11:1 12:0 13:1 14:1 15:1 16:1 17:0 18:0 19:0 20:0 21:1 22:0 23:1 24:0 25:1 26:0 27:1 28:1 29:1 30:1 31:0 32:0 33:1 34:0 35:0 
256 0:1 1:1 2:1 3:1 4:0 5:0 6:1 7:1 8:1 9:1 10:1 11:1 12:1 13:1 14:1 15:1 16:0 17:0 18:1 19:0 20:0 21:0 22:0 23:1 24:1 25:1 26:1 27:0 28:1 29:1 30:1 31:1 32:1 33:0 34:0 35:0 
256 0:1 1:1 2:0 3:1 4:0 5:0 6:1 7:1 8:1 9:1 10:1 11:1 12:1 13:0 14:1 15:0 16:0 17:0 18:1 19:0 20:0 21:1 22:0 23:0 24:1 25:1 26:1 27:0 28:0 29:0 30:1 31:0 32:0 33:0 34:1 35:0 
256 0:1 1:1 2:1 3:0 4:0 5:0 6:1 7:1 8:1 9:0 10:1 11:1 12:1 13:0 14:0 15:0 16:0 17:0 18:0 19:0 20:0 21:0 22:0 23:0 24:0 25:1 26:1 27:0 28:1 29:0 30:1 31:1 32:1 33:0 34:0 35:0 
256 0:0 1:1 2:1 3:0 4:0 5:0 6:1 7:1 8:1 9:1 10:1 11:0 12:0 13:0 14:1 15:1 16:0 17:0 18:0 19:0 20:0 21:1 22:0 23:1 24:1 25:1 26:1 27:1 28:1 29:1 30:0 31:0 32:0 33:1 34:0 35:0 
256 0:1 1:1 2:1 3:1 4:1 5:1 6:1 7:1 8:1 9:0 10:1 11:1 12:0 13:1 14:1 15:1 16:1 17:1 18:1 19:0 20:0 21:1 22:0 23:0 24:0 25:1 26:1 27:0 28:1 29:1 30:0 31:0 32:0 33:0 34:1 35:1 
256 0:1 1:1 2:0 3:0 4:0 5:0 6:1 7:1 8:1 9:0 10:1 11:1 12:1 13:1 14:1 15:0 16:0 17:0 18:1 19:0 20:0 21:1 22:1 23:0 24:1 25:1 26:1 27:1 28:1 29:1 30:1 31:0 32:0 33:1 34:0 35:0 
256 0:0 1:1 2:1 3:1 4:0 5:0 6:1 7:1 8:0 9:1 10:0 11:1 12:1 13:1 14:1 15:0 16:1 17:0 18:1 19:0 20:0 21:1 22:1 23:1 24:1 25:1 26:0 27:1 28:0 29:1 30:1 31:0 32:0 33:0 34:1 35:0 
256 0:1 1:1 2:1 3:0 4:0 5:0 6:1 7:1 8:1 9:0 10:0 11:1 12:1 13:1 14:1 15:0 16:0 17:0 18:1 19:0 20:0 21:1 22:0 23:1 24:1 25:1 26:1 27:1 28:0 29:1 30:0 31:1 32:0 33:1 34:0 35:1 
256 0:0 1:1 2:1 3:1 4:0 5:0 6:1 7:1 8:1 9:0 10:1 11:0 12:1 13:1 14:1 15:0 16:0 17:0 18:1 19:0 20:1 21:0 22:1 23:0 24:0 25:0 26:1 27:0 28:1 29:0 30:1 31:0 32:0 33:1 34:1 35:0 
256 0:1 1:1 2:0 3:1 4:0 5:0 6:0 7:0 8:1 9:0 10:1 11:1 12:1 13:1 14:0 15:0 16:0 17:0 18:1 19:0 20:0 21:1 22:1 23:0 24:1 25:1 26:1 27:1 28:1 29:1 30:0 31:0 32:1 33:0 34:1 35:0 
256 0:1 1:1 2:0 3:1 4:0 5:1 6:1 7:1 8:1 9:0 10:0 11:0 12:1 13:1 14:1 15:1 16:0 17:0 18:1 19:1 20:1 21:1 22:0 23:0 24:1 25:1 26:1 27:0 28:1 29:1 30:1 31:0 32:1 33:0 34:0 35:1 
256 0:1 1:0 2:1 3:1 4:0 5:0 6:1 7:1 8:1 9:1 10:1 11:1 12:0 13:0 14:1 15:1 16:0 17:0 18:0 19:0 20:0 21:1 22:0 23:0 24:0 25:0 26:1 27:1 28:0 29:1 30:0 31:0 32:0 33:0 34:0 35:0 
256 0:1 1:1 2:1 3:1 4:0 5:0 6:0 7:1 8:1 9:1 10:1 11:1 12:1 13:1 14:1 15:1 16:0 17:0 18:1 19:0 20:1 21:0 22:0 23:1 24:1 25:1 26:1 27:0 28:1 29:1 30:1 31:0 32:0 33:1 34:0 35:0 
256 0:1 1:1 2:1 3:0 4:0 5:0 6:1 7:1 8:1 9:0 10:1 11:1 12:1 13:1 14:1 15:0 16:0 17:0 18:1 19:1 20:1 21:1 22:1 23:0 24:1 25:1 26:1 27:0 28:0 29:0 30:0 31:0 32:0 33:1 34:1 35:0 
256 0:1 1:0 2:1 3:1 4:1 5:0 6:1 7:0 8:1 9:0 10:1 11:0 12:1 13:1 14:1 15:0 16:1 17:0 18:1 19:0 20:1 21:1 22:0 23:1 24:0 25:1 26:1 27:0 28:1 29:1 30:0 31:0 32:0 33:0 34:0 35:0 
256 0:1 1:1 2:1 3:0 4:0 5:0 6:1 7:0 8:1 9:0 10:1 11:1 12:1 13:1 14:1 15:1 16:0 17:0 18:1 19:0 20:0 21:1 22:1 23:0 24:1 25:1 26:1 27:1 28:1 29:0 30:0 31:0 32:0 33:1 34:1 35:0 
256 0:0 1:1 2:1 3:1 4:0 5:0 6:1 7:1 8:1 9:1 10:0 11:1 12:1 13:1 14:1 15:0 16:0 17:0 18:1 19:1 20:1 21:1 22:0 23:0 24:0 25:0 26:0 27:1 28:1 29:0 30:0 31:0 32:0 33:1 34:0 35:0 
256 0:0 1:1 2:1 3:0 4:0 5:0 6:0 7:1 8:1 9:0 10:1 11:0 12:1 13:1 14:1 15:0 16:0 17:1 18:1 19:0 20:1 21:1 22:1 23:0 24:0 25:1 26:1 27:1 28:1 29:0 30:1 31:0 32:0 33:1 34:0 35:0 
256 0:1 1:1 2:0 3:1 4:1 5:1 6:1 7:1 8:1 9:1 10:1 11:1 12:1 13:1 14:1 15:1 16:0 17:1 18:1 19:0 20:1 21:1 22:0 23:1 24:1 25:1 26:1 27:0 28:1 29:1 30:1 31:0 32:0 33:0 34:1 35:0 
256 0:1 1:1 2:1 3:1 4:0 5:0 6:1 7:1 8:1 9:0 10:0 11:1 12:1 13:1 14:1 15:1 16:0 17:0 18:1 19:0 20:1 21:0 22:1 23:1 24:1 25:1 26:0 27:0 28:0 29:1 30:0 31:0 32:0 33:1 34:0 35:0 
256 0:1 1:1 2:1 3:1 4:1 5:0 6:1 7:0 8:0 9:0 10:1 11:1 12:1 13:1 14:0 15:1 16:1 17:0 18:1 19:1 20:0 21:1 22:0 23:0 24:0 25:0 26:1 27:1 28:1 29:0 30:1 31:0 32:0 33:1 34:1 35:0 
256 0:1 1:1 2:1 3:1 4:0 5:0 6:1 7:1 8:1 9:1 10:1 11:1 12:1 13:1 14:0 15:0 16:0 17:0 18:1 19:1 20:0 21:1 22:0 23:0 24:1 25:0 26:1 27:1 28:1 29:0 30:0 31:0 32:0 33:1 34:0 35:0 
256 0:1 1:1 2:0 3:1 4:0 5:0 6:0 7:0 8:0 9:0 10:1 11:1 12:0 13:1 14:1 15:0 16:0 17:0 18:1 19:0 20:1 21:1 22:1 23:1 24:1 25:0 26:1 27:1 28:0 29:1 30:0 31:0 32:0 33:1 34:0 35:1 
256 0:0 1:0 2:0 3:1 4:0 5:1 6:1 7:0 8:1 9:1 10:1 11:1 12:1 13:0 14:0 15:1 16:0 17:0 18:1 19:0 20:0 21:1 22:0 23:1 24:0 25:1 26:1 27:1 28:1 29:1 30:1 31:1 32:0 33:1 34:1 35:0 
256 0:1 1:1 2:1 3:1 4:1 5:0 6:1 7:1 8:0 9:1 10:0 11:0 12:1 13:1 14:1 15:1 16:0 17:1 18:1 19:0 20:0 21:1 22:1 23:0 24:1 25:1 26:1 27:1 28:1 29:1 30:1 31:0 32:0 33:1 34:0 35:0 
256 0:1 1:1 2:1 3:1 4:0 5:1 6:1 7:1 8:1 9:1 10:1 11:1 12:1 13:1 14:0 15:1 16:0 17:1 18:0 19:0 20:0 21:1 22:1 23:0 24:1 25:1 26:0 27:1 28:1 29:1 30:1 31:0 32:0 33:1 34:0 35:0 
256 0:0 1:1 2:1 3:1 4:0 5:1 6:1 7:0 8:1 9:1 10:1 11:1 12:1 13:0 14:1 15:1 16:0 17:0 18:1 19:0 20:0 21:1 22:1 23:0 24:0 25:1 26:0 27:1 28:1 29:0 30:1 31:0 32:0 33:1 34:1 35:0 
256 0:1 1:0 2:1 3:1 4:0 5:0 6:0 7:1 8:1 9:0 10:0 11:1 12:1 13:1 14:1 15:0 16:0 17:0 18:1 19:0 20:0 21:1 22:0 23:1 24:0 25:0 26:1 27:1 28:1 29:1 30:1 31:0 32:0 33:1 34:1 35:0 
256 0:1 1:1 2:1 3:0 4:0 5:0 6:0 7:1 8:1 9:0 10:0 11:1 12:1 13:1 14:0 15:0 16:0 17:0 18:1 19:0 20:0 21:1 22:1 23:0 24:0 25:0 26:0 27:0 28:1 29:0 30:1 31:0 32:0 33:0 34:1 35:0 
256 0:1 1:0 2:1 3:1 4:1 5:0 6:1 7:1 8:1 9:0 10:1 11:1 12:0 13:1 14:1 15:1 16:0 17:1 18:0 19:0 20:1 21:1 22:1 23:1 24:1 25:1 26:1 27:0 28:1 29:1 30:1 31:1 32:1 33:1 34:0 35:0 
256 0:0 1:1 2:1 3:1 4:0 5:1 6:1 7:1 8:1 9:0 10:1 11:1 12:1 13:1 14:1 15:0 16:0 17:0 18:0 19:0 20:0 21:0 22:1 23:0 24:0 25:1 26:1 27:1 28:0 29:1 30:0 31:0 32:0 33:1 34:0 35:0 
256 0:1 1:1 2:1 3:1 4:0 5:0 6:0 7:1 8:1 9:1 10:1 11:1 12:1 13:1 14:1 15:1 16:0 17:0 18:1 19:0 20:0 21:0 22:0 23:1 24:0 25:0 26:1 27:1 28:0 29:1 30:0 31:1 32:0 33:1 34:0 35:0 
256 0:1 1:1 2:1 3:1 4:1 5:1 6:0 7:1 8:1 9:1 10:0 11:1 12:1 13:1 14:1 15:0 16:0 17:0 18:1 19:1 20:1 21:1 22:0 23:0 24:1 25:0 26:0 27:0 28:1 29:0 30:0 31:0 32:0 33:0 34:0 35:1 
256 0:1 1:1 2:1 3:1 4:0 5:1 6:1 7:0 8:1 9:0 10:0 11:1 12:1 13:1 14:1 15:0 16:0 17:0 18:1 19:0 20:1 21:1 22:0 23:0 24:1 25:1 26:1 27:0 28:0 29:0 30:1 31:1 32:0 33:1 34:1 35:1 
256 0:1 1:1 2:1 3:0 4:0 5:0 6:0 7:0 8:1 9:0 10:1 11:1 12:1 13:0 14:1 15:0 16:1 17:0 18:1 19:0 20:1 21:0 22:0 23:0 24:0 25:0 26:1 27:0 28:0 29:0 30:0 31:0 32:0 33:0 34:0 35:0 
256 0:1 1:1 2:1 3:1 4:1 5:0 6:1 7:1 8:1 9:1 10:1 11:1 12:1 13:1 14:0 15:0 16:0 17:0 18:1 19:0 20:0 21:1 22:1 23:1 24:0 25:0 26:1 27:0 28:1 29:1 30:1 31:0 32:0 33:0 34:1 35:1 
256 0:0 1:1 2:0 3:1 4:0 5:1 6:1 7:0 8:0 9:0 10:1 11:1 12:0 13:1 14:1 15:1 16:0 17:0 18:1 19:0 20:1 21:1 22:0 23:1 24:0 25:1 26:1 27:0 28:1 29:1 30:1 31:0 32:0 33:1 34:1 35:0 
256 0:1 1:1 2:1 3:0 4:0 5:0 6:1 7:1 8:1 9:1 10:1 11:1 12:1 13:1 14:0 15:0 16:0 17:0 18:1 19:1 20:0 21:1 22:0 23:0 24:0 25:1 26:0 27:1 28:1 29:1 30:0 31:0 32:1 33:0 34:1 35:0 
256 0:1 1:0 2:1 3:1 4:1 5:0 6:1 7:0 8:1 9:0 10:1 11:1 12:1 13:1 14:1 15:1 16:1 17:0 18:1 19:0 20:0 21:1 22:0 23:1 24:1 25:1 26:0 27:1 28:0 29:1 30:1 31:0 32:1 33:1 34:0 35:0 
256 0:1 1:1 2:1 3:1 4:0 5:0 6:0 7:1 8:1 9:1 10:1 11:1 12:1 13:1 14:0 15:1 16:0 17:0 18:0 19:1 20:0 21:0 22:0 23:1 24:1 25:0 26:1 27:1 28:1 29:1 30:0 31:0 32:1 33:1 34:1 35:0 
256 0:1 1:1 2:1 3:1 4:1 5:1 6:1 7:1 8:0 9:0 10:0 11:0 12:1 13:0 14:1 15:1 16:1 17:1 18:1 19:0 20:0 21:0 22:0 23:0 24:1 25:1 26:1 27:0 28:0 29:0 30:0 31:1 32:0 33:1 34:0 35:0 
256 0:0 1:1 2:1 3:0 4:0 5:0 6:1 7:0 8:0 9:1 10:1 11:1 12:0 13:1 14:1 15:0 16:0 17:0 18:1 19:0 20:0 21:0 22:0 23:0 24:0 25:1 26:1 27:0 28:0 29:0 30:1 31:0 32:0 33:1 34:0 35:0 
256 0:1 1:1 2:1 3:1 4:0 5:0 6:1 7:1 8:1 9:0 10:1 11:1 12:0 13:1 14:0 15:1 16:0 17:0 18:1 19:1 20:1 21:0 22:0 23:1 24:0 25:0 26:1 27:1 28:1 29:1 30:0 31:0 32:0 33:1 34:0 35:1 
256 0:1 1:1 2:1 3:1 4:0 5:1 6:1 7:1 8:1 9:1 10:1 11:1 12:1 13:1 14:0 15:1 16:0 17:0 18:1 19:0 20:0 21:1 22:0 23:0 24:0 25:0 26:1 27:0 28:1 29:0 30:0 31:1 32:1 33:1 34:1 35:0 
256 0:1 1:1 2:1 3:0 4:0 5:0 6:0 7:0 8:1 9:0 10:1 11:0 12:1 13:0 14:1 15:0 16:0 17:0 18:1 19:0 20:1 21:1 22:0 23:0 24:1 25:1 26:1 27:1 28:1 29:0 30:0 31:0 32:1 33:1 34:1 35:0 
256 0:1 1:1 2:1 3:1 4:0 5:0 6:1 7:1 8:1 9:0 10:1 11:0 12:1 13:1 14:1 15:0 16:0 17:1 18:1 19:0 20:0 21:1 22:0 23:1 24:0 25:1 26:1 27:1 28:0 29:1 30:0 31:1 32:0 33:1 34:0 35:0 
256 0:1 1:0 2:1 3:1 4:0 5:0 6:1 7:1 8:1 9:1 10:1 11:1 12:0 13:1 14:1 15:0 16:0 17:0 18:1 19:0 20:0 21:0 22:0 23:0 24:0 25:1 26:1 27:0 28:0 29:0 30:0 31:0 32:0 33:1 34:0 35:0 
256 0:1 1:0 2:1 3:1 4:1 5:0 6:1 7:1 8:1 9:1 10:1 11:0 12:1 13:1 14:0 15:1 16:0 17:1 18:0 19:0 20:1 21:1 22:1 23:1 24:1 25:1 26:1 27:1 28:1 29:1 30:0 31:0 32:0 33:1 34:0 35:0 
256 0:1 1:1 2:1 3:1 4:0 5:1 6:1 7:1 8:1 9:1 10:1 11:0 12:0 13:0 14:1 15:1 16:0 17:0 18:1 19:0 20:1 21:0 22:0 23:0 24:1 25:1 26:1 27:0 28:0 29:0 30:1 31:1 32:0 33:0 34:0 35:0 
256 0:1 1:1 2:1 3:1 4:0 5:0 6:1 7:1 8:0 9:0 10:1 11:1 12:0 13:1 14:1 15:0 16:0 17:1 18:0 19:0 20:1 21:0 22:0 23:1 24:1 25:1 26:0 27:0 28:1 29:1 30:0 31:0 32:0 33:1 34:0 35:0 
256 0:1 1:1 2:1 3:0 4:1 5:0 6:1 7:1 8:0 9:0 10:1 11:1 12:1 13:1 14:0 15:0 16:0 17:0 18:1 19:1 20:1 21:1 22:0 23:1 24:0 25:1 26:1 27:0 28:1 29:1 30:1 31:0 32:0 33:1 34:1 35:0 
256 0:1 1:1 2:0 3:1 4:0 5:0 6:0 7:1 8:1 9:1 10:0 11:1 12:1 13:1 14:0 15:1 16:1 17:1 18:1 19:0 20:0 21:1 22:0 23:0 24:0 25:1 26:1 27:1 28:1 29:0 30:1 31:1 32:0 33:0 34:1 35:1 
256 0:1 1:1 2:1 3:1 4:0 5:0 6:0 7:1 8:0 9:1 10:1 11:1 12:0 13:1 14:1 15:0 16:1 17:0 18:1 19:0 20:0 21:1 22:0 23:1 24:1 25:1 26:1 27:1 28:0 29:1 30:0 31:1 32:1 33:1 34:0 35:0 
256 0:1 1:1 2:1 3:0 4:0 5:0 6:1 7:1 8:1 9:0 10:1 11:1 12:1 13:1 14:1 15:1 16:1 17:0 18:1 19:0 20:0 21:1 22:0 23:1 24:1 25:1 26:1 27:1 28:1 29:1 30:0 31:0 32:0 33:1 34:0 35:1 
256 0:1 1:1 2:1 3:1 4:0 5:1 6:0 7:1 8:1 9:0 10:1 11:1 12:1 13:0 14:1 15:0 16:1 17:0 18:1 19:0 20:0 21:1 22:0 23:0 24:1 25:0 26:0 27:0 28:1 29:1 30:1 31:1 32:0 33:0 34:1 35:1 
256 0:1 1:1 2:0 3:0 4:0 5:0 6:1 7:1 8:0 9:1 10:1 11:1 12:1 13:1 14:1 15:0 16:0 17:0 18:0 19:0 20:1 21:0 22:0 23:0 24:1 25:0 26:1 27:0 28:1 29:0 30:1 31:0 32:0 33:1 34:1 35:0 
256 0:1 1:1 2:1 3:1 4:0 5:0 6:1 7:1 8:1 9:0 10:0 11:1 12:0 13:1 14:1 15:1 16:0 17:1 18:0 19:0 20:1 21:1 22:0 23:0 24:0 25:1 26:0 27:1 28:1 29:0 30:1 31:1 32:0 33:0 34:0 35:0 
256 0:1 1:1 2:0 3:1 4:1 5:1 6:1 7:1 8:0 9:0 10:0 11:0 12:1 13:1 14:1 15:0 16:1 17:0 18:0 19:1 20:1 21:1 22:0 23:0 24:1 25:1 26:1 27:1 28:1 29:1 30:1 31:0 32:0 33:1 34:0 35:0 
256 0:1 1:1 2:1 3:1 4:1 5:1 6:1 7:1 8:1 9:0 10:1 11:1 12:1 13:1 14:1 15:0 16:0 17:0 18:0 19:0 20:0 21:1 22:0 23:0 24:1 25:1 26:1 27:0 28:0 29:1 30:1 31:1 32:0 33:0 34:0 35:0 
256 0:1 1:1 2:1 3:1 4:1 5:0 6:1 7:1 8:1 9:0 10:1 11:1 12:1 13:1 14:1 15:1 16:1 17:1 18:1 19:0 20:0 21:1 22:0 23:0 24:1 25:1 26:1 27:0 28:1 29:1 30:1 31:0 32:0 33:0 34:1 35:1 
256 0:0 1:0 2:1 3:0 4:0 5:0 6:0 7:1 8:0 9:1 10:1 11:1 12:0 13:1 14:1 15:1 16:0 17:1 18:1 19:0 20:1 21:1 22:1 23:1 24:0 25:1 26:0 27:1 28:1 29:1 30:0 31:0 32:0 33:1 34:0 35:0 
256 0:1 1:1 2:1 3:0 4:0 5:0 6:0 7:0 8:1 9:0 10:1 11:0 12:1 13:1 14:0 15:0 16:0 17:0 18:1 19:0 20:0 21:1 22:0 23:1 24:1 25:1 26:1 27:1 28:1 29:1 30:0 31:0 32:0 33:1 34:1 35:0 
256 0:0 1:0 2:1 3:0 4:1 5:1 6:0 7:1 8:1 9:0 10:1 11:1 12:1 13:1 14:1 15:0 16:0 17:0 18:0 19:0 20:0 21:1 22:0 23:1 24:0 25:1 26:1 27:1 28:1 29:1 30:1 31:0 32:0 33:1 34:0 35:1 
256 0:1 1:1 2:1 3:1 4:1 5:0 6:1 7:1 8:1 9:1 10:1 11:1 12:1 13:1 14:1 15:1 16:0 17:0 18:1 19:1 20:1 21:1 22:0 23:0 24:1 25:1 26:1 27:1 28:1 29:0 30:0 31:0 32:0 33:0 34:0 35:0 
256 0:1 1:1 2:1 3:1 4:0 5:1 6:0 7:1 8:0 9:0 10:1 11:1 12:1 13:1 14:1 15:1 16:1 17:0 18:1 19:1 20:0 21:0 22:0 23:1 24:1 25:1 26:0 27:0 28:0 29:1 30:0 31:0 32:1 33:0 34:0 35:0 
256 0:0 1:1 2:0 3:1 4:0 5:0 6:0 7:1 8:0 9:1 10:1 11:1 12:1 13:1 14:1 15:1 16:1 17:1 18:0 19:0 20:0 21:1 22:0 23:0 24:0 25:1 26:1 27:1 28:0 29:0 30:1 31:0 32:0 33:1 34:0 35:0 
256 0:1 1:1 2:1 3:0 4:0 5:0 6:1 7:0 8:0 9:0 10:1 11:1 12:0 13:1 14:1 15:1 16:1 17:0 18:0 19:0 20:1 21:1 22:1 23:0 24:1 25:0 26:1 27:1 28:1 29:0 30:0 31:0 32:0 33:1 34:1 35:1 
256 0:1 1:0 2:1 3:1 4:0 5:0 6:1 7:1 8:1 9:1 10:1 11:1 12:1 13:0 14:1 15:0 16:0 17:0 18:1 19:1 20:1 21:1 22:0 23:1 24:1 25:0 26:1 27:0 28:0 29:1 30:0 31:0 32:0 33:1 34:0 35:1 
256 0:1 1:1 2:1 3:0 4:0 5:0 6:1 7:1 8:0 9:0 10:0 11:0 12:0 13:1 14:1 15:0 16:1 17:0 18:1 19:0 20:1 21:1 22:1 23:1 24:1 25:1 26:1 27:0 28:1 29:1 30:0 31:0 32:0 33:0 34:0 35:0 
256 0:1 1:1 2:1 3:1 4:0 5:0 6:0 7:1 8:1 9:0 10:1 11:1 12:1 13:1 14:0 15:0 16:0 17:0 18:1 19:1 20:1 21:1 22:0 23:0 24:0 25:1 26:1 27:1 28:0 29:1 30:1 31:1 32:0 33:1 34:0 35:0 
256 0:1 1:1 2:0 3:1 4:0 5:0 6:1 7:0 8:1 9:0 10:1 11:1 12:1 13:1 14:1 15:1 16:0 17:0 18:1 19:0 20:0 21:0 22:1 23:1 24:0 25:1 26:1 27:0 28:0 29:1 30:1 31:1 32:0 33:1 34:1 35:0 
256 0:0 1:1 2:1 3:1 4:0 5:0 6:1 7:1 8:0 9:1 10:1 11:0 12:0 13:1 14:1 15:1 16:0 17:1 18:1 19:0 20:0 21:1 22:1 23:0 24:1 25:1 26:1 27:0 28:1 29:1 30:0 31:0 32:0 33:1 34:0 35:0 
256 0:1 1:1 2:1 3:1 4:0 5:0 6:1 7:1 8:1 9:0 10:1 11:1 12:1 13:1 14:1 15:1 16:0 17:0 18:1 19:0 20:0 21:0 22:0 23:1 24:0 25:0 26:1 27:0 28:0 29:1 30:1 31:1 32:0 33:0 34:0 35:1 
256 0:1 1:0 2:1 3:1 4:1 5:1 6:1 7:1 8:1 9:0 10:0 11:0 12:0 13:0 14:1 15:1 16:0 17:0 18:0 19:0 20:0 21:1 22:0 23:1 24:0 25:0 26:0 27:1 28:0 29:1 30:1 31:0 32:0 33:1 34:0 35:0 
256 0:0 1:1 2:1 3:1 4:0 5:0 6:1 7:1 8:1 9:1 10:1 11:1 12:1 13:1 14:1 15:0 16:0 17:0 18:1 19:0 20:0 21:0 22:1 23:0 24:0 25:1 26:1 27:1 28:0 29:1 30:0 31:0 32:0 33:1 34:0 35:1 
256 0:1 1:1 2:1 3:1 4:0 5:1 6:1 7:1 8:1 9:0 10:0 11:1 12:1 13:1 14:1 15:0 16:1 17:1 18:1 19:0 20:0 21:1 22:1 23:0 24:1 25:1 26:1 27:0 28:0 29:1 30:0 31:0 32:0 33:0 34:0 35:0 
256 0:1 1:1 2:1 3:1 4:0 5:0 6:1 7:1 8:1 9:1 10:1 11:1 12:1 13:0 14:1 15:0 16:0 17:0 18:1 19:0 20:0 21:1 22:0 23:0 24:0 25:1 26:1 27:0 28:1 29:0 30:0 31:1 32:0 33:1 34:0 35:0 
256 0:1 1:1 2:0 3:0 4:0 5:0 6:1 7:1 8:0 9:1 10:0 11:1 12:1 13:1 14:1 15:0 16:0 17:0 18:0 19:0 20:0 21:0 22:0 23:0 24:0 25:0 26:1 27:0 28:0 29:1 30:1 31:1 32:0 33:1 34:0 35:0 
256 0:1 1:1 2:1 3:0 4:0 5:0 6:1 7:0 8:1 9:0 10:0 11:0 12:1 13:1 14:1 15:0 16:0 17:0 18:1 19:0 20:0 21:1 22:0 23:0 24:1 25:1 26:0 27:1 28:0 29:0 30:0 31:0 32:0 33:1 34:0 35:0 
256 0:1 1:0 2:1 3:1 4:1 5:1 6:1 7:1 8:1 9:1 10:1 11:1 12:0 13:1 14:1 15:1 16:0 17:0 18:0 19:0 20:0 21:1 22:0 23:0 24:0 25:1 26:1 27:0 28:1 29:1 30:0 31:1 32:0 33:0 34:1 35:1 
256 0:0 1:1 2:1 3:1 4:1 5:0 6:1 7:0 8:1 9:0 10:0 11:0 12:1 13:1 14:0 15:1 16:0 17:0 18:1 19:1 20:0 21:1 22:0 23:1 24:1 25:1 26:1 27:1 28:0 29:1 30:0 31:0 32:0 33:0 34:0 35:0 
256 0:1 1:1 2:1 3:1 4:0 5:1 6:1 7:1 8:1 9:0 10:1 11:1 12:1 13:1 14:1 15:0 16:0 17:0 18:1 19:0 20:1 21:1 22:0 23:0 24:0 25:0 26:0 27:1 28:1 29:1 30:1 31:1 32:1 33:0 34:1 35:0 
256 0:0 1:1 2:0 3:0 4:0 5:0 6:1 7:1 8:0 9:0 10:1 11:1 12:1 13:0 14:1 15:0 16:0 17:0 18:1 19:1 20:1 21:1 22:0 23:0 24:0 25:0 26:0 27:0 28:1 29:1 30:1 31:0 32:1 33:0 34:0 35:0 
256 0:1 1:1 2:0 3:0 4:0 5:0 6:1 7:1 8:1 9:1 10:1 11:1 12:1 13:1 14:1 15:0 16:0 17:0 18:1 19:0 20:1 21:0 22:0 23:1 24:1 25:1 26:0 27:1 28:0 29:1 30:0 31:1 32:0 33:1 34:0 35:0 
256 0:1 1:0 2:1 3:1 4:0 5:0 6:1 7:1 8:1 9:1 10:1 11:1 12:1 13:1 14:0 15:1 16:1 17:0 18:0 19:0 20:0 21:1 22:0 23:0 24:1 25:1 26:1 27:1 28:0 29:0 30:0 31:1 32:1 33:1 34:0 35:0 
256 0:1 1:0 2:0 3:1 4:0 5:0 6:1 7:1 8:0 9:0 10:0 11:1 12:0 13:1 14:1 15:0 16:1 17:0 18:1 19:0 20:0 21:1 22:0 23:1 24:1 25:1 26:1 27:1 28:1 29:1 30:0 31:0 32:0 33:1 34:1 35:0 
256 0:0 1:1 2:1 3:1 4:1 5:1 6:1 7:1 8:1 9:1 10:1 11:1 12:1 13:1 14:1 15:0 16:1 17:1 18:1 19:0 20:0 21:1 22:0 23:0 24:0 25:1 26:1 27:1 28:1 29:1 30:1 31:1 32:1 33:1 34:1 35:0 
256 0:1 1:0 2:1 3:1 4:0 5:0 6:1 7:1 8:1 9:1 10:1 11:1 12:1 13:1 14:0 15:0 16:0 17:1 18:1 19:0 20:0 21:1 22:1 23:0 24:1 25:1 26:1 27:0 28:1 29:1 30:0 31:0 32:0 33:1 34:0 35:1 
256 0:0 1:1 2:1 3:1 4:0 5:1 6:1 7:0 8:1 9:1 10:1 11:1 12:1 13:0 14:1 15:1 16:0 17:0 18:0 19:0 20:0 21:1 22:0 23:1 24:1 25:1 26:1 27:0 28:1 29:1 30:1 31:0 32:1 33:1 34:0 35:0 
256 0:1 1:0 2:1 3:1 4:0 5:1 6:1 7:1 8:1 9:0 10:0 11:1 12:1 13:1 14:1 15:0 16:0 17:0 18:1 19:1 20:0 21:0 22:0 23:0 24:1 25:1 26:1 27:0 28:0 29:1 30:1 31:0 32:0 33:1 34:0 35:0 
256 0:0 1:1 2:0 3:0 4:0 5:0 6:1 7:1 8:1 9:1 10:1 11:1 12:1 13:1 14:1 15:1 16:0 17:1 18:1 19:0 20:0 21:1 22:0 23:0 24:0 25:1 26:0 27:0 28:0 29:1 30:1 31:0 32:0 33:1 34:0 35:1 
256 0:0 1:1 2:1 3:1 4:0 5:0 6:0 7:0 8:1 9:0 10:1 11:1 12:1 13:0 14:0 15:1 16:1 17:1 18:1 19:0 20:0 21:1 22:1 23:1 24:1 25:1 26:1 27:1 28:0 29:0 30:0 31:0 32:0 33:1 34:1 35:0 
256 0:1 1:1 2:1 3:0 4:0 5:0 6:1 7:1 8:1 9:1 10:0 11:0 12:1 13:1 14:0 15:0 16:0 17:0 18:1 19:1 20:0 21:1 22:0 23:1 24:0 25:0 26:0 27:1 28:0 29:1 30:1 31:0 32:0 33:1 34:0 35:0 
256 0:1 1:1 2:1 3:1 4:0 5:1 6:1 7:1 8:1 9:0 10:1 11:1 12:1 13:1 14:1 15:1 16:1 17:0 18:0 19:0 20:0 21:1 22:0 23:0 24:1 25:1 26:1 27:1 28:0 29:0 30:0 31:0 32:0 33:0 34:0 35:0 
256 0:0 1:1 2:1 3:1 4:0 5:0 6:0 7:1 8:1 9:1 10:1 11:1 12:1 13:1 14:1 15:0 16:0 17:0 18:1 19:0 20:0 21:1 22:0 23:0 24:1 25:0 26:1 27:0 28:1 29:0 30:0 31:0 32:0 33:1 34:0 35:0 
256 0:0 1:1 2:1 3:1 4:0 5:0 6:1 7:1 8:1 9:1 10:1 11:1 12:1 13:1 14:1 15:1 16:0 17:0 18:1 19:0 20:1 21:1 22:0 23:1 24:1 25:1 26:0 27:1 28:1 29:1 30:0 31:0 32:0 33:1 34:0 35:0 
256 0:0 1:1 2:0 3:1 4:0 5:0 6:1 7:1 8:0 9:0 10:1 11:1 12:1 13:0 14:1 15:1 16:0 17:0 18:1 19:0 20:0 21:1 22:1 23:1 24:0 25:1 26:1 27:0 28:1 29:1 30:1 31:1 32:0 33:0 34:0 35:1 
256 0:1 1:1 2:0 3:1 4:0 5:0 6:1 7:0 8:1 9:0 10:0 11:0 12:1 13:1 14:1 15:0 16:0 17:0 18:1 19:0 20:0 21:1 22:1 23:1 24:0 25:1 26:1 27:1 28:1 29:1 30:1 31:0 32:0 33:0 34:0 35:1 
256 0:1 1:1 2:1 3:0 4:1 5:0 6:1 7:1 8:1 9:0 10:1 11:1 12:0 13:1 14:1 15:1 16:1 17:0 18:1 19:0 20:0 21:1 22:0 23:0 24:0 25:0 26:0 27:0 28:0 29:1 30:1 31:0 32:0 33:0 34:0 35:0 
256 0:0 1:1 2:1 3:1 4:0 5:0 6:1 7:1 8:1 9:0 10:1 11:1 12:1 13:1 14:1 15:1 16:0 17:0 18:1 19:1 20:1 21:1 22:1 23:0 24:1 25:0 26:1 27:1 28:1 29:0 30:0 31:0 32:0 33:1 34:0 35:0 
256 0:1 1:0 2:1 3:1 4:0 5:0 6:1 7:1 8:0 9:1 10:1 11:0 12:1 13:1 14:0 15:1 16:0 17:0 18:1 19:0 20:0 21:1 22:1 23:1 24:1 25:1 26:1 27:1 28:1 29:1 30:1 31:1 32:0 33:1 34:1 35:0 
256 0:1 1:1 2:1 3:1 4:1 5:1 6:1 7:1 8:1 9:1 10:1 11:1 12:0 13:1 14:1 15:1 16:0 17:0 18:1 19:0 20:0 21:1 22:0 23:0 24:1 25:1 26:1 27:0 28:0 29:0 30:1 31:0 32:0 33:0 34:0 35:0 
256 0:1 1:1 2:1 3:0 4:1 5:0 6:1 7:1 8:1 9:0 10:1 11:0 12:1 13:1 14:1 15:0 16:0 17:0 18:1 19:0 20:0 21:1 22:0 23:0 24:1 25:1 26:1 27:0 28:0 29:0 30:1 31:0 32:0 33:0 34:0 35:0 
256 0:0 1:1 2:1 3:1 4:1 5:1 6:1 7:0 8:0 9:1 10:1 11:1 12:1 13:1 14:1 15:1 16:0 17:0 18:0 19:0 20:0 21:1 22:0 23:0 24:1 25:1 26:1 27:0 28:0 29:0 30:0 31:1 32:0 33:1 34:1 35:0 
256 0:1 1:1 2:0 3:1 4:0 5:0 6:1 7:1 8:1 9:1 10:1 11:1 12:1 13:1 14:1 15:1 16:0 17:0 18:1 19:1 20:1 21:0 22:0 23:0 24:0 25:1 26:0 27:1 28:1 29:1 30:0 31:0 32:0 33:1 34:0 35:0 
256 0:1 1:1 2:1 3:1 4:0 5:0 6:1 7:1 8:1 9:0 10:1 11:0 12:1 13:1 14:0 15:0 16:0 17:1 18:1 19:0 20:0 21:0 22:0 23:0 24:0 25:0 26:1 27:0 28:1 29:1 30:1 31:0 32:0 33:1 34:0 35:0 
256 0:1 1:1 2:1 3:1 4:1 5:1 6:0 7:0 8:1 9:0 10:1 11:1 12:1 13:1 14:1 15:1 16:0 17:0 18:1 19:1 20:1 21:0 22:0 23:0 24:0 25:1 26:1 27:0 28:0 29:0 30:1 31:0 32:1 33:0 34:0 35:0 
256 0:1 1:0 2:1 3:1 4:1 5:1 6:1 7:1 8:1 9:0 10:1 11:1 12:1 13:1 14:1 15:1 16:0 17:0 18:1 19:0 20:0 21:0 22:0 23:0 24:0 25:1 26:0 27:1 28:1 29:1 30:1 31:0 32:0 33:1 34:1 35:0 
256 0:1 1:1 2:1 3:0 4:0 5:0 6:1 7:1 8:1 9:1 10:1 11:1 12:1 13:0 14:1 15:1 16:0 17:0 18:1 19:1 20:0 21:0 22:0 23:0 24:1 25:0 26:0 27:1 28:1 29:1 30:0 31:0 32:0 33:1 34:0 35:0 
256 0:0 1:1 2:1 3:0 4:0 5:0 6:1 7:1 8:1 9:0 10:1 11:1 12:1 13:0 14:1 15:0 16:0 17:0 18:1 19:0 20:0 21:0 22:0 23:1 24:0 25:1 26:0 27:0 28:1 29:1 30:1 31:0 32:0 33:0 34:1 35:0 
256 0:1 1:1 2:1 3:1 4:0 5:0 6:1 7:1 8:0 9:1 10:0 11:0 12:1 13:1 14:1 15:0 16:0 17:0 18:0 19:0 20:1 21:1 22:1 23:1 24:1 25:1 26:0 27:1 28:1 29:1 30:0 31:0 32:0 33:1 34:0 35:0 
256 0:1 1:1 2:1 3:0 4:0 5:0 6:1 7:0 8:1 9:0 10:1 11:1 12:1 13:1 14:1 15:0 16:0 17:0 18:1 19:0 20:0 21:1 22:0 23:0 24:0 25:1 26:1 27:0 28:0 29:0 30:0 31:0 32:0 33:0 34:0 35:0 
256 0:1 1:1 2:0 3:1 4:0 5:1 6:0 7:1 8:1 9:1 10:1 11:1 12:1 13:1 14:0 15:0 16:0 17:0 18:1 19:0 20:1 21:1 22:1 23:1 24:0 25:1 26:0 27:0 28:0 29:1 30:1 31:0 32:0 33:0 34:0 35:0 
256 0:1 1:1 2:1 3:1 4:1 5:0 6:1 7:1 8:1 9:0 10:0 11:1 12:1 13:1 14:1 15:1 16:0 17:0 18:1 19:0 20:1 21:1 22:0 23:0 24:1 25:1 26:0 27:0 28:0 29:1 30:0 31:0 32:0 33:0 34:1 35:0 
256 0:1 1:1 2:0 3:1 4:0 5:0 6:1 7:0 8:1 9:0 10:0 11:0 12:1 13:1 14:0 15:0 16:0 17:0 18:1 19:0 20:1 21:0 22:0 23:0 24:1 25:1 26:1 27:1 28:0 29:1 30:0 31:0 32:1 33:1 34:0 35:0 
256 0:1 1:1 2:0 3:1 4:1 5:0 6:1 7:1 8:1 9:1 10:1 11:0 12:1 13:1 14:1 15:0 16:0 17:0 18:1 19:1 20:1 21:1 22:1 23:1 24:0 25:1 26:0 27:1 28:1 29:1 30:0 31:0 32:1 33:1 34:0 35:0 
256 0:1 1:1 2:1 3:1 4:0 5:1 6:1 7:1 8:0 9:0 10:0 11:1 12:1 13:0 14:0 15:1 16:0 17:0 18:1 19:0 20:0 21:1 22:0 23:1 24:1 25:1 26:1 27:1 28:1 29:0 30:1 31:0 32:0 33:0 34:1 35:0 
256 0:1 1:1 2:1 3:0 4:0 5:0 6:1 7:1 8:1 9:0 10:0 11:1 12:0 13:1 14:1 15:1 16:0 17:0 18:0 19:0 20:0 21:1 22:1 23:0 24:1 25:1 26:1 27:0 28:0 29:0 30:1 31:0 32:0 33:0 34:0 35:0 
256 0:1 1:0 2:1 3:1 4:0 5:0 6:1 7:1 8:1 9:1 10:1 11:1 12:1 13:1 14:0 15:1 16:0 17:0 18:0 19:0 20:0 21:1 22:0 23:0 24:0 25:0 26:1 27:0 28:1 29:1 30:0 31:0 32:0 33:0 34:0 35:0 
256 0:1 1:0 2:1 3:0 4:0 5:0 6:1 7:0 8:0 9:0 10:1 11:1 12:1 13:1 14:1 15:1 16:1 17:0 18:1 19:0 20:1 21:0 22:0 23:0 24:1 25:1 26:1 27:1 28:1 29:1 30:0 31:1 32:0 33:1 34:1 35:0 
256 0:1 1:1 2:0 3:1 4:0 5:0 6:1 7:1 8:0 9:1 10:1 11:1 12:1 13:1 14:1 15:0 16:0 17:0 18:1 19:0 20:0 21:1 22:0 23:0 24:1 25:1 26:1 27:1 28:1 29:0 30:1 31:0 32:0 33:0 34:0 35:0 
256 0:0 1:1 2:0 3:1 4:0 5:0 6:1 7:1 8:1 9:1 10:0 11:1 12:1 13:1 14:1 15:1 16:1 17:0 18:1 19:1 20:0 21:1 22:0 23:1 24:1 25:1 26:1 27:0 28:0 29:1 30:1 31:0 32:1 33:0 34:0 35:0 
256 0:1 1:0 2:1 3:1 4:1 5:0 6:1 7:1 8:1 9:1 10:0 11:1 12:1 13:1 14:1 15:0 16:0 17:0 18:0 19:0 20:1 21:1 22:0 23:1 24:0 25:1 26:1 27:1 28:1 29:1 30:1 31:1 32:0 33:1 34:0 35:0 
256 0:0 1:1 2:0 3:1 4:0 5:0 6:1 7:0 8:1 9:1 10:0 11:0 12:1 13:1 14:1 15:0 16:0 17:0 18:1 19:0 20:0 21:1 22:0 23:1 24:0 25:1 26:1 27:1 28:1 29:1 30:0 31:0 32:0 33:0 34:1 35:0 
256 0:0 1:1 2:1 3:1 4:1 5:0 6:1 7:0 8:1 9:0 10:0 11:0 12:1 13:1 14:0 15:1 16:0 17:0 18:1 19:1 20:1 21:1 22:0 23:0 24:1 25:1 26:0 27:1 28:1 29:0 30:1 31:0 32:0 33:0 34:1 35:1 
256 0:1 1:0 2:1 3:1 4:1 5:1 6:1 7:1 8:1 9:0 10:0 11:0 12:1 13:0 14:1 15:0 16:1 17:1 18:1 19:0 20:0 21:1 22:0 23:0 24:1 25:1 26:1 27:1 28:1 29:0 30:1 31:1 32:0 33:1 34:1 35:0 
256 0:1 1:0 2:1 3:1 4:0 5:0 6:0 7:1 8:1 9:1 10:1 11:1 12:1 13:1 14:1 15:1 16:0 17:0 18:0 19:0 20:1 21:1 22:0 23:0 24:0 25:0 26:1 27:1 28:0 29:0 30:1 31:1 32:1 33:1 34:1 35:0 
256 0:1 1:1 2:1 3:1 4:0 5:0 6:1 7:1 8:1 9:0 10:0 11:1 12:0 13:0 14:1 15:0 16:0 17:0 18:1 19:0 20:0 21:1 22:0 23:0 24:0 25:1 26:1 27:0 28:1 29:0 30:0 31:0 32:0 33:1 34:0 35:0 
256 0:1 1:1 2:0 3:1 4:0 5:1 6:1 7:1 8:1 9:1 10:1 11:0 12:1 13:1 14:1 15:1 16:0 17:0 18:1 19:0 20:1 21:1 22:0 23:0 24:0 25:0 26:1 27:0 28:1 29:0 30:1 31:0 32:0 33:1 34:0 35:0 
256 0:1 1:0 2:1 3:1 4:0 5:0 6:1 7:1 8:0 9:0 10:1 11:1 12:1 13:1 14:0 15:0 16:0 17:0 18:1 19:1 20:0 21:1 22:0 23:1 24:0 25:0 26:1 27:1 28:1 29:1 30:0 31:0 32:1 33:1 34:1 35:0 
256 0:1 1:0 2:1 3:1 4:0 5:1 6:1 7:1 8:1 9:0 10:1 11:1 12:0 13:1 14:1 15:1 16:0 17:0 18:0 19:0 20:0 21:1 22:0 23:1 24:1 25:1 26:1 27:1 28:0 29:1 30:0 31:0 32:0 33:1 34:0 35:1 
256 0:1 1:0 2:1 3:0 4:1 5:0 6:1 7:1 8:1 9:1 10:1 11:1 12:1 13:1 14:1 15:0 16:1 17:0 18:1 19:0 20:1 21:1 22:1 23:1 24:1 25:1 26:0 27:1 28:1 29:0 30:1 31:0 32:0 33:1 34:0 35:0 
256 0:1 1:1 2:1 3:1 4:0 5:0 6:0 7:1 8:1 9:1 10:0 11:1 12:1 13:1 14:1 15:1 16:0 17:0 18:1 19:0 20:1 21:0 22:0 23:1 24:0 25:1 26:1 27:1 28:1 29:1 30:0 31:0 32:0 33:1 34:1 35:0 
256 0:0 1:0 2:1 3:1 4:0 5:1 6:1 7:1 8:1 9:1 10:0 11:0 12:1 13:1 14:1 15:0 16:0 17:0 18:1 19:1 20:1 21:1 22:0 23:0 24:0 25:1 26:1 27:1 28:1 29:0 30:1 31:0 32:0 33:1 34:0 35:1 
256 0:1 1:1 2:1 3:1 4:0 5:0 6:1 7:1 8:1 9:1 10:1 11:1 12:1 13:1 14:0 15:0 16:1 17:1 18:1 19:0 20:0 21:0 22:0 23:0 24:0 25:0 26:0 27:0 28:0 29:1 30:1 31:0 32:0 33:0 34:1 35:0 
256 0:1 1:1 2:1 3:1 4:0 5:0 6:1 7:0 8:1 9:1 10:1 11:0 12:0 13:1 14:1 15:1 16:0 17:0 18:1 19:1 20:1 21:1 22:0 23:0 24:1 25:1 26:1 27:0 28:1 29:1 30:0 31:1 32:0 33:0 34:1 35:1 
256 0:0 1:1 2:0 3:1 4:0 5:0 6:1 7:1 8:1 9:1 10:1 11:1 12:1 13:1 14:1 15:1 16:0 17:0 18:1 19:0 20:1 21:1 22:0 23:1 24:1 25:1 26:1 27:1 28:1 29:1 30:1 31:1 32:0 33:1 34:1 35:0 
256 0:1 1:1 2:1 3:0 4:0 5:0 6:0 7:0 8:0 9:1 10:1 11:1 12:1 13:1 14:1 15:1 16:1 17:0 18:0 19:1 20:1 21:1 22:0 23:0 24:1 25:1 26:1 27:1 28:1 29:1 30:1 31:0 32:0 33:1 34:1 35:0 
256 0:1 1:0 2:1 3:1 4:1 5:1 6:1 7:1 8:0 9:0 10:1 11:0 12:1 13:1 14:1 15:1 16:1 17:0 18:1 19:1 20:0 21:1 22:1 23:0 24:0 25:1 26:0 27:0 28:1 29:1 30:0 31:0 32:0 33:0 34:0 35:0 
256 0:1 1:0 2:1 3:1 4:0 5:0 6:1 7:1 8:1 9:1 10:1 11:0 12:1 13:1 14:0 15:1 16:1 17:0 18:1 19:0 20:0 21:1 22:0 23:0 24:1 25:1 26:1 27:1 28:0 29:0 30:1 31:0 32:0 33:0 34:0 35:1 
256 0:1 1:1 2:1 3:0 4:0 5:0 6:1 7:1 8:1 9:0 10:1 11:1 12:1 13:0 14:1 15:1 16:1 17:0 18:1 19:1 20:0 21:1 22:0 23:1 24:0 25:0 26:1 27:1 28:1 29:0 30:1 31:1 32:0 33:1 34:1 35:0 
256 0:0 1:1 2:1 3:0 4:0 5:0 6:1 7:1 8:0 9:0 10:1 11:1 12:1 13:1 14:1 15:0 16:0 17:1 18:1 19:0 20:0 21:1 22:0 23:0 24:1 25:1 26:1 27:1 28:0 29:0 30:1 31:0 32:0 33:1 34:0 35:0 
256 0:1 1:1 2:1 3:0 4:0 5:0 6:0 7:0 8:1 9:0 10:1 11:1 12:0 13:0 14:1 15:1 16:0 17:0 18:1 19:0 20:1 21:0 22:0 23:0 24:0 25:1 26:1 27:1 28:1 29:0 30:1 31:0 32:0 33:0 34:1 35:0 
256 0:1 1:1 2:1 3:0 4:1 5:1 6:0 7:1 8:0 9:0 10:0 11:0 12:1 13:1 14:1 15:0 16:0 17:0 18:0 19:0 20:0 21:1 22:1 23:0 24:0 25:1 26:1 27:1 28:0 29:1 30:0 31:0 32:0 33:1 34:1 35:0 
256 0:1 1:0 2:1 3:0 4:0 5:1 6:1 7:1 8:1 9:0 10:1 11:1 12:1 13:0 14:1 15:1 16:0 17:0 18:1 19:1 20:0 21:1 22:0 23:1 24:0 25:1 26:1 27:1 28:1 29:1 30:0 31:0 32:0 33:1 34:0 35:1 
256 0:1 1:1 2:1 3:0 4:0 5:0 6:1 7:1 8:1 9:0 10:1 11:1 12:0 13:1 14:1 15:1 16:0 17:1 18:1 19:0 20:1 21:1 22:0 23:0 24:1 25:1 26:1 27:0 28:1 29:1 30:1 31:1 32:1 33:1 34:1 35:0 
256 0:1 1:1 2:1 3:1 4:0 5:0 6:0 7:0 8:1 9:0 10:1 11:1 12:1 13:0 14:1 15:1 16:0 17:0 18:1 19:0 20:0 21:0 22:0 23:1 24:0 25:0 26:0 27:1 28:1 29:1 30:1 31:0 32:0 33:1 34:1 35:0 
256 0:1 1:1 2:1 3:1 4:0 5:1 6:1 7:0 8:1 9:1 10:0 11:1 12:1 13:1 14:0 15:0 16:1 17:0 18:1 19:0 20:0 21:0 22:1 23:0 24:1 25:1 26:1 27:1 28:1 29:0 30:0 31:0 32:0 33:1 34:0 35:0 
256 0:1 1:0 2:1 3:0 4:0 5:0 6:0 7:0 8:1 9:1 10:0 11:1 12:1 13:0 14:1 15:0 16:0 17:0 18:1 19:0 20:0 21:1 22:0 23:1 24:0 25:1 26:1 27:1 28:0 29:1 30:0 31:0 32:0 33:0 34:0 35:1 
256 0:1 1:1 2:1 3:1 4:0 5:1 6:1 7:0 8:1 9:0 10:0 11:0 12:0 13:1 14:0 15:1 16:0 17:0 18:0 19:0 20:1 21:0 22:0 23:1 24:1 25:1 26:1 27:1 28:1 29:1 30:1 31:1 32:1 33:1 34:1 35:0 
256 0:1 1:0 2:1 3:1 4:0 5:0 6:0 7:0 8:1 9:1 10:1 11:0 12:1 13:1 14:1 15:1 16:0 17:0 18:1 19:0 20:0 21:0 22:0 23:0 24:0 25:1 26:0 27:0 28:1 29:0 30:1 31:1 32:0 33:1 34:1 35:0 
256 0:1 1:1 2:0 3:1 4:1 5:1 6:1 7:1 8:1 9:1 10:1 11:1 12:1 13:1 14:1 15:0 16:0 17:1 18:1 19:0 20:0 21:0 22:0 23:0 24:1 25:0 26:1 27:0 28:1 29:0 30:0 31:0 32:0 33:1 34:1 35:1 
256 0:1 1:1 2:1 3:1 4:0 5:0 6:1 7:1 8:0 9:1 10:1 11:0 12:1 13:1 14:1 15:1 16:0 17:0 18:1 19:1 20:0 21:1 22:0 23:0 24:0 25:0 26:1 27:1 28:1 29:1 30:1 31:1 32:0 33:1 34:0 35:1 
256 0:1 1:1 2:1 3:1 4:1 5:1 6:1 7:1 8:1 9:1 10:1 11:1 12:1 13:1 14:1 15:0 16:1 17:0 18:0 19:0 20:0 21:1 22:0 23:0 24:1 25:1 26:1 27:0 28:1 29:0 30:1 31:0 32:0 33:0 34:0 35:0 
256 0:1 1:1 2:0 3:1 4:0 5:0 6:1 7:1 8:1 9:1 10:0 11:1 12:0 13:1 14:1 15:1 16:1 17:0 18:1 19:0 20:0 21:1 22:1 23:0 24:0 25:0 26:0 27:1 28:1 29:0 30:0 31:0 32:0 33:0 34:1 35:0 
256 0:1 1:1 2:1 3:1 4:0 5:0 6:1 7:1 8:0 9:0 10:0 11:1 12:1 13:1 14:1 15:0 16:0 17:0 18:1 19:0 20:0 21:1 22:1 23:0 24:1 25:1 26:0 27:1 28:0 29:1 30:0 31:0 32:0 33:1 34:1 35:0 
256 0:1 1:1 2:1 3:1 4:1 5:1 6:1 7:1 8:1 9:1 10:0 11:1 12:1 13:1 14:0 15:1 16:0 17:1 18:1 19:0 20:0 21:1 22:0 23:1 24:0 25:1 26:1 27:1 28:0 29:0 30:1 31:0 32:0 33:1 34:0 35:0 
256 0:1 1:1 2:1 3:1 4:1 5:1 6:1 7:1 8:1 9:1 10:1 11:1 12:0 13:1 14:1 15:1 16:1 17:0 18:0 19:0 20:0 21:1 22:1 23:1 24:1 25:0 26:0 27:1 28:1 29:0 30:0 31:0 32:1 33:1 34:0 35:1 
256 0:1 1:0 2:0 3:1 4:0 5:1 6:1 7:1 8:1 9:0 10:1 11:1 12:0 13:1 14:0 15:1 16:1 17:0 18:1 19:0 20:0 21:0 22:1 23:0 24:1 25:0 26:0 27:1 28:1 29:0 30:1 31:0 32:0 33:0 34:1 35:0 
256 0:1 1:1 2:1 3:0 4:0 5:1 6:1 7:1 8:1 9:1 10:1 11:1 12:1 13:1 14:1 15:0 16:0 17:0 18:0 19:0 20:1 21:1 22:0 23:0 24:1 25:1 26:1 27:0 28:1 29:0 30:1 31:0 32:0 33:1 34:0 35:0 
256 0:1 1:1 2:1 3:0 4:0 5:0 6:1 7:0 8:1 9:1 10:1 11:1 12:1 13:1 14:1 15:0 16:0 17:0 18:1 19:1 20:0 21:1 22:0 23:1 24:0 25:0 26:0 27:0 28:0 29:0 30:1 31:0 32:0 33:0 34:1 35:0 
256 0:1 1:1 2:1 3:1 4:0 5:0 6:1 7:0 8:1 9:0 10:0 11:1 12:1 13:1 14:0 15:0 16:0 17:1 18:1 19:0 20:0 21:1 22:0 23:0 24:0 25:1 26:1 27:1 28:0 29:0 30:1 31:0 32:0 33:1 34:0 35:1 
256 0:0 1:1 2:1 3:1 4:1 5:0 6:0 7:1 8:1 9:1 10:1 11:1 12:1 13:1 14:1 15:1 16:1 17:0 18:1 19:0 20:0 21:1 22:1 23:0 24:0 25:1 26:0 27:0 28:1 29:1 30:1 31:1 32:0 33:1 34:1 35:0 
256 0:0 1:1 2:1 3:0 4:0 5:0 6:1 7:0 8:1 9:0 10:0 11:1 12:1 13:1 14:1 15:1 16:0 17:1 18:0 19:0 20:1 21:1 22:0 23:0 24:0 25:1 26:0 27:1 28:0 29:0 30:0 31:0 32:0 33:1 34:0 35:0 
256 0:1 1:0 2:1 3:1 4:1 5:1 6:1 7:1 8:1 9:0 10:0 11:0 12:0 13:1 14:0 15:0 16:0 17:0 18:1 19:0 20:0 21:1 22:1 23:0 24:0 25:0 26:0 27:0 28:0 29:1 30:1 31:1 32:0 33:0 34:0 35:0 
256 0:1 1:1 2:1 3:1 4:1 5:0 6:1 7:1 8:1 9:1 10:1 11:1 12:1 13:1 14:1 15:1 16:1 17:1 18:0 19:1 20:1 21:1 22:0 23:0 24:1 25:0 26:1 27:1 28:1 29:1 30:0 31:0 32:0 33:0 34:1 35:1 
256 0:1 1:1 2:1 3:1 4:1 5:1 6:1 7:1 8:1 9:1 10:1 11:1 12:1 13:0 14:0 15:0 16:0 17:1 18:1 19:0 20:0 21:1 22:0 23:1 24:0 25:1 26:0 27:1 28:0 29:0 30:0 31:0 32:1 33:1 34:0 35:0 
256 0:1 1:0 2:1 3:1 4:0 5:1 6:0 7:1 8:1 9:0 10:1 11:1 12:1 13:0 14:1 15:1 16:1 17:1 18:0 19:0 20:1 21:1 22:0 23:1 24:1 25:0 26:1 27:1 28:1 29:0 30:0 31:0 32:0 33:1 34:0 35:0 
256 0:1 1:0 2:1 3:1 4:1 5:0 6:1 7:1 8:1 9:1 10:0 11:1 12:1 13:0 14:1 15:1 16:0 17:0 18:1 19:0 20:0 21:1 22:1 23:0 24:0 25:1 26:1 27:1 28:1 29:0 30:1 31:0 32:0 33:1 34:1 35:0 
256 0:1 1:0 2:1 3:0 4:0 5:1 6:1 7:1 8:1 9:1 10:0 11:1 12:1 13:1 14:1 15:0 16:0 17:0 18:1 19:0 20:0 21:1 22:1 23:0 24:1 25:1 26:1 27:1 28:1 29:0 30:1 31:0 32:0 33:0 34:0 35:0 
256 0:1 1:1 2:1 3:1 4:0 5:0 6:1 7:1 8:1 9:1 10:1 11:1 12:0 13:1 14:1 15:1 16:1 17:1 18:0 19:0 20:0 21:1 22:0 23:1 24:1 25:0 26:1 27:1 28:1 29:0 30:1 31:1 32:1 33:0 34:0 35:0 
256 0:1 1:1 2:1 3:1 4:0 5:0 6:1 7:1 8:1 9:1 10:1 11:1 12:1 13:1 14:1 15:1 16:1 17:0 18:1 19:1 20:1 21:0 22:0 23:1 24:1 25:1 26:1 27:0 28:0 29:1 30:1 31:1 32:0 33:1 34:0 35:1 
256 0:1 1:0 2:1 3:1 4:0 5:0 6:1 7:1 8:1 9:0 10:0 11:1 12:1 13:0 14:0 15:0 16:0 17:0 18:1 19:0 20:1 21:0 22:0 23:1 24:1 25:1 26:1 27:1 28:1 29:0 30:1 31:0 32:0 33:1 34:0 35:0 
256 0:1 1:0 2:1 3:1 4:1 5:0 6:1 7:1 8:1 9:1 10:0 11:1 12:1 13:1 14:1 15:1 16:0 17:1 18:1 19:0 20:0 21:1 22:0 23:0 24:0 25:1 26:1 27:1 28:0 29:1 30:0 31:1 32:0 33:1 34:0 35:0 
256 0:1 1:1 2:1 3:1 4:0 5:0 6:1 7:1 8:1 9:1 10:1 11:1 12:1 13:0 14:1 15:1 16:0 17:0 18:1 19:1 20:1 21:1 22:0 23:0 24:1 25:1 26:1 27:0 28:0 29:0 30:1 31:1 32:0 33:0 34:1 35:0 
256 0:1 1:1 2:1 3:1 4:1 5:0 6:1 7:1 8:0 9:1 10:0 11:1 12:0 13:0 14:1 15:0 16:0 17:0 18:1 19:0 20:0 21:1 22:0 23:0 24:1 25:0 26:0 27:0 28:1 29:0 30:0 31:0 32:0 33:1 34:1 35:0 
256 0:0 1:1 2:1 3:1 4:1 5:1 6:1 7:0 8:0 9:1 10:1 11:1 12:1 13:1 14:1 15:1 16:0 17:0 18:1 19:1 20:0 21:1 22:0 23:1 24:1 25:0 26:0 27:1 28:1 29:1 30:0 31:0 32:0 33:1 34:0 35:0 
256 0:1 1:1 2:1 3:1 4:0 5:0 6:1 7:0 8:1 9:0 10:1 11:1 12:1 13:1 14:1 15:1 16:1 17:1 18:1 19:0 20:0 21:1 22:1 23:1 24:1 25:1 26:1 27:1 28:1 29:1 30:0 31:1 32:1 33:1 34:0 35:0 
256 0:1 1:0 2:1 3:1 4:1 5:1 6:1 7:1 8:1 9:1 10:1 11:1 12:1 13:1 14:0 15:1 16:0 17:0 18:1 19:0 20:0 21:1 22:0 23:0 24:1 25:1 26:1 27:0 28:0 29:0 30:0 31:0 32:0 33:1 34:0 35:0 
256 0:1 1:1 2:1 3:1 4:0 5:0 6:1 7:1 8:1 9:1 10:0 11:1 12:1 13:0 14:0 15:1 16:0 17:0 18:1 19:0 20:0 21:1 22:0 23:1 24:0 25:0 26:1 27:1 28:0 29:1 30:1 31:0 32:0 33:0 34:1 35:0 
256 0:0 1:0 2:0 3:0 4:0 5:0 6:1 7:0 8:1 9:0 10:1 11:1 12:0 13:1 14:0 15:1 16:0 17:1 18:1 19:1 20:0 21:1 22:1 23:0 24:1 25:1 26:1 27:1 28:1 29:1 30:0 31:0 32:0 33:1 34:1 35:0 
256 0:1 1:0 2:1 3:0 4:0 5:1 6:0 7:1 8:1 9:1 10:0 11:1 12:0 13:1 14:1 15:0 16:0 17:0 18:1 19:0 20:0 21:1 22:1 23:1 24:0 25:0 26:0 27:1 28:1 29:1 30:0 31:0 32:0 33:1 34:1 35:0 
256 0:1 1:0 2:0 3:1 4:0 5:0 6:1 7:0 8:1 9:1 10:1 11:1 12:1 13:1 14:1 15:1 16:1 17:1 18:1 19:0 20:0 21:1 22:0 23:0 24:0 25:0 26:1 27:1 28:0 29:0 30:0 31:0 32:0 33:1 34:0 35:0 
256 0:0 1:1 2:1 3:1 4:0 5:0 6:1 7:1 8:1 9:1 10:1 11:1 12:0 13:1 14:1 15:0 16:0 17:0 18:1 19:0 20:1 21:1 22:0 23:0 24:0 25:0 26:0 27:1 28:1 29:0 30:1 31:0 32:0 33:1 34:1 35:0 
256 0:1 1:1 2:0 3:1 4:0 5:1 6:1 7:1 8:1 9:0 10:0 11:0 12:1 13:1 14:1 15:1 16:0 17:0 18:1 19:0 20:0 21:0 22:0 23:0 24:0 25:0 26:0 27:0 28:1 29:1 30:0 31:0 32:0 33:1 34:1 35:0 
256 0:1 1:1 2:0 3:1 4:1 5:0 6:0 7:1 8:0 9:1 10:0 11:0 12:0 13:0 14:1 15:0 16:0 17:0 18:1 19:0 20:0 21:1 22:1 23:0 24:1 25:1 26:0 27:0 28:1 29:1 30:0 31:0 32:0 33:0 34:0 35:0 
256 0:1 1:1 2:1 3:1 4:1 5:1 6:1 7:1 8:1 9:0 10:1 11:1 12:1 13:1 14:1 15:1 16:0 17:0 18:1 19:0 20:1 21:1 22:0 23:0 24:1 25:1 26:1 27:0 28:1 29:0 30:0 31:0 32:0 33:1 34:0 35:0 
256 0:1 1:0 2:1 3:1 4:0 5:0 6:1 7:1 8:1 9:0 10:0 11:1 12:1 13:1 14:1 15:1 16:0 17:0 18:1 19:1 20:0 21:1 22:0 23:1 24:1 25:1 26:1 27:0 28:0 29:1 30:1 31:1 32:0 33:0 34:1 35:0 
256 0:1 1:1 2:1 3:0 4:0 5:1 6:1 7:1 8:1 9:1 10:1 11:1 12:1 13:1 14:1 15:1 16:0 17:0 18:1 19:1 20:1 21:0 22:0 23:1 24:1 25:1 26:1 27:0 28:1 29:1 30:0 31:0 32:1 33:0 34:1 35:0 
256 0:1 1:1 2:0 3:1 4:0 5:0 6:1 7:0 8:0 9:1 10:0 11:1 12:1 13:1 14:1 15:0 16:0 17:0 18:1 19:1 20:1 21:0 22:0 23:0 24:0 25:1 26:1 27:0 28:0 29:0 30:0 31:1 32:0 33:1 34:0 35:0 
256 0:1 1:1 2:1 3:1 4:0 5:0 6:1 7:1 8:0 9:1 10:1 11:1 12:1 13:1 14:1 15:0 16:0 17:0 18:1 19:0 20:0 21:1 22:1 23:0 24:1 25:1 26:0 27:0 28:1 29:1 30:1 31:1 32:1 33:0 34:0 35:0 
256 0:0 1:0 2:1 3:1 4:0 5:0 6:1 7:0 8:0 9:0 10:0 11:0 12:1 13:1 14:1 15:1 16:1 17:0 18:1 19:0 20:0 21:0 22:0 23:0 24:0 25:0 26:1 27:0 28:0 29:0 30:0 31:0 32:0 33:1 34:1 35:0 
256 0:1 1:0 2:1 3:1 4:0 5:0 6:0 7:1 8:1 9:1 10:1 11:0 12:1 13:0 14:1 15:1 16:1 17:1 18:1 19:0 20:0 21:1 22:1 23:1 24:1 25:1 26:1 27:1 28:1 29:1 30:1 31:0 32:0 33:0 34:0 35:1 
256 0:0 1:1 2:1 3:0 4:0 5:1 6:1 7:1 8:1 9:1 10:1 11:1 12:1 13:1 14:1 15:0 16:0 17:0 18:1 19:1 20:0 21:1 22:0 23:1 24:1 25:1 26:0 27:1 28:0 29:1 30:0 31:0 32:0 33:1 34:0 35:0 
256 0:0 1:0 2:1 3:0 4:0 5:1 6:1 7:1 8:0 9:1 10:1 11:0 12:0 13:1 14:1 15:1 16:1 17:0 18:1 19:0 20:1 21:1 22:1 23:0 24:0 25:1 26:1 27:0 28:1 29:1 30:1 31:0 32:0 33:1 34:1 35:1 
256 0:1 1:0 2:1 3:0 4:0 5:1 6:1 7:1 8:1 9:0 10:1 11:1 12:0 13:1 14:0 15:1 16:1 17:1 18:1 19:0 20:0 21:1 22:0 23:1 24:0 25:1 26:1 27:1 28:0 29:1 30:1 31:1 32:1 33:1 34:0 35:1 
256 0:1 1:1 2:1 3:1 4:0 5:0 6:1 7:0 8:1 9:1 10:1 11:1 12:1 13:1 14:1 15:1 16:1 17:0 18:0 19:0 20:0 21:1 22:0 23:1 24:0 25:1 26:1 27:1 28:0 29:1 30:0 31:0 32:0 33:1 34:0 35:0 
256 0:1 1:1 2:1 3:0 4:0 5:0 6:1 7:1 8:0 9:1 10:1 11:1 12:1 13:0 14:1 15:1 16:0 17:0 18:1 19:0 20:1 21:1 22:1 23:0 24:0 25:1 26:1 27:1 28:1 29:0 30:0 31:0 32:0 33:0 34:0 35:0 
256 0:0 1:0 2:1 3:1 4:0 5:0 6:0 7:0 8:1 9:1 10:1 11:0 12:0 13:1 14:0 15:0 16:0 17:1 18:1 19:0 20:0 21:1 22:0 23:0 24:1 25:0 26:1 27:1 28:1 29:0 30:0 31:1 32:1 33:1 34:1 35:0 
256 0:1 1:1 2:1 3:1 4:0 5:0 6:1 7:0 8:1 9:0 10:1 11:1 12:1 13:1 14:1 15:0 16:0 17:0 18:1 19:1 20:0 21:1 22:1 23:0 24:0 25:1 26:1 27:0 28:1 29:0 30:1 31:1 32:0 33:1 34:0 35:0 
256 0:1 1:1 2:1 3:1 4:1 5:0 6:1 7:1 8:1 9:0 10:1 11:1 12:0 13:1 14:1 15:0 16:0 17:1 18:1 19:0 20:0 21:0 22:0 23:0 24:1 25:1 26:1 27:1 28:1 29:1 30:1 31:0 32:0 33:1 34:0 35:0 
256 0:1 1:0 2:1 3:0 4:0 5:1 6:1 7:1 8:1 9:0 10:0 11:0 12:1 13:1 14:1 15:0 16:0 17:0 18:1 19:0 20:1 21:1 22:0 23:1 24:1 25:1 26:1 27:1 28:1 29:0 30:0 31:0 32:0 33:0 34:1 35:0 
256 0:1 1:1 2:1 3:1 4:0 5:1 6:0 7:1 8:0 9:1 10:1 11:1 12:1 13:1 14:1 15:1 16:0 17:0 18:1 19:0 20:0 21:1 22:1 23:0 24:1 25:1 26:0 27:1 28:1 29:0 30:0 31:0 32:0 33:1 34:1 35:0 
256 0:1 1:1 2:1 3:1 4:0 5:0 6:0 7:0 8:1 9:0 10:0 11:0 12:1 13:1 14:1 15:0 16:0 17:0 18:1 19:0 20:1 21:1 22:0 23:0 24:0 25:1 26:1 27:0 28:1 29:1 30:0 31:0 32:0 33:1 34:0 35:0 
256 0:1 1:1 2:0 3:1 4:0 5:0 6:1 7:1 8:1 9:0 10:1 11:1 12:0 13:1 14:1 15:1 16:0 17:0 18:1 19:1 20:0 21:1 22:0 23:1 24:0 25:1 26:0 27:0 28:0 29:0 30:0 31:0 32:0 33:0 34:1 35:0 
256 0:1 1:0 2:1 3:1 4:0 5:0 6:1 7:0 8:1 9:1 10:1 11:1 12:0 13:1 14:1 15:1 16:1 17:0 18:0 19:0 20:0 21:1 22:0 23:1 24:0 25:1 26:0 27:1 28:0 29:1 30:1 31:0 32:0 33:1 34:0 35:0 
256 0:1 1:0 2:1 3:1 4:0 5:1 6:0 7:1 8:1 9:0 10:1 11:1 12:1 13:1 14:1 15:0 16:0 17:0 18:1 19:0 20:0 21:1 22:0 23:1 24:1 25:0 26:1 27:1 28:1 29:1 30:0 31:0 32:0 33:1 34:1 35:0 
256 0:0 1:1 2:0 3:1 4:0 5:0 6:0 7:1 8:1 9:1 10:1 11:1 12:1 13:1 14:1 15:1 16:0 17:0 18:1 19:0 20:0 21:1 22:0 23:0 24:0 25:1 26:1 27:1 28:0 29:0 30:0 31:0 32:0 33:0 34:0 35:0 
256 0:0 1:1 2:1 3:1 4:0 5:0 6:0 7:1 8:1 9:1 10:1 11:1 12:1 13:0 14:1 15:1 16:0 17:0 18:0 19:0 20:0 21:1 22:0 23:1 24:1 25:1 26:1 27:0 28:0 29:1 30:1 31:0 32:0 33:0 34:0 35:0 
256 0:1 1:1 2:0 3:1 4:0 5:0 6:0 7:1 8:1 9:1 10:0 11:1 12:0 13:0 14:1 15:0 16:0 17:0 18:1 19:0 20:0 21:1 22:0 23:1 24:1 25:1 26:1 27:0 28:0 29:1 30:1 31:0 32:0 33:0 34:0 35:0 
256 0:1 1:1 2:1 3:0 4:0 5:0 6:1 7:1 8:1 9:1 10:0 11:0 12:1 13:1 14:0 15:1 16:0 17:0 18:1 19:0 20:0 21:1 22:1 23:1 24:0 25:0 26:1 27:1 28:1 29:1 30:1 31:0 32:0 33:0 34:0 35:0 
256 0:1 1:1 2:1 3:1 4:1 5:1 6:1 7:1 8:1 9:1 10:1 11:1 12:1 13:1 14:1 15:0 16:0 17:0 18:1 19:1 20:0 21:0 22:1 23:0 24:1 25:1 26:0 27:1 28:1 29:0 30:1 31:0 32:0 33:1 34:1 35:0 
256 0:1 1:1 2:1 3:1 4:1 5:0 6:1 7:0 8:1 9:1 10:0 11:1 12:1 13:1 14:1 15:1 16:1 17:0 18:1 19:0 20:0 21:1 22:0 23:1 24:0 25:0 26:1 27:1 28:1 29:1 30:1 31:0 32:0 33:0 34:0 35:0 
256 0:1 1:1 2:1 3:1 4:1 5:0 6:1 7:1 8:1 9:1 10:1 11:1 12:1 13:0 14:0 15:1 16:0 17:0 18:0 19:0 20:0 21:1 22:0 23:0 24:0 25:1 26:1 27:0 28:0 29:0 30:1 31:0 32:0 33:1 34:0 35:1 
256 0:0 1:1 2:1 3:1 4:0 5:0 6:1 7:1 8:1 9:1 10:1 11:1 12:1 13:1 14:1 15:1 16:1 17:0 18:0 19:0 20:0 21:0 22:1 23:1 24:1 25:0 26:1 27:1 28:1 29:1 30:1 31:1 32:0 33:1 34:1 35:0 
256 0:1 1:0 2:1 3:1 4:1 5:0 6:1 7:0 8:0 9:0 10:1 11:1 12:0 13:1 14:1 15:1 16:0 17:0 18:1 19:0 20:0 21:1 22:0 23:0 24:1 25:1 26:1 27:0 28:0 29:1 30:0 31:0 32:1 33:0 34:0 35:0 
256 0:1 1:1 2:1 3:1 4:1 5:0 6:1 7:0 8:1 9:1 10:1 11:1 12:1 13:1 14:0 15:0 16:0 17:0 18:1 19:0 20:1 21:1 22:1 23:0 24:1 25:1 26:0 27:1 28:0 29:1 30:1 31:0 32:0 33:1 34:0 35:0 
256 0:1 1:1 2:0 3:1 4:0 5:1 6:1 7:0 8:1 9:1 10:1 11:1 12:0 13:1 14:0 15:0 16:0 17:0 18:0 19:0 20:0 21:1 22:0 23:0 24:0 25:1 26:0 27:1 28:0 29:0 30:0 31:0 32:1 33:1 34:1 35:0 
256 0:1 1:1 2:1 3:1 4:0 5:0 6:1 7:1 8:0 9:0 10:0 11:1 12:0 13:1 14:0 15:0 16:0 17:0 18:1 19:0 20:0 21:1 22:1 23:0 24:1 25:1 26:1 27:0 28:1 29:1 30:1 31:1 32:0 33:0 34:1 35:0 
256 0:1 1:1 2:1 3:0 4:0 5:1 6:0 7:1 8:0 9:0 10:0 11:1 12:1 13:1 14:1 15:0 16:0 17:1 18:1 19:0 20:0 21:1 22:0 23:0 24:0 25:0 26:1 27:1 28:1 29:0 30:1 31:0 32:0 33:1 34:0 35:0 
256 0:1 1:1 2:0 3:0 4:0 5:0 6:1 7:1 8:1 9:0 10:1 11:1 12:1 13:1 14:0 15:0 16:0 17:0 18:1 19:0 20:0 21:1 22:0 23:0 24:1 25:1 26:1 27:0 28:1 29:1 30:1 31:1 32:1 33:0 34:0 35:0 
256 0:1 1:1 2:0 3:1 4:1 5:1 6:0 7:1 8:1 9:0 10:1 11:1 12:1 13:0 14:1 15:0 16:1 17:0 18:1 19:1 20:0 21:0 22:0 23:1 24:0 25:0 26:1 27:1 28:1 29:1 30:0 31:0 32:1 33:1 34:1 35:0 
256 0:1 1:1 2:1 3:1 4:0 5:0 6:1 7:1 8:1 9:0 10:1 11:0 12:1 13:1 14:1 15:0 16:0 17:0 18:1 19:0 20:1 21:1 22:0 23:0 24:0 25:1 26:0 27:1 28:1 29:1 30:0 31:0 32:0 33:0 34:0 35:0 
256 0:1 1:1 2:1 3:1 4:1 5:0 6:0 7:1 8:1 9:0 10:0 11:1 12:0 13:1 14:1 15:1 16:0 17:0 18:0 19:1 20:0 21:1 22:0 23:0 24:0 25:1 26:1 27:0 28:1 29:1 30:1 31:0 32:0 33:0 34:0 35:0 
256 0:1 1:1 2:1 3:1 4:0 5:0 6:1 7:1 8:1 9:0 10:1 11:1 12:1 13:1 14:1 15:1 16:0 17:0 18:1 19:1 20:1 21:0 22:0 23:0 24:0 25:1 26:1 27:1 28:0 29:1 30:0 31:0 32:0 33:1 34:0 35:1 
256 0:1 1:1 2:1 3:1 4:1 5:0 6:1 7:1 8:0 9:1 10:1 11:1 12:1 13:1 14:1 15:0 16:0 17:0 18:1 19:1 20:0 21:1 22:1 23:0 24:1 25:0 26:0 27:1 28:0 29:1 30:1 31:1 32:1 33:1 34:0 35:0 
256 0:1 1:1 2:1 3:1 4:1 5:1 6:1 7:0 8:1 9:1 10:1 11:1 12:1 13:1 14:0 15:1 16:0 17:0 18:1 19:0 20:0 21:1 22:0 23:1 24:0 25:1 26:0 27:1 28:1 29:0 30:1 31:1 32:0 33:1 34:0 35:0 
256 0:1 1:1 2:1 3:1 4:0 5:0 6:1 7:1 8:1 9:1 10:1 11:1 12:1 13:1 14:0 15:0 16:1 17:0 18:1 19:1 20:0 21:1 22:0 23:0 24:1 25:1 26:0 27:0 28:0 29:0 30:1 31:0 32:1 33:1 34:0 35:0 
256 0:1 1:1 2:1 3:1 4:1 5:0 6:1 7:0 8:0 9:0 10:1 11:1 12:1 13:1 14:1 15:1 16:1 17:0 18:1 19:0 20:0 21:1 22:0 23:1 24:0 25:1 26:1 27:0 28:1 29:1 30:1 31:0 32:0 33:0 34:1 35:0 
256 0:1 1:1 2:1 3:0 4:0 5:0 6:1 7:0 8:0 9:1 10:1 11:1 12:1 13:1 14:1 15:1 16:0 17:0 18:1 19:0 20:0 21:1 22:1 23:0 24:0 25:0 26:1 27:1 28:1 29:1 30:0 31:0 32:0 33:1 34:0 35:0 
256 0:1 1:1 2:0 3:1 4:0 5:0 6:1 7:1 8:1 9:1 10:1 11:1 12:1 13:1 14:1 15:0 16:1 17:0 18:1 19:0 20:0 21:0 22:0 23:1 24:0 25:1 26:1 27:1 28:0 29:0 30:0 31:1 32:0 33:1 34:0 35:0 
256 0:1 1:1 2:1 3:1 4:0 5:0 6:0 7:0 8:1 9:1 10:1 11:0 12:0 13:1 14:1 15:0 16:0 17:1 18:1 19:1 20:0 21:1 22:1 23:1 24:0 25:0 26:1 27:1 28:0 29:1 30:0 31:0 32:0 33:1 34:0 35:1 
256 0:1 1:1 2:0 3:1 4:0 5:0 6:0 7:0 8:1 9:0 10:1 11:1 12:1 13:1 14:0 15:0 16:1 17:0 18:0 19:0 20:0 21:1 22:1 23:0 24:1 25:1 26:1 27:0 28:1 29:1 30:0 31:0 32:0 33:0 34:1 35:1 
256 0:1 1:1 2:0 3:0 4:0 5:0 6:1 7:1 8:1 9:0 10:1 11:1 12:1 13:1 14:0 15:0 16:0 17:0 18:1 19:0 20:1 21:0 22:0 23:0 24:1 25:1 26:1 27:0 28:0 29:0 30:0 31:0 32:0 33:0 34:0 35:0 
256 0:1 1:0 2:1 3:0 4:0 5:0 6:1 7:1 8:1 9:1 10:1 11:1 12:0 13:0 14:1 15:1 16:1 17:0 18:1 19:0 20:0 21:1 22:0 23:1 24:1 25:1 26:1 27:0 28:0 29:1 30:1 31:1 32:0 33:0 34:0 35:0 
256 0:1 1:1 2:1 3:1 4:0 5:0 6:1 7:0 8:0 9:0 10:1 11:1 12:1 13:1 14:1 15:0 16:0 17:0 18:1 19:1 20:1 21:1 22:0 23:0 24:1 25:0 26:0 27:1 28:1 29:0 30:1 31:0 32:0 33:1 34:1 35:0 
256 0:1 1:0 2:0 3:0 4:0 5:0 6:1 7:1 8:0 9:1 10:1 11:1 12:1 13:1 14:1 15:1 16:1 17:0 18:0 19:0 20:1 21:0 22:1 23:0 24:1 25:1 26:1 27:0 28:0 29:0 30:1 31:0 32:0 33:0 34:0 35:0 
256 0:1 1:1 2:1 3:1 4:0 5:1 6:1 7:1 8:1 9:1 10:1 11:1 12:1 13:1 14:1 15:0 16:0 17:0 18:0 19:1 20:0 21:1 22:0 23:0 24:1 25:1 26:0 27:0 28:1 29:1 30:1 31:1 32:0 33:1 34:0 35:0 
256 0:1 1:0 2:0 3:0 4:0 5:0 6:1 7:1 8:0 9:0 10:1 11:0 12:1 13:0 14:1 15:0 16:1 17:0 18:1 19:0 20:0 21:1 22:0 23:0 24:1 25:1 26:1 27:1 28:1 29:0 30:1 31:1 32:0 33:0 34:1 35:0 
256 0:1 1:0 2:1 3:0 4:0 5:1 6:1 7:1 8:1 9:1 10:1 11:1 12:1 13:1 14:1 15:0 16:0 17:0 18:1 19:0 20:1 21:1 22:0 23:0 24:1 25:1 26:1 27:0 28:0 29:1 30:0 31:0 32:0 33:1 34:0 35:0 
256 0:1 1:0 2:1 3:1 4:1 5:1 6:1 7:1 8:1 9:0 10:1 11:1 12:0 13:1 14:1 15:1 16:0 17:0 18:1 19:1 20:1 21:1 22:0 23:1 24:1 25:1 26:1 27:1 28:1 29:0 30:0 31:0 32:0 33:1 34:0 35:0 
256 0:0 1:1 2:1 3:1 4:0 5:0 6:0 7:1 8:1 9:0 10:0 11:1 12:1 13:1 14:0 15:1 16:1 17:0 18:1 19:0 20:0 21:1 22:0 23:1 24:0 25:1 26:1 27:1 28:0 29:0 30:0 31:0 32:0 33:0 34:0 35:0 
256 0:1 1:1 2:1 3:0 4:0 5:0 6:0 7:1 8:1 9:1 10:1 11:1 12:1 13:1 14:1 15:1 16:0 17:0 18:1 19:0 20:1 21:1 22:0 23:0 24:1 25:1 26:0 27:1 28:1 29:0 30:1 31:0 32:0 33:0 34:1 35:0 
256 0:0 1:0 2:1 3:0 4:0 5:1 6:1 7:1 8:0 9:1 10:1 11:0 12:1 13:1 14:0 15:1 16:1 17:1 18:0 19:0 20:0 21:1 22:0 23:1 24:1 25:1 26:1 27:1 28:1 29:1 30:0 31:0 32:0 33:1 34:0 35:0 
256 0:0 1:1 2:1 3:1 4:0 5:0 6:1 7:0 8:1 9:0 10:1 11:1 12:1 13:1 14:1 15:0 16:0 17:0 18:1 19:0 20:1 21:1 22:1 23:1 24:1 25:0 26:0 27:0 28:1 29:1 30:1 31:0 32:1 33:0 34:1 35:0 
256 0:1 1:1 2:1 3:1 4:0 5:1 6:1 7:1 8:1 9:1 10:0 11:0 12:1 13:1 14:1 15:0 16:0 17:0 18:1 19:1 20:1 21:1 22:0 23:0 24:0 25:1 26:1 27:1 28:1 29:0 30:1 31:0 32:1 33:1 34:0 35:0 
256 0:1 1:0 2:1 3:1 4:1 5:0 6:1 7:0 8:1 9:0 10:1 11:1 12:1 13:1 14:0 15:0 16:0 17:0 18:0 19:0 20:0 21:1 22:0 23:1 24:0 25:0 26:1 27:1 28:1 29:1 30:1 31:0 32:0 33:0 34:0 35:0 
256 0:1 1:1 2:1 3:0 4:0 5:0 6:1 7:1 8:1 9:0 10:1 11:1 12:1 13:1 14:1 15:1 16:0 17:0 18:1 19:0 20:0 21:0 22:0 23:1 24:1 25:1 26:1 27:1 28:1 29:1 30:0 31:0 32:0 33:1 34:1 35:0 
256 0:1 1:1 2:1 3:0 4:0 5:0 6:1 7:1 8:1 9:1 10:1 11:1 12:1 13:1 14:1 15:1 16:0 17:1 18:1 19:0 20:0 21:1 22:0 23:1 24:0 25:0 26:0 27:1 28:0 29:1 30:0 31:0 32:1 33:1 34:1 35:0 
256 0:1 1:1 2:1 3:1 4:1 5:1 6:1 7:1 8:1 9:0 10:0 11:1 12:1 13:1 14:0 15:0 16:0 17:0 18:1 19:1 20:0 21:1 22:1 23:0 24:1 25:0 26:1 27:0 28:1 29:0 30:1 31:0 32:0 33:1 34:1 35:0 
256 0:1 1:1 2:1 3:0 4:0 5:0 6:1 7:0 8:1 9:1 10:1 11:1 12:1 13:1 14:1 15:0 16:0 17:0 18:1 19:0 20:0 21:1 22:0 23:0 24:0 25:1 26:0 27:1 28:0 29:0 30:0 31:0 32:0 33:1 34:0 35:0 
256 0:1 1:1 2:1 3:1 4:0 5:0 6:1 7:1 8:1 9:0 10:1 11:1 12:1 13:1 14:1 15:0 16:0 17:0 18:1 19:1 20:1 21:1 22:0 23:0 24:1 25:0 26:1 27:0 28:0 29:0 30:1 31:1 32:0 33:0 34:0 35:0 
256 0:1 1:1 2:1 3:1 4:1 5:0 6:1 7:0 8:1 9:0 10:0 11:1 12:0 13:1 14:0 15:0 16:0 17:0 18:1 19:0 20:0 21:0 22:1 23:1 24:0 25:0 26:0 27:0 28:0 29:0 30:0 31:0 32:0 33:1 34:0 35:0 
256 0:0 1:0 2:1 3:1 4:1 5:0 6:1 7:0 8:1 9:1 10:1 11:1 12:1 13:1 14:1 15:1 16:1 17:0 18:0 19:0 20:1 21:1 22:1 23:0 24:1 25:1 26:1 27:0 28:1 29:1 30:1 31:0 32:0 33:1 34:1 35:0 
256 0:1 1:1 2:0 3:1 4:1 5:0 6:1 7:1 8:1 9:1 10:0 11:1 12:1 13:0 14:1 15:1 16:1 17:0 18:1 19:1 20:0 21:0 22:0 23:0 24:1 25:0 26:1 27:1 28:0 29:0 30:1 31:0 32:0 33:0 34:0 35:0 
256 0:1 1:1 2:1 3:0 4:0 5:0 6:1 7:1 8:1 9:0 10:1 11:1 12:0 13:0 14:1 15:1 16:0 17:0 18:1 19:0 20:0 21:1 22:1 23:1 24:1 25:1 26:0 27:1 28:1 29:0 30:1 31:0 32:0 33:0 34:0 35:0 
256 0:1 1:1 2:1 3:0 4:0 5:0 6:1 7:1 8:0 9:1 10:1 11:1 12:1 13:0 14:1 15:1 16:1 17:0 18:0 19:0 20:0 21:1 22:1 23:0 24:0 25:0 26:1 27:1 28:1 29:1 30:0 31:1 32:0 33:1 34:0 35:0 
256 0:1 1:1 2:1 3:1 4:0 5:0 6:1 7:1 8:0 9:0 10:1 11:1 12:0 13:1 14:1 15:0 16:1 17:0 18:1 19:0 20:0 21:1 22:0 23:0 24:0 25:1 26:0 27:1 28:1 29:1 30:1 31:0 32:0 33:0 34:1 35:0 
256 0:1 1:0 2:1 3:1 4:1 5:0 6:1 7:1 8:1 9:1 10:0 11:0 12:1 13:1 14:1 15:1 16:0 17:0 18:1 19:1 20:0 21:1 22:0 23:0 24:1 25:0 26:1 27:0 28:0 29:0 30:1 31:0 32:0 33:1 34:0 35:0 
256 0:1 1:0 2:1 3:1 4:0 5:1 6:0 7:1 8:1 9:0 10:1 11:1 12:1 13:1 14:1 15:0 16:0 17:0 18:0 19:0 20:0 21:1 22:0 23:1 24:0 25:1 26:0 27:1 28:0 29:0 30:0 31:0 32:0 33:1 34:0 35:0 
256 0:1 1:1 2:1 3:1 4:0 5:1 6:1 7:1 8:1 9:1 10:0 11:0 12:0 13:0 14:0 15:0 16:0 17:0 18:0 19:0 20:0 21:1 22:1 23:0 24:0 25:0 26:1 27:0 28:1 29:1 30:0 31:1 32:1 33:0 34:0 35:0 
256 0:0 1:1 2:0 3:0 4:0 5:1 6:0 7:1 8:1 9:0 10:0 11:1 12:1 13:1 14:1 15:1 16:0 17:0 18:1 19:0 20:0 21:1 22:0 23:0 24:1 25:1 26:0 27:1 28:1 29:0 30:1 31:0 32:0 33:1 34:1 35:0 
256 0:0 1:0 2:0 3:0 4:1 5:0 6:0 7:1 8:1 9:0 10:0 11:0 12:1 13:0 14:1 15:0 16:0 17:0 18:1 19:0 20:1 21:1 22:0 23:1 24:1 25:1 26:1 27:0 28:1 29:0 30:0 31:0 32:0 33:0 34:1 35:0 
256 0:1 1:0 2:1 3:1 4:1 5:1 6:1 7:1 8:1 9:1 10:1 11:0 12:1 13:1 14:1 15:1 16:1 17:1 18:1 19:0 20:1 21:1 22:1 23:1 24:1 25:1 26:1 27:1 28:1 29:1 30:0 31:0 32:1 33:1 34:1 35:0 
256 0:1 1:1 2:1 3:1 4:0 5:1 6:1 7:1 8:0 9:1 10:0 11:1 12:0 13:1 14:1 15:1 16:1 17:0 18:0 19:1 20:1 21:1 22:0 23:1 24:1 25:1 26:0 27:1 28:1 29:0 30:0 31:0 32:1 33:1 34:0 35:0 
256 0:1 1:1 2:0 3:0 4:0 5:0 6:0 7:1 8:1 9:0 10:0 11:1 12:0 13:0 14:1 15:1 16:0 17:0 18:1 19:0 20:1 21:1 22:1 23:0 24:0 25:1 26:1 27:1 28:1 29:0 30:0 31:1 32:1 33:1 34:0 35:0 
256 0:1 1:1 2:1 3:1 4:0 5:0 6:1 7:1 8:1 9:1 10:1 11:1 12:0 13:1 14:1 15:0 16:0 17:0 18:1 19:0 20:0 21:1 22:0 23:0 24:0 25:0 26:0 27:0 28:1 29:1 30:0 31:0 32:0 33:1 34:1 35:0 
256 0:1 1:1 2:1 3:1 4:1 5:0 6:1 7:1 8:1 9:0 10:1 11:1 12:1 13:1 14:1 15:1 16:1 17:1 18:1 19:0 20:0 21:1 22:0 23:1 24:1 25:1 26:1 27:0 28:0 29:1 30:1 31:0 32:0 33:1 34:0 35:0 
256 0:1 1:1 2:1 3:0 4:0 5:1 6:1 7:1 8:0 9:1 10:1 11:1 12:1 13:1 14:1 15:0 16:0 17:0 18:0 19:0 20:0 21:1 22:0 23:0 24:0 25:0 26:1 27:1 28:1 29:0 30:1 31:0 32:0 33:1 34:0 35:0 
256 0:1 1:0 2:1 3:1 4:0 5:0 6:1 7:1 8:1 9:0 10:1 11:1 12:1 13:0 14:1 15:1 16:1 17:0 18:1 19:0 20:0 21:0 22:0 23:0 24:0 25:1 26:1 27:1 28:0 29:1 30:1 31:0 32:0 33:0 34:0 35:1 
256 0:1 1:0 2:1 3:1 4:0 5:0 6:1 7:1 8:0 9:1 10:1 11:1 12:1 13:1 14:1 15:0 16:0 17:0 18:1 19:0 20:1 21:1 22:0 23:0 24:1 25:1 26:0 27:1 28:1 29:0 30:1 31:0 32:0 33:0 34:1 35:0 
256 0:1 1:0 2:1 3:0 4:0 5:1 6:1 7:1 8:0 9:1 10:1 11:0 12:1 13:0 14:1 15:0 16:0 17:0 18:1 19:0 20:0 21:1 22:0 23:0 24:1 25:1 26:1 27:0 28:1 29:0 30:1 31:1 32:0 33:0 34:1 35:0 
256 0:1 1:1 2:0 3:1 4:0 5:0 6:1 7:0 8:0 9:0 10:0 11:0 12:1 13:0 14:1 15:1 16:0 17:0 18:1 19:1 20:1 21:1 22:0 23:0 24:0 25:0 26:1 27:0 28:1 29:0 30:0 31:0 32:0 33:0 34:0 35:0 
256 0:1 1:0 2:1 3:0 4:0 5:1 6:0 7:1 8:1 9:0 10:0 11:1 12:1 13:0 14:1 15:1 16:0 17:0 18:1 19:0 20:1 21:1 22:0 23:0 24:1 25:1 26:1 27:0 28:1 29:1 30:0 31:0 32:0 33:1 34:1 35:0 
256 0:1 1:1 2:0 3:1 4:0 5:0 6:1 7:0 8:1 9:0 10:1 11:0 12:1 13:0 14:0 15:0 16:0 17:0 18:0 19:0 20:0 21:1 22:0 23:1 24:1 25:1 26:1 27:1 28:0 29:1 30:1 31:0 32:0 33:1 34:0 35:0 
256 0:0 1:1 2:0 3:0 4:0 5:0 6:0 7:1 8:1 9:0 10:1 11:1 12:1 13:0 14:1 15:0 16:0 17:0 18:0 19:0 20:1 21:0 22:1 23:1 24:1 25:1 26:0 27:1 28:1 29:0 30:0 31:0 32:0 33:0 34:1 35:0 
256 0:1 1:1 2:1 3:1 4:0 5:0 6:0 7:1 8:1 9:1 10:1 11:1 12:0 13:0 14:1 15:1 16:0 17:0 18:1 19:0 20:0 21:1 22:1 23:0 24:1 25:1 26:1 27:1 28:1 29:1 30:0 31:0 32:0 33:1 34:1 35:1 
256 0:1 1:1 2:1 3:1 4:1 5:0 6:1 7:0 8:1 9:0 10:1 11:1 12:1 13:1 14:1 15:1 16:0 17:1 18:0 19:0 20:0 21:1 22:1 23:0 24:0 25:1 26:1 27:1 28:1 29:1 30:1 31:0 32:0 33:1 34:0 35:0 
256 0:1 1:1 2:1 3:1 4:1 5:1 6:0 7:0 8:0 9:1 10:1 11:1 12:0 13:0 14:1 15:1 16:0 17:0 18:0 19:0 20:1 21:0 22:1 23:1 24:1 25:1 26:1 27:0 28:1 29:1 30:1 31:0 32:0 33:0 34:0 35:0 
256 0:1 1:1 2:0 3:1 4:0 5:0 6:0 7:1 8:1 9:0 10:1 11:1 12:0 13:1 14:1 15:0 16:0 17:0 18:0 19:0 20:0 21:1 22:0 23:0 24:1 25:1 26:1 27:1 28:0 29:0 30:1 31:1 32:1 33:0 34:0 35:0 
256 0:0 1:1 2:1 3:0 4:0 5:0 6:1 7:1 8:0 9:0 10:1 11:0 12:1 13:0 14:0 15:1 16:1 17:0 18:0 19:0 20:0 21:1 22:1 23:1 24:0 25:1 26:1 27:1 28:1 29:0 30:1 31:1 32:0 33:1 34:0 35:0 
256 0:1 1:1 2:1 3:1 4:0 5:0 6:1 7:1 8:1 9:1 10:1 11:1 12:0 13:1 14:1 15:1 16:0 17:1 18:1 19:1 20:0 21:1 22:1 23:0 24:0 25:0 26:1 27:0 28:1 29:0 30:0 31:0 32:0 33:0 34:0 35:0 
256 0:0 1:1 2:1 3:0 4:1 5:1 6:1 7:1 8:1 9:0 10:0 11:0 12:1 13:0 14:1 15:1 16:1 17:0 18:1 19:1 20:1 21:1 22:0 23:0 24:1 25:1 26:1 27:1 28:0 29:1 30:1 31:1 32:0 33:1 34:0 35:0 
256 0:0 1:1 2:1 3:1 4:0 5:0 6:1 7:1 8:0 9:0 10:0 11:1 12:1 13:1 14:0 15:0 16:0 17:0 18:1 19:0 20:0 21:0 22:1 23:0 24:1 25:0 26:1 27:1 28:1 29:1 30:0 31:0 32:0 33:1 34:1 35:0 
256 0:1 1:1 2:1 3:1 4:1 5:0 6:1 7:1 8:1 9:1 10:1 11:1 12:1 13:1 14:1 15:0 16:1 17:1 18:1 19:1 20:0 21:0 22:1 23:0 24:1 25:1 26:1 27:0 28:1 29:0 30:0 31:1 32:1 33:1 34:1 35:1 
256 0:0 1:0 2:1 3:1 4:0 5:0 6:0 7:1 8:1 9:1 10:1 11:0 12:1 13:1 14:1 15:1 16:0 17:0 18:1 19:0 20:0 21:1 22:0 23:0 24:1 25:1 26:0 27:1 28:0 29:0 30:0 31:0 32:0 33:0 34:0 35:0 
256 0:1 1:1 2:1 3:0 4:0 5:0 6:1 7:1 8:1 9:0 10:1 11:1 12:0 13:1 14:1 15:1 16:1 17:1 18:1 19:0 20:0 21:1 22:0 23:0 24:0 25:1 26:0 27:0 28:1 29:1 30:1 31:0 32:0 33:0 34:0 35:0 
256 0:1 1:1 2:1 3:1 4:0 5:0 6:0 7:0 8:1 9:0 10:1 11:1 12:0 13:1 14:1 15:0 16:0 17:0 18:1 19:0 20:0 21:0 22:1 23:1 24:0 25:1 26:1 27:0 28:1 29:1 30:0 31:0 32:0 33:0 34:0 35:0 
256 0:1 1:1 2:1 3:1 4:1 5:0 6:1 7:0 8:1 9:0 10:1 11:1 12:0 13:1 14:1 15:1 16:0 17:0 18:1 19:0 20:0 21:1 22:1 23:0 24:0 25:1 26:0 27:1 28:1 29:0 30:1 31:0 32:0 33:1 34:0 35:0 
256 0:1 1:1 2:1 3:1 4:1 5:1 6:1 7:1 8:0 9:1 10:0 11:1 12:1 13:1 14:1 15:0 16:0 17:0 18:1 19:0 20:0 21:1 22:0 23:1 24:1 25:1 26:1 27:0 28:0 29:0 30:0 31:0 32:0 33:1 34:0 35:0 
256 0:1 1:0 2:0 3:0 4:0 5:1 6:1 7:0 8:1 9:0 10:0 11:0 12:1 13:0 14:1 15:0 16:1 17:1 18:1 19:1 20:1 21:1 22:0 23:0 24:1 25:1 26:1 27:1 28:1 29:1 30:0 31:0 32:0 33:1 34:0 35:0 
256 0:0 1:0 2:1 3:1 4:1 5:1 6:1 7:0 8:1 9:0 10:1 11:1 12:1 13:1 14:1 15:0 16:0 17:0 18:0 19:0 20:0 21:1 22:1 23:1 24:0 25:0 26:0 27:1 28:1 29:0 30:0 31:0 32:0 33:0 34:1 35:0 
256 0:1 1:1 2:1 3:1 4:0 5:0 6:1 7:1 8:1 9:1 10:1 11:1 12:1 13:1 14:1 15:0 16:0 17:0 18:1 19:0 20:0 21:1 22:1 23:1 24:0 25:1 26:1 27:1 28:0 29:1 30:1 31:0 32:0 33:1 34:0 35:0 
256 0:0 1:1 2:1 3:1 4:0 5:0 6:1 7:1 8:1 9:1 10:1 11:1 12:1 13:1 14:0 15:0 16:0 17:0 18:1 19:0 20:0 21:1 22:0 23:1 24:0 25:0 26:0 27:0 28:1 29:1 30:1 31:1 32:0 33:1 34:1 35:0 
256 0:0 1:1 2:1 3:1 4:1 5:1 6:1 7:0 8:0 9:0 10:1 11:0 12:1 13:1 14:1 15:1 16:0 17:0 18:1 19:1 20:0 21:1 22:0 23:0 24:0 25:0 26:0 27:1 28:0 29:0 30:0 31:0 32:1 33:0 34:1 35:0 
256 0:1 1:1 2:1 3:1 4:0 5:1 6:1 7:1 8:1 9:1 10:1 11:1 12:1 13:1 14:1 15:1 16:0 17:0 18:1 19:1 20:1 21:1 22:0 23:0 24:1 25:0 26:1 27:0 28:1 29:1 30:1 31:0 32:0 33:1 34:0 35:0 
256 0:1 1:1 2:0 3:1 4:0 5:1 6:0 7:1 8:1 9:1 10:1 11:0 12:0 13:1 14:1 15:0 16:1 17:0 18:1 19:1 20:1 21:1 22:0 23:0 24:0 25:0 26:0 27:1 28:1 29:0 30:1 31:1 32:0 33:1 34:0 35:0 
256 0:1 1:1 2:0 3:1 4:0 5:0 6:1 7:1 8:1 9:1 10:1 11:1 12:1 13:1 14:1 15:1 16:1 17:0 18:0 19:0 20:0 21:1 22:1 23:1 24:0 25:1 26:0 27:1 28:0 29:1 30:1 31:1 32:0 33:1 34:0 35:0 
256 0:1 1:1 2:1 3:1 4:1 5:0 6:0 7:0 8:1 9:0 10:1 11:1 12:0 13:1 14:1 15:1 16:1 17:0 18:1 19:0 20:0 21:1 22:1 23:0 24:1 25:1 26:1 27:1 28:1 29:0 30:1 31:1 32:0 33:1 34:1 35:0 
256 0:1 1:1 2:1 3:1 4:0 5:0 6:1 7:1 8:1 9:1 10:1 11:1 12:1 13:1 14:1 15:0 16:0 17:0 18:0 19:1 20:0 21:1 22:0 23:0 24:1 25:1 26:0 27:1 28:1 29:1 30:1 31:0 32:0 33:0 34:0 35:0 
256 0:0 1:0 2:0 3:1 4:0 5:0 6:1 7:1 8:1 9:0 10:1 11:1 12:1 13:1 14:1 15:1 16:0 17:0 18:1 19:0 20:0 21:1 22:0 23:0 24:1 25:1 26:1 27:0 28:0 29:0 30:0 31:1 32:0 33:0 34:0 35:0 
256 0:1 1:1 2:1 3:0 4:0 5:0 6:1 7:0 8:1 9:1 10:1 11:0 12:1 13:0 14:0 15:1 16:1 17:0 18:1 19:0 20:0 21:1 22:0 23:0 24:1 25:1 26:1 27:1 28:1 29:0 30:1 31:0 32:0 33:1 34:1 35:0 
256 0:1 1:0 2:1 3:1 4:0 5:0 6:1 7:1 8:1 9:1 10:1 11:0 12:1 13:0 14:0 15:0 16:0 17:0 18:1 19:0 20:1 21:1 22:0 23:1 24:0 25:1 26:1 27:1 28:0 29:1 30:0 31:0 32:0 33:1 34:0 35:0 
256 0:1 1:1 2:0 3:1 4:1 5:0 6:1 7:1 8:1 9:1 10:1 11:1 12:0 13:1 14:1 15:0 16:0 17:0 18:1 19:0 20:1 21:1 22:0 23:0 24:0 25:0 26:0 27:1 28:1 29:1 30:1 31:0 32:0 33:1 34:1 35:0 
256 0:1 1:1 2:0 3:0 4:0 5:0 6:1 7:1 8:0 9:0 10:0 11:1 12:1 13:0 14:1 15:0 16:0 17:1 18:1 19:0 20:1 21:1 22:0 23:1 24:0 25:1 26:1 27:1 28:1 29:1 30:0 31:1 32:0 33:1 34:0 35:0 
256 0:1 1:0 2:0 3:0 4:0 5:0 6:1 7:1 8:1 9:1 10:1 11:1 12:1 13:1 14:1 15:1 16:0 17:0 18:1 19:0 20:0 21:0 22:0 23:1 24:1 25:1 26:1 27:1 28:0 29:0 30:1 31:0 32:0 33:1 34:0 35:0 
256 0:1 1:1 2:0 3:1 4:0 5:0 6:1 7:1 8:1 9:0 10:1 11:1 12:0 13:0 14:1 15:1 16:0 17:0 18:1 19:0 20:0 21:0 22:1 23:0 24:0 25:0 26:1 27:1 28:1 29:1 30:0 31:0 32:0 33:1 34:0 35:0 
256 0:1 1:1 2:1 3:1 4:1 5:1 6:1 7:1 8:1 9:0 10:1 11:1 12:1 13:1 14:1 15:1 16:0 17:0 18:1 19:1 20:0 21:1 22:1 23:1 24:1 25:1 26:1 27:0 28:1 29:1 30:1 31:0 32:0 33:1 34:1 35:0 
256 0:1 1:0 2:1 3:1 4:0 5:0 6:0 7:1 8:1 9:0 10:1 11:0 12:0 13:1 14:1 15:0 16:1 17:0 18:1 19:1 20:1 21:1 22:0 23:1 24:0 25:1 26:1 27:1 28:0 29:1 30:1 31:0 32:0 33:0 34:1 35:0 
256 0:1 1:0 2:1 3:1 4:0 5:0 6:1 7:1 8:0 9:1 10:1 11:1 12:1 13:1 14:1 15:1 16:1 17:0 18:1 19:0 20:0 21:1 22:1 23:1 24:0 25:0 26:0 27:1 28:1 29:1 30:1 31:0 32:0 33:0 34:1 35:0 
256 0:1 1:1 2:1 3:0 4:0 5:1 6:1 7:0 8:1 9:1 10:1 11:0 12:1 13:1 14:1 15:1 16:0 17:1 18:1 19:1 20:1 21:1 22:0 23:1 24:0 25:1 26:1 27:0 28:1 29:1 30:0 31:0 32:1 33:1 34:0 35:0 
256 0:1 1:0 2:1 3:1 4:0 5:0 6:1 7:1 8:0 9:0 10:1 11:0 12:1 13:0 14:1 15:0 16:1 17:0 18:1 19:0 20:0 21:1 22:0 23:0 24:0 25:0 26:1 27:0 28:1 29:1 30:1 31:0 32:0 33:0 34:0 35:0 
256 0:1 1:1 2:1 3:1 4:1 5:0 6:1 7:1 8:1 9:0 10:0 11:1 12:1 13:1 14:1 15:1 16:0 17:0 18:1 19:0 20:1 21:0 22:0 23:0 24:0 25:1 26:1 27:0 28:0 29:0 30:1 31:0 32:0 33:0 34:0 35:0 
256 0:1 1:1 2:1 3:1 4:1 5:0 6:1 7:1 8:0 9:1 10:1 11:1 12:1 13:1 14:1 15:1 16:0 17:0 18:1 19:1 20:0 21:0 22:0 23:0 24:1 25:1 26:1 27:0 28:0 29:0 30:0 31:0 32:0 33:1 34:0 35:0 
256 0:1 1:1 2:1 3:1 4:0 5:0 6:1 7:1 8:1 9:1 10:1 11:0 12:0 13:1 14:1 15:0 16:0 17:0 18:1 19:1 20:1 21:1 22:0 23:0 24:1 25:1 26:1 27:1 28:0 29:1 30:1 31:0 32:0 33:0 34:0 35:0 
256 0:0 1:1 2:1 3:1 4:0 5:0 6:1 7:1 8:1 9:1 10:0 11:1 12:0 13:0 14:1 15:1 16:0 17:0 18:1 19:0 20:0 21:0 22:0 23:1 24:0 25:1 26:0 27:0 28:0 29:1 30:0 31:0 32:0 33:1 34:0 35:0 
256 0:1 1:1 2:1 3:1 4:0 5:1 6:0 7:1 8:1 9:1 10:1 11:1 12:0 13:1 14:1 15:1 16:0 17:0 18:1 19:0 20:1 21:1 22:0 23:0 24:0 25:1 26:1 27:1 28:0 29:1 30:1 31:0 32:0 33:1 34:1 35:1 
256 0:1 1:1 2:1 3:1 4:0 5:0 6:1 7:1 8:1 9:1 10:1 11:1 12:0 13:1 14:1 15:0 16:0 17:0 18:1 19:0 20:0 21:0 22:0 23:0 24:1 25:0 26:0 27:0 28:0 29:0 30:0 31:0 32:0 33:1 34:0 35:0 
256 0:1 1:1 2:1 3:0 4:1 5:0 6:1 7:1 8:1 9:1 10:1 11:0 12:0 13:1 14:1 15:0 16:1 17:0 18:1 19:0 20:1 21:1 22:0 23:0 24:0 25:1 26:1 27:1 28:1 29:0 30:1 31:0 32:0 33:0 34:0 35:0 
256 0:0 1:1 2:1 3:1 4:1 5:0 6:0 7:1 8:1 9:0 10:1 11:1 12:0 13:1 14:1 15:0 16:0 17:1 18:1 19:1 20:0 21:1 22:1 23:1 24:0 25:0 26:0 27:0 28:1 29:1 30:1 31:1 32:0 33:1 34:0 35:1 
256 0:1 1:0 2:1 3:1 4:0 5:1 6:0 7:1 8:0 9:0 10:0 11:1 12:1 13:0 14:0 15:0 16:0 17:0 18:0 19:0 20:0 21:1 22:0 23:0 24:1 25:1 26:1 27:1 28:0 29:0 30:1 31:0 32:0 33:1 34:0 35:1 
256 0:0 1:1 2:1 3:1 4:1 5:0 6:1 7:0 8:1 9:0 10:0 11:1 12:1 13:0 14:0 15:0 16:0 17:0 18:1 19:1 20:1 21:1 22:0 23:0 24:1 25:0 26:0 27:1 28:0 29:1 30:1 31:0 32:0 33:0 34:0 35:1 
256 0:1 1:1 2:1 3:0 4:0 5:0 6:0 7:1 8:1 9:1 10:0 11:1 12:1 13:1 14:1 15:0 16:0 17:1 18:1 19:0 20:1 21:1 22:0 23:0 24:1 25:0 26:1 27:1 28:0 29:0 30:1 31:1 32:0 33:1 34:0 35:0 
256 0:1 1:0 2:1 3:1 4:0 5:0 6:1 7:1 8:1 9:1 10:1 11:1 12:1 13:0 14:1 15:0 16:0 17:0 18:1 19:0 20:0 21:1 22:0 23:0 24:0 25:0 26:1 27:0 28:0 29:1 30:0 31:0 32:0 33:0 34:1 35:0 
256 0:1 1:1 2:1 3:1 4:1 5:0 6:0 7:1 8:1 9:1 10:0 11:1 12:1 13:1 14:1 15:0 16:0 17:0 18:1 19:0 20:0 21:0 22:1 23:0 24:0 25:1 26:1 27:0 28:0 29:1 30:0 31:0 32:0 33:0 34:0 35:0 
256 0:0 1:1 2:1 3:1 4:0 5:0 6:1 7:1 8:1 9:0 10:1 11:1 12:1 13:0 14:0 15:0 16:0 17:1 18:1 19:0 20:1 21:1 22:0 23:0 24:0 25:0 26:0 27:1 28:0 29:1 30:0 31:0 32:0 33:0 34:0 35:1 
256 0:1 1:1 2:1 3:0 4:0 5:0 6:1 7:1 8:1 9:1 10:1 11:1 12:1 13:1 14:0 15:0 16:0 17:0 18:1 19:1 20:0 21:1 22:0 23:0 24:0 25:1 26:1 27:1 28:1 29:1 30:0 31:0 32:0 33:0 34:1 35:0 
256 0:1 1:1 2:1 3:0 4:0 5:1 6:1 7:1 8:1 9:1 10:1 11:1 12:1 13:0 14:1 15:0 16:0 17:0 18:1 19:0 20:0 21:1 22:0 23:0 24:1 25:1 26:1 27:1 28:0 29:1 30:1 31:0 32:0 33:1 34:0 35:0 
256 0:1 1:1 2:0 3:1 4:0 5:1 6:0 7:1 8:1 9:0 10:0 11:1 12:1 13:0 14:1 15:1 16:0 17:0 18:1 19:0 20:1 21:0 22:0 23:0 24:0 25:0 26:0 27:0 28:0 29:0 30:1 31:1 32:1 33:1 34:0 35:0 
256 0:1 1:1 2:1 3:0 4:0 5:0 6:0 7:1 8:1 9:0 10:0 11:0 12:1 13:0 14:1 15:1 16:0 17:0 18:0 19:0 20:0 21:1 22:1 23:1 24:1 25:1 26:1 27:1 28:0 29:1 30:1 31:0 32:0 33:0 34:0 35:0 
256 0:1 1:1 2:1 3:0 4:0 5:1 6:1 7:0 8:0 9:0 10:1 11:1 12:1 13:1 14:1 15:0 16:0 17:0 18:1 19:1 20:1 21:1 22:1 23:0 24:0 25:1 26:1 27:1 28:1 29:0 30:0 31:0 32:0 33:1 34:0 35:0 
256 0:0 1:1 2:0 3:0 4:0 5:0 6:1 7:1 8:1 9:1 10:0 11:1 12:0 13:0 14:1 15:0 16:0 17:0 18:1 19:0 20:1 21:1 22:0 23:1 24:1 25:1 26:1 27:0 28:0 29:1 30:1 31:0 32:0 33:1 34:0 35:0 
256 0:1 1:1 2:1 3:1 4:0 5:0 6:1 7:1 8:1 9:0 10:1 11:1 12:0 13:1 14:0 15:0 16:0 17:0 18:1 19:1 20:0 21:1 22:0 23:0 24:1 25:1 26:1 27:1 28:1 29:0 30:0 31:0 32:0 33:0 34:0 35:0 
256 0:1 1:1 2:1 3:1 4:0 5:0 6:1 7:0 8:0 9:1 10:1 11:1 12:1 13:1 14:1 15:1 16:0 17:0 18:0 19:0 20:0 21:1 22:1 23:0 24:0 25:0 26:0 27:1 28:1 29:0 30:0 31:0 32:0 33:1 34:0 35:0 
256 0:0 1:1 2:1 3:1 4:0 5:0 6:1 7:1 8:1 9:0 10:0 11:1 12:0 13:1 14:1 15:1 16:0 17:1 18:0 19:1 20:0 21:1 22:0 23:0 24:0 25:1 26:1 27:1 28:0 29:1 30:1 31:0 32:0 33:1 34:0 35:1 
256 0:1 1:1 2:1 3:0 4:0 5:1 6:1 7:1 8:1 9:0 10:0 11:1 12:1 13:0 14:1 15:1 16:0 17:0 18:1 19:1 20:0 21:1 22:0 23:1 24:1 25:1 26:0 27:1 28:0 29:0 30:0 31:0 32:0 33:1 34:0 35:0 
256 0:1 1:1 2:0 3:1 4:1 5:0 6:1 7:1 8:1 9:1 10:0 11:0 12:1 13:1 14:1 15:1 16:0 17:0 18:1 19:0 20:0 21:1 22:1 23:0 24:1 25:1 26:0 27:1 28:1 29:1 30:1 31:0 32:0 33:0 34:0 35:0 
256 0:1 1:0 2:1 3:1 4:1 5:1 6:1 7:1 8:0 9:0 10:1 11:1 12:1 13:1 14:0 15:1 16:0 17:0 18:0 19:0 20:1 21:1 22:0 23:0 24:1 25:1 26:0 27:1 28:0 29:0 30:0 31:0 32:0 33:1 34:1 35:0 
256 0:1 1:1 2:0 3:0 4:0 5:0 6:0 7:1 8:1 9:0 10:0 11:1 12:1 13:1 14:1 15:1 16:0 17:0 18:1 19:0 20:1 21:1 22:0 23:0 24:0 25:1 26:1 27:1 28:1 29:1 30:1 31:0 32:0 33:1 34:1 35:1 
256 0:1 1:1 2:1 3:1 4:0 5:0 6:1 7:0 8:1 9:0 10:0 11:0 12:0 13:1 14:1 15:0 16:0 17:0 18:1 19:1 20:1 21:0 22:0 23:0 24:0 25:1 26:1 27:1 28:0 29:1 30:1 31:0 32:0 33:1 34:0 35:0 
256 0:1 1:1 2:0 3:1 4:1 5:0 6:1 7:0 8:1 9:0 10:0 11:1 12:1 13:1 14:1 15:0 16:1 17:0 18:1 19:0 20:0 21:1 22:0 23:0 24:0 25:1 26:1 27:1 28:1 29:1 30:1 31:0 32:0 33:1 34:0 35:0 
256 0:1 1:1 2:0 3:1 4:0 5:0 6:1 7:0 8:1 9:1 10:0 11:0 12:0 13:1 14:1 15:0 16:0 17:1 18:0 19:0 20:0 21:1 22:0 23:1 24:0 25:1 26:1 27:1 28:1 29:1 30:1 31:1 32:0 33:1 34:1 35:0 
256 0:1 1:1 2:1 3:1 4:1 5:0 6:0 7:1 8:1 9:1 10:1 11:1 12:1 13:1 14:0 15:0 16:0 17:0 18:0 19:0 20:0 21:1 22:1 23:0 24:0 25:1 26:1 27:1 28:1 29:1 30:0 31:0 32:0 33:0 34:0 35:0 
256 0:1 1:1 2:1 3:1 4:0 5:1 6:0 7:1 8:0 9:0 10:1 11:1 12:0 13:1 14:1 15:1 16:0 17:0 18:1 19:0 20:1 21:1 22:0 23:1 24:1 25:1 26:0 27:0 28:0 29:1 30:1 31:0 32:0 33:1 34:1 35:0 
256 0:1 1:1 2:1 3:0 4:0 5:0 6:1 7:1 8:0 9:0 10:1 11:1 12:1 13:0 14:1 15:1 16:1 17:0 18:1 19:0 20:1 21:1 22:0 23:1 24:0 25:1 26:1 27:1 28:0 29:1 30:1 31:1 32:0 33:1 34:0 35:0 
256 0:1 1:1 2:1 3:1 4:0 5:0 6:0 7:1 8:1 9:0 10:1 11:1 12:0 13:1 14:1 15:0 16:0 17:0 18:0 19:0 20:1 21:1 22:0 23:0 24:0 25:1 26:1 27:1 28:0 29:0 30:1 31:0 32:0 33:1 34:0 35:0 
256 0:1 1:1 2:1 3:1 4:1 5:1 6:1 7:1 8:1 9:1 10:1 11:1 12:0 13:1 14:1 15:0 16:1 17:0 18:1 19:0 20:0 21:1 22:1 23:0 24:0 25:1 26:0 27:0 28:0 29:0 30:1 31:0 32:0 33:0 34:0 35:0 
256 0:1 1:1 2:1 3:1 4:1 5:1 6:1 7:1 8:0 9:0 10:1 11:1 12:1 13:0 14:1 15:1 16:0 17:0 18:1 19:0 20:0 21:1 22:0 23:0 24:1 25:1 26:1 27:1 28:0 29:0 30:1 31:0 32:0 33:0 34:0 35:0 
256 0:1 1:0 2:1 3:1 4:0 5:1 6:1 7:1 8:1 9:1 10:0 11:0 12:1 13:0 14:0 15:1 16:0 17:0 18:1 19:0 20:0 21:1 22:1 23:0 24:0 25:1 26:1 27:1 28:1 29:1 30:1 31:0 32:0 33:1 34:1 35:0 
256 0:1 1:1 2:1 3:1 4:0 5:0 6:1 7:0 8:1 9:1 10:1 11:1 12:1 13:1 14:1 15:1 16:0 17:0 18:1 19:1 20:1 21:1 22:0 23:0 24:1 25:1 26:1 27:1 28:1 29:1 30:0 31:0 32:0 33:0 34:1 35:0 
256 0:0 1:0 2:1 3:0 4:0 5:0 6:0 7:0 8:0 9:0 10:1 11:1 12:1 13:1 14:1 15:1 16:0 17:0 18:1 19:1 20:0 21:1 22:0 23:0 24:1 25:1 26:0 27:0 28:1 29:0 30:1 31:0 32:0 33:0 34:0 35:0 
256 0:0 1:1 2:1 3:1 4:0 5:0 6:1 7:1 8:0 9:1 10:0 11:1 12:0 13:1 14:1 15:1 16:1 17:0 18:1 19:0 20:0 21:1 22:0 23:1 24:1 25:1 26:1 27:0 28:0 29:1 30:1 31:1 32:1 33:1 34:0 35:0 
256 0:1 1:1 2:0 3:1 4:0 5:0 6:0 7:1 8:1 9:0 10:1 11:1 12:0 13:1 14:1 15:0 16:1 17:0 18:1 19:0 20:1 21:1 22:0 23:1 24:0 25:0 26:0 27:0 28:1 29:1 30:0 31:0 32:0 33:0 34:1 35:0 
256 0:1 1:1 2:1 3:1 4:0 5:0 6:1 7:0 8:1 9:1 10:1 11:1 12:1 13:1 14:1 15:1 16:0 17:0 18:1 19:1 20:0 21:1 22:0 23:0 24:1 25:1 26:1 27:0 28:0 29:1 30:0 31:0 32:0 33:0 34:0 35:0 
256 0:1 1:0 2:1 3:1 4:1 5:0 6:1 7:1 8:1 9:1 10:1 11:0 12:1 13:0 14:0 15:1 16:1 17:0 18:1 19:0 20:0 21:0 22:0 23:1 24:1 25:1 26:1 27:1 28:0 29:1 30:1 31:0 32:0 33:1 34:0 35:1 
256 0:1 1:1 2:1 3:1 4:0 5:0 6:1 7:0 8:0 9:1 10:1 11:0 12:1 13:1 14:0 15:0 16:0 17:0 18:1 19:1 20:0 21:1 22:0 23:0 24:0 25:1 26:1 27:1 28:1 29:0 30:1 31:1 32:0 33:0 34:0 35:0 
256 0:1 1:1 2:0 3:0 4:0 5:0 6:0 7:1 8:0 9:1 10:1 11:1 12:1 13:0 14:1 15:0 16:1 17:0 18:1 19:0 20:0 21:0 22:0 23:0 24:0 25:1 26:1 27:1 28:1 29:1 30:0 31:0 32:0 33:1 34:0 35:0 
256 0:0 1:1 2:1 3:1 4:0 5:1 6:1 7:1 8:0 9:1 10:1 11:0 12:1 13:1 14:0 15:0 16:1 17:0 18:1 19:0 20:0 21:1 22:0 23:0 24:1 25:1 26:1 27:1 28:0 29:0 30:0 31:0 32:0 33:1 34:1 35:0 
256 0:1 1:1 2:1 3:1 4:0 5:1 6:1 7:1 8:0 9:1 10:0 11:1 12:1 13:1 14:1 15:0 16:0 17:0 18:1 19:1 20:0 21:1 22:0 23:0 24:1 25:1 26:0 27:1 28:0 29:0 30:1 31:0 32:1 33:1 34:0 35:0 
256 0:1 1:1 2:1 3:1 4:0 5:0 6:1 7:1 8:1 9:0 10:1 11:1 12:1 13:1 14:0 15:1 16:1 17:0 18:1 19:0 20:0 21:1 22:1 23:1 24:1 25:1 26:1 27:1 28:1 29:1 30:1 31:0 32:0 33:0 34:0 35:0 
256 0:1 1:1 2:0 3:1 4:0 5:0 6:0 7:1 8:1 9:1 10:1 11:1 12:1 13:1 14:1 15:1 16:0 17:0 18:0 19:0 20:0 21:1 22:1 23:1 24:0 25:0 26:1 27:0 28:0 29:1 30:0 31:0 32:0 33:1 34:0 35:0 
256 0:1 1:1 2:1 3:0 4:0 5:0 6:1 7:1 8:1 9:1 10:1 11:1 12:1 13:1 14:1 15:0 16:0 17:0 18:1 19:1 20:0 21:1 22:0 23:1 24:0 25:1 26:1 27:1 28:1 29:1 30:1 31:1 32:0 33:1 34:1 35:0 
256 0:1 1:1 2:1 3:0 4:0 5:1 6:1 7:1 8:1 9:0 10:1 11:1 12:1 13:1 14:0 15:1 16:1 17:0 18:1 19:0 20:0 21:1 22:0 23:0 24:1 25:0 26:1 27:0 28:0 29:1 30:1 31:1 32:1 33:1 34:0 35:0 
256 0:1 1:1 2:1 3:1 4:0 5:0 6:1 7:1 8:1 9:0 10:0 11:1 12:1 13:1 14:1 15:0 16:1 17:0 18:1 19:1 20:0 21:0 22:0 23:1 24:0 25:1 26:1 27:1 28:1 29:1 30:1 31:0 32:0 33:1 34:0 35:0 
256 0:1 1:1 2:0 3:0 4:0 5:0 6:1 7:1 8:0 9:0 10:1 11:1 12:1 13:1 14:1 15:1 16:0 17:1 18:0 19:0 20:0 21:1 22:1 23:0 24:0 25:1 26:1 27:1 28:1 29:1 30:1 31:1 32:0 33:1 34:0 35:1 
256 0:1 1:1 2:1 3:0 4:0 5:1 6:1 7:0 8:1 9:1 10:0 11:1 12:1 13:1 14:1 15:0 16:0 17:0 18:1 19:0 20:0 21:0 22:1 23:0 24:0 25:0 26:0 27:1 28:1 29:0 30:1 31:0 32:0 33:1 34:1 35:0 
256 0:1 1:0 2:1 3:1 4:0 5:0 6:1 7:1 8:1 9:0 10:1 11:1 12:1 13:0 14:1 15:0 16:0 17:0 18:0 19:0 20:0 21:1 22:0 23:0 24:1 25:1 26:1 27:0 28:0 29:0 30:1 31:0 32:0 33:0 34:0 35:0 
256 0:1 1:0 2:1 3:1 4:0 5:1 6:1 7:1 8:0 9:0 10:0 11:1 12:1 13:1 14:1 15:0 16:0 17:0 18:0 19:0 20:0 21:1 22:0 23:1 24:1 25:1 26:1 27:1 28:0 29:1 30:0 31:0 32:0 33:0 34:0 35:1 
256 0:1 1:1 2:1 3:1 4:1 5:1 6:0 7:1 8:1 9:1 10:1 11:1 12:1 13:0 14:1 15:1 16:0 17:0 18:1 19:1 20:1 21:1 22:0 23:0 24:1 25:1 26:1 27:1 28:1 29:1 30:1 31:1 32:1 33:1 34:0 35:1 
256 0:1 1:1 2:1 3:1 4:0 5:0 6:0 7:1 8:0 9:0 10:1 11:1 12:1 13:1 14:1 15:1 16:0 17:0 18:0 19:0 20:1 21:1 22:0 23:1 24:0 25:0 26:0 27:0 28:1 29:0 30:0 31:1 32:0 33:0 34:1 35:0 
256 0:1 1:1 2:0 3:1 4:1 5:1 6:1 7:1 8:1 9:1 10:1 11:1 12:1 13:1 14:1 15:1 16:0 17:0 18:1 19:0 20:1 21:1 22:0 23:0 24:1 25:1 26:1 27:1 28:0 29:1 30:1 31:0 32:0 33:1 34:1 35:0 
256 0:1 1:1 2:1 3:1 4:0 5:0 6:1 7:1 8:1 9:1 10:1 11:0 12:1 13:1 14:0 15:1 16:0 17:0 18:1 19:0 20:0 21:1 22:0 23:1 24:1 25:1 26:0 27:1 28:1 29:0 30:1 31:0 32:1 33:1 34:1 35:1 
256 0:0 1:1 2:1 3:1 4:0 5:0 6:1 7:1 8:1 9:1 10:1 11:1 12:1 13:0 14:1 15:0 16:0 17:0 18:0 19:0 20:0 21:1 22:0 23:1 24:0 25:1 26:1 27:1 28:1 29:1 30:0 31:0 32:0 33:1 34:0 35:0 
256 0:0 1:1 2:0 3:1 4:1 5:1 6:0 7:1 8:1 9:0 10:1 11:1 12:0 13:1 14:0 15:1 16:0 17:0 18:1 19:0 20:0 21:1 22:0 23:0 24:0 25:0 26:0 27:1 28:1 29:0 30:0 31:0 32:0 33:1 34:0 35:0 
256 0:1 1:1 2:1 3:1 4:1 5:1 6:1 7:0 8:1 9:1 10:1 11:1 12:1 13:1 14:1 15:1 16:1 17:0 18:1 19:0 20:0 21:1 22:1 23:0 24:1 25:1 26:1 27:0 28:1 29:0 30:1 31:1 32:1 33:1 34:0 35:0 
256 0:1 1:1 2:1 3:1 4:0 5:0 6:0 7:1 8:1 9:1 10:1 11:1 12:0 13:0 14:1 15:0 16:0 17:0 18:1 19:0 20:0 21:1 22:0 23:1 24:1 25:1 26:0 27:1 28:0 29:0 30:0 31:0 32:0 33:1 34:0 35:0 
256 0:1 1:1 2:1 3:0 4:0 5:0 6:1 7:1 8:1 9:1 10:0 11:0 12:1 13:1 14:1 15:1 16:0 17:0 18:0 19:0 20:0 21:1 22:0 23:1 24:0 25:1 26:0 27:1 28:1 29:1 30:1 31:0 32:0 33:1 34:0 35:1 
256 0:1 1:1 2:1 3:1 4:1 5:1 6:1 7:1 8:1 9:1 10:1 11:1 12:1 13:1 14:1 15:0 16:0 17:0 18:1 19:0 20:0 21:1 22:1 23:0 24:0 25:1 26:0 27:1 28:0 29:0 30:1 31:0 32:0 33:1 34:0 35:0 
256 0:0 1:0 2:1 3:0 4:0 5:0 6:1 7:0 8:1 9:1 10:1 11:1 12:0 13:1 14:1 15:1 16:1 17:0 18:1 19:0 20:1 21:1 22:0 23:0 24:1 25:1 26:1 27:1 28:0 29:1 30:1 31:0 32:0 33:0 34:0 35:0 
256 0:1 1:1 2:1 3:1 4:0 5:1 6:1 7:1 8:1 9:0 10:0 11:0 12:0 13:1 14:1 15:1 16:1 17:0 18:0 19:0 20:0 21:1 22:0 23:0 24:1 25:1 26:1 27:0 28:1 29:0 30:1 31:0 32:0 33:0 34:1 35:1 
256 0:1 1:1 2:1 3:1 4:1 5:1 6:1 7:1 8:0 9:1 10:1 11:1 12:1 13:0 14:0 15:1 16:0 17:0 18:1 19:0 20:0 21:1 22:0 23:1 24:1 25:1 26:1 27:1 28:1 29:0 30:1 31:0 32:0 33:1 34:1 35:0 
256 0:1 1:1 2:1 3:1 4:0 5:0 6:1 7:1 8:0 9:1 10:1 11:1 12:0 13:1 14:0 15:0 16:1 17:1 18:1 19:0 20:0 21:1 22:0 23:0 24:1 25:1 26:1 27:0 28:0 29:0 30:0 31:0 32:0 33:0 34:0 35:0 
256 0:0 1:0 2:1 3:1 4:1 5:1 6:1 7:1 8:0 9:0 10:1 11:0 12:1 13:1 14:1 15:0 16:0 17:0 18:1 19:0 20:0 21:1 22:0 23:1 24:1 25:1 26:1 27:1 28:0 29:1 30:0 31:1 32:0 33:1 34:0 35:0 
256 0:1 1:1 2:1 3:0 4:0 5:0 6:1 7:1 8:0 9:0 10:1 11:1 12:1 13:1 14:0 15:1 16:0 17:0 18:1 19:1 20:0 21:1 22:0 23:0 24:0 25:0 26:1 27:1 28:1 29:1 30:0 31:1 32:0 33:1 34:1 35:0 
256 0:1 1:1 2:1 3:1 4:0 5:1 6:0 7:0 8:1 9:1 10:1 11:1 12:0 13:1 14:1 15:0 16:0 17:0 18:1 19:0 20:0 21:1 22:0 23:1 24:0 25:0 26:0 27:0 28:1 29:0 30:1 31:0 32:1 33:0 34:0 35:0 
256 0:1 1:1 2:1 3:0 4:0 5:0 6:0 7:1 8:1 9:1 10:1 11:1 12:1 13:0 14:1 15:0 16:0 17:0 18:0 19:0 20:0 21:1 22:0 23:1 24:1 25:1 26:1 27:0 28:0 29:1 30:0 31:0 32:0 33:0 34:1 35:0 
256 0:1 1:1 2:1 3:0 4:0 5:1 6:1 7:1 8:1 9:0 10:1 11:1 12:1 13:1 14:1 15:1 16:1 17:0 18:1 19:1 20:1 21:1 22:0 23:1 24:1 25:1 26:1 27:1 28:0 29:0 30:1 31:0 32:0 33:1 34:0 35:0 
256 0:1 1:1 2:1 3:1 4:0 5:0 6:1 7:0 8:1 9:1 10:1 11:1 12:1 13:1 14:1 15:0 16:1 17:1 18:0 19:0 20:1 21:1 22:0 23:0 24:0 25:0 26:1 27:1 28:0 29:0 30:0 31:0 32:0 33:1 34:1 35:0 
256 0:0 1:1 2:1 3:0 4:0 5:1 6:1 7:1 8:1 9:0 10:0 11:0 12:1 13:1 14:1 15:1 16:0 17:0 18:0 19:0 20:1 21:0 22:0 23:0 24:0 25:1 26:1 27:0 28:0 29:1 30:1 31:0 32:0 33:1 34:1 35:0 
256 0:1 1:1 2:0 3:1 4:0 5:0 6:1 7:0 8:0 9:1 10:1 11:1 12:1 13:1 14:1 15:0 16:0 17:0 18:1 19:0 20:0 21:1 22:0 23:1 24:1 25:1 26:0 27:1 28:1 29:0 30:0 31:0 32:0 33:0 34:0 35:0 
256 0:1 1:1 2:0 3:0 4:0 5:0 6:1 7:1 8:1 9:1 10:1 11:0 12:1 13:1 14:0 15:0 16:0 17:0 18:0 19:0 20:0 21:1 22:1 23:0 24:0 25:1 26:1 27:1 28:1 29:1 30:1 31:0 32:0 33:0 34:0 35:1 
256 0:1 1:1 2:1 3:1 4:1 5:1 6:1 7:1 8:0 9:1 10:1 11:0 12:1 13:1 14:1 15:0 16:0 17:0 18:0 19:0 20:1 21:1 22:0 23:0 24:1 25:1 26:1 27:0 28:0 29:0 30:0 31:0 32:0 33:1 34:1 35:0 
256 0:0 1:1 2:0 3:1 4:0 5:0 6:1 7:1 8:1 9:0 10:1 11:1 12:1 13:0 14:1 15:1 16:0 17:1 18:0 19:0 20:1 21:1 22:0 23:1 24:0 25:0 26:1 27:0 28:0 29:1 30:1 31:1 32:1 33:0 34:0 35:0 
256 0:0 1:0 2:1 3:1 4:0 5:0 6:1 7:1 8:0 9:1 10:0 11:1 12:1 13:0 14:1 15:1 16:1 17:0 18:1 19:0 20:0 21:1 22:0 23:0 24:1 25:1 26:1 27:1 28:1 29:1 30:1 31:0 32:0 33:0 34:1 35:0 
256 0:1 1:1 2:1 3:0 4:0 5:0 6:1 7:1 8:1 9:0 10:1 11:0 12:0 13:1 14:1 15:1 16:0 17:0 18:1 19:0 20:0 21:1 22:0 23:1 24:1 25:1 26:1 27:0 28:1 29:1 30:1 31:0 32:0 33:0 34:1 35:0 
256 0:1 1:1 2:1 3:1 4:0 5:0 6:0 7:0 8:1 9:1 10:1 11:0 12:0 13:1 14:1 15:1 16:0 17:0 18:1 19:0 20:0 21:0 22:0 23:0 24:1 25:1 26:1 27:0 28:1 29:0 30:0 31:0 32:0 33:0 34:0 35:0 
256 0:1 1:1 2:1 3:1 4:0 5:0 6:1 7:1 8:0 9:1 10:1 11:1 12:1 13:1 14:1 15:1 16:0 17:0 18:1 19:0 20:0 21:1 22:1 23:0 24:1 25:1 26:0 27:1 28:1 29:1 30:0 31:0 32:0 33:1 34:0 35:1 
256 0:1 1:1 2:1 3:1 4:0 5:0 6:0 7:1 8:1 9:1 10:1 11:1 12:1 13:0 14:1 15:0 16:0 17:0 18:1 19:0 20:0 21:1 22:0 23:0 24:1 25:0 26:1 27:1 28:1 29:1 30:1 31:1 32:0 33:0 34:1 35:0 
256 0:0 1:1 2:1 3:1 4:0 5:0 6:0 7:1 8:0 9:0 10:1 11:1 12:1 13:1 14:1 15:0 16:0 17:0 18:1 19:0 20:0 21:1 22:0 23:1 24:0 25:1 26:1 27:1 28:1 29:1 30:1 31:0 32:0 33:1 34:1 35:0 
256 0:1 1:1 2:1 3:0 4:0 5:0 6:1 7:1 8:1 9:1 10:1 11:1 12:1 13:1 14:1 15:1 16:0 17:0 18:1 19:0 20:0 21:1 22:0 23:1 24:1 25:1 26:1 27:0 28:1 29:1 30:0 31:0 32:0 33:0 34:1 35:0 
256 0:1 1:1 2:1 3:1 4:1 5:0 6:0 7:1 8:1 9:1 10:1 11:1 12:1 13:0 14:1 15:1 16:1 17:0 18:1 19:1 20:1 21:1 22:0 23:0 24:0 25:1 26:1 27:1 28:0 29:0 30:0 31:0 32:0 33:1 34:0 35:0 
256 0:1 1:1 2:0 3:1 4:1 5:0 6:1 7:1 8:1 9:0 10:1 11:1 12:1 13:1 14:0 15:1 16:0 17:0 18:0 19:0 20:0 21:1 22:0 23:0 24:0 25:1 26:1 27:1 28:1 29:0 30:1 31:0 32:0 33:1 34:1 35:0 
256 0:1 1:1 2:1 3:1 4:0 5:0 6:1 7:1 8:1 9:0 10:1 11:1 12:1 13:1 14:1 15:1 16:1 17:1 18:0 19:0 20:1 21:1 22:0 23:1 24:0 25:0 26:1 27:1 28:1 29:1 30:1 31:1 32:0 33:1 34:0 35:0 
256 0:1 1:1 2:1 3:1 4:1 5:0 6:1 7:1 8:0 9:1 10:0 11:0 12:1 13:1 14:1 15:0 16:0 17:0 18:1 19:1 20:1 21:1 22:0 23:0 24:0 25:1 26:1 27:0 28:0 29:0 30:1 31:0 32:0 33:0 34:1 35:0 
256 0:1 1:1 2:1 3:1 4:0 5:1 6:1 7:1 8:1 9:1 10:1 11:1 12:1 13:1 14:0 15:1 16:0 17:0 18:1 19:0 20:0 21:1 22:0 23:0 24:1 25:0 26:0 27:0 28:0 29:0 30:0 31:0 32:0 33:1 34:0 35:0 
256 0:1 1:0 2:1 3:1 4:0 5:0 6:1 7:0 8:1 9:0 10:0 11:1 12:1 13:1 14:1 15:1 16:0 17:0 18:1 19:0 20:1 21:0 22:1 23:0 24:0 25:1 26:1 27:0 28:1 29:1 30:0 31:1 32:0 33:1 34:0 35:0 
256 0:1 1:1 2:1 3:1 4:0 5:0 6:1 7:1 8:1 9:0 10:1 11:1 12:1 13:1 14:1 15:0 16:0 17:1 18:1 19:0 20:0 21:1 22:0 23:0 24:0 25:0 26:0 27:0 28:1 29:0 30:0 31:0 32:0 33:1 34:1 35:0 
256 0:0 1:0 2:1 3:1 4:0 5:1 6:0 7:1 8:1 9:0 10:0 11:1 12:1 13:1 14:1 15:1 16:0 17:0 18:0 19:0 20:0 21:1 22:0 23:1 24:1 25:1 26:1 27:1 28:0 29:1 30:1 31:0 32:0 33:1 34:0 35:0 
256 0:0 1:1 2:1 3:0 4:0 5:0 6:1 7:1 8:1 9:0 10:1 11:1 12:1 13:1 14:1 15:0 16:0 17:1 18:1 19:1 20:0 21:1 22:0 23:0 24:1 25:1 26:1 27:1 28:1 29:0 30:1 31:1 32:0 33:1 34:0 35:0 
256 0:1 1:1 2:0 3:1 4:0 5:1 6:1 7:1 8:1 9:1 10:0 11:1 12:1 13:1 14:1 15:1 16:1 17:1 18:0 19:1 20:1 21:1 22:1 23:1 24:1 25:1 26:1 27:1 28:1 29:0 30:1 31:1 32:1 33:0 34:0 35:0 
256 0:0 1:1 2:1 3:0 4:0 5:1 6:1 7:1 8:1 9:1 10:1 11:0 12:1 13:1 14:1 15:0 16:0 17:0 18:0 19:0 20:0 21:0 22:1 23:0 24:0 25:1 26:1 27:1 28:0 29:0 30:0 31:0 32:0 33:1 34:0 35:0 
256 0:0 1:1 2:0 3:1 4:0 5:0 6:1 7:0 8:0 9:0 10:0 11:0 12:0 13:1 14:0 15:1 16:1 17:0 18:1 19:0 20:0 21:0 22:0 23:1 24:1 25:1 26:0 27:0 28:1 29:1 30:1 31:0 32:0 33:0 34:0 35:0 
256 0:1 1:1 2:0 3:1 4:0 5:0 6:1 7:1 8:1 9:0 10:1 11:0 12:1 13:0 14:1 15:1 16:1 17:0 18:1 19:0 20:0 21:1 22:0 23:1 24:1 25:1 26:1 27:1 28:1 29:1 30:1 31:0 32:0 33:0 34:0 35:0 
56.31369870264594 0:1 1:1 2:1 3:1 4:0 5:0 6:1 7:1 8:1 9:1 10:1 11:1 12:1 13:0 14:1 15:1 16:0 17:0 18:1 19:0 20:0 21:1 22:0 23:0 24:0 25:1 26:1 27:1 28:0 29:0 30:0 31:0 32:1 33:0 34:0 35:0 
256 0:1 1:1 2:1 3:1 4:0 5:0 6:1 7:1 8:0 9:1 10:1 11:1 12:1 13:0 14:1 15:0 16:0 17:0 18:1 19:0 20:0 21:1 22:0 23:1 24:1 25:0 26:0 27:1 28:1 29:1 30:1 31:0 32:0 33:1 34:0 35:0 
256 0:1 1:1 2:1 3:0 4:0 5:0 6:1 7:1 8:1 9:0 10:1 11:1 12:1 13:0 14:1 15:1 16:0 17:0 18:1 19:0 20:0 21:0 22:0 23:0 24:0 25:0 26:0 27:1 28:1 29:0 30:0 31:0 32:0 33:1 34:0 35:0 
256 0:0 1:1 2:1 3:0 4:0 5:1 6:0 7:0 8:1 9:1 10:1 11:1 12:1 13:1 14:1 15:1 16:0 17:0 18:1 19:1 20:0 21:0 22:0 23:1 24:1 25:1 26:0 27:0 28:0 29:0 30:1 31:0 32:0 33:0 34:0 35:0 
256 0:1 1:1 2:0 3:0 4:1 5:1 6:1 7:1 8:1 9:1 10:1 11:0 12:1 13:0 14:0 15:0 16:0 17:0 18:1 19:0 20:0 21:1 22:0 23:1 24:1 25:1 26:0 27:1 28:0 29:1 30:0 31:1 32:0 33:1 34:0 35:0 
256 0:1 1:1 2:0 3:1 4:0 5:0 6:1 7:1 8:0 9:0 10:0 11:0 12:1 13:1 14:1 15:1 16:1 17:0 18:1 19:1 20:0 21:1 22:0 23:0 24:1 25:1 26:1 27:1 28:0 29:0 30:0 31:1 32:0 33:0 34:0 35:0 
256 0:0 1:1 2:0 3:0 4:0 5:0 6:0 7:1 8:1 9:1 10:1 11:1 12:1 13:1 14:0 15:0 16:0 17:0 18:1 19:0 20:0 21:1 22:0 23:1 24:1 25:1 26:1 27:1 28:1 29:1 30:1 31:0 32:0 33:1 34:1 35:0 
256 0:0 1:1 2:1 3:1 4:0 5:0 6:1 7:1 8:1 9:1 10:1 11:1 12:1 13:1 14:1 15:1 16:0 17:0 18:1 19:0 20:1 21:1 22:1 23:0 24:1 25:1 26:1 27:0 28:1 29:0 30:1 31:0 32:0 33:1 34:0 35:0 
256 0:1 1:1 2:1 3:1 4:0 5:1 6:0 7:1 8:1 9:0 10:0 11:1 12:1 13:1 14:1 15:0 16:0 17:0 18:0 19:0 20:0 21:1 22:0 23:1 24:1 25:0 26:0 27:0 28:0 29:1 30:1 31:1 32:0 33:0 34:0 35:1 
256 0:1 1:1 2:1 3:1 4:0 5:0 6:1 7:1 8:1 9:0 10:1 11:1 12:1 13:1 14:1 15:0 16:0 17:0 18:0 19:0 20:0 21:1 22:0 23:1 24:1 25:1 26:1 27:1 28:0 29:1 30:0 31:1 32:0 33:1 34:0 35:0 
256 0:0 1:1 2:1 3:1 4:0 5:0 6:1 7:1 8:1 9:1 10:1 11:1 12:0 13:1 14:1 15:1 16:0 17:0 18:1 19:0 20:0 21:1 22:0 23:1 24:1 25:1 26:1 27:0 28:1 29:0 30:1 31:0 32:0 33:0 34:1 35:0 
256 0:1 1:1 2:1 3:1 4:1 5:0 6:0 7:1 8:1 9:0 10:1 11:1 12:1 13:1 14:1 15:1 16:0 17:1 18:1 19:0 20:1 21:1 22:0 23:0 24:1 25:1 26:1 27:1 28:1 29:1 30:0 31:0 32:0 33:0 34:1 35:0 
256 0:0 1:1 2:1 3:0 4:0 5:0 6:1 7:1 8:1 9:1 10:1 11:0 12:0 13:1 14:1 15:0 16:0 17:1 18:1 19:1 20:0 21:1 22:0 23:1 24:0 25:1 26:1 27:0 28:1 29:1 30:1 31:0 32:0 33:0 34:0 35:1 
256 0:1 1:1 2:1 3:0 4:0 5:0 6:1 7:1 8:0 9:1 10:1 11:0 12:1 13:1 14:1 15:1 16:0 17:0 18:1 19:1 20:0 21:1 22:0 23:1 24:1 25:0 26:1 27:1 28:1 29:1 30:0 31:0 32:0 33:0 34:0 35:0 
256 0:1 1:1 2:1 3:1 4:0 5:0 6:1 7:1 8:0 9:0 10:1 11:1 12:1 13:1 14:1 15:0 16:0 17:0 18:1 19:0 20:1 21:1 22:1 23:0 24:0 25:0 26:1 27:1 28:1 29:0 30:1 31:0 32:0 33:1 34:0 35:0 
256 0:1 1:1 2:0 3:1 4:0 5:0 6:0 7:1 8:1 9:1 10:1 11:1 12:1 13:1 14:1 15:0 16:0 17:0 18:1 19:1 20:0 21:1 22:0 23:0 24:0 25:1 26:1 27:1 28:1 29:0 30:1 31:0 32:0 33:1 34:0 35:0 
256 0:0 1:1 2:1 3:0 4:0 5:0 6:1 7:1 8:1 9:1 10:1 11:1 12:1 13:0 14:1 15:0 16:0 17:0 18:1 19:0 20:0 21:1 22:0 23:0 24:1 25:1 26:1 27:1 28:1 29:1 30:1 31:1 32:0 33:1 34:1 35:1 
256 0:1 1:1 2:1 3:0 4:1 5:0 6:1 7:1 8:1 9:0 10:1 11:1 12:1 13:1 14:1 15:1 16:1 17:0 18:1 19:0 20:0 21:1 22:0 23:0 24:0 25:1 26:0 27:1 28:1 29:0 30:1 31:0 32:0 33:0 34:0 35:1 
256 0:1 1:1 2:0 3:1 4:0 5:0 6:1 7:1 8:1 9:0 10:1 11:1 12:1 13:1 14:1 15:1 16:0 17:0 18:1 19:0 20:0 21:1 22:0 23:1 24:1 25:1 26:1 27:0 28:0 29:1 30:1 31:1 32:1 33:1 34:1 35:1 
256 0:1 1:1 2:1 3:1 4:0 5:0 6:1 7:1 8:1 9:1 10:1 11:0 12:1 13:1 14:1 15:1 16:0 17:0 18:0 19:1 20:1 21:1 22:0 23:1 24:0 25:1 26:1 27:1 28:1 29:1 30:1 31:0 32:0 33:0 34:0 35:0 
256 0:1 1:1 2:1 3:0 4:0 5:0 6:1 7:1 8:1 9:1 10:0 11:0 12:1 13:0 14:1 15:0 16:0 17:1 18:1 19:1 20:1 21:1 22:0 23:0 24:1 25:1 26:0 27:0 28:1 29:1 30:0 31:0 32:0 33:0 34:1 35:0 
256 0:1 1:1 2:1 3:0 4:0 5:0 6:1 7:1 8:1 9:0 10:1 11:1 12:1 13:0 14:1 15:1 16:1 17:1 18:0 19:0 20:0 21:0 22:0 23:0 24:0 25:0 26:1 27:1 28:1 29:0 30:0 31:0 32:0 33:1 34:0 35:0 
256 0:1 1:1 2:1 3:1 4:0 5:0 6:1 7:0 8:1 9:0 10:1 11:0 12:1 13:1 14:1 15:0 16:0 17:0 18:1 19:1 20:0 21:1 22:0 23:0 24:1 25:1 26:0 27:1 28:1 29:1 30:0 31:0 32:0 33:0 34:0 35:0 
256 0:1 1:0 2:1 3:1 4:0 5:1 6:1 7:1 8:1 9:1 10:1 11:1 12:1 13:1 14:1 15:1 16:0 17:0 18:0 19:0 20:0 21:1 22:0 23:0 24:0 25:0 26:0 27:1 28:1 29:0 30:0 31:0 32:0 33:0 34:1 35:0 
256 0:0 1:1 2:1 3:1 4:0 5:0 6:0 7:1 8:1 9:0 10:0 11:1 12:1 13:0 14:1 15:1 16:1 17:1 18:1 19:1 20:0 21:1 22:1 23:1 24:1 25:1 26:1 27:0 28:1 29:1 30:1 31:0 32:0 33:0 34:1 35:0 
256 0:1 1:0 2:0 3:1 4:1 5:0 6:1 7:0 8:1 9:1 10:1 11:1 12:1 13:0 14:1 15:0 16:0 17:0 18:1 19:0 20:0 21:1 22:0 23:1 24:1 25:1 26:1 27:1 28:1 29:1 30:1 31:0 32:0 33:1 34:1 35:0 
256 0:0 1:1 2:1 3:1 4:1 5:1 6:1 7:1 8:1 9:1 10:1 11:1 12:1 13:1 14:1 15:1 16:1 17:0 18:1 19:0 20:0 21:1 22:1 23:0 24:1 25:1 26:1 27:1 28:0 29:1 30:1 31:0 32:1 33:0 34:0 35:0 
256 0:1 1:1 2:1 3:1 4:0 5:0 6:1 7:1 8:1 9:1 10:0 11:0 12:1 13:1 14:1 15:0 16:0 17:0 18:1 19:0 20:0 21:1 22:1 23:0 24:1 25:1 26:1 27:0 28:1 29:1 30:0 31:0 32:0 33:0 34:1 35:0 
256 0:1 1:1 2:1 3:1 4:0 5:0 6:1 7:1 8:1 9:1 10:1 11:0 12:1 13:1 14:0 15:0 16:0 17:0 18:1 19:0 20:1 21:0 22:1 23:1 24:1 25:1 26:1 27:0 28:1 29:1 30:0 31:0 32:1 33:0 34:0 35:1 
256 0:1 1:0 2:0 3:0 4:0 5:0 6:1 7:1 8:1 9:1 10:1 11:1 12:1 13:0 14:0 15:0 16:0 17:1 18:1 19:0 20:0 21:1 22:0 23:0 24:1 25:1 26:0 27:0 28:1 29:1 30:1 31:1 32:1 33:0 34:0 35:0 
256 0:1 1:1 2:1 3:1 4:0 5:1 6:1 7:1 8:1 9:1 10:1 11:1 12:0 13:0 14:1 15:1 16:1 17:0 18:1 19:0 20:1 21:1 22:0 23:0 24:1 25:0 26:0 27:1 28:1 29:1 30:0 31:0 32:0 33:1 34:0 35:1 
256 0:0 1:1 2:1 3:1 4:1 5:0 6:1 7:1 8:1 9:0 10:0 11:1 12:1 13:1 14:1 15:1 16:0 17:0 18:0 19:0 20:0 21:1 22:0 23:1 24:0 25:1 26:1 27:0 28:1 29:0 30:0 31:0 32:1 33:0 34:0 35:0 
256 0:1 1:1 2:1 3:1 4:0 5:0 6:1 7:0 8:1 9:1 10:0 11:1 12:0 13:1 14:1 15:1 16:0 17:0 18:1 19:1 20:1 21:1 22:0 23:0 24:0 25:1 26:1 27:0 28:1 29:1 30:0 31:0 32:0 33:0 34:1 35:0 
256 0:1 1:1 2:1 3:0 4:0 5:0 6:0 7:0 8:0 9:0 10:1 11:1 12:1 13:1 14:1 15:0 16:0 17:0 18:1 19:0 20:1 21:0 22:0 23:0 24:1 25:0 26:1 27:0 28:1 29:1 30:1 31:0 32:0 33:1 34:1 35:0 
256 0:1 1:0 2:1 3:0 4:1 5:0 6:0 7:0 8:1 9:1 10:1 11:1 12:1 13:0 14:1 15:0 16:0 17:0 18:0 19:1 20:1 21:0 22:1 23:1 24:1 25:1 26:1 27:0 28:1 29:0 30:1 31:0 32:0 33:1 34:0 35:0 
256 0:0 1:0 2:1 3:1 4:0 5:1 6:1 7:1 8:1 9:0 10:1 11:1 12:1 13:1 14:1 15:1 16:0 17:0 18:0 19:0 20:0 21:1 22:0 23:1 24:1 25:1 26:0 27:1 28:0 29:1 30:1 31:1 32:0 33:1 34:0 35:0 
237.1245593858863 0:1 1:1 2:0 3:0 4:0 5:0 6:0 7:1 8:1 9:1 10:1 11:1 12:1 13:1 14:1 15:1 16:0 17:0 18:1 19:1 20:0 21:1 22:0 23:0 24:1 25:1 26:1 27:0 28:0 29:0 30:1 31:0 32:0 33:1 34:0 35:0 
256 0:1 1:0 2:1 3:1 4:0 5:0 6:0 7:1 8:1 9:0 10:0 11:0 12:1 13:0 14:1 15:1 16:1 17:0 18:0 19:0 20:0 21:0 22:0 23:0 24:1 25:1 26:1 27:1 28:1 29:1 30:0 31:0 32:0 33:0 34:0 35:1 
