svm_type c_svc
kernel_type rbf
gamma 3.05176e-005
nr_class 2
total_sv 3295
rho 14.9455
label 1 0
nr_sv 1645 1650
SV
512 0:1 1:1 2:1 3:1 4:1 5:0 6:1 7:1 8:0 9:0 10:0 11:0 12:0 13:0 14:1 15:1 16:0 17:0 18:1 19:0 20:0 21:1 22:0 23:1 24:0 25:0 26:1 27:1 28:1 29:1 30:1 31:1 32:1 33:1 34:0 35:1 36:0 37:0 38:1 39:0 40:0 41:3 42:0 43:0 44:5 
512 0:1 1:1 2:1 3:0 4:0 5:0 6:1 7:1 8:1 9:1 10:1 11:1 12:1 13:0 14:0 15:1 16:1 17:0 18:1 19:0 20:0 21:1 22:1 23:0 24:0 25:0 26:1 27:1 28:1 29:1 30:1 31:1 32:0 33:1 34:0 35:0 36:0 37:1 38:2 39:0 40:2 41:7 42:0 43:4 44:16 
512 0:0 1:1 2:1 3:0 4:0 5:0 6:1 7:0 8:1 9:0 10:1 11:0 12:1 13:0 14:0 15:0 16:0 17:0 18:1 19:1 20:0 21:1 22:1 23:0 24:1 25:0 26:1 27:0 28:1 29:0 30:1 31:1 32:1 33:0 34:0 35:0 36:1 37:0 38:1 39:2 40:0 41:2 42:2 43:0 44:3 
512 0:0 1:1 2:1 3:1 4:1 5:0 6:1 7:1 8:0 9:1 10:1 11:0 12:1 13:1 14:1 15:0 16:0 17:0 18:1 19:0 20:0 21:1 22:0 23:1 24:0 25:1 26:1 27:1 28:0 29:1 30:1 31:0 32:0 33:1 34:0 35:0 36:0 37:0 38:2 39:1 40:0 41:5 42:1 43:1 44:9 
512 0:1 1:1 2:0 3:1 4:0 5:0 6:1 7:1 8:0 9:1 10:1 11:1 12:1 13:1 14:0 15:0 16:0 17:0 18:1 19:0 20:0 21:1 22:0 23:1 24:1 25:1 26:1 27:1 28:0 29:1 30:1 31:1 32:1 33:1 34:0 35:0 36:0 37:0 38:1 39:0 40:0 41:2 42:0 43:0 44:4 
512 0:0 1:1 2:0 3:1 4:0 5:0 6:0 7:1 8:0 9:1 10:1 11:1 12:1 13:1 14:1 15:1 16:1 17:0 18:1 19:0 20:0 21:1 22:0 23:0 24:0 25:1 26:1 27:1 28:0 29:0 30:1 31:1 32:1 33:0 34:0 35:0 36:0 37:0 38:1 39:0 40:0 41:2 42:0 43:0 44:3 
512 0:1 1:1 2:0 3:0 4:1 5:1 6:1 7:1 8:1 9:0 10:1 11:0 12:1 13:1 14:1 15:0 16:0 17:0 18:1 19:1 20:0 21:1 22:1 23:0 24:1 25:1 26:1 27:1 28:0 29:1 30:1 31:0 32:1 33:1 34:0 35:0 36:0 37:0 38:1 39:0 40:1 41:2 42:1 43:1 44:7 
512 0:1 1:1 2:1 3:1 4:0 5:1 6:1 7:0 8:1 9:0 10:1 11:0 12:0 13:1 14:1 15:1 16:0 17:0 18:1 19:0 20:1 21:1 22:0 23:0 24:1 25:1 26:1 27:1 28:1 29:0 30:1 31:1 32:0 33:0 34:0 35:0 36:0 37:0 38:1 39:0 40:0 41:2 42:0 43:0 44:3 
512 0:1 1:1 2:1 3:1 4:1 5:0 6:1 7:1 8:1 9:1 10:1 11:0 12:1 13:1 14:1 15:1 16:1 17:1 18:1 19:0 20:1 21:1 22:0 23:0 24:1 25:1 26:0 27:1 28:0 29:1 30:1 31:1 32:0 33:1 34:0 35:0 36:0 37:1 38:1 39:0 40:1 41:2 42:0 43:1 44:3 
512 0:0 1:1 2:0 3:1 4:0 5:1 6:0 7:1 8:1 9:1 10:0 11:1 12:1 13:1 14:1 15:1 16:0 17:0 18:0 19:0 20:1 21:1 22:0 23:0 24:0 25:1 26:1 27:1 28:0 29:0 30:0 31:0 32:0 33:1 34:0 35:0 36:0 37:0 38:1 39:0 40:0 41:2 42:0 43:0 44:3 
512 0:1 1:1 2:1 3:1 4:0 5:0 6:1 7:1 8:1 9:1 10:1 11:0 12:1 13:0 14:1 15:1 16:0 17:0 18:1 19:0 20:0 21:1 22:0 23:0 24:1 25:0 26:1 27:1 28:0 29:1 30:0 31:0 32:0 33:1 34:0 35:0 36:0 37:0 38:1 39:0 40:0 41:2 42:0 43:1 44:4 
512 0:1 1:1 2:0 3:1 4:0 5:0 6:1 7:0 8:1 9:1 10:0 11:0 12:1 13:1 14:0 15:0 16:0 17:0 18:1 19:0 20:0 21:1 22:0 23:0 24:0 25:0 26:1 27:0 28:0 29:1 30:1 31:0 32:0 33:0 34:0 35:1 36:0 37:0 38:1 39:0 40:0 41:3 42:0 43:0 44:5 
512 0:1 1:1 2:1 3:1 4:0 5:0 6:1 7:1 8:1 9:0 10:1 11:1 12:1 13:0 14:1 15:0 16:0 17:0 18:1 19:0 20:0 21:1 22:0 23:0 24:1 25:1 26:1 27:1 28:1 29:1 30:0 31:0 32:0 33:1 34:1 35:0 36:0 37:1 38:3 39:0 40:2 41:9 42:0 43:3 44:19 
512 0:0 1:1 2:1 3:1 4:0 5:0 6:0 7:1 8:1 9:1 10:1 11:0 12:1 13:1 14:0 15:0 16:0 17:0 18:1 19:0 20:1 21:1 22:0 23:0 24:0 25:0 26:0 27:0 28:1 29:0 30:0 31:0 32:0 33:1 34:0 35:0 36:0 37:0 38:2 39:0 40:0 41:5 42:0 43:1 44:8 
512 0:1 1:1 2:1 3:1 4:0 5:1 6:1 7:1 8:1 9:1 10:1 11:1 12:1 13:1 14:0 15:0 16:0 17:0 18:0 19:0 20:0 21:1 22:0 23:0 24:0 25:1 26:0 27:1 28:0 29:0 30:0 31:0 32:0 33:1 34:0 35:0 36:0 37:0 38:1 39:0 40:0 41:4 42:1 43:0 44:8 
512 0:1 1:0 2:1 3:1 4:0 5:0 6:1 7:1 8:0 9:1 10:1 11:1 12:1 13:1 14:0 15:1 16:0 17:0 18:1 19:1 20:1 21:1 22:0 23:0 24:0 25:1 26:0 27:0 28:1 29:0 30:1 31:0 32:1 33:1 34:0 35:0 36:0 37:1 38:1 39:0 40:1 41:3 42:0 43:2 44:7 
512 0:1 1:1 2:1 3:1 4:0 5:0 6:1 7:1 8:1 9:1 10:0 11:1 12:1 13:1 14:1 15:1 16:1 17:0 18:0 19:0 20:0 21:1 22:1 23:0 24:0 25:0 26:1 27:1 28:1 29:0 30:0 31:0 32:1 33:1 34:1 35:0 36:0 37:1 38:4 39:0 40:3 41:12 42:0 43:3 44:23 
512 0:1 1:1 2:0 3:1 4:1 5:0 6:1 7:1 8:0 9:1 10:1 11:1 12:0 13:1 14:1 15:0 16:0 17:0 18:1 19:0 20:1 21:0 22:1 23:0 24:0 25:1 26:1 27:0 28:1 29:1 30:1 31:1 32:0 33:0 34:0 35:0 36:0 37:0 38:2 39:0 40:1 41:7 42:0 43:1 44:16 
512 0:1 1:1 2:1 3:1 4:1 5:1 6:0 7:0 8:1 9:1 10:1 11:1 12:0 13:1 14:0 15:1 16:0 17:0 18:1 19:0 20:1 21:1 22:0 23:0 24:0 25:1 26:1 27:1 28:1 29:0 30:1 31:0 32:0 33:0 34:0 35:0 36:0 37:0 38:2 39:0 40:1 41:7 42:0 43:1 44:15 
512 0:1 1:0 2:1 3:1 4:0 5:0 6:1 7:1 8:1 9:0 10:0 11:1 12:0 13:1 14:1 15:1 16:0 17:0 18:1 19:0 20:0 21:1 22:0 23:0 24:0 25:1 26:1 27:1 28:1 29:1 30:0 31:0 32:0 33:0 34:0 35:0 36:0 37:0 38:1 39:0 40:1 41:2 42:0 43:1 44:3 
512 0:0 1:1 2:1 3:1 4:0 5:0 6:1 7:0 8:0 9:0 10:1 11:1 12:0 13:1 14:1 15:1 16:1 17:0 18:0 19:0 20:0 21:1 22:1 23:0 24:1 25:0 26:0 27:1 28:1 29:1 30:1 31:1 32:0 33:0 34:0 35:0 36:0 37:0 38:1 39:0 40:0 41:4 42:0 43:0 44:8 
512 0:1 1:0 2:1 3:0 4:0 5:0 6:1 7:0 8:1 9:0 10:0 11:0 12:1 13:0 14:0 15:1 16:1 17:1 18:0 19:0 20:0 21:0 22:0 23:0 24:1 25:1 26:1 27:0 28:0 29:0 30:1 31:0 32:1 33:1 34:1 35:0 36:0 37:0 38:1 39:0 40:0 41:2 42:0 43:0 44:4 
512 0:1 1:1 2:1 3:1 4:0 5:0 6:1 7:1 8:1 9:1 10:1 11:1 12:0 13:1 14:1 15:0 16:1 17:1 18:1 19:0 20:1 21:0 22:0 23:1 24:0 25:1 26:1 27:1 28:0 29:0 30:1 31:1 32:0 33:1 34:0 35:1 36:0 37:0 38:1 39:0 40:1 41:3 42:0 43:2 44:7 
512 0:1 1:1 2:1 3:1 4:0 5:0 6:0 7:1 8:1 9:1 10:1 11:1 12:1 13:1 14:1 15:1 16:0 17:0 18:0 19:0 20:0 21:1 22:0 23:1 24:1 25:1 26:1 27:0 28:0 29:1 30:1 31:1 32:0 33:1 34:0 35:1 36:0 37:0 38:1 39:0 40:0 41:2 42:0 43:0 44:3 
512 0:1 1:0 2:1 3:1 4:1 5:1 6:1 7:1 8:1 9:0 10:1 11:1 12:1 13:1 14:1 15:1 16:0 17:0 18:1 19:0 20:0 21:1 22:0 23:0 24:1 25:1 26:0 27:1 28:1 29:0 30:0 31:0 32:0 33:1 34:0 35:0 36:0 37:0 38:1 39:0 40:0 41:3 42:0 43:1 44:6 
512 0:1 1:1 2:1 3:0 4:0 5:0 6:1 7:1 8:1 9:1 10:1 11:1 12:1 13:0 14:1 15:1 16:0 17:0 18:1 19:1 20:0 21:1 22:1 23:1 24:0 25:0 26:0 27:1 28:1 29:0 30:1 31:0 32:0 33:1 34:0 35:0 36:0 37:0 38:3 39:0 40:1 41:9 42:0 43:3 44:16 
512 0:0 1:1 2:1 3:0 4:0 5:1 6:0 7:1 8:1 9:0 10:0 11:0 12:1 13:1 14:1 15:1 16:0 17:0 18:1 19:1 20:0 21:1 22:0 23:0 24:1 25:0 26:1 27:0 28:1 29:0 30:1 31:0 32:0 33:0 34:1 35:0 36:0 37:0 38:1 39:0 40:0 41:2 42:0 43:0 44:3 
512 0:1 1:1 2:1 3:1 4:0 5:0 6:1 7:1 8:1 9:1 10:1 11:1 12:1 13:1 14:1 15:0 16:0 17:1 18:0 19:0 20:0 21:1 22:0 23:0 24:1 25:1 26:1 27:0 28:0 29:1 30:0 31:0 32:0 33:1 34:0 35:0 36:0 37:0 38:2 39:0 40:0 41:6 42:0 43:2 44:12 
512 0:0 1:0 2:0 3:1 4:1 5:1 6:1 7:1 8:1 9:0 10:1 11:0 12:1 13:0 14:1 15:1 16:0 17:0 18:1 19:0 20:0 21:1 22:1 23:1 24:1 25:0 26:1 27:1 28:1 29:1 30:1 31:1 32:0 33:1 34:1 35:1 36:0 37:0 38:2 39:0 40:1 41:7 42:1 43:1 44:15 
512 0:0 1:1 2:1 3:0 4:0 5:0 6:1 7:1 8:1 9:1 10:1 11:1 12:1 13:1 14:1 15:0 16:0 17:0 18:1 19:0 20:0 21:0 22:0 23:0 24:0 25:1 26:1 27:0 28:1 29:0 30:1 31:1 32:1 33:0 34:1 35:0 36:0 37:0 38:1 39:1 40:0 41:3 42:1 43:1 44:6 
512 0:1 1:0 2:1 3:1 4:0 5:0 6:1 7:1 8:0 9:0 10:1 11:1 12:1 13:1 14:1 15:1 16:0 17:0 18:0 19:0 20:1 21:1 22:0 23:0 24:1 25:1 26:0 27:0 28:1 29:1 30:0 31:0 32:0 33:0 34:0 35:0 36:0 37:0 38:1 39:0 40:0 41:2 42:0 43:0 44:3 
512 0:0 1:0 2:1 3:1 4:0 5:0 6:1 7:0 8:0 9:1 10:1 11:1 12:1 13:1 14:1 15:1 16:0 17:0 18:1 19:0 20:1 21:1 22:0 23:0 24:1 25:1 26:1 27:0 28:1 29:0 30:1 31:0 32:0 33:1 34:0 35:0 36:0 37:0 38:2 39:0 40:0 41:4 42:0 43:0 44:6 
512 0:1 1:1 2:0 3:0 4:0 5:0 6:1 7:1 8:1 9:1 10:1 11:1 12:1 13:1 14:1 15:0 16:0 17:0 18:0 19:0 20:1 21:1 22:1 23:0 24:0 25:1 26:1 27:1 28:1 29:0 30:0 31:0 32:1 33:1 34:1 35:0 36:0 37:0 38:1 39:0 40:0 41:2 42:0 43:0 44:3 
512 0:1 1:1 2:1 3:1 4:0 5:1 6:1 7:0 8:0 9:0 10:1 11:1 12:1 13:0 14:1 15:0 16:0 17:0 18:1 19:1 20:1 21:1 22:0 23:0 24:1 25:1 26:1 27:1 28:0 29:0 30:1 31:1 32:0 33:0 34:0 35:0 36:1 37:0 38:2 39:1 40:0 41:4 42:1 43:1 44:7 
512 0:1 1:1 2:1 3:1 4:1 5:1 6:1 7:1 8:1 9:1 10:1 11:0 12:0 13:1 14:0 15:1 16:1 17:1 18:1 19:0 20:0 21:1 22:0 23:0 24:1 25:1 26:1 27:1 28:0 29:0 30:0 31:1 32:0 33:0 34:1 35:0 36:0 37:0 38:1 39:0 40:1 41:2 42:0 43:1 44:5 
512 0:1 1:0 2:1 3:1 4:0 5:0 6:1 7:1 8:1 9:1 10:1 11:1 12:1 13:1 14:1 15:1 16:0 17:0 18:1 19:0 20:1 21:1 22:0 23:1 24:1 25:1 26:1 27:1 28:0 29:1 30:1 31:0 32:0 33:1 34:0 35:1 36:0 37:0 38:1 39:0 40:0 41:2 42:0 43:0 44:3 
512 0:1 1:0 2:1 3:1 4:1 5:0 6:0 7:1 8:1 9:0 10:1 11:1 12:1 13:1 14:1 15:0 16:0 17:0 18:1 19:0 20:0 21:1 22:0 23:0 24:1 25:1 26:0 27:1 28:1 29:0 30:1 31:1 32:0 33:1 34:0 35:0 36:0 37:0 38:3 39:0 40:0 41:11 42:0 43:2 44:23 
512 0:0 1:1 2:0 3:1 4:1 5:0 6:1 7:1 8:1 9:0 10:1 11:1 12:0 13:1 14:1 15:0 16:0 17:0 18:1 19:0 20:1 21:1 22:0 23:1 24:1 25:1 26:0 27:1 28:1 29:0 30:1 31:0 32:0 33:1 34:0 35:0 36:0 37:0 38:1 39:0 40:1 41:7 42:0 43:2 44:16 
512 0:1 1:1 2:1 3:0 4:0 5:1 6:1 7:1 8:0 9:1 10:1 11:1 12:1 13:1 14:1 15:1 16:0 17:1 18:1 19:0 20:0 21:0 22:0 23:0 24:0 25:0 26:0 27:1 28:0 29:1 30:1 31:0 32:0 33:0 34:1 35:0 36:0 37:1 38:2 39:0 40:1 41:8 42:0 43:3 44:14 
512 0:0 1:1 2:0 3:1 4:0 5:0 6:0 7:1 8:1 9:0 10:1 11:1 12:1 13:1 14:1 15:1 16:0 17:0 18:1 19:0 20:0 21:1 22:0 23:1 24:1 25:1 26:1 27:1 28:1 29:1 30:0 31:0 32:0 33:1 34:1 35:0 36:0 37:0 38:1 39:0 40:0 41:3 42:0 43:1 44:6 
512 0:0 1:0 2:1 3:1 4:0 5:0 6:1 7:1 8:1 9:1 10:1 11:1 12:1 13:1 14:1 15:0 16:0 17:0 18:1 19:0 20:0 21:1 22:0 23:1 24:0 25:1 26:1 27:0 28:1 29:1 30:0 31:0 32:0 33:0 34:0 35:0 36:0 37:0 38:1 39:0 40:1 41:4 42:0 43:3 44:8 
512 0:1 1:0 2:1 3:0 4:0 5:0 6:1 7:0 8:1 9:0 10:0 11:0 12:1 13:1 14:1 15:1 16:1 17:0 18:1 19:0 20:0 21:0 22:0 23:1 24:1 25:1 26:0 27:0 28:0 29:1 30:0 31:0 32:0 33:0 34:0 35:1 36:0 37:1 38:2 39:0 40:2 41:5 42:1 43:2 44:8 
512 0:1 1:1 2:1 3:1 4:0 5:0 6:1 7:0 8:1 9:1 10:1 11:1 12:1 13:0 14:0 15:0 16:0 17:0 18:1 19:0 20:0 21:1 22:0 23:0 24:1 25:0 26:1 27:1 28:1 29:0 30:1 31:1 32:1 33:1 34:1 35:1 36:0 37:0 38:3 39:0 40:0 41:9 42:1 43:3 44:17 
512 0:1 1:1 2:1 3:1 4:0 5:0 6:1 7:1 8:1 9:1 10:1 11:1 12:1 13:1 14:1 15:1 16:0 17:0 18:0 19:1 20:0 21:0 22:1 23:0 24:0 25:0 26:0 27:1 28:1 29:0 30:1 31:1 32:0 33:1 34:0 35:0 36:0 37:0 38:1 39:0 40:2 41:6 42:1 43:4 44:16 
512 0:1 1:1 2:1 3:1 4:0 5:0 6:0 7:0 8:1 9:0 10:1 11:1 12:1 13:0 14:1 15:1 16:1 17:0 18:1 19:0 20:0 21:1 22:1 23:1 24:0 25:0 26:0 27:1 28:0 29:0 30:0 31:1 32:0 33:1 34:0 35:0 36:1 37:0 38:1 39:1 40:0 41:3 42:1 43:0 44:3 
512 0:1 1:0 2:1 3:0 4:0 5:0 6:0 7:1 8:1 9:0 10:1 11:1 12:0 13:1 14:1 15:0 16:0 17:0 18:1 19:1 20:0 21:0 22:0 23:0 24:1 25:1 26:1 27:0 28:1 29:1 30:0 31:0 32:0 33:1 34:0 35:0 36:0 37:0 38:1 39:0 40:1 41:4 42:0 43:3 44:8 
512 0:0 1:1 2:0 3:0 4:0 5:0 6:1 7:0 8:0 9:0 10:1 11:1 12:1 13:1 14:1 15:1 16:1 17:1 18:1 19:0 20:0 21:1 22:1 23:1 24:1 25:1 26:1 27:1 28:1 29:0 30:1 31:0 32:0 33:1 34:1 35:1 36:0 37:0 38:1 39:0 40:1 41:5 42:0 43:3 44:14 
512 0:1 1:0 2:1 3:1 4:0 5:1 6:1 7:1 8:1 9:1 10:0 11:0 12:1 13:0 14:1 15:0 16:1 17:0 18:1 19:0 20:0 21:1 22:0 23:0 24:1 25:1 26:0 27:1 28:1 29:0 30:0 31:0 32:0 33:1 34:0 35:0 36:0 37:0 38:1 39:0 40:0 41:2 42:0 43:0 44:3 
512 0:1 1:1 2:1 3:1 4:1 5:0 6:1 7:1 8:0 9:0 10:1 11:1 12:0 13:1 14:1 15:0 16:0 17:0 18:1 19:0 20:0 21:1 22:0 23:1 24:1 25:1 26:1 27:0 28:1 29:0 30:0 31:0 32:0 33:0 34:1 35:0 36:0 37:0 38:3 39:1 40:2 41:11 42:3 43:4 44:23 
512 0:0 1:0 2:1 3:1 4:0 5:1 6:1 7:1 8:1 9:1 10:0 11:1 12:1 13:1 14:0 15:0 16:0 17:0 18:0 19:0 20:0 21:1 22:1 23:1 24:1 25:1 26:1 27:1 28:1 29:1 30:1 31:0 32:0 33:1 34:0 35:0 36:0 37:0 38:1 39:1 40:0 41:2 42:1 43:0 44:3 
512 0:1 1:0 2:0 3:1 4:1 5:0 6:1 7:1 8:1 9:1 10:0 11:0 12:1 13:1 14:1 15:0 16:0 17:0 18:1 19:0 20:0 21:1 22:0 23:0 24:0 25:0 26:1 27:1 28:1 29:0 30:1 31:0 32:0 33:1 34:0 35:0 36:0 37:1 38:1 39:0 40:1 41:2 42:0 43:1 44:3 
512 0:1 1:1 2:1 3:1 4:0 5:0 6:0 7:1 8:0 9:1 10:0 11:1 12:1 13:1 14:1 15:1 16:0 17:0 18:0 19:0 20:0 21:0 22:0 23:1 24:0 25:1 26:1 27:1 28:1 29:1 30:1 31:1 32:0 33:1 34:1 35:1 36:0 37:0 38:2 39:1 40:0 41:7 42:1 43:1 44:13 
512 0:1 1:1 2:1 3:1 4:0 5:0 6:0 7:1 8:1 9:1 10:0 11:0 12:0 13:1 14:1 15:0 16:0 17:0 18:0 19:0 20:1 21:1 22:0 23:1 24:0 25:0 26:1 27:0 28:1 29:0 30:1 31:1 32:0 33:1 34:0 35:0 36:0 37:0 38:2 39:1 40:0 41:6 42:1 43:1 44:12 
512 0:1 1:1 2:1 3:1 4:1 5:1 6:1 7:1 8:0 9:1 10:0 11:1 12:1 13:0 14:1 15:1 16:1 17:0 18:1 19:1 20:0 21:1 22:1 23:0 24:0 25:1 26:0 27:0 28:0 29:0 30:1 31:1 32:0 33:0 34:1 35:1 36:0 37:1 38:2 39:1 40:2 41:4 42:1 43:2 44:5 
512 0:1 1:1 2:1 3:0 4:0 5:0 6:1 7:0 8:1 9:1 10:0 11:1 12:0 13:1 14:1 15:1 16:0 17:0 18:1 19:0 20:0 21:1 22:0 23:0 24:1 25:1 26:0 27:0 28:0 29:0 30:0 31:0 32:0 33:1 34:0 35:0 36:0 37:0 38:2 39:0 40:0 41:8 42:0 43:2 44:18 
512 0:0 1:0 2:1 3:1 4:1 5:1 6:1 7:1 8:1 9:0 10:1 11:1 12:1 13:1 14:1 15:1 16:1 17:1 18:1 19:0 20:0 21:0 22:0 23:0 24:0 25:1 26:1 27:0 28:0 29:0 30:1 31:1 32:0 33:1 34:0 35:0 36:0 37:0 38:3 39:1 40:0 41:8 42:1 43:1 44:16 
512 0:1 1:1 2:1 3:1 4:1 5:0 6:1 7:1 8:0 9:1 10:1 11:1 12:1 13:1 14:1 15:1 16:1 17:0 18:1 19:0 20:0 21:1 22:0 23:0 24:1 25:1 26:1 27:1 28:0 29:1 30:1 31:0 32:0 33:0 34:0 35:1 36:0 37:0 38:1 39:0 40:0 41:3 42:0 43:0 44:6 
512 0:1 1:1 2:1 3:1 4:0 5:0 6:1 7:1 8:1 9:0 10:1 11:0 12:1 13:1 14:1 15:0 16:1 17:0 18:0 19:0 20:1 21:1 22:1 23:0 24:1 25:0 26:0 27:1 28:1 29:1 30:1 31:1 32:0 33:1 34:1 35:0 36:0 37:1 38:4 39:0 40:2 41:11 42:0 43:4 44:20 
512 0:1 1:1 2:1 3:1 4:0 5:0 6:1 7:1 8:1 9:0 10:1 11:1 12:1 13:1 14:1 15:0 16:0 17:0 18:1 19:0 20:0 21:1 22:0 23:0 24:0 25:1 26:1 27:0 28:0 29:0 30:0 31:0 32:0 33:0 34:0 35:0 36:0 37:0 38:2 39:0 40:2 41:5 42:0 43:2 44:10 
512 0:0 1:1 2:1 3:0 4:0 5:0 6:1 7:1 8:1 9:1 10:1 11:1 12:1 13:1 14:0 15:1 16:1 17:0 18:0 19:1 20:1 21:1 22:0 23:1 24:1 25:1 26:1 27:1 28:0 29:0 30:1 31:0 32:0 33:0 34:0 35:0 36:0 37:1 38:2 39:0 40:2 41:7 42:0 43:4 44:14 
512 0:1 1:1 2:1 3:1 4:0 5:0 6:1 7:1 8:1 9:1 10:1 11:1 12:0 13:1 14:1 15:1 16:0 17:0 18:1 19:0 20:1 21:1 22:0 23:1 24:0 25:1 26:1 27:1 28:0 29:0 30:1 31:0 32:0 33:1 34:0 35:0 36:0 37:0 38:1 39:0 40:0 41:4 42:0 43:0 44:8 
512 0:1 1:1 2:0 3:0 4:0 5:1 6:0 7:1 8:0 9:1 10:1 11:1 12:1 13:0 14:1 15:1 16:1 17:0 18:1 19:1 20:1 21:1 22:0 23:1 24:1 25:1 26:1 27:1 28:0 29:1 30:1 31:0 32:0 33:1 34:0 35:0 36:0 37:0 38:3 39:0 40:1 41:8 42:1 43:2 44:12 
512 0:1 1:0 2:0 3:0 4:0 5:0 6:0 7:1 8:1 9:1 10:1 11:1 12:1 13:1 14:1 15:0 16:0 17:0 18:1 19:1 20:0 21:1 22:0 23:1 24:1 25:1 26:1 27:1 28:0 29:1 30:1 31:0 32:0 33:1 34:0 35:0 36:0 37:0 38:4 39:0 40:0 41:11 42:3 43:1 44:19 
512 0:1 1:1 2:0 3:0 4:1 5:1 6:1 7:1 8:1 9:0 10:1 11:1 12:1 13:1 14:1 15:0 16:1 17:0 18:1 19:0 20:0 21:1 22:0 23:1 24:1 25:1 26:1 27:0 28:0 29:1 30:0 31:0 32:0 33:0 34:0 35:0 36:0 37:0 38:2 39:0 40:0 41:6 42:1 43:0 44:12 
512 0:1 1:0 2:0 3:1 4:0 5:0 6:1 7:1 8:1 9:0 10:0 11:1 12:0 13:1 14:0 15:0 16:0 17:0 18:1 19:1 20:0 21:1 22:0 23:1 24:1 25:1 26:1 27:1 28:0 29:1 30:1 31:1 32:0 33:1 34:0 35:0 36:0 37:1 38:1 39:0 40:1 41:2 42:0 43:3 44:5 
512 0:0 1:1 2:0 3:0 4:0 5:0 6:1 7:1 8:1 9:1 10:1 11:0 12:0 13:1 14:1 15:1 16:0 17:0 18:1 19:1 20:1 21:1 22:1 23:1 24:1 25:1 26:1 27:0 28:1 29:1 30:0 31:1 32:1 33:0 34:0 35:1 36:0 37:1 38:2 39:0 40:1 41:6 42:0 43:2 44:14 
512 0:1 1:1 2:1 3:1 4:0 5:0 6:1 7:1 8:0 9:0 10:0 11:1 12:1 13:1 14:1 15:0 16:0 17:0 18:1 19:0 20:0 21:1 22:0 23:1 24:1 25:1 26:1 27:1 28:1 29:1 30:0 31:0 32:0 33:0 34:0 35:1 36:0 37:0 38:1 39:0 40:0 41:3 42:0 43:2 44:10 
512 0:1 1:1 2:1 3:1 4:0 5:1 6:1 7:1 8:1 9:1 10:1 11:1 12:0 13:1 14:1 15:1 16:0 17:1 18:1 19:0 20:0 21:1 22:0 23:0 24:1 25:1 26:1 27:0 28:0 29:1 30:1 31:0 32:0 33:1 34:0 35:0 36:0 37:1 38:4 39:0 40:3 41:12 42:0 43:3 44:23 
512 0:0 1:1 2:0 3:1 4:0 5:0 6:1 7:0 8:1 9:1 10:0 11:1 12:0 13:1 14:1 15:1 16:0 17:0 18:0 19:0 20:0 21:1 22:0 23:1 24:0 25:0 26:0 27:1 28:0 29:1 30:0 31:0 32:0 33:1 34:0 35:0 36:0 37:0 38:3 39:0 40:0 41:8 42:1 43:2 44:16 
512 0:1 1:1 2:0 3:0 4:0 5:0 6:0 7:1 8:1 9:1 10:1 11:1 12:1 13:1 14:1 15:0 16:0 17:0 18:1 19:0 20:0 21:0 22:0 23:0 24:1 25:1 26:1 27:1 28:0 29:0 30:1 31:0 32:0 33:1 34:0 35:0 36:0 37:0 38:1 39:0 40:0 41:3 42:0 43:0 44:6 
512 0:0 1:1 2:0 3:1 4:0 5:0 6:1 7:1 8:1 9:0 10:1 11:1 12:1 13:1 14:1 15:1 16:0 17:0 18:1 19:0 20:1 21:0 22:0 23:0 24:0 25:1 26:1 27:0 28:0 29:1 30:1 31:1 32:0 33:1 34:0 35:0 36:0 37:2 38:3 39:0 40:4 41:10 42:0 43:5 44:16 
512 0:1 1:1 2:1 3:1 4:1 5:0 6:1 7:1 8:1 9:1 10:0 11:1 12:1 13:1 14:1 15:1 16:0 17:0 18:1 19:0 20:1 21:1 22:1 23:0 24:1 25:1 26:1 27:1 28:1 29:1 30:1 31:1 32:1 33:1 34:1 35:1 36:0 37:1 38:3 39:0 40:1 41:8 42:0 43:1 44:13 
512 0:1 1:1 2:0 3:0 4:0 5:0 6:1 7:1 8:1 9:1 10:0 11:1 12:1 13:1 14:1 15:1 16:1 17:0 18:1 19:1 20:1 21:1 22:0 23:0 24:1 25:1 26:1 27:1 28:1 29:0 30:1 31:0 32:0 33:1 34:1 35:1 36:0 37:0 38:3 39:1 40:1 41:9 42:1 43:1 44:15 
512 0:1 1:1 2:0 3:1 4:1 5:0 6:1 7:1 8:1 9:1 10:1 11:1 12:1 13:0 14:1 15:1 16:1 17:1 18:0 19:0 20:1 21:1 22:0 23:0 24:0 25:1 26:0 27:0 28:0 29:1 30:1 31:0 32:0 33:1 34:0 35:0 36:0 37:0 38:2 39:0 40:1 41:6 42:0 43:2 44:12 
512 0:1 1:1 2:0 3:0 4:0 5:0 6:1 7:1 8:0 9:1 10:1 11:1 12:1 13:1 14:1 15:0 16:0 17:0 18:1 19:0 20:1 21:1 22:0 23:1 24:0 25:1 26:1 27:0 28:1 29:1 30:1 31:1 32:0 33:1 34:0 35:0 36:0 37:0 38:1 39:0 40:0 41:3 42:0 43:3 44:6 
512 0:1 1:0 2:1 3:1 4:0 5:0 6:0 7:0 8:1 9:0 10:1 11:1 12:1 13:1 14:1 15:1 16:0 17:0 18:1 19:0 20:1 21:0 22:0 23:0 24:0 25:1 26:0 27:1 28:1 29:1 30:1 31:0 32:0 33:0 34:0 35:0 36:0 37:0 38:1 39:0 40:0 41:2 42:0 43:0 44:3 
512 0:1 1:1 2:1 3:1 4:0 5:0 6:1 7:1 8:1 9:0 10:0 11:0 12:1 13:1 14:1 15:0 16:0 17:0 18:1 19:0 20:1 21:1 22:0 23:1 24:1 25:0 26:1 27:1 28:0 29:1 30:0 31:0 32:0 33:1 34:0 35:1 36:0 37:1 38:1 39:0 40:2 41:4 42:0 43:4 44:8 
512 0:1 1:1 2:1 3:1 4:1 5:0 6:0 7:1 8:1 9:1 10:0 11:1 12:1 13:1 14:1 15:0 16:0 17:1 18:1 19:0 20:1 21:1 22:1 23:1 24:0 25:1 26:0 27:0 28:0 29:1 30:0 31:0 32:0 33:1 34:0 35:0 36:0 37:1 38:2 39:0 40:1 41:7 42:0 43:1 44:13 
512 0:1 1:1 2:1 3:1 4:0 5:0 6:1 7:1 8:1 9:0 10:1 11:1 12:1 13:1 14:1 15:1 16:1 17:1 18:1 19:0 20:1 21:1 22:1 23:0 24:1 25:1 26:1 27:1 28:0 29:1 30:1 31:0 32:0 33:1 34:1 35:1 36:0 37:0 38:1 39:0 40:0 41:2 42:0 43:1 44:3 
512 0:1 1:1 2:1 3:0 4:0 5:0 6:0 7:0 8:1 9:1 10:1 11:1 12:1 13:1 14:1 15:1 16:0 17:1 18:1 19:0 20:0 21:1 22:0 23:1 24:1 25:1 26:1 27:1 28:1 29:0 30:1 31:0 32:0 33:1 34:0 35:1 36:0 37:0 38:1 39:0 40:0 41:2 42:0 43:0 44:4 
512 0:1 1:1 2:0 3:1 4:0 5:0 6:1 7:0 8:1 9:0 10:0 11:1 12:1 13:1 14:1 15:0 16:0 17:0 18:1 19:0 20:0 21:0 22:1 23:0 24:0 25:1 26:1 27:0 28:1 29:0 30:0 31:0 32:0 33:0 34:1 35:0 36:0 37:0 38:1 39:0 40:0 41:3 42:0 43:1 44:7 
512 0:1 1:1 2:1 3:1 4:0 5:0 6:1 7:1 8:1 9:1 10:1 11:1 12:0 13:1 14:1 15:0 16:0 17:0 18:1 19:1 20:0 21:1 22:0 23:1 24:0 25:1 26:1 27:1 28:1 29:0 30:0 31:1 32:0 33:1 34:0 35:0 36:0 37:1 38:1 39:0 40:1 41:2 42:0 43:1 44:3 
512 0:1 1:1 2:0 3:1 4:0 5:1 6:1 7:1 8:1 9:0 10:1 11:1 12:1 13:1 14:1 15:1 16:0 17:0 18:0 19:0 20:0 21:1 22:0 23:1 24:1 25:1 26:1 27:1 28:0 29:0 30:0 31:0 32:0 33:1 34:0 35:0 36:0 37:0 38:1 39:0 40:0 41:2 42:0 43:0 44:3 
512 0:0 1:1 2:1 3:1 4:0 5:0 6:1 7:1 8:1 9:1 10:1 11:1 12:1 13:1 14:1 15:0 16:0 17:0 18:1 19:0 20:1 21:0 22:0 23:0 24:0 25:0 26:0 27:1 28:1 29:1 30:1 31:0 32:0 33:1 34:0 35:0 36:0 37:0 38:2 39:0 40:0 41:5 42:0 43:0 44:9 
512 0:1 1:1 2:1 3:1 4:0 5:0 6:1 7:1 8:1 9:0 10:0 11:1 12:1 13:1 14:1 15:0 16:0 17:0 18:1 19:0 20:0 21:1 22:0 23:0 24:1 25:1 26:1 27:1 28:0 29:0 30:0 31:0 32:0 33:1 34:0 35:0 36:0 37:0 38:1 39:0 40:1 41:2 42:0 43:2 44:3 
512 0:1 1:0 2:1 3:1 4:1 5:0 6:1 7:1 8:1 9:1 10:1 11:1 12:0 13:0 14:1 15:1 16:0 17:1 18:0 19:0 20:0 21:1 22:0 23:0 24:1 25:1 26:1 27:1 28:1 29:0 30:0 31:0 32:0 33:0 34:1 35:0 36:0 37:0 38:2 39:0 40:1 41:4 42:0 43:3 44:7 
512 0:1 1:1 2:1 3:0 4:0 5:1 6:1 7:1 8:0 9:0 10:0 11:0 12:1 13:0 14:1 15:0 16:0 17:0 18:1 19:0 20:0 21:1 22:0 23:1 24:1 25:0 26:0 27:1 28:0 29:1 30:1 31:1 32:0 33:1 34:0 35:0 36:0 37:0 38:1 39:0 40:0 41:2 42:0 43:0 44:4 
512 0:1 1:1 2:0 3:1 4:1 5:0 6:1 7:1 8:0 9:0 10:0 11:0 12:1 13:1 14:0 15:1 16:1 17:0 18:1 19:0 20:0 21:1 22:0 23:0 24:1 25:0 26:0 27:0 28:0 29:1 30:1 31:1 32:1 33:0 34:0 35:0 36:0 37:0 38:1 39:0 40:0 41:2 42:0 43:0 44:5 
512 0:1 1:0 2:1 3:1 4:0 5:0 6:1 7:1 8:1 9:1 10:0 11:1 12:1 13:1 14:1 15:1 16:1 17:0 18:1 19:0 20:0 21:1 22:1 23:0 24:0 25:0 26:0 27:1 28:1 29:1 30:0 31:0 32:0 33:1 34:1 35:0 36:0 37:0 38:2 39:0 40:1 41:4 42:0 43:1 44:5 
512 0:1 1:1 2:0 3:1 4:0 5:1 6:1 7:1 8:1 9:0 10:0 11:1 12:1 13:0 14:1 15:0 16:0 17:0 18:1 19:0 20:0 21:0 22:0 23:0 24:0 25:0 26:0 27:0 28:1 29:1 30:1 31:0 32:0 33:0 34:1 35:0 36:0 37:0 38:2 39:0 40:1 41:6 42:1 43:2 44:11 
512 0:0 1:1 2:1 3:0 4:0 5:0 6:0 7:0 8:1 9:1 10:0 11:1 12:0 13:1 14:1 15:0 16:1 17:0 18:1 19:0 20:1 21:1 22:0 23:0 24:1 25:0 26:1 27:1 28:1 29:1 30:1 31:0 32:0 33:1 34:0 35:0 36:0 37:0 38:1 39:0 40:1 41:4 42:0 43:3 44:12 
512 0:1 1:1 2:1 3:1 4:1 5:0 6:1 7:0 8:1 9:0 10:0 11:0 12:1 13:1 14:1 15:0 16:0 17:0 18:0 19:0 20:0 21:1 22:0 23:1 24:1 25:0 26:1 27:0 28:0 29:0 30:0 31:0 32:0 33:0 34:0 35:0 36:0 37:0 38:1 39:0 40:0 41:4 42:0 43:1 44:7 
512 0:1 1:1 2:1 3:1 4:0 5:1 6:0 7:1 8:1 9:0 10:1 11:1 12:1 13:1 14:1 15:0 16:0 17:0 18:0 19:0 20:0 21:0 22:0 23:0 24:1 25:1 26:1 27:0 28:1 29:1 30:1 31:1 32:0 33:0 34:1 35:0 36:0 37:0 38:1 39:0 40:0 41:2 42:0 43:0 44:5 
512 0:1 1:1 2:0 3:0 4:0 5:0 6:0 7:1 8:1 9:1 10:1 11:0 12:1 13:0 14:1 15:1 16:1 17:0 18:1 19:0 20:1 21:1 22:0 23:0 24:1 25:1 26:1 27:1 28:1 29:0 30:1 31:1 32:0 33:1 34:1 35:0 36:0 37:0 38:1 39:0 40:0 41:2 42:0 43:1 44:3 
512 0:0 1:1 2:1 3:1 4:1 5:0 6:1 7:1 8:1 9:1 10:1 11:1 12:1 13:1 14:1 15:1 16:0 17:0 18:0 19:0 20:0 21:1 22:0 23:0 24:1 25:1 26:1 27:0 28:0 29:0 30:0 31:1 32:0 33:0 34:0 35:0 36:0 37:0 38:2 39:0 40:1 41:8 42:0 43:2 44:15 
512 0:1 1:1 2:1 3:1 4:0 5:0 6:1 7:1 8:1 9:1 10:1 11:1 12:1 13:1 14:1 15:0 16:0 17:0 18:1 19:1 20:1 21:1 22:1 23:0 24:1 25:1 26:1 27:1 28:1 29:0 30:0 31:0 32:0 33:0 34:0 35:0 36:1 37:0 38:1 39:1 40:0 41:2 42:1 43:1 44:3 
512 0:1 1:1 2:1 3:1 4:0 5:0 6:0 7:1 8:1 9:1 10:1 11:1 12:1 13:1 14:1 15:1 16:1 17:0 18:1 19:0 20:0 21:1 22:1 23:0 24:0 25:1 26:1 27:1 28:1 29:1 30:0 31:1 32:0 33:1 34:0 35:1 36:0 37:0 38:3 39:0 40:4 41:9 42:0 43:4 44:17 
512 0:1 1:1 2:0 3:0 4:1 5:1 6:1 7:1 8:1 9:1 10:1 11:1 12:0 13:1 14:0 15:0 16:1 17:0 18:1 19:0 20:0 21:1 22:1 23:0 24:1 25:1 26:1 27:0 28:1 29:1 30:0 31:0 32:0 33:1 34:0 35:0 36:0 37:0 38:1 39:0 40:0 41:4 42:3 43:0 44:10 
512 0:1 1:1 2:0 3:1 4:0 5:0 6:1 7:1 8:0 9:1 10:1 11:1 12:1 13:1 14:0 15:0 16:0 17:0 18:1 19:1 20:0 21:1 22:0 23:0 24:0 25:0 26:1 27:1 28:1 29:1 30:0 31:1 32:0 33:1 34:0 35:0 36:0 37:0 38:1 39:0 40:0 41:2 42:0 43:0 44:3 
512 0:1 1:1 2:1 3:0 4:0 5:0 6:1 7:1 8:1 9:1 10:1 11:1 12:1 13:1 14:1 15:1 16:1 17:0 18:0 19:0 20:0 21:1 22:0 23:0 24:0 25:0 26:1 27:1 28:1 29:0 30:0 31:1 32:0 33:0 34:0 35:0 36:0 37:0 38:4 39:0 40:0 41:10 42:0 43:1 44:17 
512 0:1 1:1 2:1 3:1 4:1 5:1 6:1 7:1 8:1 9:0 10:0 11:0 12:1 13:1 14:1 15:1 16:0 17:0 18:0 19:0 20:0 21:1 22:0 23:1 24:0 25:1 26:1 27:1 28:0 29:1 30:1 31:1 32:0 33:1 34:0 35:1 36:0 37:0 38:2 39:0 40:0 41:9 42:0 43:1 44:19 
512 0:1 1:1 2:0 3:1 4:0 5:0 6:1 7:1 8:1 9:1 10:1 11:1 12:1 13:1 14:1 15:0 16:0 17:0 18:1 19:0 20:0 21:1 22:1 23:0 24:1 25:1 26:1 27:0 28:1 29:1 30:0 31:0 32:0 33:0 34:1 35:1 36:0 37:0 38:1 39:0 40:1 41:3 42:0 43:2 44:8 
512 0:1 1:1 2:0 3:1 4:0 5:0 6:1 7:1 8:0 9:1 10:1 11:1 12:1 13:1 14:0 15:1 16:1 17:1 18:1 19:0 20:0 21:1 22:0 23:1 24:0 25:1 26:0 27:0 28:0 29:0 30:1 31:0 32:0 33:1 34:0 35:0 36:0 37:1 38:4 39:0 40:2 41:11 42:0 43:4 44:18 
512 0:0 1:0 2:1 3:0 4:0 5:0 6:1 7:1 8:1 9:1 10:1 11:1 12:1 13:0 14:1 15:0 16:0 17:0 18:1 19:1 20:0 21:1 22:0 23:1 24:1 25:1 26:0 27:1 28:1 29:1 30:0 31:0 32:0 33:1 34:1 35:0 36:0 37:0 38:1 39:0 40:0 41:2 42:0 43:0 44:3 
512 0:0 1:1 2:1 3:0 4:1 5:0 6:0 7:1 8:1 9:1 10:0 11:0 12:1 13:1 14:0 15:1 16:1 17:0 18:1 19:0 20:0 21:1 22:0 23:0 24:1 25:0 26:1 27:1 28:0 29:0 30:1 31:1 32:0 33:1 34:0 35:0 36:0 37:0 38:2 39:0 40:1 41:5 42:0 43:3 44:10 
512 0:0 1:1 2:1 3:1 4:0 5:0 6:1 7:1 8:1 9:0 10:0 11:1 12:1 13:1 14:1 15:0 16:0 17:0 18:1 19:0 20:0 21:0 22:0 23:0 24:0 25:1 26:1 27:1 28:0 29:1 30:1 31:0 32:0 33:1 34:0 35:0 36:0 37:0 38:1 39:0 40:0 41:3 42:0 43:2 44:8 
512 0:1 1:1 2:0 3:1 4:0 5:0 6:1 7:1 8:0 9:0 10:0 11:0 12:1 13:1 14:1 15:0 16:1 17:0 18:1 19:1 20:1 21:1 22:1 23:0 24:0 25:0 26:1 27:1 28:0 29:0 30:0 31:0 32:0 33:1 34:0 35:1 36:0 37:0 38:1 39:0 40:1 41:2 42:0 43:1 44:3 
512 0:0 1:1 2:1 3:1 4:1 5:0 6:1 7:1 8:1 9:1 10:1 11:0 12:1 13:1 14:1 15:1 16:0 17:0 18:1 19:0 20:0 21:1 22:0 23:0 24:1 25:1 26:1 27:1 28:0 29:0 30:0 31:1 32:1 33:1 34:0 35:0 36:0 37:0 38:1 39:0 40:1 41:2 42:0 43:1 44:3 
512 0:0 1:0 2:1 3:1 4:0 5:0 6:1 7:1 8:1 9:1 10:1 11:1 12:0 13:1 14:1 15:1 16:0 17:0 18:1 19:0 20:0 21:1 22:0 23:1 24:0 25:0 26:1 27:1 28:1 29:1 30:1 31:0 32:0 33:1 34:0 35:0 36:0 37:0 38:1 39:0 40:0 41:4 42:0 43:0 44:11 
512 0:1 1:1 2:1 3:1 4:0 5:0 6:1 7:1 8:1 9:1 10:1 11:1 12:0 13:1 14:1 15:1 16:1 17:1 18:1 19:0 20:0 21:1 22:0 23:0 24:1 25:1 26:1 27:1 28:0 29:1 30:0 31:1 32:0 33:1 34:0 35:1 36:0 37:0 38:1 39:0 40:0 41:2 42:0 43:0 44:3 
512 0:0 1:1 2:1 3:1 4:1 5:0 6:1 7:1 8:1 9:0 10:1 11:1 12:1 13:1 14:0 15:1 16:1 17:1 18:0 19:0 20:1 21:1 22:1 23:1 24:1 25:1 26:1 27:1 28:0 29:1 30:0 31:0 32:0 33:1 34:0 35:1 36:0 37:0 38:1 39:1 40:0 41:2 42:3 43:0 44:5 
512 0:1 1:0 2:0 3:1 4:0 5:1 6:1 7:1 8:0 9:0 10:1 11:1 12:1 13:1 14:1 15:0 16:0 17:0 18:0 19:0 20:0 21:1 22:0 23:1 24:1 25:1 26:1 27:0 28:1 29:0 30:0 31:1 32:0 33:1 34:0 35:0 36:0 37:0 38:1 39:1 40:0 41:4 42:1 43:1 44:7 
512 0:1 1:1 2:1 3:0 4:0 5:0 6:1 7:1 8:1 9:1 10:1 11:1 12:1 13:1 14:1 15:0 16:0 17:0 18:1 19:0 20:0 21:1 22:0 23:1 24:1 25:0 26:0 27:1 28:1 29:0 30:1 31:0 32:0 33:1 34:1 35:0 36:0 37:0 38:1 39:0 40:0 41:5 42:0 43:0 44:13 
512 0:1 1:1 2:1 3:1 4:1 5:1 6:1 7:1 8:0 9:1 10:1 11:1 12:1 13:1 14:1 15:0 16:0 17:0 18:0 19:0 20:1 21:1 22:0 23:1 24:1 25:1 26:1 27:1 28:0 29:0 30:0 31:0 32:0 33:1 34:0 35:0 36:0 37:2 38:3 39:1 40:4 41:10 42:2 43:4 44:19 
512 0:1 1:0 2:1 3:0 4:0 5:0 6:1 7:1 8:1 9:0 10:0 11:0 12:1 13:1 14:1 15:0 16:1 17:1 18:0 19:1 20:0 21:0 22:0 23:0 24:0 25:1 26:1 27:0 28:0 29:0 30:1 31:0 32:0 33:1 34:0 35:0 36:0 37:2 38:2 39:0 40:3 41:5 42:0 43:4 44:12 
512 0:1 1:1 2:1 3:1 4:0 5:0 6:1 7:1 8:0 9:0 10:1 11:1 12:1 13:1 14:0 15:0 16:1 17:0 18:1 19:0 20:1 21:1 22:0 23:1 24:1 25:1 26:1 27:1 28:0 29:1 30:0 31:1 32:0 33:1 34:1 35:1 36:0 37:0 38:1 39:0 40:0 41:3 42:0 43:0 44:6 
512 0:1 1:1 2:1 3:0 4:0 5:1 6:0 7:0 8:1 9:0 10:0 11:0 12:1 13:1 14:0 15:0 16:0 17:0 18:1 19:0 20:0 21:1 22:0 23:1 24:0 25:1 26:1 27:1 28:1 29:1 30:0 31:0 32:1 33:1 34:0 35:1 36:0 37:0 38:1 39:0 40:0 41:2 42:0 43:0 44:3 
512 0:1 1:1 2:1 3:1 4:0 5:0 6:1 7:0 8:1 9:1 10:1 11:1 12:0 13:1 14:1 15:0 16:0 17:0 18:0 19:0 20:0 21:1 22:0 23:0 24:1 25:1 26:1 27:1 28:1 29:1 30:0 31:1 32:0 33:1 34:0 35:0 36:0 37:0 38:1 39:0 40:0 41:2 42:0 43:0 44:6 
512 0:1 1:1 2:1 3:0 4:0 5:0 6:1 7:1 8:0 9:0 10:0 11:1 12:0 13:1 14:0 15:1 16:1 17:0 18:0 19:0 20:0 21:1 22:1 23:1 24:1 25:1 26:1 27:0 28:1 29:1 30:0 31:0 32:0 33:0 34:0 35:0 36:0 37:0 38:3 39:0 40:2 41:8 42:0 43:5 44:17 
512 0:0 1:1 2:0 3:1 4:0 5:0 6:1 7:1 8:1 9:0 10:0 11:1 12:0 13:0 14:0 15:1 16:1 17:0 18:1 19:1 20:1 21:0 22:0 23:0 24:0 25:1 26:1 27:0 28:0 29:0 30:0 31:1 32:0 33:1 34:0 35:0 36:0 37:0 38:1 39:0 40:0 41:2 42:0 43:0 44:3 
512 0:1 1:1 2:1 3:1 4:1 5:0 6:1 7:0 8:0 9:1 10:1 11:1 12:0 13:1 14:1 15:1 16:0 17:0 18:1 19:1 20:0 21:1 22:0 23:0 24:0 25:1 26:1 27:1 28:0 29:1 30:0 31:0 32:1 33:1 34:0 35:0 36:0 37:0 38:4 39:0 40:0 41:10 42:0 43:2 44:17 
512 0:1 1:1 2:1 3:1 4:0 5:0 6:1 7:0 8:1 9:1 10:1 11:1 12:1 13:1 14:1 15:0 16:0 17:0 18:1 19:0 20:0 21:1 22:0 23:0 24:0 25:1 26:1 27:0 28:0 29:0 30:1 31:1 32:0 33:0 34:0 35:0 36:0 37:0 38:2 39:0 40:0 41:6 42:0 43:2 44:11 
512 0:1 1:1 2:1 3:1 4:0 5:0 6:0 7:0 8:1 9:1 10:1 11:1 12:1 13:1 14:0 15:1 16:0 17:0 18:0 19:0 20:0 21:1 22:0 23:0 24:1 25:1 26:1 27:0 28:0 29:0 30:1 31:1 32:0 33:0 34:0 35:0 36:0 37:0 38:2 39:0 40:0 41:5 42:0 43:0 44:9 
512 0:0 1:1 2:1 3:1 4:1 5:0 6:0 7:0 8:1 9:1 10:1 11:0 12:0 13:1 14:0 15:0 16:0 17:0 18:1 19:0 20:0 21:1 22:0 23:0 24:1 25:1 26:1 27:0 28:0 29:0 30:1 31:1 32:0 33:0 34:0 35:1 36:0 37:0 38:2 39:1 40:0 41:9 42:1 43:1 44:20 
512 0:1 1:1 2:1 3:0 4:0 5:1 6:1 7:1 8:1 9:1 10:1 11:0 12:1 13:1 14:0 15:1 16:1 17:0 18:0 19:0 20:0 21:1 22:0 23:1 24:1 25:1 26:1 27:1 28:0 29:1 30:0 31:0 32:0 33:1 34:0 35:1 36:0 37:0 38:1 39:0 40:0 41:3 42:0 43:1 44:6 
512 0:1 1:1 2:1 3:1 4:0 5:0 6:1 7:1 8:1 9:0 10:1 11:1 12:1 13:1 14:1 15:1 16:1 17:0 18:1 19:1 20:0 21:0 22:0 23:0 24:1 25:1 26:1 27:0 28:0 29:0 30:1 31:0 32:0 33:0 34:0 35:0 36:0 37:0 38:1 39:0 40:0 41:3 42:0 43:0 44:7 
512 0:1 1:1 2:1 3:1 4:1 5:1 6:1 7:1 8:1 9:0 10:0 11:1 12:1 13:0 14:1 15:0 16:0 17:0 18:0 19:0 20:0 21:0 22:0 23:0 24:0 25:0 26:0 27:1 28:0 29:1 30:0 31:1 32:0 33:1 34:0 35:0 36:0 37:0 38:1 39:0 40:1 41:4 42:0 43:3 44:11 
512 0:1 1:1 2:1 3:1 4:0 5:1 6:1 7:1 8:1 9:1 10:1 11:1 12:1 13:1 14:1 15:0 16:0 17:0 18:1 19:0 20:0 21:1 22:0 23:0 24:1 25:1 26:1 27:1 28:1 29:1 30:1 31:1 32:0 33:1 34:1 35:1 36:0 37:1 38:3 39:0 40:2 41:9 42:0 43:4 44:16 
512 0:1 1:1 2:1 3:1 4:0 5:0 6:1 7:1 8:1 9:1 10:1 11:0 12:1 13:1 14:1 15:0 16:0 17:0 18:1 19:0 20:0 21:1 22:0 23:0 24:0 25:1 26:1 27:1 28:1 29:1 30:0 31:0 32:0 33:1 34:1 35:0 36:0 37:0 38:1 39:0 40:0 41:5 42:0 43:2 44:11 
512 0:1 1:1 2:1 3:1 4:0 5:0 6:0 7:0 8:1 9:1 10:1 11:1 12:0 13:1 14:1 15:1 16:1 17:0 18:1 19:0 20:0 21:1 22:1 23:1 24:1 25:0 26:1 27:1 28:0 29:0 30:1 31:0 32:0 33:0 34:1 35:0 36:0 37:0 38:1 39:0 40:0 41:2 42:0 43:1 44:6 
512 0:1 1:1 2:0 3:1 4:0 5:1 6:1 7:1 8:0 9:1 10:1 11:1 12:1 13:1 14:1 15:0 16:0 17:0 18:1 19:0 20:0 21:0 22:0 23:0 24:1 25:1 26:1 27:1 28:1 29:0 30:0 31:0 32:0 33:1 34:0 35:0 36:0 37:0 38:1 39:0 40:1 41:2 42:0 43:1 44:3 
512 0:0 1:1 2:1 3:1 4:0 5:0 6:1 7:1 8:1 9:1 10:1 11:1 12:0 13:1 14:1 15:1 16:0 17:0 18:1 19:0 20:0 21:0 22:0 23:0 24:1 25:1 26:1 27:1 28:1 29:1 30:1 31:0 32:0 33:1 34:0 35:0 36:0 37:1 38:1 39:0 40:2 41:2 42:0 43:2 44:3 
512 0:1 1:1 2:0 3:1 4:0 5:0 6:1 7:0 8:1 9:0 10:0 11:1 12:0 13:1 14:1 15:0 16:0 17:0 18:1 19:0 20:0 21:0 22:0 23:0 24:0 25:1 26:1 27:0 28:0 29:1 30:1 31:1 32:0 33:0 34:0 35:0 36:0 37:0 38:1 39:0 40:0 41:2 42:0 43:0 44:3 
512 0:1 1:1 2:1 3:0 4:1 5:0 6:1 7:1 8:1 9:0 10:1 11:1 12:1 13:0 14:0 15:0 16:0 17:1 18:1 19:0 20:0 21:1 22:0 23:0 24:1 25:1 26:1 27:1 28:0 29:1 30:0 31:0 32:0 33:1 34:0 35:0 36:0 37:1 38:1 39:0 40:1 41:3 42:1 43:1 44:7 
512 0:1 1:1 2:1 3:0 4:0 5:1 6:1 7:1 8:1 9:0 10:0 11:0 12:1 13:1 14:1 15:1 16:0 17:0 18:0 19:0 20:1 21:1 22:1 23:1 24:0 25:1 26:0 27:1 28:1 29:1 30:0 31:0 32:0 33:0 34:0 35:0 36:0 37:0 38:1 39:0 40:1 41:2 42:0 43:1 44:6 
512 0:1 1:0 2:0 3:1 4:0 5:1 6:0 7:1 8:1 9:0 10:1 11:1 12:1 13:1 14:1 15:1 16:0 17:0 18:0 19:0 20:0 21:1 22:0 23:1 24:0 25:1 26:1 27:0 28:1 29:1 30:1 31:1 32:1 33:0 34:0 35:0 36:0 37:0 38:2 39:0 40:1 41:7 42:0 43:1 44:17 
512 0:1 1:1 2:1 3:1 4:1 5:0 6:1 7:0 8:0 9:1 10:1 11:1 12:0 13:1 14:1 15:1 16:1 17:0 18:1 19:0 20:0 21:0 22:0 23:0 24:0 25:1 26:0 27:0 28:1 29:0 30:0 31:0 32:0 33:0 34:0 35:0 36:0 37:0 38:1 39:1 40:0 41:2 42:1 43:2 44:6 
512 0:1 1:1 2:1 3:0 4:0 5:0 6:1 7:0 8:1 9:0 10:0 11:0 12:1 13:1 14:0 15:0 16:0 17:0 18:0 19:0 20:0 21:1 22:0 23:0 24:1 25:0 26:0 27:1 28:1 29:0 30:1 31:1 32:0 33:1 34:0 35:0 36:0 37:0 38:1 39:0 40:1 41:2 42:0 43:1 44:3 
512 0:1 1:1 2:1 3:1 4:0 5:0 6:0 7:1 8:1 9:1 10:1 11:1 12:1 13:1 14:1 15:1 16:0 17:0 18:1 19:0 20:0 21:1 22:0 23:1 24:0 25:1 26:1 27:0 28:1 29:0 30:1 31:1 32:0 33:0 34:1 35:0 36:0 37:0 38:2 39:0 40:1 41:9 42:0 43:1 44:18 
512 0:1 1:1 2:1 3:1 4:0 5:0 6:1 7:1 8:1 9:1 10:1 11:1 12:1 13:1 14:1 15:1 16:1 17:1 18:1 19:1 20:1 21:0 22:0 23:1 24:1 25:1 26:1 27:0 28:1 29:1 30:1 31:0 32:1 33:1 34:0 35:0 36:0 37:0 38:1 39:0 40:0 41:3 42:0 43:3 44:8 
512 0:1 1:1 2:1 3:1 4:0 5:0 6:1 7:1 8:1 9:1 10:1 11:1 12:0 13:1 14:1 15:0 16:0 17:0 18:1 19:0 20:0 21:1 22:0 23:1 24:1 25:1 26:0 27:1 28:0 29:0 30:0 31:0 32:0 33:0 34:0 35:0 36:0 37:0 38:2 39:0 40:1 41:6 42:0 43:3 44:10 
512 0:1 1:1 2:0 3:0 4:0 5:1 6:1 7:1 8:1 9:1 10:1 11:1 12:0 13:1 14:1 15:1 16:0 17:0 18:0 19:0 20:0 21:1 22:0 23:0 24:1 25:1 26:1 27:0 28:1 29:0 30:0 31:0 32:0 33:1 34:0 35:0 36:0 37:0 38:3 39:0 40:1 41:9 42:1 43:3 44:16 
512 0:0 1:1 2:1 3:1 4:0 5:0 6:1 7:1 8:1 9:1 10:1 11:1 12:1 13:1 14:1 15:1 16:0 17:0 18:0 19:0 20:0 21:1 22:1 23:1 24:1 25:1 26:1 27:1 28:1 29:1 30:1 31:0 32:0 33:1 34:1 35:0 36:0 37:0 38:1 39:0 40:0 41:2 42:0 43:0 44:3 
512 0:1 1:1 2:0 3:1 4:1 5:0 6:1 7:1 8:1 9:1 10:1 11:1 12:0 13:0 14:1 15:0 16:0 17:0 18:1 19:1 20:0 21:1 22:0 23:0 24:1 25:1 26:1 27:1 28:0 29:1 30:0 31:0 32:0 33:1 34:0 35:0 36:1 37:1 38:2 39:1 40:3 41:6 42:3 43:4 44:14 
512 0:1 1:1 2:0 3:1 4:0 5:0 6:0 7:1 8:1 9:0 10:0 11:1 12:0 13:0 14:1 15:1 16:0 17:0 18:1 19:1 20:1 21:1 22:0 23:1 24:1 25:1 26:1 27:0 28:1 29:1 30:1 31:0 32:0 33:0 34:1 35:1 36:0 37:0 38:2 39:0 40:1 41:6 42:0 43:1 44:10 
512 0:1 1:1 2:1 3:1 4:0 5:0 6:1 7:1 8:1 9:1 10:1 11:1 12:1 13:1 14:0 15:1 16:1 17:0 18:1 19:0 20:1 21:1 22:0 23:0 24:1 25:0 26:1 27:1 28:0 29:1 30:1 31:1 32:1 33:1 34:0 35:1 36:0 37:0 38:3 39:0 40:0 41:8 42:0 43:1 44:13 
512 0:1 1:1 2:1 3:0 4:0 5:0 6:1 7:1 8:1 9:1 10:1 11:1 12:1 13:1 14:1 15:0 16:0 17:1 18:1 19:0 20:1 21:1 22:0 23:0 24:1 25:1 26:1 27:1 28:1 29:1 30:1 31:0 32:1 33:1 34:0 35:0 36:0 37:0 38:1 39:0 40:0 41:2 42:0 43:0 44:3 
512 0:1 1:1 2:1 3:1 4:0 5:0 6:1 7:1 8:1 9:0 10:0 11:1 12:1 13:1 14:1 15:0 16:0 17:0 18:1 19:0 20:1 21:1 22:0 23:0 24:1 25:0 26:0 27:1 28:1 29:0 30:0 31:0 32:0 33:1 34:0 35:0 36:0 37:1 38:2 39:0 40:2 41:6 42:0 43:3 44:13 
512 0:1 1:1 2:1 3:1 4:0 5:0 6:1 7:1 8:1 9:0 10:1 11:1 12:1 13:1 14:1 15:0 16:0 17:0 18:0 19:1 20:1 21:0 22:0 23:0 24:1 25:1 26:0 27:0 28:1 29:1 30:1 31:0 32:0 33:1 34:0 35:0 36:0 37:0 38:1 39:0 40:0 41:4 42:1 43:0 44:8 
512 0:1 1:1 2:1 3:0 4:0 5:0 6:1 7:1 8:1 9:1 10:1 11:1 12:1 13:1 14:1 15:0 16:0 17:0 18:1 19:1 20:1 21:1 22:1 23:0 24:1 25:0 26:0 27:1 28:1 29:1 30:1 31:0 32:0 33:1 34:1 35:0 36:0 37:0 38:2 39:0 40:0 41:6 42:0 43:2 44:13 
512 0:1 1:1 2:0 3:1 4:0 5:0 6:1 7:1 8:0 9:1 10:1 11:1 12:1 13:1 14:1 15:0 16:0 17:0 18:1 19:0 20:1 21:1 22:0 23:0 24:0 25:1 26:0 27:1 28:1 29:0 30:1 31:0 32:0 33:1 34:1 35:0 36:0 37:0 38:2 39:0 40:1 41:6 42:0 43:1 44:9 
512 0:1 1:1 2:1 3:0 4:0 5:1 6:1 7:1 8:1 9:0 10:1 11:1 12:1 13:1 14:0 15:1 16:0 17:0 18:1 19:1 20:1 21:1 22:1 23:1 24:0 25:1 26:0 27:1 28:1 29:1 30:1 31:0 32:1 33:0 34:1 35:0 36:1 37:0 38:3 39:2 40:0 41:10 42:3 43:0 44:22 
512 0:1 1:1 2:1 3:0 4:0 5:0 6:1 7:1 8:1 9:1 10:1 11:1 12:1 13:1 14:0 15:1 16:0 17:0 18:1 19:1 20:1 21:1 22:0 23:0 24:0 25:1 26:1 27:1 28:0 29:0 30:1 31:1 32:0 33:1 34:0 35:0 36:0 37:0 38:1 39:0 40:0 41:2 42:0 43:0 44:3 
512 0:1 1:1 2:1 3:1 4:1 5:0 6:1 7:1 8:1 9:0 10:1 11:1 12:1 13:1 14:1 15:1 16:1 17:0 18:0 19:0 20:0 21:1 22:0 23:0 24:0 25:1 26:1 27:1 28:1 29:1 30:1 31:0 32:0 33:0 34:0 35:0 36:0 37:1 38:1 39:0 40:2 41:2 42:0 43:3 44:3 
512 0:1 1:1 2:0 3:1 4:0 5:1 6:1 7:0 8:1 9:1 10:0 11:1 12:1 13:0 14:0 15:1 16:1 17:0 18:0 19:0 20:0 21:1 22:1 23:0 24:0 25:0 26:1 27:0 28:1 29:0 30:1 31:0 32:0 33:1 34:1 35:0 36:0 37:1 38:2 39:0 40:2 41:6 42:2 43:2 44:13 
512 0:1 1:1 2:1 3:0 4:0 5:1 6:1 7:0 8:1 9:0 10:1 11:0 12:1 13:1 14:1 15:1 16:0 17:1 18:0 19:0 20:1 21:1 22:0 23:1 24:1 25:1 26:1 27:0 28:0 29:1 30:1 31:0 32:0 33:1 34:0 35:0 36:0 37:1 38:3 39:0 40:3 41:8 42:0 43:3 44:12 
512 0:0 1:0 2:1 3:1 4:0 5:0 6:0 7:0 8:1 9:1 10:1 11:1 12:0 13:1 14:1 15:0 16:0 17:1 18:1 19:0 20:0 21:0 22:0 23:1 24:1 25:0 26:0 27:0 28:1 29:1 30:1 31:0 32:0 33:1 34:0 35:1 36:0 37:0 38:3 39:0 40:2 41:7 42:0 43:3 44:11 
512 0:1 1:1 2:1 3:1 4:1 5:1 6:1 7:0 8:1 9:0 10:1 11:0 12:0 13:1 14:1 15:1 16:0 17:0 18:1 19:0 20:0 21:1 22:0 23:0 24:1 25:1 26:1 27:0 28:0 29:0 30:1 31:0 32:0 33:1 34:0 35:0 36:0 37:1 38:3 39:0 40:1 41:8 42:0 43:2 44:18 
512 0:1 1:1 2:1 3:1 4:0 5:1 6:1 7:1 8:1 9:1 10:1 11:1 12:1 13:1 14:0 15:0 16:0 17:0 18:0 19:0 20:0 21:1 22:0 23:0 24:1 25:1 26:1 27:1 28:0 29:1 30:0 31:0 32:0 33:1 34:0 35:0 36:0 37:2 38:3 39:1 40:3 41:9 42:1 43:4 44:15 
512 0:0 1:1 2:1 3:1 4:0 5:0 6:0 7:1 8:1 9:1 10:1 11:0 12:0 13:1 14:1 15:1 16:0 17:0 18:1 19:1 20:1 21:0 22:0 23:0 24:0 25:0 26:1 27:1 28:1 29:0 30:1 31:0 32:0 33:1 34:0 35:0 36:0 37:0 38:1 39:0 40:0 41:2 42:0 43:0 44:3 
512 0:1 1:1 2:1 3:0 4:0 5:0 6:1 7:1 8:0 9:1 10:1 11:1 12:0 13:1 14:0 15:1 16:0 17:0 18:1 19:1 20:1 21:1 22:0 23:0 24:1 25:1 26:1 27:0 28:1 29:0 30:1 31:0 32:0 33:0 34:1 35:1 36:0 37:0 38:1 39:0 40:0 41:2 42:0 43:0 44:3 
512 0:1 1:1 2:1 3:1 4:1 5:1 6:1 7:1 8:1 9:0 10:0 11:1 12:1 13:0 14:1 15:0 16:0 17:0 18:1 19:1 20:0 21:1 22:0 23:1 24:0 25:0 26:1 27:1 28:0 29:1 30:0 31:0 32:0 33:1 34:0 35:0 36:0 37:0 38:1 39:1 40:0 41:2 42:1 43:0 44:5 
512 0:1 1:1 2:1 3:0 4:0 5:1 6:1 7:1 8:1 9:1 10:1 11:1 12:0 13:1 14:0 15:1 16:1 17:0 18:1 19:1 20:0 21:1 22:0 23:0 24:0 25:1 26:1 27:1 28:0 29:0 30:1 31:0 32:0 33:1 34:0 35:0 36:0 37:0 38:1 39:0 40:0 41:3 42:0 43:0 44:6 
512 0:0 1:1 2:1 3:1 4:0 5:0 6:1 7:0 8:0 9:1 10:1 11:1 12:1 13:1 14:1 15:1 16:1 17:0 18:1 19:0 20:0 21:1 22:0 23:0 24:1 25:1 26:1 27:1 28:0 29:1 30:0 31:0 32:0 33:1 34:0 35:0 36:0 37:0 38:2 39:0 40:0 41:5 42:0 43:1 44:9 
512 0:1 1:1 2:1 3:0 4:0 5:0 6:1 7:1 8:1 9:1 10:1 11:1 12:1 13:0 14:1 15:1 16:0 17:0 18:1 19:1 20:0 21:1 22:0 23:0 24:1 25:1 26:1 27:1 28:0 29:0 30:0 31:0 32:0 33:1 34:0 35:0 36:0 37:0 38:2 39:0 40:1 41:6 42:0 43:2 44:12 
512 0:1 1:1 2:1 3:1 4:0 5:0 6:1 7:1 8:1 9:1 10:1 11:0 12:0 13:0 14:0 15:0 16:0 17:0 18:0 19:0 20:0 21:1 22:1 23:0 24:0 25:1 26:1 27:1 28:1 29:0 30:1 31:0 32:0 33:1 34:1 35:0 36:0 37:0 38:1 39:0 40:0 41:2 42:0 43:1 44:4 
512 0:1 1:1 2:1 3:1 4:0 5:0 6:0 7:1 8:1 9:1 10:1 11:1 12:1 13:1 14:0 15:1 16:1 17:1 18:1 19:1 20:0 21:1 22:1 23:0 24:1 25:1 26:1 27:0 28:1 29:1 30:1 31:0 32:0 33:1 34:0 35:0 36:0 37:0 38:2 39:0 40:0 41:5 42:1 43:1 44:9 
512 0:1 1:1 2:0 3:1 4:0 5:0 6:1 7:0 8:1 9:1 10:0 11:0 12:0 13:0 14:1 15:0 16:1 17:0 18:1 19:0 20:0 21:1 22:0 23:1 24:1 25:1 26:1 27:1 28:0 29:1 30:0 31:0 32:0 33:1 34:1 35:0 36:0 37:0 38:1 39:0 40:0 41:4 42:1 43:1 44:11 
512 0:1 1:0 2:0 3:1 4:0 5:0 6:1 7:0 8:0 9:0 10:0 11:1 12:1 13:0 14:1 15:0 16:1 17:1 18:1 19:1 20:0 21:1 22:0 23:1 24:1 25:0 26:1 27:0 28:1 29:1 30:1 31:0 32:0 33:0 34:0 35:0 36:0 37:0 38:1 39:1 40:0 41:2 42:1 43:0 44:4 
512 0:1 1:1 2:1 3:1 4:0 5:0 6:1 7:0 8:1 9:1 10:1 11:1 12:0 13:1 14:1 15:1 16:1 17:0 18:0 19:0 20:1 21:1 22:0 23:1 24:0 25:1 26:1 27:1 28:1 29:0 30:0 31:0 32:0 33:1 34:1 35:1 36:1 37:0 38:1 39:1 40:0 41:2 42:1 43:1 44:6 
512 0:1 1:1 2:1 3:1 4:1 5:1 6:1 7:1 8:0 9:1 10:0 11:1 12:1 13:1 14:1 15:0 16:0 17:0 18:0 19:0 20:0 21:1 22:0 23:0 24:0 25:0 26:0 27:1 28:1 29:0 30:0 31:0 32:0 33:1 34:1 35:0 36:0 37:0 38:2 39:0 40:0 41:4 42:0 43:1 44:10 
512 0:1 1:0 2:0 3:1 4:0 5:1 6:1 7:1 8:1 9:1 10:1 11:1 12:1 13:0 14:0 15:1 16:0 17:0 18:1 19:0 20:0 21:1 22:1 23:1 24:0 25:1 26:0 27:0 28:1 29:1 30:1 31:1 32:0 33:1 34:0 35:0 36:0 37:0 38:1 39:0 40:0 41:2 42:0 43:0 44:3 
512 0:0 1:1 2:1 3:1 4:1 5:0 6:1 7:0 8:1 9:0 10:0 11:0 12:0 13:0 14:1 15:1 16:0 17:0 18:1 19:0 20:0 21:1 22:0 23:0 24:1 25:1 26:1 27:1 28:1 29:0 30:1 31:1 32:0 33:0 34:1 35:0 36:0 37:0 38:1 39:0 40:0 41:4 42:1 43:0 44:9 
512 0:1 1:1 2:1 3:1 4:0 5:0 6:1 7:1 8:0 9:1 10:1 11:1 12:1 13:1 14:1 15:1 16:0 17:0 18:0 19:0 20:1 21:0 22:0 23:1 24:1 25:0 26:0 27:0 28:0 29:0 30:1 31:0 32:0 33:0 34:0 35:0 36:0 37:0 38:1 39:0 40:0 41:2 42:0 43:0 44:4 
512 0:1 1:1 2:0 3:1 4:0 5:0 6:1 7:1 8:1 9:1 10:1 11:0 12:1 13:1 14:1 15:0 16:0 17:0 18:1 19:0 20:1 21:1 22:0 23:1 24:0 25:1 26:1 27:0 28:0 29:0 30:0 31:0 32:0 33:0 34:0 35:1 36:0 37:1 38:2 39:0 40:1 41:8 42:0 43:3 44:17 
512 0:1 1:1 2:1 3:1 4:0 5:0 6:0 7:1 8:1 9:0 10:1 11:1 12:0 13:1 14:1 15:0 16:0 17:0 18:1 19:0 20:0 21:1 22:0 23:1 24:1 25:0 26:1 27:1 28:1 29:1 30:1 31:0 32:0 33:1 34:0 35:0 36:0 37:0 38:2 39:0 40:0 41:5 42:0 43:1 44:8 
512 0:1 1:1 2:1 3:1 4:1 5:0 6:1 7:0 8:1 9:1 10:1 11:1 12:1 13:1 14:1 15:0 16:1 17:1 18:1 19:0 20:0 21:0 22:0 23:0 24:1 25:1 26:1 27:0 28:1 29:0 30:1 31:1 32:0 33:1 34:0 35:0 36:0 37:0 38:1 39:0 40:0 41:2 42:0 43:0 44:3 
512 0:1 1:1 2:1 3:0 4:0 5:0 6:1 7:1 8:1 9:1 10:1 11:1 12:1 13:1 14:1 15:1 16:0 17:0 18:1 19:1 20:1 21:1 22:0 23:0 24:0 25:1 26:0 27:1 28:1 29:1 30:0 31:0 32:0 33:0 34:1 35:0 36:0 37:0 38:1 39:0 40:0 41:2 42:0 43:0 44:5 
512 0:0 1:1 2:1 3:0 4:0 5:0 6:1 7:1 8:1 9:1 10:1 11:1 12:1 13:1 14:0 15:0 16:0 17:0 18:1 19:0 20:0 21:0 22:0 23:0 24:1 25:1 26:1 27:0 28:0 29:0 30:1 31:0 32:0 33:1 34:1 35:0 36:0 37:0 38:1 39:0 40:0 41:3 42:0 43:1 44:8 
512 0:1 1:1 2:1 3:1 4:0 5:0 6:1 7:1 8:1 9:1 10:1 11:1 12:1 13:0 14:1 15:0 16:0 17:0 18:1 19:0 20:1 21:1 22:0 23:1 24:0 25:1 26:1 27:0 28:1 29:1 30:1 31:0 32:0 33:0 34:1 35:0 36:0 37:0 38:2 39:0 40:2 41:7 42:0 43:3 44:15 
512 0:1 1:1 2:1 3:1 4:0 5:0 6:1 7:0 8:1 9:1 10:1 11:1 12:1 13:1 14:1 15:1 16:0 17:0 18:0 19:0 20:0 21:0 22:1 23:1 24:0 25:0 26:0 27:1 28:1 29:1 30:1 31:0 32:0 33:0 34:1 35:0 36:0 37:0 38:3 39:1 40:0 41:7 42:1 43:1 44:10 
512 0:1 1:0 2:1 3:1 4:0 5:0 6:1 7:0 8:1 9:1 10:0 11:0 12:0 13:1 14:1 15:1 16:0 17:0 18:0 19:0 20:1 21:0 22:0 23:0 24:1 25:1 26:1 27:1 28:1 29:0 30:1 31:0 32:0 33:1 34:0 35:0 36:1 37:0 38:2 39:1 40:0 41:4 42:1 43:0 44:6 
512 0:0 1:0 2:0 3:1 4:0 5:0 6:1 7:1 8:0 9:1 10:1 11:1 12:1 13:1 14:1 15:0 16:0 17:0 18:1 19:0 20:0 21:0 22:1 23:1 24:0 25:0 26:1 27:0 28:1 29:1 30:1 31:1 32:0 33:1 34:0 35:0 36:0 37:0 38:3 39:0 40:1 41:7 42:1 43:1 44:14 
512 0:0 1:1 2:1 3:1 4:0 5:0 6:1 7:1 8:1 9:1 10:0 11:1 12:1 13:0 14:1 15:1 16:0 17:0 18:1 19:0 20:0 21:1 22:1 23:1 24:1 25:1 26:1 27:1 28:1 29:1 30:1 31:0 32:0 33:1 34:1 35:0 36:0 37:0 38:1 39:0 40:0 41:3 42:0 43:1 44:6 
512 0:1 1:1 2:1 3:1 4:0 5:1 6:1 7:0 8:1 9:0 10:1 11:1 12:1 13:1 14:1 15:0 16:0 17:0 18:1 19:0 20:0 21:0 22:0 23:1 24:0 25:1 26:0 27:0 28:1 29:1 30:0 31:1 32:0 33:0 34:1 35:0 36:0 37:1 38:1 39:0 40:1 41:2 42:0 43:1 44:3 
512 0:1 1:1 2:1 3:0 4:0 5:0 6:1 7:1 8:1 9:0 10:1 11:1 12:1 13:1 14:1 15:1 16:0 17:0 18:1 19:0 20:0 21:1 22:1 23:0 24:0 25:1 26:1 27:1 28:1 29:0 30:1 31:1 32:0 33:1 34:0 35:1 36:0 37:0 38:1 39:0 40:1 41:4 42:0 43:1 44:10 
512 0:1 1:1 2:0 3:0 4:1 5:1 6:1 7:1 8:1 9:0 10:1 11:1 12:1 13:1 14:1 15:1 16:0 17:0 18:1 19:0 20:1 21:1 22:1 23:0 24:1 25:1 26:1 27:1 28:1 29:0 30:1 31:1 32:0 33:0 34:1 35:0 36:0 37:1 38:2 39:0 40:1 41:6 42:1 43:1 44:10 
512 0:1 1:0 2:1 3:1 4:1 5:0 6:1 7:1 8:1 9:1 10:0 11:1 12:1 13:1 14:1 15:1 16:1 17:0 18:1 19:0 20:0 21:1 22:1 23:0 24:0 25:0 26:1 27:1 28:1 29:1 30:0 31:0 32:0 33:0 34:0 35:0 36:0 37:0 38:1 39:0 40:1 41:3 42:0 43:1 44:4 
512 0:1 1:1 2:1 3:1 4:1 5:1 6:1 7:1 8:1 9:0 10:1 11:1 12:1 13:1 14:1 15:0 16:0 17:0 18:1 19:1 20:0 21:1 22:0 23:1 24:0 25:1 26:1 27:0 28:0 29:0 30:1 31:0 32:0 33:1 34:0 35:0 36:0 37:0 38:1 39:0 40:1 41:4 42:1 43:1 44:9 
512 0:1 1:1 2:1 3:0 4:0 5:0 6:0 7:1 8:1 9:1 10:1 11:0 12:1 13:1 14:0 15:1 16:1 17:0 18:1 19:0 20:0 21:0 22:1 23:0 24:1 25:1 26:1 27:0 28:1 29:0 30:1 31:1 32:0 33:1 34:0 35:0 36:0 37:0 38:2 39:0 40:1 41:6 42:0 43:2 44:13 
512 0:1 1:0 2:1 3:0 4:0 5:0 6:1 7:1 8:1 9:1 10:1 11:1 12:1 13:0 14:1 15:1 16:0 17:0 18:1 19:0 20:1 21:1 22:1 23:0 24:0 25:1 26:1 27:0 28:1 29:0 30:1 31:1 32:0 33:0 34:1 35:0 36:0 37:0 38:1 39:0 40:0 41:2 42:0 43:0 44:3 
512 0:1 1:1 2:0 3:0 4:0 5:0 6:1 7:1 8:1 9:0 10:1 11:1 12:1 13:1 14:1 15:1 16:0 17:0 18:0 19:0 20:1 21:1 22:1 23:1 24:0 25:1 26:1 27:1 28:1 29:1 30:0 31:0 32:0 33:0 34:1 35:1 36:0 37:0 38:1 39:0 40:0 41:3 42:0 43:1 44:6 
512 0:1 1:1 2:0 3:0 4:0 5:0 6:1 7:1 8:1 9:0 10:0 11:0 12:0 13:1 14:1 15:1 16:1 17:1 18:1 19:0 20:1 21:1 22:1 23:0 24:1 25:0 26:1 27:1 28:0 29:0 30:0 31:0 32:0 33:0 34:0 35:0 36:0 37:2 38:4 39:0 40:2 41:11 42:0 43:3 44:20 
512 0:1 1:1 2:1 3:0 4:0 5:0 6:1 7:1 8:1 9:0 10:0 11:1 12:1 13:1 14:1 15:0 16:0 17:0 18:1 19:0 20:0 21:1 22:0 23:1 24:1 25:1 26:1 27:1 28:0 29:1 30:1 31:0 32:0 33:1 34:0 35:1 36:0 37:0 38:1 39:0 40:0 41:4 42:0 43:1 44:10 
512 0:0 1:1 2:1 3:1 4:0 5:0 6:1 7:1 8:1 9:1 10:1 11:1 12:1 13:0 14:1 15:0 16:1 17:0 18:1 19:0 20:0 21:1 22:0 23:0 24:0 25:1 26:0 27:0 28:0 29:0 30:1 31:0 32:0 33:1 34:0 35:0 36:0 37:0 38:3 39:0 40:1 41:10 42:0 43:2 44:16 
512 0:1 1:1 2:1 3:0 4:0 5:1 6:1 7:1 8:0 9:0 10:1 11:0 12:1 13:1 14:1 15:1 16:0 17:0 18:1 19:0 20:0 21:1 22:0 23:0 24:0 25:0 26:1 27:1 28:0 29:0 30:0 31:0 32:0 33:1 34:0 35:1 36:0 37:0 38:1 39:0 40:0 41:3 42:0 43:0 44:5 
512 0:1 1:0 2:1 3:1 4:0 5:0 6:1 7:1 8:0 9:1 10:1 11:1 12:1 13:1 14:1 15:0 16:0 17:0 18:1 19:0 20:0 21:1 22:0 23:1 24:0 25:1 26:1 27:1 28:0 29:0 30:1 31:0 32:0 33:1 34:0 35:0 36:0 37:0 38:1 39:0 40:0 41:2 42:0 43:0 44:3 
512 0:1 1:0 2:1 3:1 4:0 5:0 6:1 7:0 8:1 9:1 10:1 11:1 12:1 13:1 14:1 15:0 16:0 17:0 18:1 19:0 20:0 21:1 22:0 23:0 24:0 25:1 26:1 27:1 28:0 29:1 30:1 31:0 32:0 33:0 34:1 35:1 36:0 37:1 38:2 39:0 40:1 41:5 42:0 43:1 44:8 
512 0:1 1:1 2:1 3:1 4:1 5:1 6:0 7:1 8:1 9:1 10:0 11:1 12:1 13:1 14:1 15:0 16:1 17:1 18:1 19:0 20:0 21:1 22:1 23:1 24:1 25:1 26:1 27:0 28:1 29:1 30:0 31:0 32:0 33:0 34:1 35:0 36:0 37:1 38:1 39:0 40:1 41:2 42:0 43:2 44:6 
512 0:1 1:1 2:1 3:1 4:0 5:0 6:1 7:1 8:0 9:0 10:0 11:0 12:1 13:1 14:1 15:0 16:0 17:0 18:1 19:0 20:0 21:1 22:0 23:1 24:0 25:0 26:1 27:1 28:1 29:0 30:1 31:1 32:0 33:0 34:1 35:0 36:0 37:0 38:1 39:0 40:0 41:2 42:1 43:0 44:3 
512 0:0 1:1 2:1 3:1 4:0 5:0 6:1 7:1 8:0 9:0 10:1 11:1 12:1 13:0 14:1 15:1 16:0 17:0 18:1 19:0 20:1 21:1 22:0 23:0 24:1 25:0 26:0 27:0 28:0 29:0 30:0 31:0 32:0 33:1 34:0 35:0 36:0 37:1 38:1 39:0 40:2 41:2 42:0 43:2 44:3 
512 0:1 1:1 2:1 3:1 4:0 5:0 6:0 7:1 8:1 9:0 10:1 11:0 12:1 13:0 14:0 15:0 16:1 17:0 18:1 19:0 20:0 21:0 22:1 23:1 24:1 25:1 26:1 27:0 28:0 29:1 30:1 31:0 32:0 33:1 34:0 35:1 36:0 37:0 38:1 39:0 40:1 41:7 42:0 43:3 44:16 
512 0:1 1:1 2:1 3:1 4:0 5:1 6:1 7:1 8:1 9:1 10:1 11:1 12:1 13:1 14:1 15:0 16:1 17:0 18:0 19:0 20:1 21:1 22:0 23:0 24:1 25:1 26:1 27:0 28:0 29:0 30:0 31:1 32:1 33:0 34:1 35:0 36:0 37:0 38:3 39:0 40:0 41:8 42:0 43:3 44:13 
512 0:1 1:1 2:1 3:1 4:0 5:0 6:0 7:1 8:0 9:1 10:1 11:0 12:1 13:0 14:1 15:1 16:0 17:0 18:0 19:0 20:1 21:1 22:1 23:0 24:0 25:1 26:1 27:0 28:1 29:1 30:0 31:0 32:0 33:0 34:1 35:1 36:0 37:0 38:1 39:0 40:0 41:3 42:0 43:0 44:7 
512 0:1 1:1 2:1 3:0 4:1 5:1 6:0 7:1 8:1 9:0 10:1 11:0 12:0 13:1 14:1 15:1 16:1 17:0 18:1 19:0 20:0 21:1 22:1 23:0 24:1 25:1 26:1 27:1 28:0 29:1 30:0 31:1 32:0 33:1 34:0 35:0 36:0 37:0 38:3 39:1 40:3 41:11 42:2 43:6 44:19 
512 0:1 1:0 2:0 3:0 4:0 5:0 6:1 7:0 8:1 9:1 10:1 11:0 12:0 13:1 14:1 15:0 16:0 17:1 18:0 19:0 20:0 21:1 22:1 23:1 24:0 25:1 26:1 27:1 28:1 29:1 30:1 31:0 32:0 33:1 34:1 35:0 36:0 37:0 38:1 39:0 40:0 41:3 42:0 43:1 44:6 
512 0:1 1:0 2:1 3:1 4:0 5:0 6:1 7:1 8:1 9:0 10:0 11:0 12:0 13:1 14:0 15:0 16:0 17:0 18:1 19:0 20:1 21:1 22:0 23:1 24:1 25:1 26:1 27:1 28:1 29:0 30:0 31:0 32:0 33:0 34:1 35:0 36:0 37:0 38:2 39:0 40:0 41:5 42:1 43:0 44:9 
512 0:1 1:1 2:1 3:1 4:1 5:0 6:1 7:1 8:0 9:0 10:0 11:0 12:0 13:1 14:1 15:1 16:0 17:0 18:1 19:1 20:0 21:1 22:1 23:0 24:1 25:1 26:1 27:1 28:1 29:1 30:1 31:0 32:1 33:1 34:1 35:0 36:0 37:0 38:3 39:0 40:1 41:8 42:0 43:1 44:15 
512 0:1 1:1 2:0 3:1 4:0 5:0 6:1 7:1 8:1 9:0 10:1 11:1 12:1 13:0 14:1 15:1 16:0 17:0 18:1 19:1 20:0 21:1 22:0 23:1 24:0 25:1 26:1 27:1 28:1 29:1 30:0 31:0 32:0 33:1 34:0 35:0 36:0 37:0 38:4 39:0 40:4 41:10 42:1 43:4 44:17 
512 0:0 1:1 2:1 3:0 4:1 5:1 6:1 7:0 8:1 9:1 10:1 11:1 12:1 13:1 14:1 15:1 16:0 17:0 18:1 19:1 20:0 21:1 22:0 23:0 24:0 25:0 26:1 27:1 28:1 29:0 30:0 31:0 32:0 33:1 34:0 35:0 36:1 37:0 38:3 39:1 40:0 41:7 42:1 43:1 44:13 
512 0:1 1:1 2:1 3:0 4:0 5:0 6:1 7:1 8:1 9:0 10:1 11:0 12:1 13:1 14:0 15:0 16:0 17:0 18:1 19:0 20:0 21:0 22:0 23:1 24:0 25:1 26:0 27:0 28:1 29:1 30:0 31:0 32:0 33:0 34:1 35:0 36:0 37:0 38:2 39:0 40:0 41:6 42:1 43:0 44:12 
512 0:0 1:1 2:1 3:0 4:1 5:1 6:0 7:1 8:1 9:0 10:0 11:1 12:1 13:1 14:1 15:1 16:1 17:1 18:1 19:0 20:0 21:1 22:0 23:0 24:1 25:1 26:1 27:0 28:1 29:1 30:0 31:0 32:0 33:1 34:0 35:0 36:0 37:0 38:2 39:1 40:0 41:7 42:1 43:0 44:14 
512 0:0 1:0 2:1 3:0 4:0 5:0 6:1 7:1 8:1 9:0 10:0 11:1 12:1 13:0 14:1 15:0 16:0 17:0 18:1 19:0 20:0 21:1 22:0 23:0 24:0 25:1 26:1 27:0 28:0 29:1 30:0 31:0 32:0 33:1 34:0 35:0 36:0 37:0 38:1 39:0 40:0 41:2 42:1 43:0 44:4 
512 0:1 1:1 2:1 3:1 4:0 5:0 6:1 7:1 8:0 9:0 10:1 11:1 12:1 13:1 14:0 15:0 16:0 17:0 18:1 19:1 20:1 21:1 22:0 23:0 24:0 25:1 26:1 27:1 28:0 29:1 30:1 31:0 32:0 33:1 34:1 35:0 36:0 37:0 38:1 39:0 40:0 41:2 42:0 43:0 44:3 
512 0:1 1:1 2:1 3:1 4:0 5:0 6:1 7:0 8:1 9:0 10:0 11:0 12:1 13:1 14:1 15:1 16:0 17:0 18:0 19:0 20:1 21:0 22:1 23:0 24:1 25:1 26:1 27:0 28:0 29:1 30:1 31:1 32:1 33:0 34:0 35:0 36:0 37:0 38:2 39:0 40:0 41:5 42:1 43:0 44:10 
512 0:1 1:1 2:1 3:1 4:1 5:1 6:1 7:0 8:0 9:1 10:1 11:1 12:0 13:1 14:0 15:1 16:1 17:0 18:1 19:0 20:1 21:1 22:0 23:0 24:0 25:1 26:0 27:1 28:0 29:0 30:0 31:0 32:0 33:1 34:0 35:0 36:0 37:0 38:1 39:0 40:1 41:4 42:0 43:2 44:8 
512 0:0 1:1 2:1 3:1 4:0 5:0 6:1 7:1 8:0 9:1 10:1 11:1 12:1 13:1 14:0 15:1 16:0 17:0 18:1 19:0 20:0 21:1 22:1 23:1 24:1 25:1 26:1 27:0 28:1 29:1 30:1 31:1 32:0 33:0 34:0 35:0 36:0 37:0 38:4 39:0 40:1 41:11 42:1 43:1 44:20 
512 0:0 1:1 2:0 3:1 4:0 5:0 6:0 7:1 8:1 9:0 10:1 11:0 12:1 13:1 14:1 15:1 16:1 17:1 18:1 19:1 20:0 21:0 22:0 23:0 24:0 25:1 26:1 27:1 28:1 29:1 30:1 31:0 32:0 33:1 34:0 35:0 36:0 37:1 38:3 39:0 40:4 41:10 42:0 43:5 44:18 
512 0:1 1:1 2:0 3:0 4:0 5:1 6:1 7:1 8:1 9:1 10:1 11:1 12:1 13:1 14:0 15:1 16:1 17:0 18:1 19:0 20:0 21:1 22:1 23:1 24:1 25:0 26:0 27:0 28:1 29:0 30:0 31:0 32:1 33:1 34:0 35:0 36:1 37:0 38:1 39:1 40:0 41:2 42:1 43:0 44:6 
512 0:0 1:0 2:1 3:1 4:0 5:0 6:1 7:1 8:1 9:1 10:1 11:0 12:0 13:1 14:1 15:1 16:0 17:0 18:0 19:0 20:0 21:1 22:0 23:1 24:1 25:0 26:0 27:1 28:1 29:0 30:0 31:1 32:0 33:0 34:0 35:0 36:0 37:0 38:4 39:0 40:2 41:11 42:0 43:5 44:18 
512 0:1 1:1 2:0 3:0 4:0 5:0 6:0 7:1 8:1 9:0 10:0 11:1 12:1 13:1 14:1 15:1 16:0 17:0 18:1 19:0 20:0 21:1 22:0 23:0 24:0 25:1 26:0 27:1 28:0 29:0 30:1 31:0 32:0 33:0 34:0 35:0 36:0 37:1 38:1 39:0 40:1 41:3 42:0 43:2 44:7 
512 0:1 1:1 2:1 3:0 4:0 5:0 6:1 7:1 8:1 9:1 10:1 11:1 12:0 13:1 14:1 15:0 16:0 17:0 18:0 19:0 20:0 21:0 22:0 23:0 24:1 25:1 26:0 27:1 28:1 29:0 30:1 31:0 32:1 33:1 34:1 35:0 36:0 37:0 38:1 39:0 40:0 41:2 42:0 43:0 44:4 
512 0:1 1:0 2:1 3:1 4:0 5:0 6:1 7:1 8:1 9:1 10:1 11:1 12:1 13:1 14:1 15:1 16:0 17:0 18:0 19:0 20:0 21:1 22:0 23:1 24:0 25:1 26:1 27:1 28:1 29:1 30:1 31:1 32:0 33:1 34:0 35:0 36:0 37:0 38:1 39:0 40:0 41:2 42:0 43:0 44:3 
512 0:1 1:1 2:1 3:1 4:0 5:1 6:1 7:1 8:1 9:0 10:0 11:0 12:1 13:1 14:1 15:0 16:1 17:0 18:1 19:1 20:0 21:0 22:0 23:0 24:1 25:1 26:1 27:0 28:1 29:0 30:1 31:0 32:0 33:0 34:1 35:0 36:0 37:0 38:2 39:0 40:0 41:5 42:1 43:0 44:11 
512 0:1 1:1 2:1 3:1 4:1 5:0 6:1 7:1 8:0 9:0 10:1 11:1 12:1 13:1 14:1 15:1 16:1 17:0 18:0 19:0 20:0 21:1 22:0 23:1 24:1 25:0 26:0 27:1 28:1 29:1 30:1 31:1 32:0 33:1 34:0 35:0 36:0 37:0 38:1 39:0 40:0 41:2 42:0 43:0 44:4 
512 0:0 1:1 2:0 3:0 4:0 5:0 6:1 7:1 8:0 9:1 10:1 11:1 12:0 13:1 14:1 15:1 16:1 17:0 18:0 19:0 20:0 21:1 22:1 23:1 24:0 25:1 26:1 27:1 28:1 29:1 30:1 31:1 32:0 33:1 34:0 35:1 36:0 37:0 38:1 39:0 40:0 41:3 42:0 43:2 44:6 
512 0:1 1:0 2:1 3:1 4:1 5:1 6:1 7:1 8:1 9:0 10:0 11:1 12:1 13:1 14:1 15:1 16:0 17:0 18:1 19:0 20:0 21:1 22:0 23:0 24:1 25:1 26:1 27:1 28:1 29:1 30:1 31:0 32:0 33:1 34:1 35:0 36:0 37:0 38:1 39:0 40:0 41:2 42:0 43:0 44:3 
512 0:1 1:1 2:1 3:1 4:0 5:0 6:1 7:1 8:1 9:0 10:0 11:0 12:1 13:1 14:1 15:1 16:0 17:0 18:1 19:1 20:1 21:1 22:1 23:0 24:1 25:1 26:1 27:1 28:1 29:0 30:1 31:1 32:1 33:1 34:0 35:0 36:0 37:0 38:2 39:1 40:0 41:5 42:1 43:0 44:8 
512 0:1 1:1 2:1 3:1 4:0 5:0 6:0 7:0 8:0 9:1 10:0 11:1 12:1 13:1 14:1 15:1 16:1 17:0 18:0 19:0 20:0 21:1 22:0 23:1 24:0 25:1 26:1 27:1 28:0 29:1 30:0 31:0 32:0 33:0 34:0 35:0 36:0 37:0 38:1 39:0 40:0 41:5 42:0 43:2 44:11 
512 0:0 1:1 2:0 3:0 4:0 5:0 6:1 7:1 8:1 9:1 10:1 11:1 12:1 13:1 14:1 15:0 16:0 17:0 18:1 19:0 20:0 21:0 22:0 23:0 24:0 25:1 26:1 27:0 28:0 29:0 30:0 31:0 32:0 33:1 34:0 35:1 36:0 37:2 38:2 39:0 40:3 41:9 42:0 43:3 44:19 
512 0:0 1:1 2:1 3:1 4:0 5:1 6:1 7:0 8:0 9:1 10:1 11:1 12:1 13:1 14:1 15:1 16:1 17:0 18:0 19:0 20:0 21:1 22:0 23:1 24:1 25:1 26:1 27:0 28:1 29:1 30:1 31:0 32:0 33:0 34:0 35:0 36:0 37:0 38:3 39:0 40:0 41:7 42:0 43:3 44:11 
512 0:0 1:1 2:1 3:0 4:0 5:0 6:1 7:1 8:1 9:1 10:0 11:0 12:1 13:1 14:1 15:0 16:0 17:0 18:1 19:0 20:0 21:1 22:1 23:0 24:1 25:1 26:1 27:1 28:1 29:1 30:1 31:1 32:0 33:1 34:1 35:1 36:0 37:0 38:2 39:1 40:0 41:5 42:1 43:1 44:10 
512 0:1 1:0 2:1 3:0 4:0 5:0 6:1 7:1 8:1 9:0 10:1 11:0 12:1 13:1 14:0 15:1 16:1 17:0 18:0 19:0 20:0 21:1 22:1 23:0 24:0 25:0 26:1 27:0 28:1 29:0 30:1 31:0 32:0 33:0 34:1 35:0 36:0 37:0 38:4 39:0 40:1 41:12 42:1 43:1 44:21 
512 0:1 1:1 2:1 3:1 4:1 5:0 6:1 7:1 8:0 9:1 10:1 11:0 12:1 13:1 14:1 15:1 16:0 17:0 18:0 19:0 20:1 21:1 22:0 23:1 24:1 25:1 26:1 27:1 28:0 29:1 30:0 31:0 32:0 33:1 34:0 35:0 36:0 37:0 38:1 39:0 40:0 41:4 42:0 43:1 44:9 
512 0:1 1:0 2:1 3:1 4:0 5:0 6:1 7:0 8:1 9:0 10:1 11:1 12:1 13:1 14:1 15:0 16:0 17:0 18:1 19:1 20:1 21:1 22:0 23:1 24:0 25:1 26:1 27:1 28:1 29:1 30:0 31:1 32:0 33:0 34:0 35:0 36:0 37:0 38:2 39:0 40:0 41:6 42:0 43:0 44:10 
512 0:1 1:0 2:1 3:0 4:1 5:1 6:1 7:1 8:1 9:0 10:1 11:1 12:1 13:1 14:1 15:0 16:1 17:0 18:1 19:0 20:0 21:0 22:1 23:1 24:1 25:1 26:1 27:0 28:1 29:1 30:1 31:0 32:0 33:1 34:1 35:0 36:0 37:0 38:1 39:2 40:0 41:3 42:2 43:0 44:8 
512 0:1 1:0 2:1 3:1 4:1 5:1 6:1 7:0 8:1 9:1 10:1 11:1 12:1 13:0 14:1 15:1 16:0 17:0 18:0 19:0 20:0 21:1 22:0 23:0 24:0 25:1 26:1 27:0 28:0 29:1 30:0 31:1 32:0 33:0 34:0 35:1 36:0 37:0 38:1 39:0 40:0 41:2 42:0 43:1 44:3 
512 0:1 1:0 2:1 3:0 4:1 5:0 6:1 7:1 8:1 9:0 10:1 11:1 12:1 13:1 14:1 15:0 16:0 17:0 18:1 19:0 20:1 21:1 22:0 23:0 24:1 25:1 26:1 27:0 28:1 29:1 30:1 31:0 32:0 33:0 34:0 35:1 36:0 37:0 38:1 39:0 40:0 41:3 42:0 43:1 44:6 
512 0:1 1:1 2:1 3:1 4:0 5:1 6:1 7:1 8:1 9:0 10:1 11:1 12:1 13:1 14:1 15:1 16:0 17:0 18:1 19:0 20:0 21:1 22:1 23:0 24:0 25:0 26:0 27:1 28:1 29:0 30:1 31:0 32:0 33:1 34:1 35:0 36:0 37:0 38:1 39:0 40:0 41:2 42:0 43:0 44:5 
512 0:1 1:1 2:1 3:1 4:0 5:0 6:1 7:0 8:0 9:1 10:1 11:1 12:1 13:0 14:1 15:1 16:0 17:0 18:1 19:0 20:0 21:1 22:0 23:1 24:1 25:1 26:0 27:1 28:1 29:0 30:0 31:1 32:1 33:1 34:0 35:0 36:0 37:0 38:1 39:0 40:0 41:2 42:0 43:1 44:4 
512 0:1 1:0 2:1 3:1 4:0 5:0 6:1 7:1 8:0 9:0 10:1 11:1 12:1 13:0 14:1 15:0 16:0 17:0 18:1 19:0 20:1 21:1 22:0 23:0 24:1 25:1 26:1 27:1 28:0 29:1 30:0 31:0 32:0 33:1 34:0 35:0 36:1 37:0 38:1 39:1 40:0 41:2 42:1 43:0 44:5 
512 0:1 1:0 2:1 3:1 4:0 5:0 6:0 7:1 8:1 9:0 10:1 11:1 12:1 13:1 14:1 15:0 16:0 17:0 18:1 19:0 20:0 21:0 22:0 23:0 24:0 25:1 26:1 27:0 28:1 29:0 30:1 31:0 32:0 33:1 34:0 35:0 36:0 37:0 38:1 39:0 40:0 41:2 42:0 43:0 44:3 
512 0:0 1:1 2:0 3:1 4:1 5:1 6:1 7:1 8:1 9:1 10:1 11:1 12:1 13:1 14:0 15:1 16:0 17:0 18:1 19:1 20:0 21:1 22:0 23:1 24:0 25:0 26:1 27:1 28:0 29:1 30:0 31:0 32:0 33:0 34:0 35:0 36:0 37:0 38:2 39:0 40:0 41:6 42:0 43:1 44:14 
512 0:1 1:1 2:0 3:1 4:0 5:0 6:1 7:1 8:1 9:0 10:1 11:1 12:1 13:1 14:1 15:0 16:0 17:0 18:0 19:0 20:1 21:0 22:0 23:0 24:0 25:1 26:1 27:1 28:1 29:0 30:1 31:1 32:0 33:0 34:0 35:0 36:0 37:1 38:3 39:0 40:3 41:9 42:0 43:5 44:17 
512 0:0 1:1 2:1 3:1 4:0 5:0 6:1 7:1 8:1 9:1 10:0 11:0 12:1 13:1 14:0 15:0 16:1 17:0 18:0 19:0 20:0 21:1 22:0 23:0 24:0 25:0 26:1 27:1 28:0 29:1 30:1 31:1 32:0 33:1 34:1 35:0 36:0 37:0 38:1 39:0 40:1 41:4 42:0 43:3 44:8 
512 0:0 1:1 2:1 3:0 4:0 5:0 6:1 7:1 8:1 9:0 10:0 11:1 12:1 13:1 14:0 15:1 16:0 17:0 18:1 19:0 20:0 21:1 22:0 23:1 24:1 25:1 26:1 27:0 28:1 29:1 30:0 31:0 32:0 33:1 34:0 35:0 36:0 37:0 38:1 39:0 40:0 41:2 42:0 43:0 44:3 
512 0:1 1:1 2:1 3:0 4:0 5:0 6:1 7:1 8:1 9:0 10:1 11:1 12:1 13:1 14:1 15:0 16:0 17:1 18:1 19:0 20:1 21:1 22:0 23:0 24:0 25:1 26:1 27:0 28:0 29:0 30:1 31:0 32:0 33:0 34:1 35:0 36:0 37:0 38:1 39:0 40:0 41:2 42:0 43:0 44:3 
512 0:1 1:1 2:0 3:0 4:0 5:1 6:1 7:1 8:1 9:0 10:0 11:0 12:1 13:1 14:0 15:1 16:1 17:1 18:1 19:0 20:0 21:1 22:0 23:0 24:1 25:1 26:1 27:1 28:1 29:1 30:0 31:0 32:0 33:1 34:0 35:0 36:0 37:0 38:1 39:0 40:0 41:2 42:0 43:0 44:3 
512 0:1 1:1 2:1 3:0 4:0 5:0 6:1 7:1 8:1 9:1 10:1 11:0 12:1 13:0 14:1 15:0 16:0 17:0 18:0 19:0 20:0 21:1 22:0 23:1 24:0 25:1 26:1 27:1 28:0 29:1 30:0 31:0 32:0 33:1 34:0 35:0 36:0 37:0 38:1 39:0 40:0 41:2 42:0 43:0 44:3 
512 0:1 1:1 2:0 3:0 4:0 5:1 6:1 7:1 8:0 9:0 10:0 11:1 12:1 13:0 14:1 15:1 16:0 17:0 18:1 19:1 20:1 21:1 22:0 23:0 24:0 25:1 26:1 27:0 28:0 29:1 30:0 31:0 32:0 33:0 34:0 35:0 36:0 37:1 38:3 39:0 40:2 41:9 42:0 43:3 44:16 
512 0:0 1:1 2:1 3:1 4:0 5:1 6:1 7:1 8:1 9:1 10:1 11:1 12:1 13:1 14:1 15:1 16:0 17:0 18:1 19:0 20:0 21:1 22:1 23:1 24:1 25:1 26:1 27:1 28:1 29:1 30:0 31:0 32:0 33:0 34:0 35:1 36:0 37:0 38:1 39:0 40:0 41:3 42:0 43:1 44:5 
512 0:0 1:1 2:0 3:1 4:0 5:0 6:0 7:1 8:1 9:0 10:1 11:1 12:0 13:1 14:1 15:1 16:0 17:0 18:0 19:0 20:0 21:0 22:1 23:0 24:0 25:0 26:1 27:1 28:1 29:0 30:1 31:1 32:0 33:0 34:0 35:0 36:0 37:0 38:2 39:0 40:1 41:5 42:1 43:1 44:11 
512 0:1 1:1 2:0 3:0 4:0 5:0 6:1 7:1 8:0 9:1 10:1 11:1 12:0 13:1 14:0 15:0 16:0 17:0 18:1 19:0 20:0 21:0 22:0 23:0 24:0 25:1 26:1 27:0 28:1 29:1 30:0 31:0 32:0 33:0 34:0 35:0 36:0 37:0 38:1 39:0 40:0 41:3 42:1 43:0 44:7 
512 0:0 1:1 2:1 3:1 4:1 5:1 6:1 7:1 8:1 9:0 10:0 11:1 12:0 13:1 14:1 15:1 16:0 17:1 18:1 19:0 20:0 21:1 22:0 23:0 24:1 25:1 26:0 27:1 28:0 29:1 30:0 31:0 32:0 33:1 34:0 35:0 36:0 37:2 38:3 39:0 40:2 41:7 42:0 43:2 44:12 
512 0:1 1:1 2:0 3:1 4:0 5:0 6:1 7:1 8:1 9:0 10:1 11:1 12:1 13:1 14:1 15:1 16:0 17:0 18:1 19:1 20:1 21:1 22:0 23:0 24:0 25:1 26:1 27:1 28:1 29:0 30:0 31:0 32:0 33:1 34:1 35:0 36:0 37:0 38:2 39:0 40:0 41:4 42:0 43:1 44:7 
512 0:0 1:0 2:1 3:1 4:0 5:0 6:1 7:1 8:0 9:0 10:0 11:1 12:1 13:1 14:1 15:0 16:0 17:0 18:1 19:0 20:0 21:1 22:0 23:0 24:0 25:1 26:1 27:0 28:0 29:1 30:0 31:1 32:1 33:1 34:0 35:0 36:0 37:0 38:1 39:1 40:0 41:3 42:1 43:0 44:7 
512 0:1 1:0 2:1 3:1 4:0 5:0 6:1 7:1 8:0 9:0 10:1 11:1 12:0 13:1 14:1 15:0 16:0 17:0 18:1 19:0 20:0 21:1 22:0 23:0 24:0 25:1 26:1 27:1 28:0 29:1 30:1 31:0 32:0 33:0 34:1 35:0 36:0 37:0 38:4 39:0 40:1 41:12 42:0 43:3 44:21 
512 0:1 1:0 2:1 3:1 4:0 5:0 6:1 7:1 8:1 9:0 10:0 11:1 12:1 13:1 14:1 15:1 16:1 17:0 18:1 19:1 20:1 21:1 22:0 23:0 24:1 25:1 26:1 27:1 28:1 29:0 30:1 31:0 32:0 33:1 34:0 35:1 36:0 37:0 38:1 39:0 40:0 41:3 42:0 43:1 44:8 
512 0:1 1:0 2:1 3:1 4:0 5:1 6:1 7:1 8:1 9:0 10:1 11:1 12:1 13:0 14:1 15:1 16:1 17:0 18:1 19:1 20:0 21:0 22:0 23:1 24:1 25:1 26:1 27:0 28:0 29:1 30:1 31:0 32:0 33:1 34:1 35:0 36:0 37:0 38:3 39:0 40:0 41:10 42:1 43:1 44:19 
512 0:1 1:1 2:1 3:1 4:0 5:1 6:1 7:1 8:1 9:1 10:1 11:1 12:1 13:1 14:1 15:1 16:0 17:1 18:1 19:0 20:0 21:1 22:0 23:0 24:1 25:1 26:1 27:1 28:0 29:0 30:0 31:0 32:0 33:0 34:1 35:0 36:0 37:0 38:1 39:0 40:0 41:5 42:0 43:1 44:12 
512 0:1 1:0 2:1 3:1 4:0 5:0 6:1 7:1 8:0 9:0 10:0 11:1 12:1 13:1 14:1 15:1 16:1 17:1 18:0 19:0 20:1 21:1 22:0 23:0 24:0 25:1 26:1 27:1 28:0 29:1 30:1 31:0 32:0 33:1 34:0 35:1 36:0 37:0 38:1 39:0 40:0 41:2 42:1 43:0 44:4 
512 0:0 1:1 2:1 3:1 4:1 5:1 6:1 7:1 8:1 9:1 10:1 11:1 12:1 13:0 14:1 15:1 16:1 17:0 18:1 19:0 20:0 21:1 22:0 23:0 24:1 25:1 26:1 27:0 28:1 29:1 30:0 31:0 32:0 33:1 34:1 35:0 36:0 37:0 38:3 39:0 40:3 41:8 42:0 43:4 44:13 
512 0:1 1:1 2:1 3:1 4:0 5:1 6:1 7:1 8:1 9:1 10:1 11:1 12:1 13:1 14:0 15:0 16:1 17:0 18:1 19:0 20:0 21:1 22:1 23:0 24:0 25:1 26:1 27:1 28:0 29:1 30:1 31:0 32:0 33:0 34:1 35:0 36:0 37:2 38:4 39:0 40:3 41:12 42:1 43:5 44:21 
512 0:0 1:1 2:1 3:1 4:0 5:0 6:1 7:1 8:1 9:1 10:1 11:1 12:1 13:1 14:1 15:1 16:0 17:1 18:0 19:1 20:1 21:1 22:0 23:0 24:0 25:0 26:1 27:1 28:0 29:1 30:0 31:0 32:0 33:0 34:0 35:1 36:0 37:0 38:3 39:0 40:0 41:10 42:0 43:0 44:18 
512 0:1 1:0 2:1 3:1 4:0 5:0 6:1 7:1 8:1 9:0 10:1 11:1 12:0 13:0 14:1 15:0 16:1 17:0 18:1 19:0 20:0 21:1 22:1 23:0 24:1 25:1 26:1 27:0 28:1 29:0 30:1 31:0 32:0 33:0 34:1 35:0 36:0 37:0 38:2 39:1 40:0 41:6 42:1 43:0 44:10 
512 0:1 1:1 2:1 3:1 4:0 5:1 6:0 7:1 8:1 9:1 10:1 11:0 12:1 13:1 14:0 15:0 16:0 17:0 18:0 19:0 20:1 21:1 22:0 23:0 24:1 25:1 26:1 27:1 28:1 29:1 30:0 31:0 32:0 33:0 34:0 35:1 36:0 37:0 38:1 39:0 40:0 41:2 42:0 43:0 44:3 
512 0:0 1:1 2:1 3:1 4:1 5:0 6:1 7:1 8:1 9:1 10:1 11:1 12:0 13:1 14:1 15:1 16:0 17:1 18:0 19:1 20:0 21:0 22:0 23:0 24:1 25:1 26:1 27:0 28:0 29:1 30:1 31:1 32:0 33:0 34:1 35:0 36:0 37:0 38:1 39:0 40:0 41:5 42:0 43:3 44:14 
512 0:0 1:1 2:0 3:1 4:1 5:1 6:1 7:1 8:1 9:0 10:0 11:1 12:1 13:1 14:1 15:1 16:0 17:0 18:0 19:0 20:0 21:0 22:0 23:0 24:1 25:1 26:1 27:0 28:1 29:0 30:1 31:1 32:0 33:0 34:0 35:0 36:0 37:0 38:1 39:0 40:0 41:2 42:0 43:0 44:3 
512 0:0 1:1 2:1 3:1 4:0 5:1 6:0 7:0 8:0 9:1 10:1 11:1 12:1 13:0 14:1 15:1 16:1 17:0 18:1 19:1 20:1 21:1 22:0 23:1 24:1 25:0 26:0 27:1 28:1 29:1 30:0 31:0 32:0 33:1 34:1 35:1 36:0 37:0 38:3 39:0 40:1 41:10 42:0 43:2 44:18 
512 0:0 1:1 2:1 3:1 4:0 5:0 6:0 7:1 8:0 9:1 10:1 11:0 12:1 13:0 14:1 15:1 16:0 17:0 18:1 19:0 20:1 21:1 22:0 23:1 24:1 25:1 26:0 27:1 28:0 29:1 30:1 31:0 32:1 33:1 34:0 35:0 36:0 37:0 38:2 39:0 40:1 41:5 42:1 43:1 44:10 
512 0:1 1:0 2:1 3:1 4:0 5:1 6:1 7:1 8:1 9:1 10:1 11:1 12:1 13:0 14:1 15:1 16:0 17:0 18:0 19:1 20:0 21:1 22:1 23:0 24:1 25:1 26:1 27:1 28:0 29:0 30:1 31:0 32:0 33:1 34:0 35:0 36:0 37:1 38:2 39:0 40:2 41:6 42:0 43:3 44:14 
512 0:1 1:1 2:0 3:0 4:0 5:1 6:0 7:1 8:1 9:1 10:1 11:1 12:1 13:1 14:1 15:0 16:0 17:0 18:1 19:1 20:0 21:1 22:0 23:1 24:0 25:0 26:1 27:1 28:0 29:1 30:1 31:1 32:0 33:0 34:0 35:0 36:0 37:0 38:1 39:0 40:0 41:2 42:0 43:0 44:3 
512 0:1 1:0 2:1 3:1 4:1 5:0 6:1 7:1 8:1 9:0 10:1 11:1 12:1 13:1 14:0 15:1 16:0 17:0 18:1 19:0 20:1 21:1 22:1 23:1 24:1 25:1 26:1 27:0 28:0 29:1 30:0 31:0 32:1 33:0 34:0 35:0 36:0 37:0 38:1 39:0 40:1 41:2 42:0 43:1 44:3 
512 0:1 1:0 2:1 3:1 4:1 5:0 6:1 7:1 8:1 9:0 10:1 11:1 12:0 13:1 14:0 15:1 16:1 17:0 18:0 19:0 20:0 21:1 22:1 23:0 24:0 25:1 26:1 27:1 28:1 29:1 30:1 31:0 32:0 33:1 34:1 35:0 36:0 37:0 38:3 39:0 40:1 41:9 42:0 43:3 44:17 
512 0:1 1:1 2:1 3:1 4:0 5:0 6:1 7:0 8:1 9:0 10:0 11:1 12:1 13:1 14:1 15:1 16:0 17:0 18:1 19:1 20:1 21:1 22:0 23:1 24:1 25:1 26:1 27:1 28:0 29:1 30:1 31:0 32:0 33:1 34:0 35:0 36:0 37:0 38:1 39:0 40:0 41:2 42:0 43:0 44:3 
512 0:0 1:1 2:1 3:1 4:0 5:0 6:0 7:1 8:1 9:0 10:0 11:1 12:1 13:1 14:1 15:1 16:1 17:0 18:0 19:0 20:1 21:0 22:0 23:0 24:1 25:1 26:1 27:0 28:0 29:0 30:1 31:0 32:1 33:0 34:0 35:0 36:0 37:0 38:2 39:0 40:0 41:4 42:0 43:0 44:6 
512 0:0 1:0 2:0 3:1 4:1 5:0 6:1 7:1 8:1 9:1 10:1 11:1 12:1 13:1 14:1 15:0 16:0 17:0 18:0 19:0 20:0 21:1 22:1 23:1 24:0 25:1 26:1 27:1 28:0 29:1 30:1 31:0 32:0 33:1 34:1 35:0 36:0 37:0 38:2 39:0 40:0 41:6 42:0 43:0 44:13 
512 0:1 1:0 2:0 3:1 4:0 5:0 6:1 7:1 8:0 9:1 10:1 11:0 12:1 13:0 14:1 15:1 16:0 17:0 18:1 19:0 20:0 21:1 22:1 23:1 24:1 25:1 26:1 27:1 28:1 29:1 30:1 31:0 32:0 33:1 34:1 35:0 36:0 37:0 38:2 39:0 40:1 41:7 42:1 43:1 44:15 
512 0:0 1:1 2:1 3:0 4:0 5:0 6:1 7:0 8:1 9:0 10:1 11:1 12:1 13:1 14:1 15:1 16:0 17:0 18:1 19:0 20:1 21:1 22:0 23:0 24:1 25:0 26:0 27:0 28:1 29:1 30:0 31:0 32:0 33:0 34:1 35:0 36:0 37:0 38:1 39:0 40:0 41:3 42:1 43:0 44:8 
512 0:1 1:1 2:1 3:1 4:0 5:0 6:1 7:1 8:1 9:0 10:0 11:1 12:0 13:1 14:1 15:0 16:1 17:0 18:1 19:0 20:0 21:0 22:0 23:0 24:0 25:1 26:1 27:1 28:1 29:0 30:1 31:0 32:0 33:0 34:1 35:0 36:0 37:0 38:2 39:0 40:2 41:6 42:0 43:5 44:12 
512 0:1 1:1 2:1 3:1 4:1 5:0 6:1 7:1 8:0 9:0 10:1 11:0 12:1 13:1 14:1 15:1 16:1 17:0 18:1 19:0 20:0 21:1 22:0 23:0 24:0 25:1 26:0 27:0 28:1 29:0 30:1 31:1 32:1 33:1 34:1 35:0 36:0 37:0 38:1 39:0 40:0 41:2 42:0 43:0 44:3 
512 0:1 1:1 2:1 3:1 4:0 5:0 6:1 7:1 8:1 9:1 10:1 11:1 12:1 13:0 14:1 15:1 16:1 17:0 18:1 19:1 20:0 21:1 22:0 23:0 24:0 25:0 26:0 27:1 28:0 29:1 30:0 31:0 32:1 33:1 34:0 35:0 36:0 37:0 38:1 39:0 40:0 41:3 42:0 43:1 44:8 
512 0:1 1:1 2:1 3:0 4:0 5:0 6:1 7:1 8:0 9:1 10:1 11:1 12:1 13:1 14:0 15:1 16:0 17:1 18:1 19:0 20:0 21:1 22:0 23:1 24:1 25:1 26:1 27:0 28:0 29:1 30:1 31:0 32:0 33:1 34:0 35:1 36:0 37:0 38:1 39:0 40:0 41:3 42:0 43:1 44:7 
512 0:1 1:1 2:1 3:1 4:0 5:0 6:1 7:1 8:0 9:0 10:0 11:0 12:1 13:1 14:1 15:1 16:0 17:0 18:1 19:0 20:0 21:1 22:1 23:0 24:0 25:1 26:1 27:1 28:1 29:0 30:1 31:1 32:1 33:1 34:1 35:0 36:0 37:0 38:1 39:0 40:0 41:2 42:0 43:0 44:3 
512 0:1 1:1 2:1 3:1 4:1 5:1 6:1 7:1 8:1 9:0 10:1 11:1 12:0 13:1 14:1 15:1 16:0 17:0 18:1 19:1 20:1 21:1 22:0 23:0 24:1 25:1 26:1 27:0 28:1 29:1 30:0 31:0 32:0 33:1 34:1 35:1 36:0 37:0 38:2 39:0 40:0 41:5 42:0 43:1 44:10 
512 0:1 1:1 2:1 3:1 4:0 5:1 6:1 7:0 8:0 9:1 10:1 11:0 12:1 13:1 14:1 15:0 16:0 17:0 18:0 19:0 20:0 21:1 22:0 23:0 24:0 25:0 26:0 27:0 28:1 29:0 30:0 31:0 32:0 33:1 34:0 35:0 36:1 37:0 38:2 39:1 40:1 41:5 42:1 43:3 44:11 
512 0:1 1:1 2:0 3:1 4:0 5:0 6:1 7:1 8:0 9:1 10:1 11:1 12:1 13:1 14:1 15:1 16:1 17:0 18:1 19:0 20:0 21:1 22:0 23:0 24:0 25:1 26:1 27:0 28:0 29:0 30:0 31:0 32:0 33:0 34:0 35:0 36:0 37:0 38:1 39:0 40:1 41:2 42:0 43:2 44:3 
512 0:0 1:1 2:1 3:1 4:1 5:0 6:1 7:1 8:1 9:0 10:0 11:0 12:1 13:1 14:0 15:1 16:0 17:0 18:1 19:0 20:0 21:0 22:0 23:0 24:0 25:1 26:1 27:0 28:1 29:1 30:0 31:0 32:0 33:1 34:0 35:0 36:0 37:0 38:1 39:0 40:1 41:4 42:0 43:2 44:10 
512 0:0 1:0 2:0 3:0 4:0 5:0 6:1 7:0 8:0 9:1 10:1 11:1 12:1 13:1 14:0 15:1 16:1 17:0 18:1 19:0 20:1 21:1 22:0 23:0 24:1 25:1 26:1 27:0 28:1 29:1 30:1 31:1 32:1 33:1 34:0 35:0 36:0 37:0 38:2 39:0 40:1 41:6 42:1 43:1 44:12 
512 0:0 1:1 2:1 3:1 4:1 5:0 6:1 7:0 8:0 9:0 10:0 11:1 12:1 13:1 14:1 15:1 16:0 17:0 18:1 19:0 20:0 21:1 22:0 23:1 24:0 25:1 26:0 27:0 28:1 29:0 30:1 31:1 32:1 33:1 34:1 35:0 36:0 37:0 38:3 39:0 40:0 41:8 42:0 43:1 44:16 
512 0:1 1:0 2:1 3:0 4:0 5:1 6:1 7:1 8:1 9:0 10:1 11:0 12:1 13:0 14:1 15:0 16:1 17:0 18:1 19:0 20:0 21:1 22:0 23:1 24:1 25:1 26:1 27:0 28:0 29:1 30:0 31:0 32:0 33:0 34:0 35:1 36:0 37:1 38:1 39:0 40:2 41:2 42:0 43:2 44:5 
512 0:1 1:0 2:1 3:1 4:1 5:1 6:0 7:1 8:0 9:1 10:0 11:0 12:1 13:0 14:1 15:1 16:0 17:0 18:1 19:0 20:0 21:1 22:0 23:0 24:0 25:0 26:0 27:0 28:0 29:0 30:0 31:0 32:0 33:0 34:1 35:0 36:0 37:0 38:1 39:0 40:0 41:3 42:0 43:1 44:5 
512 0:1 1:1 2:1 3:1 4:0 5:0 6:0 7:1 8:1 9:0 10:1 11:1 12:1 13:1 14:1 15:0 16:0 17:0 18:0 19:1 20:1 21:0 22:0 23:1 24:1 25:0 26:0 27:0 28:1 29:0 30:1 31:1 32:0 33:1 34:0 35:0 36:0 37:0 38:1 39:0 40:0 41:2 42:0 43:0 44:3 
512 0:0 1:1 2:1 3:1 4:0 5:0 6:1 7:0 8:1 9:1 10:1 11:1 12:1 13:0 14:1 15:1 16:1 17:0 18:0 19:0 20:0 21:0 22:0 23:1 24:0 25:1 26:1 27:0 28:1 29:1 30:1 31:1 32:0 33:1 34:0 35:0 36:0 37:0 38:1 39:0 40:0 41:4 42:1 43:0 44:9 
512 0:1 1:1 2:0 3:1 4:0 5:1 6:1 7:1 8:1 9:1 10:1 11:1 12:0 13:1 14:1 15:1 16:0 17:1 18:1 19:0 20:0 21:1 22:1 23:0 24:1 25:1 26:1 27:1 28:1 29:1 30:1 31:0 32:1 33:0 34:0 35:0 36:0 37:0 38:1 39:0 40:0 41:2 42:0 43:0 44:4 
512 0:0 1:1 2:1 3:1 4:0 5:0 6:1 7:1 8:1 9:0 10:1 11:1 12:1 13:1 14:1 15:1 16:1 17:1 18:1 19:0 20:0 21:1 22:0 23:0 24:0 25:1 26:1 27:0 28:1 29:0 30:0 31:0 32:0 33:0 34:0 35:0 36:0 37:0 38:2 39:0 40:3 41:6 42:0 43:3 44:10 
512 0:1 1:1 2:1 3:1 4:0 5:0 6:0 7:1 8:1 9:1 10:0 11:1 12:1 13:0 14:1 15:0 16:0 17:0 18:1 19:0 20:1 21:1 22:0 23:0 24:0 25:1 26:1 27:1 28:0 29:1 30:0 31:0 32:1 33:1 34:0 35:0 36:0 37:0 38:1 39:0 40:0 41:4 42:0 43:0 44:9 
512 0:1 1:1 2:1 3:0 4:0 5:0 6:1 7:1 8:0 9:1 10:1 11:1 12:1 13:0 14:0 15:1 16:0 17:0 18:1 19:0 20:1 21:1 22:0 23:1 24:0 25:1 26:1 27:1 28:0 29:1 30:1 31:0 32:1 33:1 34:0 35:0 36:0 37:0 38:1 39:0 40:0 41:4 42:0 43:0 44:8 
512 0:1 1:1 2:1 3:1 4:1 5:1 6:1 7:1 8:0 9:1 10:1 11:0 12:1 13:0 14:1 15:1 16:1 17:1 18:1 19:0 20:0 21:0 22:1 23:1 24:1 25:1 26:1 27:0 28:1 29:1 30:0 31:0 32:0 33:0 34:0 35:1 36:0 37:1 38:1 39:0 40:1 41:2 42:0 43:1 44:3 
512 0:1 1:1 2:1 3:0 4:0 5:0 6:1 7:0 8:1 9:1 10:1 11:1 12:1 13:1 14:1 15:0 16:0 17:0 18:0 19:0 20:0 21:1 22:0 23:1 24:1 25:1 26:1 27:1 28:0 29:1 30:1 31:0 32:0 33:0 34:1 35:1 36:0 37:0 38:2 39:0 40:0 41:7 42:0 43:0 44:14 
512 0:0 1:0 2:1 3:1 4:0 5:0 6:1 7:1 8:0 9:0 10:0 11:1 12:1 13:1 14:1 15:1 16:1 17:0 18:1 19:0 20:0 21:1 22:0 23:0 24:0 25:1 26:1 27:1 28:0 29:0 30:1 31:0 32:0 33:0 34:0 35:0 36:0 37:0 38:2 39:0 40:0 41:4 42:0 43:0 44:6 
512 0:1 1:1 2:1 3:1 4:1 5:1 6:1 7:0 8:1 9:1 10:1 11:1 12:0 13:1 14:1 15:1 16:0 17:1 18:1 19:0 20:0 21:1 22:1 23:0 24:1 25:1 26:1 27:1 28:1 29:1 30:0 31:0 32:0 33:1 34:0 35:0 36:0 37:3 38:3 39:0 40:4 41:9 42:0 43:5 44:18 
512 0:1 1:1 2:1 3:0 4:0 5:0 6:1 7:0 8:1 9:1 10:1 11:0 12:1 13:1 14:1 15:1 16:1 17:1 18:1 19:0 20:0 21:0 22:0 23:1 24:0 25:0 26:0 27:1 28:1 29:1 30:1 31:1 32:0 33:0 34:0 35:0 36:0 37:0 38:1 39:0 40:0 41:3 42:0 43:1 44:8 
512 0:1 1:1 2:1 3:0 4:0 5:0 6:1 7:1 8:1 9:1 10:1 11:1 12:1 13:1 14:1 15:1 16:0 17:0 18:0 19:1 20:0 21:1 22:1 23:0 24:1 25:1 26:1 27:0 28:1 29:1 30:0 31:0 32:0 33:0 34:1 35:0 36:0 37:1 38:1 39:0 40:1 41:2 42:0 43:1 44:4 
512 0:1 1:1 2:1 3:0 4:0 5:0 6:1 7:1 8:1 9:1 10:1 11:1 12:1 13:1 14:1 15:1 16:1 17:1 18:1 19:0 20:1 21:0 22:0 23:1 24:0 25:1 26:1 27:0 28:1 29:1 30:0 31:0 32:0 33:0 34:0 35:0 36:0 37:0 38:1 39:0 40:0 41:2 42:0 43:0 44:3 
512 0:1 1:0 2:1 3:1 4:0 5:0 6:1 7:0 8:1 9:0 10:1 11:0 12:1 13:1 14:1 15:1 16:0 17:0 18:0 19:0 20:1 21:0 22:0 23:0 24:1 25:1 26:1 27:0 28:1 29:0 30:0 31:1 32:0 33:1 34:1 35:0 36:1 37:0 38:3 39:1 40:0 41:8 42:1 43:0 44:12 
512 0:1 1:1 2:1 3:1 4:0 5:1 6:1 7:1 8:0 9:0 10:1 11:1 12:1 13:1 14:1 15:0 16:0 17:0 18:1 19:0 20:0 21:1 22:0 23:0 24:0 25:1 26:1 27:1 28:0 29:0 30:1 31:1 32:0 33:1 34:0 35:0 36:0 37:0 38:1 39:0 40:0 41:2 42:0 43:1 44:3 
512 0:1 1:1 2:0 3:0 4:0 5:1 6:1 7:0 8:1 9:0 10:1 11:0 12:1 13:1 14:1 15:1 16:1 17:0 18:1 19:1 20:1 21:0 22:0 23:0 24:1 25:1 26:1 27:0 28:1 29:1 30:0 31:1 32:1 33:0 34:0 35:0 36:0 37:0 38:1 39:0 40:1 41:2 42:0 43:1 44:3 
512 0:0 1:0 2:1 3:1 4:0 5:1 6:1 7:1 8:0 9:1 10:1 11:1 12:0 13:0 14:1 15:0 16:0 17:0 18:1 19:0 20:1 21:1 22:0 23:0 24:0 25:0 26:0 27:0 28:0 29:1 30:0 31:0 32:0 33:0 34:1 35:1 36:0 37:0 38:1 39:0 40:1 41:3 42:0 43:1 44:4 
512 0:1 1:1 2:1 3:0 4:0 5:1 6:1 7:1 8:1 9:0 10:1 11:0 12:1 13:0 14:0 15:0 16:1 17:0 18:0 19:0 20:0 21:1 22:1 23:1 24:1 25:1 26:1 27:0 28:1 29:0 30:1 31:0 32:0 33:1 34:1 35:1 36:0 37:0 38:1 39:0 40:1 41:2 42:0 43:1 44:6 
512 0:1 1:0 2:1 3:0 4:0 5:0 6:1 7:0 8:1 9:0 10:1 11:1 12:1 13:1 14:1 15:0 16:0 17:0 18:0 19:0 20:0 21:1 22:0 23:1 24:1 25:1 26:1 27:1 28:1 29:1 30:1 31:0 32:0 33:1 34:1 35:0 36:0 37:0 38:3 39:0 40:0 41:7 42:0 43:0 44:10 
512 0:1 1:1 2:1 3:1 4:0 5:1 6:1 7:1 8:1 9:1 10:1 11:1 12:1 13:1 14:0 15:1 16:1 17:1 18:0 19:0 20:0 21:1 22:0 23:0 24:0 25:1 26:1 27:0 28:0 29:1 30:1 31:1 32:0 33:0 34:0 35:0 36:0 37:1 38:1 39:0 40:1 41:2 42:0 43:1 44:4 
512 0:1 1:1 2:1 3:0 4:1 5:0 6:1 7:1 8:1 9:1 10:0 11:0 12:1 13:1 14:1 15:0 16:0 17:0 18:1 19:0 20:0 21:1 22:1 23:1 24:0 25:1 26:1 27:0 28:0 29:1 30:1 31:1 32:0 33:0 34:0 35:0 36:0 37:0 38:4 39:0 40:1 41:11 42:0 43:3 44:21 
512 0:1 1:1 2:1 3:0 4:0 5:0 6:1 7:1 8:1 9:0 10:0 11:0 12:1 13:0 14:1 15:0 16:1 17:0 18:1 19:0 20:0 21:1 22:1 23:1 24:1 25:1 26:1 27:1 28:0 29:1 30:1 31:1 32:0 33:1 34:0 35:0 36:0 37:0 38:1 39:0 40:0 41:2 42:0 43:0 44:3 
512 0:1 1:1 2:1 3:1 4:0 5:1 6:1 7:1 8:0 9:1 10:1 11:1 12:0 13:1 14:1 15:1 16:1 17:0 18:1 19:0 20:0 21:0 22:0 23:0 24:0 25:0 26:0 27:0 28:1 29:0 30:0 31:0 32:0 33:1 34:0 35:0 36:0 37:0 38:2 39:0 40:0 41:5 42:0 43:0 44:7 
512 0:1 1:0 2:0 3:0 4:0 5:0 6:1 7:1 8:1 9:1 10:1 11:0 12:1 13:1 14:1 15:0 16:0 17:0 18:1 19:0 20:0 21:0 22:0 23:0 24:0 25:1 26:1 27:0 28:1 29:1 30:0 31:0 32:0 33:0 34:1 35:0 36:0 37:0 38:1 39:0 40:0 41:2 42:0 43:1 44:3 
512 0:1 1:0 2:1 3:0 4:0 5:0 6:1 7:1 8:1 9:0 10:1 11:1 12:1 13:1 14:1 15:1 16:0 17:1 18:1 19:0 20:1 21:1 22:0 23:0 24:0 25:0 26:1 27:0 28:0 29:0 30:0 31:0 32:0 33:1 34:0 35:0 36:0 37:2 38:4 39:0 40:2 41:11 42:0 43:5 44:23 
512 0:1 1:1 2:1 3:1 4:1 5:0 6:1 7:0 8:1 9:0 10:0 11:1 12:1 13:1 14:1 15:0 16:0 17:0 18:1 19:1 20:0 21:1 22:1 23:1 24:0 25:0 26:0 27:0 28:1 29:1 30:1 31:0 32:0 33:1 34:0 35:0 36:0 37:0 38:2 39:0 40:0 41:5 42:0 43:1 44:9 
512 0:1 1:1 2:1 3:0 4:0 5:0 6:1 7:1 8:0 9:1 10:1 11:1 12:0 13:1 14:0 15:1 16:1 17:0 18:1 19:1 20:0 21:1 22:0 23:0 24:0 25:0 26:0 27:1 28:1 29:1 30:0 31:0 32:0 33:1 34:0 35:0 36:0 37:0 38:3 39:1 40:0 41:6 42:1 43:0 44:10 
512 0:0 1:1 2:1 3:1 4:0 5:1 6:0 7:1 8:1 9:0 10:0 11:0 12:1 13:1 14:1 15:1 16:1 17:0 18:1 19:0 20:1 21:1 22:0 23:0 24:0 25:1 26:1 27:1 28:0 29:1 30:0 31:0 32:0 33:1 34:0 35:1 36:0 37:1 38:2 39:0 40:1 41:5 42:0 43:2 44:9 
512 0:0 1:1 2:1 3:0 4:0 5:1 6:1 7:1 8:0 9:0 10:1 11:1 12:1 13:1 14:1 15:1 16:0 17:0 18:0 19:0 20:0 21:1 22:0 23:0 24:0 25:1 26:1 27:1 28:1 29:0 30:1 31:0 32:0 33:1 34:0 35:0 36:0 37:0 38:1 39:0 40:0 41:2 42:0 43:0 44:3 
512 0:1 1:1 2:1 3:1 4:0 5:0 6:1 7:0 8:1 9:0 10:1 11:1 12:1 13:0 14:0 15:1 16:0 17:0 18:1 19:1 20:0 21:1 22:0 23:0 24:0 25:1 26:1 27:1 28:0 29:1 30:0 31:0 32:0 33:1 34:0 35:0 36:0 37:0 38:2 39:0 40:1 41:8 42:0 43:1 44:15 
512 0:1 1:1 2:1 3:1 4:0 5:1 6:0 7:1 8:1 9:1 10:1 11:1 12:1 13:1 14:0 15:1 16:0 17:0 18:1 19:1 20:1 21:1 22:1 23:1 24:1 25:1 26:0 27:0 28:1 29:1 30:0 31:0 32:0 33:1 34:0 35:0 36:0 37:1 38:2 39:0 40:1 41:5 42:0 43:1 44:8 
512 0:1 1:1 2:1 3:1 4:0 5:0 6:0 7:0 8:1 9:0 10:1 11:0 12:1 13:1 14:1 15:1 16:0 17:0 18:1 19:0 20:1 21:1 22:0 23:1 24:0 25:1 26:1 27:0 28:1 29:1 30:1 31:0 32:0 33:0 34:0 35:0 36:0 37:0 38:2 39:0 40:1 41:5 42:0 43:3 44:9 
512 0:1 1:0 2:1 3:1 4:0 5:0 6:1 7:1 8:1 9:1 10:1 11:0 12:1 13:1 14:1 15:0 16:0 17:0 18:1 19:0 20:0 21:1 22:0 23:0 24:1 25:1 26:1 27:1 28:0 29:1 30:1 31:0 32:0 33:1 34:0 35:1 36:0 37:1 38:3 39:0 40:1 41:8 42:0 43:5 44:15 
512 0:1 1:1 2:1 3:1 4:1 5:1 6:1 7:0 8:1 9:1 10:0 11:0 12:0 13:1 14:1 15:1 16:0 17:0 18:1 19:0 20:0 21:1 22:0 23:0 24:1 25:1 26:0 27:1 28:0 29:0 30:0 31:1 32:0 33:1 34:0 35:0 36:0 37:0 38:1 39:0 40:0 41:2 42:0 43:0 44:5 
512 0:1 1:1 2:1 3:1 4:1 5:0 6:1 7:1 8:0 9:0 10:1 11:1 12:1 13:1 14:1 15:0 16:0 17:0 18:1 19:1 20:0 21:1 22:0 23:0 24:1 25:1 26:1 27:1 28:0 29:0 30:1 31:0 32:0 33:1 34:0 35:0 36:0 37:0 38:1 39:0 40:0 41:4 42:0 43:0 44:9 
512 0:0 1:1 2:1 3:0 4:0 5:1 6:1 7:1 8:1 9:0 10:1 11:1 12:1 13:1 14:1 15:0 16:0 17:0 18:0 19:0 20:1 21:0 22:0 23:0 24:1 25:1 26:1 27:0 28:1 29:1 30:1 31:0 32:0 33:1 34:1 35:1 36:0 37:0 38:1 39:1 40:3 41:7 42:2 43:5 44:17 
512 0:0 1:1 2:1 3:1 4:0 5:0 6:1 7:0 8:1 9:1 10:1 11:1 12:1 13:1 14:1 15:0 16:0 17:0 18:0 19:0 20:0 21:1 22:1 23:1 24:1 25:1 26:0 27:1 28:1 29:1 30:1 31:0 32:0 33:1 34:0 35:1 36:0 37:0 38:2 39:0 40:0 41:7 42:2 43:0 44:16 
512 0:1 1:1 2:1 3:1 4:0 5:0 6:1 7:0 8:0 9:1 10:1 11:0 12:1 13:1 14:1 15:0 16:0 17:0 18:1 19:1 20:1 21:0 22:0 23:0 24:0 25:0 26:1 27:0 28:0 29:1 30:0 31:0 32:0 33:0 34:1 35:0 36:1 37:1 38:2 39:2 40:2 41:6 42:2 43:2 44:11 
512 0:1 1:1 2:1 3:1 4:1 5:0 6:1 7:1 8:1 9:0 10:0 11:1 12:1 13:1 14:1 15:0 16:0 17:0 18:0 19:1 20:1 21:1 22:0 23:1 24:0 25:0 26:0 27:0 28:0 29:1 30:1 31:1 32:0 33:0 34:1 35:0 36:0 37:0 38:1 39:0 40:0 41:2 42:0 43:1 44:4 
512 0:0 1:1 2:1 3:1 4:1 5:0 6:1 7:1 8:1 9:0 10:1 11:1 12:1 13:1 14:1 15:1 16:1 17:0 18:1 19:0 20:0 21:1 22:0 23:1 24:1 25:1 26:1 27:0 28:0 29:0 30:1 31:0 32:0 33:0 34:0 35:0 36:0 37:0 38:3 39:0 40:0 41:7 42:0 43:3 44:17 
512 0:0 1:1 2:0 3:1 4:0 5:0 6:0 7:1 8:1 9:1 10:1 11:1 12:1 13:1 14:1 15:1 16:1 17:0 18:0 19:0 20:0 21:1 22:0 23:0 24:1 25:1 26:1 27:1 28:1 29:0 30:1 31:0 32:0 33:0 34:1 35:0 36:0 37:0 38:1 39:0 40:0 41:2 42:0 43:1 44:3 
512 0:1 1:0 2:1 3:0 4:0 5:0 6:1 7:1 8:0 9:0 10:1 11:1 12:1 13:1 14:1 15:0 16:0 17:0 18:1 19:0 20:0 21:1 22:0 23:1 24:0 25:1 26:1 27:1 28:1 29:1 30:0 31:1 32:0 33:1 34:0 35:0 36:0 37:0 38:2 39:0 40:0 41:6 42:0 43:0 44:12 
512 0:1 1:1 2:1 3:1 4:1 5:0 6:1 7:1 8:1 9:1 10:1 11:1 12:1 13:1 14:1 15:0 16:0 17:0 18:1 19:1 20:0 21:1 22:0 23:1 24:1 25:1 26:1 27:0 28:0 29:1 30:0 31:0 32:1 33:0 34:0 35:0 36:1 37:1 38:2 39:1 40:1 41:5 42:2 43:1 44:6 
512 0:1 1:1 2:0 3:0 4:0 5:0 6:1 7:0 8:0 9:0 10:1 11:1 12:1 13:0 14:1 15:1 16:1 17:1 18:1 19:0 20:0 21:1 22:0 23:0 24:0 25:0 26:0 27:0 28:1 29:1 30:1 31:1 32:1 33:1 34:0 35:0 36:0 37:0 38:1 39:0 40:0 41:2 42:0 43:0 44:3 
512 0:1 1:1 2:1 3:0 4:0 5:1 6:1 7:1 8:1 9:1 10:0 11:1 12:1 13:1 14:1 15:0 16:0 17:1 18:1 19:0 20:1 21:1 22:1 23:0 24:1 25:1 26:0 27:0 28:1 29:1 30:1 31:0 32:0 33:1 34:0 35:0 36:0 37:0 38:1 39:0 40:0 41:2 42:0 43:1 44:5 
512 0:1 1:1 2:1 3:1 4:1 5:0 6:1 7:1 8:1 9:1 10:0 11:0 12:1 13:1 14:1 15:1 16:0 17:0 18:0 19:0 20:1 21:1 22:0 23:0 24:0 25:1 26:1 27:1 28:1 29:1 30:0 31:0 32:1 33:0 34:1 35:0 36:0 37:0 38:1 39:0 40:0 41:4 42:0 43:1 44:8 
512 0:1 1:1 2:1 3:1 4:0 5:0 6:1 7:1 8:1 9:0 10:1 11:1 12:1 13:1 14:1 15:0 16:0 17:0 18:1 19:1 20:0 21:0 22:0 23:1 24:0 25:1 26:1 27:0 28:1 29:0 30:1 31:1 32:1 33:0 34:0 35:0 36:0 37:0 38:1 39:0 40:0 41:2 42:0 43:0 44:4 
512 0:1 1:1 2:1 3:1 4:0 5:1 6:0 7:0 8:0 9:1 10:1 11:0 12:1 13:1 14:1 15:0 16:0 17:0 18:0 19:0 20:0 21:1 22:0 23:0 24:1 25:1 26:0 27:1 28:0 29:0 30:0 31:0 32:0 33:1 34:0 35:0 36:0 37:0 38:1 39:0 40:1 41:3 42:0 43:1 44:7 
512 0:1 1:1 2:1 3:0 4:1 5:1 6:1 7:0 8:1 9:1 10:1 11:1 12:1 13:1 14:1 15:1 16:0 17:0 18:0 19:0 20:0 21:1 22:1 23:1 24:0 25:1 26:1 27:1 28:1 29:1 30:1 31:0 32:0 33:1 34:1 35:1 36:0 37:0 38:3 39:0 40:2 41:9 42:0 43:2 44:18 
512 0:1 1:1 2:1 3:1 4:0 5:1 6:1 7:0 8:1 9:1 10:1 11:0 12:1 13:1 14:1 15:0 16:0 17:0 18:1 19:0 20:0 21:1 22:0 23:1 24:1 25:0 26:1 27:1 28:0 29:1 30:1 31:1 32:1 33:1 34:0 35:0 36:0 37:0 38:1 39:0 40:0 41:3 42:0 43:0 44:6 
512 0:0 1:0 2:1 3:1 4:0 5:0 6:1 7:1 8:1 9:0 10:0 11:0 12:1 13:1 14:0 15:1 16:0 17:0 18:1 19:0 20:0 21:0 22:0 23:0 24:1 25:1 26:1 27:0 28:1 29:0 30:0 31:0 32:0 33:1 34:0 35:1 36:0 37:0 38:1 39:0 40:0 41:2 42:0 43:0 44:3 
512 0:1 1:0 2:1 3:1 4:1 5:0 6:1 7:1 8:1 9:0 10:1 11:1 12:1 13:1 14:1 15:1 16:0 17:0 18:1 19:0 20:0 21:1 22:0 23:1 24:1 25:1 26:1 27:1 28:0 29:1 30:1 31:0 32:0 33:1 34:0 35:1 36:0 37:0 38:1 39:0 40:0 41:2 42:0 43:0 44:5 
512 0:1 1:0 2:0 3:0 4:0 5:0 6:1 7:1 8:1 9:1 10:1 11:1 12:1 13:1 14:1 15:1 16:0 17:0 18:1 19:0 20:0 21:1 22:0 23:0 24:1 25:0 26:0 27:0 28:0 29:1 30:1 31:1 32:0 33:1 34:1 35:0 36:0 37:0 38:2 39:0 40:0 41:6 42:0 43:0 44:11 
512 0:0 1:0 2:0 3:1 4:0 5:0 6:1 7:1 8:1 9:1 10:1 11:1 12:0 13:1 14:0 15:0 16:0 17:0 18:1 19:0 20:0 21:1 22:0 23:1 24:1 25:0 26:1 27:1 28:0 29:1 30:1 31:0 32:0 33:1 34:0 35:1 36:0 37:1 38:2 39:0 40:1 41:9 42:0 43:2 44:17 
512 0:0 1:0 2:1 3:0 4:0 5:1 6:1 7:0 8:0 9:1 10:0 11:0 12:1 13:1 14:1 15:0 16:0 17:0 18:1 19:0 20:0 21:1 22:0 23:1 24:1 25:1 26:1 27:0 28:1 29:1 30:1 31:0 32:0 33:0 34:0 35:0 36:0 37:0 38:1 39:0 40:0 41:2 42:0 43:0 44:3 
512 0:1 1:1 2:1 3:0 4:0 5:0 6:1 7:0 8:1 9:1 10:1 11:1 12:1 13:1 14:1 15:0 16:0 17:0 18:1 19:0 20:0 21:1 22:0 23:1 24:1 25:1 26:1 27:1 28:0 29:1 30:0 31:1 32:0 33:1 34:0 35:1 36:0 37:1 38:2 39:0 40:1 41:7 42:0 43:3 44:15 
512 0:1 1:1 2:1 3:1 4:0 5:0 6:1 7:1 8:1 9:1 10:1 11:1 12:1 13:1 14:1 15:0 16:0 17:0 18:1 19:1 20:1 21:1 22:0 23:1 24:0 25:1 26:1 27:0 28:0 29:1 30:1 31:1 32:0 33:0 34:0 35:0 36:0 37:0 38:1 39:0 40:0 41:2 42:0 43:1 44:3 
512 0:1 1:1 2:1 3:0 4:0 5:1 6:1 7:1 8:1 9:1 10:1 11:1 12:0 13:1 14:0 15:0 16:0 17:0 18:0 19:0 20:1 21:1 22:0 23:1 24:1 25:1 26:1 27:1 28:1 29:1 30:0 31:0 32:0 33:1 34:1 35:0 36:0 37:0 38:3 39:0 40:0 41:8 42:0 43:2 44:17 
512 0:1 1:1 2:1 3:1 4:1 5:1 6:0 7:1 8:1 9:0 10:1 11:1 12:0 13:1 14:1 15:0 16:0 17:0 18:0 19:0 20:1 21:1 22:1 23:1 24:1 25:0 26:0 27:1 28:0 29:0 30:1 31:0 32:0 33:1 34:0 35:0 36:1 37:0 38:2 39:1 40:2 41:8 42:2 43:3 44:17 
512 0:1 1:1 2:1 3:0 4:1 5:1 6:1 7:1 8:1 9:1 10:1 11:1 12:1 13:1 14:1 15:1 16:0 17:0 18:1 19:1 20:0 21:1 22:0 23:1 24:0 25:1 26:1 27:1 28:1 29:0 30:1 31:0 32:0 33:1 34:0 35:0 36:0 37:1 38:1 39:0 40:1 41:2 42:0 43:2 44:4 
512 0:1 1:1 2:1 3:1 4:0 5:0 6:1 7:1 8:1 9:1 10:1 11:1 12:0 13:1 14:1 15:0 16:0 17:0 18:1 19:0 20:0 21:1 22:0 23:1 24:0 25:0 26:0 27:1 28:0 29:0 30:0 31:1 32:0 33:1 34:0 35:0 36:0 37:1 38:1 39:0 40:2 41:3 42:1 43:2 44:5 
512 0:0 1:1 2:0 3:0 4:0 5:0 6:1 7:1 8:1 9:0 10:1 11:1 12:1 13:0 14:0 15:0 16:0 17:0 18:0 19:0 20:0 21:0 22:0 23:1 24:1 25:1 26:1 27:0 28:0 29:1 30:0 31:0 32:0 33:0 34:0 35:1 36:1 37:0 38:1 39:1 40:1 41:3 42:2 43:1 44:5 
512 0:0 1:1 2:1 3:1 4:0 5:0 6:1 7:1 8:0 9:0 10:1 11:1 12:1 13:0 14:0 15:1 16:1 17:0 18:1 19:0 20:0 21:0 22:0 23:0 24:1 25:1 26:1 27:0 28:1 29:1 30:0 31:0 32:1 33:1 34:0 35:1 36:0 37:0 38:3 39:0 40:1 41:10 42:0 43:2 44:20 
512 0:1 1:1 2:1 3:1 4:0 5:1 6:1 7:1 8:0 9:1 10:1 11:1 12:0 13:1 14:1 15:1 16:1 17:1 18:1 19:0 20:0 21:1 22:1 23:0 24:0 25:0 26:0 27:0 28:1 29:0 30:1 31:0 32:0 33:0 34:1 35:0 36:0 37:0 38:1 39:0 40:0 41:2 42:0 43:0 44:3 
512 0:1 1:1 2:1 3:0 4:1 5:1 6:1 7:1 8:1 9:0 10:1 11:1 12:1 13:0 14:0 15:0 16:0 17:0 18:0 19:0 20:0 21:1 22:0 23:0 24:1 25:1 26:1 27:0 28:0 29:1 30:1 31:0 32:0 33:1 34:0 35:1 36:0 37:0 38:2 39:2 40:2 41:8 42:2 43:3 44:13 
512 0:1 1:1 2:1 3:1 4:0 5:0 6:1 7:1 8:1 9:1 10:0 11:1 12:1 13:1 14:0 15:1 16:1 17:0 18:1 19:1 20:1 21:1 22:0 23:0 24:1 25:1 26:1 27:1 28:1 29:1 30:0 31:0 32:0 33:0 34:1 35:0 36:0 37:0 38:1 39:0 40:0 41:2 42:0 43:0 44:6 
512 0:1 1:1 2:1 3:1 4:1 5:1 6:0 7:1 8:0 9:0 10:1 11:1 12:1 13:1 14:1 15:0 16:0 17:1 18:1 19:1 20:0 21:0 22:0 23:1 24:1 25:1 26:1 27:1 28:0 29:1 30:1 31:0 32:0 33:0 34:0 35:0 36:0 37:0 38:2 39:0 40:0 41:5 42:1 43:0 44:9 
512 0:0 1:1 2:1 3:1 4:0 5:1 6:1 7:1 8:1 9:1 10:1 11:1 12:1 13:1 14:1 15:1 16:0 17:0 18:0 19:0 20:1 21:1 22:0 23:1 24:1 25:1 26:1 27:1 28:1 29:0 30:1 31:0 32:0 33:1 34:0 35:0 36:0 37:0 38:2 39:0 40:0 41:4 42:0 43:0 44:8 
512 0:1 1:0 2:1 3:0 4:0 5:1 6:1 7:1 8:1 9:1 10:1 11:1 12:0 13:0 14:1 15:1 16:0 17:0 18:0 19:0 20:0 21:0 22:0 23:0 24:1 25:1 26:1 27:0 28:1 29:0 30:0 31:1 32:0 33:0 34:1 35:0 36:0 37:0 38:1 39:0 40:0 41:3 42:0 43:2 44:5 
512 0:1 1:1 2:1 3:1 4:0 5:0 6:0 7:0 8:0 9:0 10:0 11:0 12:1 13:1 14:1 15:1 16:0 17:0 18:1 19:0 20:0 21:1 22:0 23:1 24:1 25:1 26:0 27:0 28:1 29:0 30:1 31:1 32:1 33:0 34:1 35:0 36:0 37:1 38:2 39:0 40:1 41:5 42:0 43:1 44:10 
512 0:1 1:0 2:1 3:1 4:0 5:0 6:1 7:1 8:1 9:1 10:1 11:1 12:1 13:1 14:1 15:1 16:0 17:0 18:1 19:0 20:1 21:1 22:0 23:0 24:1 25:0 26:0 27:1 28:1 29:0 30:1 31:1 32:0 33:0 34:0 35:0 36:0 37:0 38:1 39:0 40:0 41:2 42:0 43:0 44:3 
512 0:1 1:1 2:1 3:1 4:1 5:1 6:1 7:1 8:1 9:1 10:1 11:0 12:1 13:1 14:1 15:1 16:0 17:0 18:1 19:1 20:0 21:0 22:0 23:0 24:1 25:1 26:1 27:1 28:1 29:1 30:1 31:0 32:0 33:1 34:1 35:0 36:0 37:0 38:1 39:0 40:0 41:2 42:0 43:1 44:4 
512 0:1 1:1 2:1 3:1 4:0 5:0 6:1 7:0 8:1 9:0 10:1 11:1 12:1 13:0 14:0 15:1 16:1 17:1 18:1 19:0 20:0 21:1 22:0 23:0 24:0 25:0 26:1 27:0 28:1 29:1 30:1 31:1 32:0 33:0 34:0 35:0 36:0 37:0 38:1 39:0 40:0 41:3 42:0 43:0 44:6 
512 0:1 1:1 2:0 3:1 4:1 5:0 6:1 7:1 8:1 9:0 10:1 11:1 12:0 13:1 14:1 15:0 16:1 17:1 18:0 19:0 20:0 21:1 22:0 23:1 24:0 25:0 26:0 27:1 28:0 29:1 30:1 31:0 32:1 33:1 34:0 35:0 36:1 37:0 38:1 39:2 40:0 41:2 42:2 43:0 44:4 
512 0:1 1:1 2:0 3:0 4:0 5:0 6:0 7:1 8:1 9:1 10:0 11:1 12:1 13:1 14:1 15:0 16:1 17:0 18:0 19:0 20:0 21:1 22:1 23:0 24:0 25:0 26:0 27:1 28:1 29:1 30:1 31:0 32:0 33:1 34:1 35:0 36:0 37:0 38:2 39:0 40:0 41:4 42:0 43:1 44:6 
512 0:0 1:1 2:1 3:0 4:0 5:1 6:1 7:1 8:0 9:0 10:0 11:0 12:0 13:0 14:1 15:1 16:0 17:0 18:0 19:1 20:0 21:1 22:0 23:1 24:1 25:0 26:1 27:0 28:0 29:1 30:0 31:0 32:0 33:1 34:0 35:0 36:1 37:0 38:1 39:1 40:0 41:2 42:1 43:0 44:4 
512 0:1 1:1 2:0 3:1 4:0 5:0 6:0 7:0 8:0 9:1 10:1 11:1 12:1 13:1 14:1 15:1 16:0 17:0 18:0 19:0 20:0 21:1 22:0 23:1 24:1 25:1 26:1 27:1 28:1 29:1 30:1 31:0 32:0 33:1 34:1 35:0 36:0 37:1 38:2 39:0 40:1 41:5 42:0 43:2 44:8 
512 0:1 1:1 2:0 3:1 4:0 5:0 6:0 7:1 8:1 9:0 10:0 11:0 12:1 13:0 14:1 15:1 16:0 17:0 18:1 19:0 20:0 21:1 22:0 23:0 24:0 25:1 26:1 27:0 28:1 29:1 30:0 31:0 32:0 33:1 34:0 35:0 36:0 37:0 38:1 39:0 40:0 41:3 42:0 43:0 44:5 
512 0:0 1:0 2:1 3:0 4:0 5:0 6:1 7:1 8:1 9:1 10:1 11:1 12:1 13:1 14:1 15:1 16:1 17:0 18:1 19:0 20:0 21:1 22:1 23:0 24:1 25:1 26:0 27:0 28:1 29:0 30:1 31:0 32:0 33:1 34:1 35:0 36:0 37:1 38:2 39:0 40:2 41:6 42:0 43:2 44:12 
512 0:1 1:1 2:1 3:1 4:1 5:0 6:1 7:1 8:1 9:1 10:1 11:1 12:0 13:0 14:1 15:0 16:1 17:0 18:1 19:0 20:0 21:1 22:1 23:1 24:1 25:1 26:1 27:0 28:1 29:0 30:1 31:1 32:0 33:1 34:0 35:1 36:0 37:0 38:1 39:0 40:0 41:2 42:0 43:0 44:3 
512 0:0 1:0 2:1 3:1 4:0 5:0 6:1 7:1 8:1 9:0 10:0 11:0 12:0 13:1 14:1 15:1 16:0 17:0 18:1 19:0 20:1 21:1 22:0 23:0 24:1 25:1 26:1 27:1 28:1 29:1 30:1 31:0 32:1 33:1 34:0 35:1 36:0 37:0 38:2 39:0 40:0 41:7 42:1 43:0 44:14 
512 0:0 1:1 2:0 3:1 4:1 5:0 6:1 7:1 8:1 9:1 10:1 11:0 12:1 13:0 14:1 15:1 16:0 17:0 18:0 19:0 20:0 21:1 22:0 23:1 24:1 25:1 26:1 27:1 28:0 29:1 30:1 31:0 32:0 33:1 34:0 35:0 36:0 37:0 38:2 39:0 40:1 41:7 42:1 43:2 44:15 
512 0:1 1:0 2:1 3:1 4:0 5:0 6:0 7:0 8:0 9:0 10:0 11:1 12:1 13:1 14:0 15:0 16:0 17:0 18:1 19:0 20:0 21:1 22:0 23:0 24:0 25:1 26:1 27:1 28:0 29:0 30:1 31:0 32:0 33:1 34:0 35:1 36:0 37:0 38:1 39:0 40:0 41:2 42:0 43:0 44:3 
512 0:1 1:1 2:1 3:1 4:0 5:0 6:1 7:1 8:0 9:1 10:1 11:1 12:1 13:1 14:1 15:0 16:0 17:1 18:1 19:1 20:1 21:1 22:0 23:0 24:1 25:1 26:0 27:1 28:1 29:1 30:1 31:1 32:1 33:1 34:0 35:0 36:0 37:1 38:1 39:0 40:2 41:3 42:0 43:2 44:6 
512 0:1 1:1 2:0 3:1 4:0 5:1 6:1 7:1 8:1 9:0 10:1 11:1 12:1 13:1 14:0 15:1 16:0 17:0 18:1 19:1 20:0 21:1 22:0 23:0 24:1 25:1 26:0 27:0 28:0 29:0 30:0 31:1 32:0 33:0 34:1 35:0 36:0 37:1 38:1 39:0 40:2 41:2 42:0 43:3 44:7 
512 0:1 1:1 2:1 3:0 4:0 5:0 6:0 7:0 8:1 9:1 10:1 11:1 12:0 13:1 14:1 15:1 16:0 17:0 18:1 19:0 20:0 21:1 22:0 23:0 24:1 25:1 26:0 27:1 28:1 29:1 30:1 31:0 32:0 33:1 34:1 35:1 36:0 37:1 38:3 39:0 40:1 41:9 42:0 43:2 44:19 
512 0:1 1:0 2:1 3:1 4:1 5:0 6:1 7:1 8:1 9:1 10:1 11:0 12:1 13:1 14:1 15:0 16:0 17:0 18:1 19:1 20:0 21:1 22:0 23:1 24:0 25:0 26:0 27:0 28:0 29:1 30:0 31:0 32:0 33:1 34:0 35:1 36:0 37:0 38:3 39:0 40:0 41:11 42:0 43:1 44:21 
512 0:1 1:1 2:1 3:1 4:0 5:0 6:0 7:1 8:1 9:0 10:1 11:1 12:1 13:1 14:1 15:0 16:0 17:0 18:1 19:0 20:0 21:1 22:0 23:0 24:1 25:1 26:1 27:1 28:1 29:1 30:1 31:1 32:0 33:1 34:1 35:1 36:0 37:0 38:1 39:0 40:1 41:2 42:0 43:1 44:3 
512 0:1 1:1 2:1 3:1 4:0 5:1 6:1 7:1 8:0 9:0 10:0 11:0 12:1 13:1 14:1 15:1 16:1 17:0 18:1 19:0 20:0 21:1 22:0 23:0 24:0 25:0 26:1 27:1 28:0 29:1 30:1 31:0 32:0 33:1 34:1 35:1 36:0 37:0 38:2 39:0 40:0 41:5 42:0 43:0 44:8 
512 0:1 1:1 2:1 3:1 4:0 5:0 6:1 7:1 8:1 9:0 10:1 11:1 12:1 13:1 14:1 15:1 16:0 17:0 18:1 19:0 20:0 21:0 22:1 23:1 24:0 25:1 26:0 27:0 28:1 29:1 30:0 31:0 32:0 33:0 34:1 35:1 36:0 37:0 38:1 39:0 40:1 41:2 42:0 43:1 44:3 
512 0:1 1:1 2:1 3:1 4:0 5:0 6:1 7:1 8:1 9:0 10:0 11:0 12:1 13:1 14:1 15:0 16:0 17:0 18:1 19:0 20:0 21:0 22:0 23:1 24:0 25:1 26:1 27:0 28:1 29:0 30:0 31:0 32:0 33:0 34:1 35:0 36:0 37:0 38:1 39:0 40:0 41:2 42:1 43:0 44:4 
512 0:1 1:1 2:0 3:1 4:0 5:0 6:0 7:1 8:1 9:1 10:1 11:0 12:1 13:1 14:0 15:0 16:0 17:0 18:1 19:0 20:0 21:1 22:0 23:0 24:0 25:1 26:1 27:0 28:1 29:1 30:1 31:0 32:0 33:1 34:1 35:0 36:0 37:0 38:1 39:0 40:1 41:3 42:0 43:2 44:5 
512 0:0 1:1 2:1 3:1 4:0 5:0 6:1 7:0 8:1 9:0 10:1 11:1 12:1 13:1 14:1 15:1 16:1 17:0 18:0 19:1 20:0 21:0 22:0 23:1 24:0 25:0 26:1 27:0 28:0 29:1 30:1 31:0 32:1 33:0 34:0 35:0 36:1 37:0 38:1 39:1 40:0 41:2 42:1 43:0 44:3 
512 0:1 1:1 2:1 3:0 4:0 5:0 6:1 7:1 8:1 9:1 10:1 11:1 12:1 13:0 14:1 15:1 16:0 17:0 18:1 19:0 20:0 21:1 22:0 23:0 24:1 25:1 26:1 27:1 28:0 29:0 30:0 31:0 32:0 33:0 34:0 35:0 36:0 37:0 38:1 39:0 40:0 41:2 42:0 43:0 44:3 
512 0:1 1:1 2:1 3:1 4:1 5:0 6:1 7:1 8:0 9:0 10:0 11:1 12:1 13:1 14:1 15:0 16:1 17:0 18:0 19:0 20:1 21:0 22:1 23:0 24:1 25:1 26:1 27:0 28:0 29:1 30:1 31:0 32:0 33:0 34:0 35:1 36:0 37:0 38:1 39:1 40:0 41:2 42:1 43:0 44:4 
512 0:1 1:1 2:1 3:1 4:0 5:0 6:0 7:1 8:1 9:0 10:1 11:1 12:1 13:1 14:1 15:1 16:1 17:0 18:1 19:0 20:0 21:1 22:1 23:1 24:0 25:0 26:1 27:0 28:0 29:0 30:0 31:0 32:0 33:1 34:0 35:0 36:0 37:0 38:1 39:0 40:1 41:2 42:0 43:2 44:3 
512 0:1 1:1 2:1 3:1 4:0 5:0 6:1 7:1 8:1 9:0 10:0 11:0 12:1 13:1 14:1 15:0 16:0 17:0 18:1 19:1 20:0 21:1 22:0 23:1 24:0 25:1 26:1 27:1 28:1 29:1 30:0 31:0 32:0 33:1 34:0 35:0 36:0 37:0 38:2 39:0 40:1 41:8 42:0 43:3 44:17 
512 0:1 1:1 2:1 3:1 4:1 5:0 6:0 7:1 8:0 9:1 10:0 11:1 12:1 13:1 14:1 15:0 16:0 17:0 18:1 19:0 20:0 21:1 22:1 23:1 24:1 25:1 26:1 27:1 28:1 29:1 30:1 31:0 32:0 33:1 34:1 35:0 36:0 37:2 38:4 39:1 40:3 41:10 42:2 43:4 44:18 
512 0:1 1:1 2:0 3:0 4:0 5:0 6:1 7:0 8:0 9:1 10:1 11:1 12:1 13:1 14:1 15:0 16:0 17:0 18:0 19:0 20:1 21:1 22:1 23:0 24:1 25:1 26:1 27:1 28:1 29:0 30:1 31:0 32:0 33:1 34:0 35:0 36:0 37:1 38:1 39:0 40:1 41:2 42:0 43:1 44:3 
512 0:1 1:1 2:1 3:1 4:1 5:1 6:0 7:1 8:1 9:0 10:0 11:0 12:1 13:1 14:0 15:1 16:0 17:0 18:0 19:0 20:1 21:1 22:0 23:0 24:0 25:0 26:1 27:1 28:1 29:1 30:0 31:0 32:0 33:0 34:1 35:1 36:0 37:0 38:1 39:0 40:0 41:3 42:0 43:1 44:9 
512 0:1 1:1 2:1 3:1 4:0 5:0 6:1 7:1 8:1 9:1 10:1 11:1 12:0 13:1 14:1 15:1 16:1 17:0 18:1 19:0 20:0 21:1 22:0 23:0 24:0 25:1 26:1 27:1 28:1 29:1 30:0 31:0 32:0 33:0 34:1 35:0 36:0 37:0 38:3 39:0 40:0 41:8 42:0 43:0 44:14 
512 0:1 1:1 2:1 3:1 4:0 5:0 6:1 7:0 8:1 9:1 10:1 11:1 12:1 13:1 14:1 15:1 16:0 17:0 18:1 19:1 20:1 21:1 22:1 23:0 24:1 25:1 26:1 27:1 28:1 29:1 30:1 31:0 32:0 33:1 34:1 35:1 36:0 37:0 38:1 39:1 40:0 41:2 42:1 43:0 44:5 
512 0:1 1:1 2:1 3:0 4:0 5:0 6:1 7:1 8:1 9:0 10:0 11:1 12:1 13:1 14:1 15:1 16:0 17:0 18:1 19:1 20:0 21:1 22:0 23:0 24:0 25:1 26:1 27:1 28:1 29:0 30:1 31:0 32:0 33:1 34:1 35:0 36:0 37:1 38:3 39:0 40:1 41:8 42:0 43:2 44:16 
512 0:1 1:1 2:1 3:0 4:1 5:1 6:1 7:1 8:0 9:0 10:0 11:1 12:1 13:1 14:0 15:0 16:0 17:1 18:1 19:1 20:1 21:1 22:1 23:0 24:1 25:0 26:0 27:1 28:0 29:1 30:0 31:0 32:0 33:0 34:1 35:0 36:0 37:0 38:1 39:0 40:0 41:2 42:0 43:0 44:3 
512 0:1 1:1 2:1 3:1 4:0 5:0 6:1 7:1 8:1 9:0 10:0 11:0 12:1 13:1 14:0 15:1 16:0 17:0 18:1 19:0 20:0 21:0 22:0 23:0 24:1 25:0 26:1 27:1 28:0 29:0 30:1 31:1 32:0 33:0 34:0 35:0 36:0 37:0 38:2 39:0 40:2 41:8 42:0 43:3 44:15 
512 0:0 1:1 2:1 3:0 4:0 5:1 6:1 7:1 8:1 9:0 10:0 11:1 12:1 13:1 14:1 15:1 16:0 17:0 18:0 19:0 20:0 21:1 22:1 23:0 24:0 25:1 26:1 27:1 28:1 29:1 30:1 31:1 32:0 33:0 34:0 35:0 36:1 37:1 38:2 39:1 40:1 41:5 42:1 43:2 44:9 
512 0:0 1:1 2:1 3:1 4:0 5:1 6:1 7:1 8:1 9:1 10:0 11:0 12:1 13:0 14:1 15:0 16:0 17:0 18:1 19:0 20:0 21:1 22:0 23:0 24:0 25:1 26:1 27:1 28:0 29:1 30:1 31:0 32:0 33:1 34:0 35:1 36:0 37:0 38:1 39:0 40:0 41:2 42:0 43:0 44:3 
512 0:1 1:1 2:1 3:1 4:0 5:0 6:0 7:1 8:1 9:1 10:1 11:1 12:1 13:1 14:0 15:0 16:0 17:0 18:1 19:1 20:1 21:1 22:1 23:1 24:1 25:1 26:1 27:1 28:0 29:1 30:0 31:0 32:0 33:1 34:0 35:0 36:0 37:0 38:1 39:0 40:1 41:5 42:0 43:2 44:13 
512 0:1 1:1 2:1 3:0 4:0 5:0 6:0 7:1 8:1 9:0 10:1 11:1 12:1 13:0 14:1 15:0 16:0 17:0 18:1 19:0 20:0 21:1 22:0 23:0 24:0 25:1 26:1 27:1 28:0 29:0 30:0 31:1 32:0 33:1 34:0 35:0 36:0 37:0 38:1 39:1 40:0 41:3 42:1 43:0 44:5 
512 0:1 1:1 2:1 3:1 4:0 5:1 6:1 7:1 8:1 9:0 10:1 11:1 12:0 13:1 14:1 15:0 16:0 17:0 18:1 19:0 20:0 21:1 22:0 23:0 24:1 25:1 26:1 27:1 28:0 29:0 30:1 31:1 32:1 33:1 34:0 35:0 36:0 37:0 38:2 39:0 40:0 41:7 42:0 43:2 44:14 
512 0:1 1:1 2:1 3:1 4:0 5:0 6:1 7:1 8:1 9:1 10:1 11:0 12:1 13:1 14:1 15:0 16:0 17:0 18:0 19:0 20:1 21:0 22:1 23:1 24:0 25:1 26:1 27:1 28:1 29:0 30:1 31:0 32:0 33:1 34:0 35:0 36:0 37:1 38:2 39:1 40:1 41:4 42:1 43:2 44:6 
512 0:1 1:1 2:0 3:1 4:0 5:0 6:1 7:0 8:1 9:0 10:1 11:1 12:1 13:1 14:0 15:1 16:1 17:0 18:1 19:0 20:0 21:0 22:1 23:0 24:0 25:1 26:1 27:0 28:1 29:0 30:1 31:1 32:0 33:1 34:0 35:0 36:0 37:1 38:2 39:0 40:1 41:6 42:0 43:2 44:12 
512 0:1 1:1 2:0 3:1 4:0 5:0 6:1 7:0 8:1 9:0 10:0 11:0 12:1 13:0 14:1 15:1 16:1 17:0 18:1 19:0 20:0 21:0 22:0 23:1 24:0 25:0 26:1 27:0 28:0 29:1 30:0 31:0 32:0 33:0 34:1 35:0 36:0 37:0 38:2 39:0 40:1 41:6 42:0 43:4 44:12 
512 0:1 1:1 2:1 3:1 4:0 5:1 6:1 7:0 8:1 9:1 10:1 11:1 12:1 13:1 14:0 15:1 16:0 17:0 18:0 19:0 20:0 21:1 22:1 23:0 24:1 25:1 26:1 27:0 28:0 29:1 30:0 31:0 32:0 33:1 34:0 35:0 36:0 37:1 38:3 39:0 40:2 41:10 42:0 43:3 44:17 
512 0:1 1:1 2:1 3:0 4:0 5:0 6:0 7:1 8:1 9:0 10:0 11:1 12:1 13:1 14:1 15:1 16:0 17:0 18:0 19:0 20:1 21:1 22:0 23:0 24:1 25:1 26:1 27:1 28:0 29:0 30:1 31:1 32:0 33:0 34:1 35:0 36:0 37:0 38:2 39:0 40:1 41:5 42:0 43:2 44:10 
512 0:0 1:1 2:0 3:0 4:0 5:0 6:1 7:1 8:1 9:1 10:1 11:1 12:1 13:1 14:1 15:1 16:0 17:0 18:1 19:1 20:0 21:1 22:0 23:0 24:1 25:1 26:1 27:1 28:1 29:1 30:1 31:0 32:0 33:1 34:0 35:0 36:0 37:0 38:1 39:0 40:2 41:3 42:0 43:5 44:8 
512 0:1 1:1 2:0 3:1 4:1 5:0 6:0 7:1 8:1 9:0 10:1 11:1 12:1 13:1 14:1 15:0 16:0 17:0 18:1 19:1 20:0 21:1 22:0 23:0 24:0 25:1 26:1 27:1 28:1 29:1 30:1 31:0 32:0 33:1 34:0 35:0 36:0 37:0 38:1 39:1 40:1 41:3 42:1 43:1 44:6 
512 0:0 1:0 2:1 3:1 4:0 5:0 6:0 7:1 8:1 9:0 10:1 11:1 12:1 13:1 14:0 15:0 16:0 17:0 18:0 19:1 20:1 21:1 22:0 23:0 24:0 25:1 26:0 27:1 28:1 29:1 30:0 31:1 32:0 33:1 34:1 35:0 36:0 37:1 38:4 39:0 40:3 41:11 42:0 43:3 44:20 
512 0:1 1:1 2:1 3:1 4:0 5:1 6:1 7:1 8:1 9:1 10:1 11:1 12:0 13:1 14:1 15:0 16:0 17:0 18:1 19:1 20:0 21:1 22:0 23:0 24:0 25:1 26:1 27:1 28:1 29:1 30:0 31:0 32:0 33:1 34:0 35:0 36:0 37:0 38:1 39:1 40:1 41:5 42:2 43:1 44:12 
512 0:0 1:1 2:1 3:1 4:0 5:0 6:1 7:0 8:1 9:0 10:0 11:0 12:0 13:1 14:1 15:1 16:0 17:0 18:0 19:0 20:0 21:1 22:0 23:1 24:1 25:1 26:1 27:1 28:0 29:0 30:0 31:0 32:0 33:1 34:0 35:0 36:0 37:1 38:1 39:0 40:1 41:2 42:0 43:1 44:3 
512 0:1 1:1 2:0 3:0 4:0 5:0 6:1 7:0 8:0 9:1 10:0 11:0 12:1 13:1 14:1 15:1 16:1 17:0 18:1 19:0 20:0 21:1 22:0 23:1 24:1 25:1 26:1 27:0 28:0 29:1 30:1 31:0 32:1 33:1 34:0 35:0 36:0 37:0 38:1 39:0 40:0 41:2 42:0 43:0 44:3 
512 0:0 1:1 2:1 3:0 4:1 5:1 6:1 7:1 8:1 9:1 10:0 11:1 12:0 13:1 14:0 15:1 16:0 17:1 18:0 19:0 20:0 21:0 22:0 23:0 24:0 25:0 26:0 27:1 28:1 29:0 30:1 31:0 32:0 33:0 34:0 35:0 36:0 37:0 38:1 39:0 40:1 41:4 42:0 43:3 44:10 
512 0:1 1:1 2:1 3:1 4:0 5:0 6:0 7:0 8:1 9:1 10:1 11:0 12:1 13:0 14:1 15:1 16:1 17:0 18:1 19:0 20:0 21:1 22:1 23:0 24:1 25:1 26:1 27:1 28:0 29:1 30:1 31:1 32:0 33:0 34:1 35:0 36:0 37:0 38:2 39:0 40:0 41:7 42:0 43:0 44:12 
512 0:0 1:0 2:1 3:1 4:0 5:0 6:0 7:1 8:1 9:1 10:1 11:1 12:0 13:0 14:1 15:1 16:0 17:0 18:1 19:1 20:1 21:1 22:1 23:0 24:1 25:1 26:1 27:0 28:1 29:0 30:1 31:0 32:0 33:0 34:0 35:0 36:0 37:0 38:1 39:0 40:0 41:2 42:0 43:0 44:4 
512 0:1 1:1 2:0 3:0 4:1 5:0 6:1 7:0 8:1 9:1 10:1 11:1 12:1 13:1 14:1 15:1 16:0 17:0 18:1 19:0 20:1 21:1 22:0 23:0 24:0 25:0 26:0 27:1 28:0 29:1 30:0 31:0 32:0 33:1 34:0 35:0 36:0 37:1 38:2 39:0 40:2 41:6 42:0 43:3 44:14 
512 0:1 1:1 2:0 3:1 4:0 5:0 6:1 7:1 8:0 9:0 10:1 11:1 12:0 13:1 14:1 15:1 16:0 17:0 18:1 19:0 20:0 21:1 22:1 23:1 24:1 25:1 26:1 27:1 28:1 29:0 30:0 31:0 32:0 33:0 34:0 35:0 36:0 37:0 38:2 39:0 40:1 41:8 42:0 43:3 44:17 
512 0:1 1:1 2:0 3:1 4:0 5:1 6:0 7:1 8:1 9:1 10:1 11:1 12:0 13:1 14:1 15:1 16:0 17:0 18:1 19:0 20:0 21:1 22:0 23:0 24:0 25:1 26:1 27:1 28:0 29:0 30:0 31:1 32:0 33:0 34:0 35:0 36:0 37:0 38:1 39:0 40:0 41:2 42:0 43:0 44:3 
512 0:1 1:1 2:1 3:1 4:1 5:1 6:1 7:1 8:1 9:0 10:1 11:1 12:0 13:1 14:0 15:0 16:0 17:0 18:1 19:0 20:0 21:0 22:1 23:1 24:1 25:1 26:1 27:1 28:1 29:1 30:1 31:1 32:0 33:1 34:1 35:1 36:1 37:0 38:1 39:1 40:0 41:2 42:1 43:0 44:5 
512 0:1 1:1 2:1 3:1 4:0 5:0 6:0 7:0 8:1 9:0 10:0 11:1 12:1 13:1 14:1 15:0 16:0 17:0 18:1 19:0 20:1 21:0 22:0 23:0 24:1 25:1 26:1 27:0 28:1 29:0 30:0 31:1 32:0 33:1 34:0 35:0 36:0 37:0 38:3 39:1 40:1 41:8 42:1 43:1 44:14 
512 0:1 1:1 2:1 3:0 4:0 5:0 6:0 7:1 8:1 9:0 10:1 11:1 12:1 13:0 14:1 15:0 16:0 17:0 18:1 19:0 20:0 21:1 22:0 23:0 24:1 25:1 26:1 27:0 28:0 29:0 30:1 31:0 32:0 33:1 34:0 35:0 36:0 37:1 38:2 39:0 40:2 41:4 42:0 43:2 44:7 
512 0:1 1:1 2:1 3:1 4:0 5:0 6:1 7:1 8:0 9:1 10:0 11:1 12:1 13:1 14:1 15:1 16:0 17:0 18:1 19:0 20:1 21:1 22:1 23:1 24:0 25:1 26:1 27:1 28:1 29:0 30:1 31:1 32:0 33:1 34:1 35:0 36:0 37:0 38:1 39:0 40:0 41:2 42:0 43:0 44:5 
512 0:1 1:1 2:1 3:1 4:0 5:0 6:1 7:1 8:1 9:0 10:0 11:1 12:1 13:1 14:1 15:1 16:1 17:0 18:1 19:1 20:0 21:1 22:1 23:0 24:1 25:1 26:1 27:0 28:1 29:1 30:0 31:0 32:0 33:1 34:0 35:0 36:0 37:0 38:1 39:0 40:2 41:3 42:0 43:2 44:7 
512 0:1 1:0 2:1 3:0 4:0 5:0 6:1 7:1 8:1 9:1 10:1 11:0 12:1 13:1 14:1 15:0 16:1 17:0 18:1 19:0 20:0 21:0 22:0 23:0 24:1 25:1 26:1 27:0 28:1 29:0 30:1 31:0 32:0 33:1 34:0 35:0 36:0 37:0 38:3 39:0 40:2 41:8 42:0 43:2 44:14 
512 0:1 1:1 2:1 3:0 4:0 5:1 6:0 7:0 8:1 9:0 10:1 11:1 12:1 13:1 14:1 15:1 16:0 17:0 18:1 19:0 20:0 21:1 22:1 23:1 24:1 25:1 26:1 27:0 28:1 29:0 30:0 31:0 32:1 33:1 34:0 35:0 36:0 37:0 38:2 39:0 40:1 41:7 42:1 43:2 44:14 
512 0:0 1:1 2:1 3:1 4:0 5:0 6:1 7:1 8:1 9:1 10:1 11:1 12:1 13:0 14:1 15:0 16:0 17:0 18:0 19:1 20:1 21:1 22:1 23:0 24:1 25:0 26:0 27:1 28:1 29:0 30:0 31:1 32:0 33:1 34:0 35:0 36:1 37:0 38:1 39:2 40:0 41:2 42:2 43:0 44:3 
512 0:1 1:0 2:1 3:0 4:1 5:1 6:1 7:1 8:1 9:0 10:1 11:0 12:0 13:1 14:1 15:1 16:0 17:0 18:1 19:1 20:1 21:1 22:0 23:1 24:1 25:1 26:1 27:1 28:0 29:1 30:1 31:0 32:0 33:1 34:0 35:0 36:0 37:0 38:1 39:0 40:0 41:4 42:0 43:1 44:11 
512 0:1 1:0 2:1 3:0 4:1 5:0 6:0 7:0 8:1 9:1 10:1 11:1 12:1 13:1 14:1 15:1 16:1 17:0 18:1 19:0 20:1 21:1 22:0 23:1 24:1 25:1 26:1 27:0 28:1 29:0 30:1 31:1 32:0 33:0 34:0 35:0 36:0 37:0 38:3 39:0 40:1 41:7 42:0 43:3 44:14 
512 0:1 1:1 2:0 3:1 4:1 5:1 6:0 7:1 8:1 9:0 10:1 11:1 12:1 13:0 14:1 15:0 16:1 17:0 18:1 19:0 20:1 21:0 22:0 23:0 24:1 25:1 26:1 27:1 28:1 29:0 30:1 31:1 32:0 33:0 34:0 35:0 36:0 37:0 38:1 39:0 40:1 41:2 42:0 43:1 44:3 
512 0:1 1:1 2:1 3:1 4:0 5:1 6:1 7:1 8:1 9:1 10:1 11:1 12:1 13:1 14:1 15:1 16:0 17:1 18:1 19:1 20:1 21:1 22:0 23:0 24:0 25:0 26:1 27:1 28:0 29:1 30:0 31:0 32:0 33:1 34:0 35:1 36:0 37:0 38:1 39:1 40:0 41:3 42:1 43:2 44:6 
512 0:0 1:1 2:1 3:1 4:0 5:0 6:1 7:1 8:0 9:0 10:1 11:0 12:0 13:1 14:0 15:0 16:0 17:0 18:0 19:0 20:0 21:1 22:1 23:1 24:1 25:1 26:1 27:0 28:0 29:1 30:0 31:0 32:0 33:1 34:0 35:1 36:0 37:0 38:1 39:0 40:0 41:3 42:0 43:0 44:5 
512 0:0 1:1 2:1 3:1 4:0 5:0 6:0 7:1 8:1 9:1 10:1 11:1 12:0 13:1 14:1 15:1 16:1 17:1 18:0 19:1 20:1 21:1 22:1 23:0 24:0 25:1 26:1 27:0 28:1 29:1 30:1 31:0 32:0 33:0 34:1 35:0 36:0 37:0 38:1 39:0 40:1 41:6 42:0 43:4 44:16 
512 0:1 1:1 2:1 3:0 4:0 5:0 6:1 7:1 8:1 9:1 10:1 11:1 12:0 13:1 14:1 15:1 16:0 17:0 18:1 19:1 20:0 21:1 22:1 23:0 24:0 25:1 26:1 27:1 28:0 29:0 30:1 31:1 32:0 33:1 34:0 35:0 36:0 37:0 38:2 39:0 40:1 41:6 42:0 43:2 44:10 
512 0:1 1:1 2:1 3:1 4:0 5:1 6:1 7:1 8:1 9:1 10:1 11:1 12:1 13:1 14:0 15:0 16:0 17:0 18:1 19:0 20:0 21:1 22:0 23:0 24:1 25:1 26:0 27:1 28:1 29:0 30:1 31:0 32:0 33:0 34:1 35:0 36:0 37:0 38:1 39:0 40:2 41:5 42:0 43:4 44:10 
512 0:1 1:0 2:1 3:0 4:0 5:0 6:1 7:1 8:1 9:0 10:1 11:1 12:0 13:1 14:1 15:0 16:1 17:0 18:1 19:0 20:0 21:1 22:0 23:0 24:1 25:1 26:1 27:1 28:1 29:1 30:1 31:0 32:0 33:1 34:0 35:0 36:0 37:0 38:1 39:0 40:0 41:2 42:0 43:0 44:4 
512 0:1 1:1 2:1 3:1 4:0 5:0 6:1 7:1 8:1 9:1 10:1 11:1 12:1 13:1 14:0 15:1 16:0 17:0 18:1 19:1 20:0 21:1 22:1 23:1 24:0 25:1 26:1 27:0 28:1 29:0 30:1 31:1 32:0 33:1 34:0 35:0 36:0 37:0 38:1 39:0 40:1 41:3 42:0 43:2 44:8 
512 0:0 1:1 2:0 3:0 4:0 5:0 6:1 7:1 8:1 9:1 10:0 11:0 12:1 13:1 14:1 15:1 16:0 17:0 18:0 19:0 20:0 21:1 22:0 23:0 24:1 25:0 26:0 27:1 28:0 29:0 30:1 31:1 32:0 33:1 34:0 35:0 36:0 37:0 38:2 39:0 40:0 41:5 42:0 43:0 44:6 
512 0:1 1:1 2:1 3:1 4:1 5:0 6:1 7:0 8:1 9:1 10:1 11:1 12:0 13:1 14:1 15:1 16:0 17:0 18:1 19:0 20:0 21:1 22:0 23:1 24:1 25:0 26:1 27:1 28:1 29:1 30:1 31:0 32:1 33:1 34:0 35:0 36:0 37:0 38:4 39:0 40:1 41:10 42:0 43:3 44:19 
512 0:1 1:0 2:1 3:0 4:1 5:1 6:1 7:1 8:1 9:0 10:1 11:1 12:0 13:1 14:1 15:0 16:0 17:0 18:1 19:1 20:1 21:1 22:0 23:0 24:0 25:1 26:1 27:1 28:0 29:0 30:0 31:0 32:0 33:1 34:0 35:0 36:1 37:1 38:3 39:2 40:2 41:10 42:4 43:4 44:19 
512 0:1 1:1 2:1 3:0 4:0 5:0 6:1 7:1 8:1 9:0 10:1 11:1 12:1 13:1 14:1 15:1 16:1 17:0 18:1 19:1 20:0 21:0 22:0 23:0 24:1 25:1 26:1 27:0 28:0 29:1 30:1 31:0 32:0 33:0 34:0 35:0 36:0 37:0 38:1 39:0 40:0 41:2 42:0 43:0 44:3 
512 0:1 1:0 2:1 3:0 4:0 5:0 6:1 7:1 8:1 9:1 10:1 11:1 12:0 13:1 14:1 15:0 16:0 17:0 18:0 19:0 20:0 21:0 22:1 23:0 24:1 25:1 26:1 27:1 28:0 29:1 30:1 31:1 32:0 33:1 34:0 35:1 36:0 37:1 38:3 39:0 40:2 41:8 42:0 43:2 44:13 
512 0:1 1:1 2:1 3:1 4:0 5:0 6:1 7:0 8:1 9:1 10:1 11:1 12:1 13:1 14:1 15:0 16:0 17:1 18:1 19:0 20:0 21:1 22:0 23:1 24:1 25:1 26:1 27:1 28:0 29:1 30:0 31:1 32:0 33:0 34:0 35:0 36:0 37:0 38:2 39:0 40:0 41:4 42:0 43:1 44:6 
512 0:0 1:0 2:1 3:0 4:0 5:0 6:1 7:1 8:1 9:1 10:1 11:1 12:1 13:1 14:1 15:1 16:0 17:0 18:1 19:0 20:0 21:1 22:1 23:1 24:1 25:1 26:0 27:1 28:0 29:1 30:1 31:1 32:0 33:1 34:0 35:0 36:1 37:0 38:2 39:1 40:0 41:6 42:1 43:0 44:12 
512 0:1 1:1 2:1 3:1 4:0 5:0 6:1 7:1 8:1 9:1 10:1 11:1 12:1 13:0 14:0 15:0 16:0 17:0 18:1 19:0 20:0 21:1 22:0 23:0 24:0 25:1 26:0 27:1 28:1 29:1 30:1 31:0 32:0 33:1 34:0 35:1 36:0 37:0 38:1 39:0 40:0 41:3 42:0 43:1 44:6 
512 0:1 1:1 2:0 3:0 4:0 5:0 6:1 7:1 8:1 9:1 10:1 11:1 12:1 13:1 14:1 15:1 16:0 17:0 18:1 19:0 20:1 21:1 22:1 23:0 24:1 25:1 26:1 27:0 28:1 29:1 30:0 31:0 32:0 33:1 34:0 35:0 36:0 37:0 38:1 39:0 40:0 41:2 42:0 43:0 44:3 
512 0:1 1:1 2:1 3:1 4:0 5:0 6:0 7:1 8:1 9:1 10:1 11:1 12:1 13:1 14:0 15:1 16:1 17:0 18:1 19:0 20:0 21:0 22:0 23:0 24:0 25:0 26:1 27:0 28:1 29:0 30:1 31:0 32:0 33:0 34:1 35:0 36:0 37:1 38:2 39:0 40:3 41:5 42:0 43:3 44:8 
512 0:1 1:1 2:1 3:0 4:0 5:0 6:1 7:0 8:1 9:1 10:0 11:0 12:0 13:1 14:0 15:0 16:1 17:0 18:1 19:0 20:0 21:1 22:0 23:1 24:1 25:1 26:1 27:1 28:1 29:1 30:1 31:0 32:0 33:1 34:0 35:0 36:0 37:0 38:1 39:0 40:1 41:5 42:0 43:2 44:15 
512 0:0 1:1 2:1 3:1 4:0 5:0 6:1 7:1 8:1 9:0 10:1 11:0 12:1 13:1 14:1 15:1 16:1 17:0 18:1 19:0 20:0 21:1 22:1 23:0 24:0 25:1 26:1 27:1 28:1 29:0 30:0 31:0 32:1 33:1 34:0 35:0 36:0 37:0 38:1 39:0 40:0 41:2 42:0 43:0 44:4 
512 0:1 1:0 2:1 3:1 4:0 5:0 6:1 7:1 8:0 9:1 10:0 11:0 12:0 13:1 14:1 15:1 16:0 17:0 18:1 19:0 20:1 21:1 22:1 23:0 24:0 25:0 26:1 27:1 28:1 29:1 30:1 31:1 32:0 33:1 34:0 35:0 36:0 37:0 38:1 39:0 40:1 41:4 42:0 43:1 44:8 
