svm_type c_svc
kernel_type rbf
gamma 3.05176e-005
nr_class 2
total_sv 2652
rho 3.59084
label 0 1
nr_sv 1332 1320
SV
512 0:1 1:1 2:1 3:1 4:0 5:0 6:1 7:1 8:0 9:1 10:0 11:0 12:1 13:1 14:1 15:1 16:0 17:0 18:0 19:0 20:0 21:1 22:0 23:0 24:0 25:1 26:1 27:1 28:0 29:0 30:1 31:1 32:1 33:0 34:1 35:0 36:30 37:0 38:0 39:1 40:1 41:0 42:2 43:1 44:0 45:3 
512 0:0 1:1 2:1 3:1 4:1 5:0 6:1 7:1 8:0 9:1 10:1 11:1 12:1 13:1 14:0 15:0 16:0 17:0 18:1 19:1 20:0 21:1 22:1 23:0 24:0 25:1 26:1 27:0 28:1 29:1 30:1 31:0 32:0 33:0 34:1 35:0 36:25 37:0 38:1 39:2 40:0 41:1 42:5 43:0 44:1 45:11 
512 0:1 1:1 2:0 3:1 4:0 5:0 6:1 7:0 8:1 9:0 10:1 11:0 12:0 13:1 14:1 15:1 16:0 17:1 18:0 19:0 20:1 21:1 22:0 23:0 24:1 25:1 26:1 27:0 28:1 29:1 30:1 31:0 32:0 33:1 34:0 35:0 36:36 37:0 38:0 39:2 40:0 41:0 42:7 43:0 44:0 45:12 
512 0:1 1:0 2:0 3:1 4:0 5:0 6:1 7:1 8:0 9:0 10:1 11:1 12:1 13:1 14:1 15:0 16:0 17:0 18:1 19:0 20:1 21:1 22:0 23:1 24:0 25:1 26:1 27:1 28:1 29:1 30:0 31:0 32:0 33:1 34:0 35:0 36:27 37:0 38:0 39:2 40:0 41:1 42:6 43:0 44:1 45:11 
512 0:1 1:0 2:1 3:1 4:1 5:0 6:1 7:1 8:0 9:1 10:1 11:1 12:0 13:1 14:0 15:0 16:0 17:0 18:1 19:0 20:0 21:1 22:0 23:1 24:0 25:0 26:1 27:1 28:1 29:1 30:0 31:0 32:0 33:1 34:0 35:0 36:22 37:0 38:0 39:2 40:0 41:0 42:7 43:0 44:0 45:16 
512 0:1 1:1 2:1 3:0 4:1 5:0 6:1 7:1 8:0 9:1 10:1 11:1 12:1 13:0 14:0 15:0 16:0 17:0 18:1 19:0 20:0 21:1 22:0 23:0 24:0 25:0 26:0 27:1 28:1 29:1 30:0 31:0 32:0 33:1 34:0 35:0 36:39 37:0 38:0 39:1 40:0 41:1 42:2 43:0 44:1 45:3 
512 0:1 1:1 2:1 3:1 4:1 5:0 6:1 7:1 8:1 9:0 10:0 11:0 12:1 13:1 14:1 15:1 16:1 17:0 18:1 19:1 20:1 21:1 22:0 23:0 24:1 25:0 26:0 27:1 28:0 29:0 30:1 31:1 32:0 33:1 34:0 35:0 36:41 37:0 38:0 39:4 40:0 41:3 42:11 43:2 44:3 45:20 
512 0:1 1:1 2:1 3:1 4:0 5:0 6:0 7:1 8:1 9:1 10:1 11:1 12:1 13:0 14:1 15:0 16:0 17:0 18:1 19:0 20:0 21:1 22:0 23:0 24:1 25:1 26:1 27:1 28:1 29:0 30:1 31:0 32:0 33:1 34:0 35:0 36:29 37:0 38:0 39:2 40:0 41:1 42:6 43:0 44:1 45:11 
512 0:1 1:1 2:1 3:1 4:0 5:0 6:1 7:1 8:1 9:0 10:0 11:1 12:1 13:1 14:0 15:0 16:0 17:0 18:0 19:0 20:0 21:1 22:1 23:0 24:1 25:1 26:1 27:1 28:0 29:0 30:1 31:0 32:0 33:1 34:0 35:0 36:40 37:1 38:0 39:2 40:1 41:0 42:6 43:1 44:0 45:12 
512 0:1 1:1 2:1 3:0 4:0 5:0 6:1 7:1 8:1 9:1 10:0 11:1 12:1 13:1 14:1 15:1 16:1 17:0 18:1 19:1 20:0 21:1 22:1 23:0 24:0 25:1 26:1 27:1 28:1 29:0 30:1 31:0 32:0 33:1 34:0 35:0 36:110 37:0 38:1 39:2 40:0 41:2 42:6 43:0 44:2 45:10 
512 0:1 1:1 2:1 3:1 4:0 5:0 6:0 7:1 8:1 9:1 10:1 11:1 12:1 13:0 14:1 15:0 16:0 17:0 18:0 19:0 20:0 21:1 22:1 23:0 24:1 25:1 26:1 27:1 28:0 29:0 30:1 31:1 32:0 33:1 34:0 35:0 36:44 37:0 38:0 39:2 40:0 41:2 42:7 43:0 44:2 45:12 
512 0:1 1:1 2:1 3:1 4:0 5:0 6:1 7:1 8:1 9:0 10:0 11:1 12:0 13:1 14:0 15:1 16:0 17:0 18:1 19:0 20:0 21:1 22:0 23:0 24:0 25:1 26:1 27:0 28:0 29:0 30:1 31:1 32:1 33:0 34:0 35:0 36:31 37:0 38:0 39:1 40:0 41:0 42:2 43:1 44:1 45:4 
512 0:1 1:0 2:1 3:1 4:0 5:0 6:1 7:1 8:0 9:0 10:1 11:1 12:1 13:0 14:1 15:1 16:0 17:0 18:1 19:0 20:0 21:1 22:0 23:0 24:0 25:0 26:1 27:1 28:0 29:0 30:0 31:0 32:0 33:1 34:0 35:0 36:16 37:0 38:1 39:2 40:0 41:1 42:7 43:0 44:2 45:14 
512 0:1 1:1 2:1 3:1 4:0 5:0 6:1 7:0 8:0 9:0 10:1 11:1 12:1 13:1 14:1 15:0 16:0 17:0 18:1 19:0 20:0 21:1 22:0 23:0 24:0 25:0 26:0 27:1 28:1 29:1 30:0 31:0 32:1 33:1 34:1 35:0 36:30 37:0 38:1 39:1 40:0 41:1 42:2 43:0 44:1 45:3 
512 0:1 1:1 2:0 3:0 4:0 5:0 6:1 7:1 8:0 9:0 10:1 11:0 12:1 13:0 14:0 15:1 16:0 17:1 18:1 19:0 20:1 21:1 22:0 23:0 24:0 25:1 26:1 27:0 28:0 29:1 30:0 31:0 32:0 33:0 34:0 35:1 36:5 37:1 38:0 39:1 40:1 41:0 42:2 43:2 44:0 45:5 
512 0:1 1:1 2:0 3:0 4:0 5:0 6:1 7:0 8:1 9:1 10:0 11:1 12:1 13:1 14:0 15:0 16:0 17:0 18:1 19:0 20:0 21:1 22:1 23:0 24:1 25:1 26:1 27:1 28:1 29:0 30:1 31:0 32:0 33:1 34:1 35:0 36:51 37:0 38:1 39:1 40:0 41:1 42:2 43:0 44:1 45:3 
512 0:1 1:1 2:1 3:1 4:0 5:0 6:0 7:1 8:1 9:0 10:0 11:1 12:1 13:1 14:0 15:1 16:0 17:0 18:1 19:1 20:1 21:1 22:0 23:0 24:1 25:1 26:0 27:0 28:1 29:0 30:0 31:0 32:0 33:0 34:1 35:0 36:6 37:0 38:1 39:3 40:0 41:1 42:8 43:1 44:1 45:16 
512 0:0 1:1 2:1 3:1 4:1 5:0 6:1 7:1 8:1 9:1 10:0 11:0 12:0 13:1 14:1 15:0 16:1 17:1 18:1 19:0 20:0 21:1 22:1 23:0 24:1 25:1 26:0 27:1 28:1 29:1 30:0 31:0 32:1 33:1 34:0 35:1 36:19 37:0 38:0 39:1 40:0 41:0 42:2 43:0 44:0 45:4 
512 0:1 1:1 2:1 3:1 4:0 5:0 6:1 7:0 8:1 9:1 10:1 11:1 12:1 13:0 14:1 15:0 16:0 17:0 18:1 19:0 20:0 21:1 22:0 23:1 24:1 25:1 26:1 27:0 28:0 29:0 30:0 31:0 32:1 33:0 34:0 35:0 36:24 37:0 38:0 39:1 40:0 41:1 42:2 43:0 44:1 45:4 
512 0:1 1:1 2:1 3:1 4:0 5:1 6:1 7:0 8:1 9:1 10:1 11:1 12:1 13:1 14:1 15:1 16:0 17:0 18:0 19:0 20:1 21:0 22:0 23:0 24:1 25:1 26:1 27:1 28:1 29:0 30:1 31:0 32:0 33:0 34:0 35:0 36:28 37:0 38:1 39:2 40:0 41:2 42:5 43:0 44:2 45:8 
512 0:0 1:0 2:1 3:0 4:0 5:1 6:0 7:1 8:0 9:1 10:1 11:1 12:0 13:1 14:1 15:1 16:0 17:0 18:1 19:0 20:1 21:1 22:1 23:0 24:0 25:0 26:0 27:1 28:0 29:0 30:1 31:0 32:0 33:0 34:0 35:0 36:19 37:0 38:0 39:1 40:1 41:0 42:3 43:1 44:0 45:6 
512 0:1 1:1 2:1 3:1 4:0 5:0 6:1 7:1 8:1 9:1 10:1 11:0 12:0 13:1 14:1 15:0 16:0 17:0 18:1 19:1 20:0 21:1 22:0 23:1 24:1 25:1 26:1 27:0 28:1 29:1 30:1 31:0 32:0 33:1 34:1 35:0 36:119 37:0 38:0 39:1 40:0 41:0 42:2 43:0 44:0 45:4 
512 0:1 1:0 2:1 3:1 4:0 5:1 6:1 7:0 8:1 9:1 10:1 11:1 12:1 13:1 14:1 15:1 16:0 17:0 18:1 19:0 20:1 21:1 22:0 23:0 24:0 25:1 26:1 27:0 28:0 29:1 30:1 31:0 32:0 33:1 34:0 35:1 36:19 37:0 38:3 39:4 40:0 41:5 42:10 43:0 44:5 45:17 
512 0:0 1:0 2:1 3:1 4:1 5:0 6:1 7:1 8:1 9:0 10:0 11:1 12:0 13:1 14:1 15:1 16:1 17:0 18:1 19:1 20:0 21:0 22:1 23:0 24:1 25:1 26:0 27:0 28:1 29:0 30:0 31:0 32:1 33:0 34:0 35:1 36:27 37:0 38:0 39:1 40:0 41:0 42:2 43:0 44:0 45:5 
512 0:1 1:0 2:1 3:0 4:0 5:0 6:1 7:1 8:1 9:1 10:1 11:1 12:1 13:1 14:1 15:1 16:1 17:0 18:1 19:1 20:1 21:1 22:1 23:0 24:1 25:1 26:1 27:1 28:1 29:0 30:1 31:0 32:0 33:1 34:1 35:0 36:12 37:0 38:0 39:3 40:0 41:1 42:8 43:3 44:1 45:16 
512 0:1 1:0 2:1 3:0 4:0 5:0 6:1 7:1 8:1 9:1 10:0 11:0 12:0 13:0 14:1 15:1 16:0 17:0 18:1 19:1 20:1 21:1 22:1 23:0 24:1 25:1 26:0 27:0 28:1 29:0 30:1 31:0 32:0 33:1 34:0 35:0 36:16 37:0 38:0 39:1 40:0 41:0 42:2 43:0 44:0 45:3 
512 0:1 1:1 2:1 3:0 4:1 5:1 6:1 7:1 8:1 9:0 10:0 11:1 12:0 13:0 14:0 15:1 16:1 17:0 18:0 19:1 20:0 21:1 22:0 23:0 24:1 25:1 26:1 27:0 28:0 29:1 30:0 31:0 32:0 33:0 34:0 35:0 36:20 37:1 38:0 39:1 40:1 41:0 42:3 43:1 44:0 45:6 
512 0:1 1:1 2:1 3:1 4:1 5:0 6:1 7:0 8:1 9:1 10:1 11:1 12:1 13:1 14:1 15:1 16:1 17:1 18:0 19:1 20:1 21:0 22:0 23:0 24:0 25:1 26:1 27:0 28:0 29:0 30:0 31:0 32:1 33:0 34:1 35:0 36:19 37:0 38:0 39:2 40:0 41:1 42:5 43:0 44:1 45:8 
512 0:0 1:1 2:1 3:1 4:0 5:0 6:1 7:1 8:1 9:1 10:1 11:1 12:1 13:1 14:1 15:1 16:0 17:0 18:1 19:0 20:0 21:0 22:1 23:0 24:1 25:0 26:0 27:0 28:1 29:0 30:0 31:0 32:0 33:0 34:0 35:1 36:13 37:0 38:0 39:2 40:0 41:0 42:9 43:2 44:0 45:17 
512 0:1 1:1 2:1 3:1 4:1 5:1 6:1 7:1 8:1 9:1 10:1 11:0 12:1 13:0 14:0 15:1 16:1 17:0 18:1 19:0 20:0 21:1 22:0 23:1 24:1 25:1 26:1 27:0 28:0 29:1 30:1 31:0 32:0 33:1 34:0 35:0 36:49 37:0 38:1 39:1 40:0 41:1 42:2 43:0 44:1 45:4 
512 0:0 1:1 2:0 3:0 4:1 5:1 6:1 7:1 8:0 9:0 10:0 11:1 12:1 13:1 14:1 15:1 16:1 17:0 18:1 19:0 20:0 21:1 22:0 23:0 24:0 25:1 26:0 27:0 28:0 29:0 30:0 31:0 32:0 33:0 34:0 35:0 36:28 37:0 38:0 39:2 40:0 41:2 42:6 43:0 44:3 45:10 
512 0:1 1:1 2:1 3:0 4:0 5:0 6:1 7:1 8:1 9:0 10:0 11:1 12:1 13:1 14:1 15:1 16:0 17:1 18:1 19:1 20:1 21:1 22:0 23:0 24:0 25:1 26:1 27:1 28:0 29:1 30:0 31:0 32:0 33:1 34:0 35:0 36:45 37:0 38:0 39:1 40:0 41:0 42:3 43:0 44:0 45:9 
512 0:0 1:1 2:1 3:1 4:0 5:0 6:1 7:1 8:1 9:0 10:1 11:1 12:1 13:1 14:1 15:1 16:1 17:0 18:0 19:0 20:0 21:0 22:0 23:1 24:0 25:0 26:0 27:0 28:1 29:1 30:0 31:0 32:0 33:0 34:0 35:0 36:61 37:0 38:0 39:1 40:0 41:0 42:2 43:0 44:0 45:3 
512 0:1 1:1 2:0 3:1 4:0 5:0 6:1 7:1 8:0 9:0 10:1 11:1 12:1 13:0 14:0 15:0 16:0 17:0 18:1 19:0 20:0 21:1 22:1 23:0 24:1 25:0 26:1 27:1 28:1 29:1 30:0 31:1 32:0 33:1 34:0 35:0 36:23 37:0 38:0 39:1 40:0 41:1 42:2 43:0 44:1 45:3 
382.3631220433698 0:1 1:0 2:1 3:1 4:1 5:0 6:1 7:1 8:1 9:1 10:1 11:1 12:1 13:1 14:1 15:1 16:0 17:0 18:1 19:0 20:0 21:1 22:0 23:1 24:1 25:1 26:1 27:0 28:0 29:1 30:1 31:1 32:0 33:1 34:0 35:0 36:139 37:0 38:0 39:1 40:0 41:0 42:2 43:0 44:1 45:3 
21.17565481923881 0:0 1:0 2:0 3:1 4:0 5:1 6:1 7:1 8:1 9:1 10:1 11:1 12:1 13:0 14:0 15:0 16:0 17:0 18:0 19:1 20:1 21:1 22:1 23:0 24:0 25:1 26:1 27:0 28:0 29:1 30:1 31:0 32:0 33:0 34:0 35:0 36:13 37:0 38:2 39:3 40:0 41:5 42:10 43:0 44:7 45:21 
512 0:1 1:0 2:1 3:1 4:1 5:0 6:1 7:1 8:1 9:0 10:1 11:1 12:0 13:0 14:0 15:1 16:1 17:1 18:1 19:0 20:0 21:0 22:1 23:1 24:0 25:1 26:0 27:1 28:1 29:0 30:1 31:1 32:0 33:1 34:1 35:0 36:27 37:0 38:0 39:1 40:0 41:1 42:5 43:0 44:2 45:13 
512 0:1 1:1 2:1 3:0 4:0 5:1 6:1 7:1 8:1 9:1 10:1 11:1 12:0 13:0 14:1 15:0 16:1 17:0 18:1 19:0 20:0 21:1 22:1 23:0 24:0 25:1 26:1 27:1 28:1 29:0 30:1 31:0 32:0 33:1 34:0 35:0 36:54 37:0 38:0 39:2 40:0 41:0 42:5 43:0 44:1 45:8 
512 0:1 1:1 2:1 3:1 4:0 5:0 6:1 7:1 8:0 9:0 10:0 11:0 12:1 13:1 14:1 15:0 16:0 17:0 18:1 19:0 20:1 21:1 22:0 23:0 24:0 25:0 26:0 27:0 28:1 29:0 30:1 31:0 32:0 33:0 34:1 35:0 36:35 37:0 38:1 39:1 40:0 41:2 42:2 43:0 44:3 45:3 
512 0:1 1:0 2:1 3:0 4:0 5:0 6:1 7:1 8:1 9:0 10:1 11:1 12:1 13:1 14:0 15:0 16:0 17:0 18:1 19:1 20:1 21:1 22:0 23:1 24:0 25:1 26:1 27:1 28:1 29:1 30:0 31:0 32:0 33:1 34:0 35:0 36:10 37:0 38:0 39:1 40:1 41:0 42:6 43:2 44:1 45:14 
512 0:0 1:1 2:1 3:1 4:0 5:0 6:1 7:1 8:1 9:1 10:0 11:1 12:1 13:1 14:0 15:0 16:0 17:1 18:1 19:0 20:0 21:0 22:0 23:0 24:0 25:1 26:1 27:1 28:1 29:1 30:0 31:0 32:0 33:1 34:0 35:0 36:13 37:0 38:1 39:4 40:0 41:2 42:9 43:0 44:3 45:16 
512 0:0 1:1 2:1 3:1 4:1 5:1 6:0 7:0 8:0 9:1 10:1 11:1 12:1 13:1 14:0 15:1 16:1 17:0 18:0 19:0 20:1 21:1 22:0 23:0 24:1 25:0 26:1 27:1 28:1 29:1 30:0 31:0 32:0 33:0 34:0 35:0 36:5 37:0 38:0 39:1 40:0 41:1 42:4 43:0 44:2 45:11 
471.9976327896038 0:0 1:1 2:0 3:1 4:1 5:0 6:1 7:1 8:1 9:1 10:1 11:1 12:0 13:1 14:0 15:1 16:0 17:0 18:1 19:0 20:0 21:1 22:0 23:1 24:1 25:0 26:1 27:1 28:0 29:1 30:0 31:0 32:0 33:0 34:0 35:0 36:37 37:0 38:0 39:1 40:0 41:0 42:2 43:0 44:0 45:4 
512 0:1 1:1 2:1 3:1 4:0 5:0 6:1 7:1 8:0 9:0 10:1 11:1 12:1 13:1 14:1 15:1 16:0 17:0 18:1 19:0 20:0 21:1 22:0 23:0 24:1 25:1 26:1 27:1 28:1 29:1 30:0 31:1 32:0 33:0 34:0 35:1 36:73 37:0 38:0 39:1 40:0 41:0 42:2 43:0 44:0 45:3 
512 0:1 1:0 2:0 3:1 4:0 5:0 6:1 7:1 8:1 9:0 10:1 11:1 12:0 13:0 14:1 15:1 16:1 17:0 18:1 19:1 20:0 21:0 22:0 23:1 24:1 25:0 26:0 27:1 28:1 29:1 30:1 31:0 32:0 33:1 34:1 35:0 36:58 37:0 38:0 39:1 40:0 41:0 42:2 43:0 44:0 45:3 
512 0:1 1:1 2:1 3:1 4:0 5:1 6:1 7:1 8:1 9:1 10:1 11:1 12:1 13:1 14:1 15:1 16:0 17:0 18:1 19:0 20:0 21:1 22:0 23:0 24:1 25:1 26:1 27:0 28:1 29:0 30:1 31:0 32:0 33:0 34:0 35:0 36:100 37:0 38:0 39:1 40:0 41:0 42:3 43:0 44:0 45:6 
512 0:0 1:1 2:1 3:1 4:0 5:0 6:1 7:1 8:1 9:1 10:1 11:1 12:1 13:1 14:0 15:1 16:1 17:0 18:1 19:0 20:0 21:0 22:0 23:0 24:1 25:1 26:1 27:0 28:0 29:1 30:1 31:1 32:1 33:0 34:0 35:0 36:10 37:0 38:0 39:1 40:0 41:0 42:2 43:0 44:0 45:4 
512 0:1 1:1 2:1 3:0 4:0 5:0 6:1 7:0 8:1 9:0 10:0 11:1 12:1 13:1 14:0 15:0 16:0 17:0 18:1 19:1 20:0 21:1 22:0 23:0 24:0 25:1 26:1 27:1 28:0 29:1 30:0 31:0 32:1 33:0 34:0 35:0 36:9 37:0 38:1 39:2 40:0 41:2 42:6 43:0 44:3 45:11 
512 0:1 1:0 2:1 3:1 4:0 5:1 6:1 7:1 8:1 9:0 10:0 11:0 12:0 13:1 14:1 15:1 16:0 17:0 18:1 19:0 20:0 21:1 22:0 23:0 24:0 25:0 26:1 27:0 28:0 29:1 30:0 31:0 32:0 33:1 34:1 35:1 36:7 37:0 38:0 39:1 40:0 41:0 42:3 43:0 44:0 45:8 
512 0:1 1:1 2:0 3:1 4:0 5:0 6:1 7:1 8:0 9:0 10:0 11:1 12:1 13:1 14:0 15:0 16:0 17:1 18:0 19:0 20:1 21:1 22:0 23:0 24:1 25:1 26:1 27:1 28:0 29:1 30:1 31:1 32:1 33:1 34:1 35:1 36:20 37:0 38:0 39:2 40:0 41:1 42:9 43:0 44:2 45:18 
512 0:1 1:1 2:1 3:1 4:0 5:0 6:0 7:1 8:0 9:0 10:0 11:0 12:1 13:0 14:1 15:1 16:0 17:0 18:0 19:0 20:1 21:0 22:0 23:0 24:0 25:1 26:0 27:1 28:0 29:0 30:1 31:0 32:0 33:1 34:1 35:0 36:46 37:0 38:0 39:1 40:0 41:0 42:2 43:0 44:1 45:4 
512 0:1 1:1 2:1 3:1 4:1 5:0 6:0 7:0 8:1 9:1 10:1 11:1 12:1 13:0 14:0 15:1 16:0 17:0 18:1 19:1 20:0 21:0 22:1 23:0 24:0 25:0 26:0 27:0 28:0 29:0 30:0 31:0 32:0 33:0 34:0 35:0 36:14 37:0 38:0 39:2 40:0 41:0 42:6 43:0 44:1 45:13 
512 0:1 1:1 2:0 3:1 4:0 5:0 6:1 7:0 8:1 9:1 10:1 11:1 12:1 13:0 14:0 15:0 16:0 17:0 18:1 19:0 20:1 21:1 22:0 23:0 24:1 25:1 26:1 27:0 28:0 29:0 30:1 31:0 32:0 33:0 34:0 35:0 36:43 37:0 38:0 39:3 40:0 41:1 42:9 43:0 44:2 45:17 
512 0:1 1:1 2:0 3:0 4:0 5:0 6:1 7:0 8:1 9:1 10:1 11:1 12:1 13:1 14:1 15:1 16:1 17:0 18:1 19:1 20:1 21:0 22:0 23:0 24:1 25:0 26:0 27:0 28:0 29:0 30:0 31:0 32:0 33:0 34:0 35:0 36:19 37:0 38:0 39:3 40:1 41:1 42:7 43:1 44:2 45:12 
512 0:1 1:1 2:1 3:1 4:0 5:0 6:1 7:1 8:0 9:1 10:1 11:0 12:1 13:0 14:1 15:0 16:0 17:0 18:1 19:0 20:0 21:0 22:1 23:0 24:0 25:0 26:1 27:1 28:1 29:0 30:1 31:0 32:0 33:1 34:0 35:0 36:37 37:0 38:0 39:1 40:0 41:0 42:5 43:0 44:1 45:10 
512 0:1 1:1 2:1 3:1 4:0 5:0 6:1 7:1 8:1 9:1 10:1 11:1 12:0 13:1 14:1 15:1 16:0 17:0 18:0 19:0 20:0 21:1 22:0 23:0 24:1 25:1 26:1 27:1 28:0 29:1 30:1 31:0 32:0 33:1 34:1 35:1 36:40 37:0 38:0 39:1 40:0 41:1 42:2 43:0 44:1 45:3 
512 0:1 1:1 2:1 3:1 4:1 5:1 6:1 7:1 8:1 9:1 10:1 11:1 12:1 13:0 14:1 15:0 16:0 17:0 18:1 19:0 20:0 21:1 22:1 23:0 24:0 25:1 26:1 27:0 28:1 29:1 30:1 31:0 32:0 33:0 34:1 35:0 36:44 37:0 38:0 39:2 40:0 41:0 42:5 43:0 44:1 45:10 
512 0:1 1:0 2:1 3:1 4:0 5:0 6:1 7:1 8:1 9:1 10:1 11:1 12:1 13:1 14:1 15:1 16:1 17:0 18:0 19:0 20:0 21:1 22:1 23:1 24:0 25:0 26:0 27:1 28:1 29:1 30:1 31:0 32:0 33:1 34:0 35:0 36:59 37:0 38:1 39:1 40:0 41:1 42:2 43:0 44:1 45:4 
512 0:1 1:0 2:1 3:1 4:0 5:0 6:0 7:1 8:1 9:1 10:1 11:0 12:1 13:0 14:0 15:0 16:0 17:0 18:1 19:0 20:0 21:1 22:1 23:1 24:1 25:1 26:0 27:0 28:0 29:0 30:0 31:0 32:0 33:0 34:0 35:0 36:9 37:0 38:1 39:2 40:0 41:1 42:5 43:1 44:2 45:11 
512 0:1 1:0 2:0 3:1 4:1 5:1 6:0 7:1 8:1 9:0 10:1 11:1 12:0 13:1 14:1 15:0 16:0 17:0 18:1 19:0 20:0 21:1 22:0 23:1 24:1 25:1 26:0 27:1 28:1 29:1 30:0 31:0 32:0 33:1 34:0 35:1 36:26 37:0 38:1 39:1 40:0 41:3 42:3 43:0 44:3 45:5 
512 0:1 1:1 2:0 3:1 4:0 5:0 6:1 7:1 8:1 9:1 10:1 11:1 12:1 13:1 14:1 15:1 16:0 17:0 18:1 19:0 20:0 21:1 22:0 23:1 24:1 25:0 26:0 27:1 28:0 29:1 30:0 31:0 32:0 33:1 34:1 35:1 36:20 37:0 38:1 39:2 40:0 41:3 42:8 43:2 44:3 45:16 
512 0:0 1:1 2:1 3:1 4:0 5:1 6:1 7:1 8:1 9:0 10:0 11:0 12:0 13:1 14:1 15:0 16:0 17:0 18:1 19:1 20:0 21:0 22:0 23:1 24:0 25:0 26:1 27:0 28:1 29:1 30:0 31:0 32:0 33:0 34:0 35:0 36:21 37:0 38:0 39:1 40:0 41:0 42:3 43:0 44:2 45:6 
512 0:1 1:1 2:1 3:0 4:0 5:0 6:1 7:1 8:1 9:1 10:1 11:0 12:1 13:1 14:1 15:1 16:1 17:0 18:1 19:0 20:0 21:1 22:1 23:0 24:0 25:1 26:1 27:1 28:1 29:1 30:1 31:0 32:0 33:1 34:0 35:0 36:25 37:0 38:2 39:4 40:0 41:2 42:11 43:0 44:3 45:21 
240.5795188527082 0:0 1:1 2:0 3:1 4:1 5:0 6:1 7:1 8:1 9:1 10:1 11:1 12:0 13:1 14:1 15:0 16:1 17:1 18:1 19:1 20:1 21:1 22:0 23:0 24:0 25:1 26:1 27:1 28:1 29:0 30:0 31:0 32:0 33:1 34:0 35:0 36:36 37:0 38:0 39:1 40:0 41:1 42:2 43:0 44:1 45:3 
512 0:1 1:0 2:0 3:0 4:0 5:0 6:1 7:1 8:0 9:1 10:1 11:1 12:1 13:1 14:1 15:1 16:0 17:0 18:1 19:1 20:1 21:1 22:0 23:0 24:0 25:0 26:1 27:1 28:1 29:1 30:1 31:1 32:0 33:1 34:1 35:0 36:37 37:0 38:0 39:1 40:0 41:0 42:4 43:0 44:1 45:11 
512 0:1 1:1 2:1 3:0 4:0 5:0 6:1 7:1 8:1 9:1 10:1 11:1 12:1 13:1 14:0 15:1 16:0 17:0 18:1 19:0 20:1 21:0 22:0 23:0 24:1 25:1 26:1 27:0 28:0 29:1 30:1 31:0 32:0 33:1 34:0 35:1 36:29 37:0 38:0 39:3 40:0 41:2 42:9 43:0 44:3 45:18 
512 0:1 1:1 2:1 3:0 4:0 5:0 6:1 7:0 8:1 9:0 10:1 11:0 12:1 13:1 14:1 15:0 16:0 17:0 18:1 19:1 20:1 21:0 22:1 23:1 24:1 25:0 26:1 27:0 28:1 29:1 30:1 31:0 32:0 33:0 34:0 35:0 36:29 37:0 38:0 39:1 40:0 41:0 42:3 43:0 44:0 45:7 
512 0:0 1:1 2:1 3:0 4:0 5:0 6:1 7:1 8:0 9:1 10:1 11:1 12:0 13:0 14:1 15:0 16:0 17:0 18:1 19:0 20:0 21:1 22:0 23:0 24:0 25:1 26:1 27:1 28:1 29:0 30:1 31:0 32:0 33:1 34:1 35:0 36:16 37:0 38:0 39:2 40:0 41:1 42:10 43:1 44:4 45:21 
446.3177528122949 0:1 1:0 2:0 3:0 4:0 5:0 6:0 7:0 8:1 9:1 10:0 11:0 12:1 13:1 14:1 15:1 16:0 17:0 18:1 19:1 20:1 21:1 22:0 23:0 24:1 25:1 26:1 27:1 28:0 29:0 30:0 31:0 32:0 33:0 34:0 35:1 36:31 37:0 38:1 39:1 40:0 41:1 42:2 43:0 44:2 45:3 
512 0:1 1:1 2:0 3:1 4:0 5:0 6:1 7:0 8:0 9:1 10:1 11:1 12:1 13:1 14:0 15:0 16:0 17:0 18:1 19:0 20:0 21:0 22:0 23:0 24:0 25:0 26:1 27:1 28:0 29:1 30:0 31:0 32:0 33:1 34:1 35:0 36:22 37:0 38:0 39:2 40:0 41:2 42:8 43:0 44:3 45:15 
512 0:1 1:1 2:1 3:0 4:0 5:0 6:1 7:1 8:1 9:0 10:1 11:1 12:1 13:1 14:0 15:1 16:0 17:0 18:1 19:0 20:1 21:1 22:0 23:0 24:0 25:1 26:1 27:0 28:1 29:0 30:0 31:0 32:0 33:1 34:1 35:0 36:39 37:0 38:1 39:4 40:0 41:4 42:10 43:0 44:6 45:20 
512 0:0 1:0 2:1 3:1 4:0 5:1 6:1 7:1 8:1 9:1 10:0 11:1 12:0 13:1 14:1 15:1 16:0 17:1 18:1 19:1 20:1 21:1 22:0 23:0 24:0 25:1 26:0 27:1 28:0 29:1 30:0 31:0 32:0 33:0 34:1 35:1 36:6 37:0 38:0 39:1 40:0 41:0 42:2 43:1 44:0 45:5 
512 0:1 1:1 2:1 3:1 4:0 5:0 6:1 7:1 8:1 9:0 10:1 11:1 12:1 13:1 14:1 15:0 16:0 17:0 18:0 19:0 20:1 21:1 22:0 23:0 24:1 25:1 26:1 27:1 28:0 29:1 30:0 31:1 32:0 33:1 34:1 35:0 36:77 37:0 38:1 39:1 40:0 41:1 42:2 43:0 44:1 45:4 
512 0:1 1:1 2:0 3:1 4:0 5:0 6:1 7:1 8:1 9:1 10:1 11:1 12:1 13:1 14:1 15:0 16:0 17:0 18:0 19:0 20:0 21:1 22:1 23:0 24:0 25:1 26:0 27:0 28:1 29:0 30:0 31:0 32:0 33:0 34:1 35:0 36:34 37:0 38:0 39:3 40:0 41:0 42:9 43:0 44:1 45:17 
512 0:1 1:1 2:1 3:0 4:0 5:0 6:0 7:1 8:1 9:1 10:1 11:0 12:1 13:1 14:1 15:1 16:0 17:0 18:1 19:0 20:1 21:1 22:0 23:1 24:1 25:1 26:1 27:0 28:0 29:0 30:0 31:0 32:0 33:0 34:0 35:0 36:20 37:0 38:1 39:3 40:0 41:2 42:9 43:0 44:4 45:15 
512 0:1 1:1 2:1 3:1 4:0 5:0 6:1 7:1 8:1 9:1 10:1 11:0 12:1 13:1 14:1 15:1 16:1 17:1 18:1 19:0 20:0 21:1 22:1 23:0 24:0 25:0 26:1 27:0 28:1 29:0 30:1 31:0 32:0 33:0 34:1 35:1 36:99 37:0 38:0 39:1 40:0 41:0 42:2 43:0 44:0 45:4 
206.2839262516184 0:1 1:1 2:1 3:0 4:0 5:1 6:1 7:1 8:0 9:1 10:1 11:1 12:1 13:0 14:1 15:1 16:0 17:0 18:0 19:0 20:1 21:1 22:0 23:0 24:1 25:1 26:1 27:1 28:1 29:1 30:0 31:0 32:0 33:1 34:0 35:0 36:131 37:0 38:0 39:4 40:0 41:0 42:10 43:0 44:1 45:15 
512 0:0 1:1 2:1 3:1 4:0 5:0 6:1 7:1 8:1 9:0 10:1 11:1 12:0 13:0 14:1 15:0 16:0 17:0 18:1 19:0 20:0 21:1 22:0 23:0 24:1 25:1 26:1 27:1 28:1 29:0 30:1 31:1 32:1 33:0 34:0 35:1 36:37 37:0 38:1 39:4 40:0 41:1 42:12 43:1 44:3 45:23 
512 0:1 1:1 2:1 3:1 4:0 5:0 6:1 7:1 8:0 9:0 10:0 11:0 12:1 13:1 14:1 15:1 16:0 17:0 18:1 19:0 20:1 21:0 22:0 23:0 24:1 25:1 26:1 27:1 28:1 29:1 30:0 31:0 32:0 33:1 34:0 35:0 36:9 37:0 38:0 39:1 40:0 41:2 42:3 43:0 44:3 45:7 
512 0:0 1:1 2:1 3:1 4:0 5:1 6:1 7:1 8:1 9:1 10:0 11:1 12:1 13:1 14:1 15:1 16:0 17:1 18:1 19:1 20:0 21:1 22:0 23:1 24:1 25:0 26:0 27:1 28:0 29:1 30:0 31:0 32:0 33:0 34:0 35:1 36:6 37:0 38:1 39:2 40:0 41:2 42:6 43:0 44:2 45:13 
512 0:0 1:0 2:1 3:1 4:1 5:0 6:1 7:1 8:1 9:0 10:1 11:0 12:1 13:1 14:1 15:0 16:0 17:0 18:1 19:0 20:0 21:1 22:0 23:0 24:1 25:1 26:1 27:1 28:1 29:1 30:0 31:0 32:0 33:1 34:1 35:0 36:21 37:0 38:0 39:2 40:1 41:1 42:6 43:1 44:1 45:11 
512 0:1 1:1 2:1 3:1 4:0 5:0 6:0 7:1 8:0 9:0 10:0 11:1 12:1 13:1 14:0 15:1 16:0 17:0 18:0 19:0 20:0 21:1 22:0 23:0 24:1 25:0 26:0 27:0 28:0 29:1 30:0 31:0 32:0 33:0 34:0 35:0 36:61 37:0 38:0 39:1 40:0 41:0 42:2 43:0 44:1 45:4 
512 0:0 1:0 2:1 3:1 4:0 5:0 6:1 7:0 8:0 9:1 10:1 11:1 12:0 13:0 14:1 15:1 16:1 17:0 18:0 19:0 20:0 21:0 22:0 23:0 24:1 25:1 26:1 27:1 28:0 29:0 30:0 31:1 32:0 33:0 34:0 35:1 36:15 37:0 38:0 39:1 40:0 41:0 42:2 43:0 44:1 45:5 
512 0:0 1:0 2:1 3:0 4:0 5:0 6:1 7:1 8:1 9:0 10:1 11:1 12:1 13:1 14:1 15:1 16:0 17:1 18:0 19:0 20:1 21:1 22:0 23:1 24:1 25:1 26:1 27:0 28:1 29:0 30:1 31:0 32:0 33:1 34:0 35:0 36:42 37:0 38:0 39:1 40:0 41:0 42:2 43:0 44:0 45:3 
512 0:1 1:1 2:1 3:1 4:0 5:1 6:1 7:1 8:0 9:1 10:1 11:1 12:1 13:1 14:1 15:1 16:0 17:1 18:0 19:0 20:0 21:1 22:1 23:1 24:1 25:1 26:0 27:1 28:1 29:1 30:0 31:0 32:0 33:0 34:1 35:0 36:13 37:0 38:0 39:1 40:0 41:0 42:4 43:0 44:1 45:9 
512 0:1 1:0 2:1 3:1 4:0 5:0 6:1 7:0 8:1 9:1 10:1 11:1 12:1 13:1 14:0 15:1 16:1 17:0 18:1 19:0 20:0 21:1 22:0 23:0 24:1 25:0 26:1 27:1 28:0 29:1 30:1 31:0 32:0 33:1 34:0 35:0 36:21 37:0 38:0 39:1 40:0 41:0 42:2 43:0 44:1 45:4 
512 0:1 1:0 2:0 3:1 4:0 5:0 6:1 7:0 8:0 9:1 10:1 11:1 12:1 13:1 14:1 15:1 16:0 17:0 18:1 19:0 20:0 21:1 22:0 23:1 24:1 25:1 26:0 27:1 28:0 29:1 30:0 31:0 32:0 33:0 34:0 35:0 36:12 37:0 38:0 39:4 40:0 41:0 42:12 43:0 44:1 45:24 
512 0:1 1:1 2:1 3:0 4:0 5:0 6:1 7:1 8:1 9:0 10:1 11:0 12:1 13:1 14:1 15:0 16:0 17:0 18:1 19:0 20:0 21:1 22:0 23:0 24:1 25:1 26:1 27:1 28:0 29:1 30:0 31:0 32:0 33:1 34:0 35:1 36:108 37:0 38:0 39:1 40:0 41:0 42:2 43:0 44:0 45:3 
512 0:1 1:1 2:1 3:1 4:0 5:0 6:1 7:1 8:1 9:0 10:1 11:1 12:1 13:1 14:1 15:0 16:1 17:0 18:1 19:0 20:0 21:0 22:0 23:1 24:1 25:1 26:0 27:0 28:1 29:1 30:0 31:0 32:0 33:1 34:1 35:1 36:78 37:0 38:1 39:1 40:0 41:1 42:2 43:0 44:1 45:3 
512 0:1 1:1 2:1 3:0 4:1 5:1 6:1 7:0 8:1 9:0 10:1 11:1 12:1 13:1 14:1 15:0 16:0 17:0 18:1 19:0 20:0 21:1 22:0 23:0 24:1 25:1 26:1 27:0 28:1 29:1 30:1 31:0 32:0 33:1 34:0 35:0 36:5 37:0 38:1 39:4 40:0 41:3 42:12 43:0 44:6 45:24 
512 0:0 1:1 2:1 3:0 4:0 5:0 6:1 7:1 8:0 9:0 10:1 11:0 12:1 13:1 14:0 15:0 16:0 17:0 18:1 19:0 20:1 21:1 22:0 23:0 24:1 25:1 26:1 27:1 28:0 29:0 30:0 31:0 32:0 33:1 34:0 35:0 36:21 37:1 38:0 39:2 40:1 41:0 42:3 43:1 44:0 45:5 
512 0:1 1:1 2:1 3:1 4:0 5:1 6:0 7:1 8:1 9:1 10:0 11:0 12:1 13:0 14:1 15:1 16:1 17:1 18:0 19:0 20:0 21:1 22:1 23:1 24:0 25:1 26:1 27:1 28:1 29:0 30:1 31:0 32:1 33:1 34:0 35:0 36:33 37:0 38:1 39:3 40:0 41:1 42:9 43:0 44:5 45:17 
512 0:1 1:1 2:1 3:1 4:0 5:1 6:1 7:1 8:1 9:1 10:1 11:1 12:1 13:1 14:1 15:1 16:0 17:0 18:1 19:1 20:0 21:1 22:0 23:0 24:0 25:1 26:1 27:0 28:0 29:0 30:1 31:0 32:0 33:1 34:0 35:0 36:7 37:1 38:0 39:3 40:1 41:1 42:9 43:2 44:4 45:19 
512 0:0 1:0 2:1 3:1 4:0 5:1 6:1 7:1 8:0 9:0 10:0 11:1 12:1 13:1 14:1 15:0 16:0 17:0 18:1 19:1 20:0 21:1 22:0 23:0 24:0 25:0 26:0 27:1 28:0 29:1 30:1 31:1 32:0 33:1 34:0 35:1 36:19 37:0 38:0 39:3 40:0 41:0 42:7 43:0 44:1 45:14 
512 0:0 1:1 2:1 3:0 4:0 5:1 6:1 7:1 8:1 9:1 10:1 11:1 12:1 13:0 14:0 15:1 16:0 17:0 18:0 19:1 20:1 21:1 22:0 23:0 24:1 25:1 26:1 27:1 28:1 29:0 30:1 31:0 32:0 33:1 34:1 35:0 36:28 37:0 38:0 39:1 40:0 41:1 42:2 43:0 44:1 45:3 
512 0:1 1:1 2:1 3:1 4:0 5:0 6:1 7:1 8:1 9:0 10:1 11:1 12:1 13:1 14:1 15:1 16:1 17:0 18:1 19:1 20:0 21:1 22:0 23:0 24:0 25:0 26:0 27:0 28:0 29:0 30:1 31:0 32:0 33:0 34:0 35:0 36:50 37:0 38:1 39:1 40:0 41:2 42:2 43:0 44:3 45:5 
463.7274590764001 0:0 1:0 2:1 3:1 4:1 5:0 6:1 7:1 8:1 9:1 10:1 11:1 12:1 13:0 14:1 15:1 16:0 17:0 18:1 19:0 20:1 21:1 22:0 23:0 24:0 25:1 26:1 27:1 28:1 29:1 30:1 31:1 32:0 33:1 34:0 35:0 36:141 37:0 38:0 39:1 40:0 41:1 42:3 43:0 44:1 45:7 
395.0160374410349 0:1 1:1 2:0 3:1 4:0 5:0 6:1 7:0 8:1 9:0 10:1 11:1 12:0 13:1 14:1 15:0 16:1 17:0 18:1 19:0 20:0 21:1 22:0 23:0 24:1 25:1 26:1 27:1 28:0 29:0 30:1 31:0 32:0 33:1 34:0 35:0 36:160 37:0 38:0 39:1 40:0 41:0 42:3 43:0 44:0 45:8 
512 0:1 1:1 2:1 3:1 4:0 5:0 6:1 7:0 8:0 9:1 10:1 11:1 12:1 13:1 14:1 15:1 16:0 17:0 18:1 19:0 20:1 21:1 22:1 23:1 24:1 25:1 26:0 27:1 28:1 29:0 30:1 31:1 32:0 33:0 34:0 35:0 36:24 37:0 38:0 39:1 40:1 41:0 42:7 43:1 44:1 45:14 
512 0:1 1:1 2:1 3:0 4:0 5:0 6:1 7:0 8:1 9:0 10:0 11:1 12:1 13:1 14:1 15:1 16:0 17:0 18:0 19:0 20:0 21:1 22:0 23:0 24:1 25:1 26:1 27:1 28:0 29:1 30:1 31:0 32:0 33:1 34:0 35:0 36:97 37:0 38:0 39:1 40:0 41:1 42:3 43:0 44:1 45:7 
512 0:1 1:1 2:1 3:1 4:0 5:0 6:1 7:1 8:1 9:1 10:1 11:0 12:0 13:0 14:1 15:0 16:0 17:0 18:0 19:0 20:0 21:1 22:0 23:0 24:1 25:1 26:1 27:0 28:1 29:0 30:0 31:0 32:0 33:1 34:1 35:0 36:36 37:0 38:1 39:1 40:0 41:1 42:2 43:1 44:1 45:4 
512 0:1 1:1 2:0 3:1 4:0 5:0 6:0 7:0 8:0 9:1 10:0 11:0 12:1 13:1 14:1 15:1 16:0 17:0 18:1 19:0 20:0 21:1 22:0 23:1 24:0 25:1 26:1 27:1 28:0 29:0 30:1 31:0 32:0 33:0 34:0 35:0 36:29 37:0 38:0 39:2 40:0 41:1 42:9 43:0 44:4 45:19 
512 0:1 1:1 2:1 3:1 4:0 5:0 6:1 7:1 8:1 9:1 10:0 11:0 12:0 13:1 14:1 15:1 16:0 17:0 18:1 19:1 20:0 21:1 22:0 23:0 24:0 25:1 26:1 27:1 28:0 29:1 30:0 31:1 32:0 33:1 34:0 35:0 36:38 37:0 38:0 39:1 40:0 41:0 42:3 43:0 44:2 45:7 
512 0:1 1:1 2:1 3:0 4:0 5:0 6:0 7:1 8:1 9:1 10:1 11:1 12:0 13:0 14:1 15:1 16:1 17:0 18:1 19:0 20:0 21:0 22:1 23:1 24:1 25:1 26:1 27:0 28:1 29:0 30:0 31:0 32:0 33:1 34:1 35:0 36:36 37:0 38:0 39:1 40:0 41:0 42:2 43:0 44:0 45:3 
512 0:1 1:0 2:1 3:1 4:0 5:0 6:1 7:1 8:1 9:1 10:0 11:0 12:1 13:0 14:0 15:1 16:0 17:1 18:1 19:1 20:1 21:1 22:0 23:0 24:0 25:1 26:1 27:0 28:0 29:1 30:1 31:0 32:0 33:0 34:0 35:0 36:40 37:0 38:0 39:1 40:0 41:0 42:2 43:0 44:0 45:4 
512 0:0 1:0 2:1 3:1 4:0 5:1 6:1 7:1 8:1 9:1 10:1 11:1 12:1 13:1 14:1 15:0 16:0 17:0 18:1 19:0 20:0 21:1 22:0 23:1 24:1 25:1 26:1 27:1 28:1 29:1 30:0 31:0 32:0 33:1 34:1 35:0 36:47 37:0 38:1 39:2 40:0 41:1 42:4 43:0 44:1 45:6 
512 0:1 1:0 2:1 3:1 4:0 5:0 6:1 7:0 8:0 9:0 10:1 11:1 12:0 13:1 14:1 15:1 16:1 17:1 18:0 19:0 20:0 21:1 22:0 23:1 24:1 25:1 26:1 27:0 28:0 29:1 30:0 31:0 32:0 33:1 34:0 35:0 36:36 37:0 38:0 39:2 40:0 41:0 42:6 43:0 44:0 45:12 
512 0:1 1:1 2:0 3:1 4:1 5:0 6:1 7:0 8:1 9:0 10:0 11:1 12:1 13:1 14:0 15:1 16:0 17:0 18:1 19:0 20:0 21:1 22:1 23:1 24:1 25:1 26:1 27:0 28:1 29:1 30:0 31:0 32:0 33:0 34:0 35:0 36:40 37:0 38:0 39:1 40:0 41:0 42:2 43:0 44:0 45:4 
512 0:1 1:1 2:1 3:1 4:0 5:0 6:1 7:1 8:1 9:0 10:1 11:1 12:1 13:1 14:1 15:1 16:0 17:0 18:1 19:0 20:0 21:1 22:0 23:0 24:1 25:0 26:1 27:1 28:0 29:1 30:0 31:0 32:0 33:1 34:0 35:0 36:50 37:0 38:0 39:1 40:0 41:0 42:3 43:0 44:0 45:8 
512 0:1 1:1 2:1 3:1 4:0 5:0 6:1 7:1 8:1 9:1 10:1 11:1 12:0 13:1 14:1 15:0 16:0 17:0 18:1 19:1 20:1 21:1 22:1 23:0 24:0 25:0 26:1 27:0 28:1 29:0 30:0 31:0 32:0 33:1 34:1 35:0 36:40 37:0 38:0 39:1 40:0 41:0 42:2 43:0 44:0 45:3 
512 0:1 1:1 2:1 3:0 4:0 5:0 6:1 7:1 8:1 9:1 10:1 11:0 12:1 13:1 14:1 15:1 16:0 17:0 18:1 19:1 20:0 21:0 22:0 23:1 24:1 25:1 26:1 27:0 28:1 29:1 30:0 31:0 32:0 33:1 34:1 35:0 36:34 37:0 38:0 39:1 40:0 41:0 42:2 43:0 44:0 45:3 
512 0:1 1:1 2:1 3:0 4:0 5:0 6:1 7:1 8:0 9:1 10:1 11:1 12:1 13:1 14:1 15:0 16:0 17:0 18:1 19:0 20:0 21:1 22:1 23:0 24:1 25:1 26:0 27:1 28:1 29:0 30:1 31:0 32:0 33:1 34:0 35:0 36:125 37:0 38:0 39:1 40:0 41:1 42:3 43:0 44:1 45:7 
512 0:1 1:1 2:0 3:1 4:0 5:1 6:1 7:1 8:1 9:1 10:0 11:1 12:1 13:1 14:1 15:1 16:0 17:0 18:1 19:1 20:1 21:1 22:0 23:0 24:1 25:1 26:1 27:1 28:1 29:0 30:0 31:0 32:0 33:1 34:0 35:0 36:37 37:0 38:1 39:2 40:0 41:2 42:6 43:1 44:3 45:11 
512 0:1 1:1 2:1 3:1 4:1 5:0 6:1 7:1 8:0 9:1 10:1 11:0 12:1 13:1 14:1 15:0 16:1 17:0 18:1 19:0 20:1 21:1 22:0 23:1 24:1 25:1 26:1 27:0 28:1 29:1 30:0 31:0 32:0 33:0 34:0 35:0 36:29 37:0 38:0 39:1 40:0 41:0 42:3 43:0 44:1 45:7 
512 0:0 1:1 2:1 3:0 4:0 5:1 6:0 7:0 8:1 9:1 10:1 11:1 12:1 13:1 14:1 15:1 16:0 17:0 18:1 19:0 20:0 21:0 22:0 23:0 24:0 25:0 26:1 27:0 28:1 29:1 30:1 31:0 32:0 33:1 34:0 35:1 36:30 37:0 38:1 39:1 40:0 41:2 42:2 43:0 44:3 45:3 
512 0:1 1:1 2:1 3:1 4:1 5:0 6:1 7:1 8:1 9:1 10:0 11:1 12:1 13:1 14:1 15:0 16:0 17:0 18:1 19:0 20:0 21:1 22:0 23:0 24:1 25:0 26:1 27:1 28:1 29:1 30:1 31:0 32:0 33:1 34:0 35:0 36:47 37:0 38:1 39:1 40:0 41:1 42:4 43:0 44:1 45:8 
512 0:0 1:1 2:0 3:0 4:0 5:0 6:1 7:1 8:1 9:1 10:1 11:1 12:1 13:1 14:1 15:1 16:0 17:0 18:1 19:0 20:0 21:1 22:1 23:0 24:1 25:1 26:1 27:1 28:1 29:0 30:1 31:0 32:0 33:1 34:1 35:0 36:73 37:0 38:0 39:1 40:0 41:1 42:2 43:0 44:1 45:3 
512 0:1 1:1 2:0 3:0 4:0 5:0 6:1 7:0 8:1 9:1 10:1 11:1 12:1 13:1 14:1 15:1 16:0 17:0 18:1 19:0 20:1 21:0 22:0 23:1 24:1 25:1 26:1 27:0 28:1 29:1 30:1 31:0 32:0 33:1 34:1 35:0 36:54 37:0 38:0 39:2 40:0 41:0 42:4 43:0 44:0 45:5 
512 0:1 1:0 2:1 3:1 4:0 5:0 6:1 7:0 8:1 9:1 10:1 11:1 12:1 13:0 14:1 15:1 16:1 17:0 18:1 19:0 20:0 21:0 22:0 23:0 24:0 25:1 26:1 27:0 28:0 29:1 30:1 31:0 32:0 33:1 34:0 35:1 36:39 37:0 38:0 39:1 40:0 41:1 42:2 43:0 44:1 45:3 
512 0:0 1:1 2:1 3:1 4:0 5:1 6:1 7:1 8:1 9:1 10:1 11:1 12:1 13:1 14:1 15:1 16:0 17:0 18:1 19:0 20:1 21:1 22:0 23:0 24:1 25:0 26:1 27:0 28:0 29:1 30:0 31:0 32:0 33:0 34:0 35:1 36:17 37:0 38:0 39:2 40:0 41:1 42:6 43:0 44:1 45:11 
512 0:1 1:1 2:1 3:1 4:0 5:0 6:0 7:1 8:1 9:0 10:0 11:0 12:0 13:1 14:1 15:1 16:0 17:0 18:1 19:0 20:0 21:1 22:1 23:0 24:0 25:1 26:0 27:0 28:0 29:1 30:0 31:0 32:0 33:1 34:0 35:1 36:86 37:0 38:0 39:1 40:0 41:0 42:2 43:0 44:0 45:3 
512 0:1 1:0 2:1 3:0 4:1 5:0 6:0 7:1 8:1 9:1 10:1 11:1 12:1 13:1 14:1 15:0 16:0 17:0 18:1 19:1 20:1 21:1 22:0 23:0 24:1 25:1 26:1 27:1 28:0 29:0 30:1 31:0 32:0 33:1 34:0 35:0 36:22 37:0 38:0 39:1 40:0 41:2 42:4 43:0 44:2 45:9 
512 0:1 1:0 2:1 3:1 4:0 5:0 6:1 7:1 8:1 9:0 10:0 11:0 12:1 13:1 14:0 15:1 16:0 17:0 18:1 19:0 20:1 21:1 22:0 23:1 24:0 25:1 26:1 27:1 28:0 29:0 30:0 31:0 32:0 33:1 34:0 35:0 36:42 37:0 38:2 39:2 40:0 41:3 42:5 43:0 44:3 45:12 
512 0:1 1:1 2:1 3:0 4:1 5:1 6:1 7:1 8:0 9:1 10:1 11:1 12:1 13:1 14:1 15:1 16:0 17:0 18:1 19:0 20:0 21:1 22:0 23:0 24:1 25:0 26:1 27:0 28:0 29:0 30:0 31:0 32:0 33:0 34:0 35:0 36:29 37:0 38:0 39:1 40:0 41:0 42:2 43:0 44:1 45:3 
512 0:1 1:1 2:0 3:1 4:0 5:0 6:0 7:1 8:1 9:0 10:0 11:0 12:1 13:1 14:1 15:0 16:0 17:0 18:1 19:1 20:0 21:0 22:1 23:1 24:1 25:1 26:0 27:0 28:0 29:1 30:1 31:0 32:0 33:0 34:0 35:0 36:21 37:0 38:0 39:2 40:0 41:0 42:9 43:0 44:1 45:19 
512 0:1 1:1 2:1 3:0 4:0 5:0 6:1 7:1 8:0 9:1 10:1 11:1 12:0 13:1 14:0 15:1 16:0 17:0 18:1 19:0 20:1 21:1 22:0 23:1 24:1 25:1 26:0 27:1 28:1 29:1 30:1 31:0 32:0 33:1 34:1 35:0 36:67 37:0 38:0 39:1 40:0 41:0 42:2 43:0 44:0 45:5 
512 0:0 1:1 2:1 3:1 4:1 5:0 6:0 7:1 8:1 9:0 10:1 11:1 12:1 13:1 14:0 15:1 16:0 17:0 18:0 19:1 20:0 21:1 22:0 23:0 24:1 25:1 26:1 27:1 28:1 29:1 30:1 31:0 32:1 33:1 34:0 35:1 36:24 37:0 38:0 39:2 40:1 41:0 42:6 43:1 44:1 45:11 
512 0:1 1:1 2:0 3:1 4:0 5:0 6:1 7:1 8:1 9:0 10:0 11:1 12:0 13:1 14:1 15:1 16:0 17:0 18:0 19:0 20:0 21:1 22:0 23:0 24:1 25:1 26:0 27:0 28:1 29:0 30:1 31:0 32:0 33:0 34:0 35:0 36:54 37:0 38:1 39:3 40:0 41:2 42:8 43:0 44:2 45:17 
512 0:1 1:1 2:1 3:1 4:0 5:1 6:1 7:1 8:0 9:1 10:1 11:1 12:1 13:1 14:0 15:1 16:0 17:0 18:1 19:0 20:0 21:1 22:0 23:0 24:1 25:0 26:0 27:0 28:0 29:1 30:1 31:0 32:0 33:0 34:0 35:0 36:54 37:0 38:0 39:1 40:0 41:0 42:3 43:1 44:3 45:12 
512 0:1 1:1 2:0 3:1 4:0 5:0 6:1 7:1 8:1 9:0 10:1 11:1 12:1 13:1 14:1 15:1 16:1 17:0 18:0 19:0 20:0 21:1 22:1 23:0 24:1 25:1 26:1 27:1 28:1 29:1 30:0 31:0 32:0 33:0 34:0 35:0 36:64 37:1 38:0 39:4 40:1 41:0 42:12 43:1 44:3 45:23 
512 0:1 1:0 2:1 3:1 4:0 5:1 6:1 7:1 8:1 9:1 10:1 11:1 12:1 13:1 14:1 15:0 16:0 17:0 18:1 19:0 20:1 21:1 22:1 23:0 24:1 25:0 26:0 27:0 28:0 29:0 30:1 31:0 32:0 33:0 34:0 35:0 36:19 37:0 38:0 39:1 40:0 41:1 42:4 43:0 44:1 45:8 
512 0:1 1:1 2:1 3:1 4:0 5:0 6:0 7:1 8:0 9:1 10:1 11:1 12:1 13:1 14:1 15:1 16:0 17:1 18:1 19:0 20:0 21:0 22:1 23:1 24:0 25:0 26:0 27:0 28:1 29:1 30:0 31:0 32:0 33:0 34:1 35:0 36:19 37:0 38:3 39:4 40:0 41:3 42:10 43:0 44:6 45:20 
512 0:1 1:0 2:1 3:1 4:1 5:1 6:1 7:1 8:1 9:1 10:1 11:1 12:1 13:0 14:1 15:1 16:0 17:0 18:0 19:0 20:0 21:0 22:0 23:0 24:1 25:0 26:1 27:0 28:0 29:1 30:1 31:0 32:0 33:0 34:0 35:1 36:23 37:0 38:0 39:2 40:1 41:0 42:6 43:2 44:0 45:9 
512 0:1 1:0 2:1 3:1 4:0 5:1 6:1 7:1 8:1 9:1 10:1 11:1 12:0 13:1 14:1 15:1 16:0 17:0 18:1 19:0 20:0 21:0 22:0 23:1 24:0 25:0 26:1 27:0 28:0 29:1 30:1 31:1 32:0 33:1 34:1 35:0 36:29 37:0 38:1 39:4 40:0 41:3 42:12 43:1 44:3 45:21 
512 0:1 1:1 2:1 3:1 4:0 5:0 6:1 7:1 8:0 9:1 10:1 11:1 12:1 13:1 14:1 15:1 16:0 17:0 18:0 19:0 20:0 21:1 22:0 23:1 24:0 25:1 26:1 27:1 28:0 29:1 30:0 31:0 32:0 33:1 34:0 35:0 36:42 37:0 38:1 39:1 40:0 41:1 42:2 43:0 44:1 45:3 
512 0:1 1:1 2:1 3:1 4:0 5:0 6:1 7:1 8:1 9:1 10:1 11:0 12:1 13:1 14:0 15:1 16:0 17:1 18:1 19:1 20:1 21:1 22:0 23:0 24:1 25:1 26:1 27:1 28:1 29:1 30:1 31:0 32:0 33:0 34:0 35:0 36:34 37:0 38:0 39:1 40:0 41:0 42:2 43:0 44:0 45:5 
512 0:0 1:1 2:1 3:0 4:0 5:1 6:0 7:1 8:0 9:0 10:1 11:1 12:1 13:1 14:1 15:1 16:0 17:0 18:1 19:0 20:1 21:1 22:0 23:0 24:1 25:1 26:1 27:1 28:1 29:1 30:0 31:0 32:0 33:1 34:0 35:1 36:44 37:0 38:0 39:3 40:0 41:0 42:7 43:1 44:0 45:11 
512 0:1 1:1 2:0 3:1 4:0 5:0 6:1 7:1 8:1 9:0 10:1 11:0 12:1 13:1 14:1 15:1 16:1 17:0 18:1 19:0 20:0 21:1 22:0 23:0 24:0 25:1 26:1 27:1 28:1 29:1 30:0 31:0 32:0 33:1 34:0 35:0 36:30 37:0 38:0 39:1 40:0 41:0 42:3 43:0 44:0 45:6 
512 0:1 1:0 2:0 3:0 4:0 5:0 6:1 7:1 8:0 9:1 10:1 11:1 12:1 13:1 14:1 15:1 16:0 17:0 18:1 19:0 20:0 21:0 22:1 23:1 24:1 25:1 26:1 27:1 28:0 29:1 30:0 31:0 32:0 33:0 34:0 35:0 36:18 37:0 38:0 39:1 40:0 41:1 42:2 43:1 44:1 45:3 
512 0:1 1:1 2:1 3:1 4:0 5:0 6:1 7:1 8:1 9:0 10:1 11:1 12:1 13:1 14:1 15:1 16:0 17:0 18:1 19:0 20:1 21:1 22:1 23:0 24:1 25:1 26:1 27:0 28:1 29:0 30:0 31:1 32:0 33:1 34:1 35:0 36:44 37:0 38:0 39:2 40:0 41:3 42:6 43:0 44:5 45:14 
512 0:1 1:0 2:1 3:0 4:0 5:1 6:1 7:1 8:0 9:0 10:1 11:1 12:1 13:1 14:0 15:0 16:1 17:0 18:1 19:0 20:0 21:0 22:0 23:0 24:1 25:1 26:1 27:0 28:1 29:1 30:0 31:0 32:0 33:1 34:1 35:0 36:21 37:0 38:0 39:1 40:0 41:0 42:2 43:0 44:0 45:3 
512 0:1 1:1 2:1 3:0 4:0 5:0 6:1 7:1 8:1 9:0 10:0 11:1 12:1 13:1 14:1 15:0 16:1 17:0 18:0 19:1 20:0 21:0 22:0 23:1 24:0 25:1 26:1 27:0 28:1 29:1 30:1 31:0 32:0 33:0 34:1 35:0 36:34 37:0 38:0 39:1 40:0 41:0 42:2 43:0 44:1 45:5 
512 0:1 1:1 2:0 3:1 4:0 5:0 6:1 7:0 8:1 9:0 10:1 11:1 12:1 13:1 14:1 15:0 16:0 17:0 18:1 19:1 20:0 21:1 22:0 23:1 24:0 25:1 26:1 27:1 28:1 29:1 30:1 31:0 32:0 33:1 34:0 35:0 36:42 37:0 38:1 39:2 40:0 41:4 42:9 43:0 44:4 45:21 
512 0:0 1:1 2:1 3:1 4:0 5:1 6:0 7:1 8:1 9:0 10:1 11:1 12:0 13:1 14:0 15:1 16:0 17:0 18:0 19:0 20:0 21:1 22:1 23:0 24:1 25:0 26:1 27:1 28:1 29:1 30:1 31:0 32:0 33:1 34:0 35:0 36:24 37:0 38:0 39:1 40:0 41:0 42:2 43:1 44:0 45:5 
512 0:1 1:1 2:1 3:1 4:0 5:1 6:1 7:1 8:1 9:1 10:1 11:1 12:1 13:1 14:1 15:1 16:0 17:0 18:1 19:0 20:0 21:1 22:1 23:0 24:1 25:0 26:1 27:1 28:1 29:0 30:0 31:1 32:1 33:1 34:0 35:0 36:38 37:0 38:0 39:1 40:0 41:0 42:3 43:0 44:1 45:7 
512 0:1 1:1 2:1 3:0 4:0 5:0 6:0 7:1 8:1 9:0 10:1 11:1 12:1 13:1 14:1 15:0 16:0 17:0 18:0 19:0 20:0 21:1 22:0 23:0 24:1 25:0 26:1 27:1 28:1 29:0 30:0 31:1 32:1 33:0 34:0 35:0 36:36 37:0 38:0 39:1 40:0 41:0 42:5 43:0 44:0 45:10 
300.5514824340309 0:1 1:1 2:1 3:1 4:1 5:1 6:0 7:1 8:0 9:0 10:1 11:1 12:1 13:1 14:1 15:0 16:0 17:0 18:1 19:1 20:1 21:1 22:0 23:0 24:1 25:1 26:0 27:1 28:1 29:0 30:0 31:1 32:0 33:1 34:1 35:0 36:45 37:0 38:1 39:3 40:1 41:1 42:11 43:2 44:2 45:22 
512 0:0 1:1 2:0 3:0 4:0 5:1 6:1 7:1 8:0 9:0 10:1 11:1 12:1 13:0 14:1 15:0 16:0 17:1 18:1 19:0 20:0 21:1 22:0 23:1 24:0 25:0 26:1 27:0 28:1 29:1 30:1 31:0 32:0 33:0 34:0 35:1 36:12 37:1 38:0 39:2 40:2 41:0 42:5 43:4 44:1 45:9 
512 0:0 1:1 2:1 3:1 4:1 5:1 6:1 7:1 8:1 9:1 10:1 11:1 12:0 13:0 14:1 15:1 16:0 17:0 18:1 19:0 20:0 21:0 22:0 23:0 24:0 25:0 26:0 27:1 28:1 29:1 30:0 31:0 32:0 33:1 34:1 35:0 36:15 37:0 38:0 39:1 40:1 41:0 42:6 43:3 44:1 45:13 
512 0:0 1:1 2:1 3:1 4:0 5:0 6:1 7:1 8:1 9:1 10:1 11:1 12:1 13:1 14:0 15:0 16:1 17:0 18:1 19:0 20:0 21:1 22:0 23:0 24:0 25:0 26:0 27:1 28:0 29:1 30:0 31:0 32:0 33:1 34:0 35:0 36:68 37:0 38:0 39:1 40:0 41:0 42:2 43:0 44:0 45:4 
512 0:0 1:1 2:1 3:1 4:0 5:0 6:0 7:1 8:1 9:1 10:1 11:1 12:1 13:1 14:1 15:1 16:0 17:0 18:0 19:0 20:0 21:1 22:0 23:0 24:1 25:1 26:0 27:0 28:0 29:1 30:0 31:0 32:0 33:1 34:1 35:0 36:24 37:0 38:0 39:3 40:2 41:1 42:11 43:4 44:3 45:22 
512 0:1 1:1 2:0 3:0 4:0 5:0 6:1 7:1 8:1 9:1 10:1 11:1 12:0 13:0 14:1 15:0 16:0 17:0 18:1 19:1 20:0 21:0 22:0 23:0 24:0 25:0 26:1 27:1 28:1 29:0 30:1 31:0 32:1 33:1 34:0 35:0 36:31 37:0 38:0 39:1 40:0 41:0 42:3 43:0 44:2 45:8 
512 0:1 1:1 2:1 3:0 4:1 5:1 6:1 7:1 8:1 9:0 10:0 11:0 12:1 13:1 14:0 15:0 16:0 17:0 18:1 19:0 20:0 21:1 22:0 23:0 24:0 25:0 26:1 27:0 28:0 29:1 30:1 31:0 32:0 33:0 34:0 35:0 36:49 37:0 38:0 39:1 40:0 41:0 42:2 43:0 44:0 45:3 
512 0:1 1:1 2:1 3:0 4:0 5:0 6:1 7:1 8:1 9:1 10:1 11:1 12:1 13:0 14:1 15:1 16:0 17:0 18:1 19:1 20:0 21:0 22:0 23:0 24:1 25:1 26:1 27:0 28:1 29:1 30:0 31:0 32:0 33:1 34:0 35:0 36:25 37:0 38:0 39:1 40:0 41:1 42:4 43:1 44:1 45:7 
512 0:1 1:1 2:1 3:1 4:1 5:1 6:1 7:1 8:1 9:0 10:1 11:1 12:1 13:1 14:0 15:1 16:0 17:0 18:0 19:0 20:0 21:1 22:1 23:0 24:0 25:1 26:1 27:1 28:1 29:1 30:0 31:0 32:0 33:0 34:0 35:1 36:36 37:0 38:0 39:1 40:0 41:1 42:3 43:0 44:1 45:8 
512 0:1 1:1 2:1 3:0 4:0 5:0 6:1 7:1 8:1 9:1 10:1 11:1 12:1 13:1 14:1 15:0 16:0 17:0 18:1 19:0 20:1 21:1 22:0 23:1 24:1 25:1 26:1 27:0 28:0 29:0 30:0 31:0 32:0 33:0 34:0 35:0 36:25 37:0 38:0 39:1 40:0 41:1 42:2 43:0 44:2 45:3 
512 0:1 1:1 2:1 3:1 4:0 5:1 6:1 7:1 8:1 9:1 10:1 11:1 12:1 13:1 14:1 15:1 16:0 17:0 18:1 19:0 20:0 21:1 22:0 23:1 24:0 25:1 26:1 27:0 28:0 29:1 30:1 31:0 32:0 33:0 34:0 35:0 36:47 37:0 38:1 39:1 40:0 41:1 42:2 43:0 44:1 45:3 
512 0:1 1:1 2:1 3:1 4:0 5:0 6:1 7:1 8:1 9:0 10:0 11:1 12:0 13:1 14:0 15:0 16:0 17:0 18:1 19:0 20:0 21:1 22:0 23:0 24:0 25:1 26:1 27:1 28:1 29:1 30:0 31:0 32:0 33:1 34:0 35:1 36:24 37:0 38:0 39:1 40:0 41:0 42:2 43:0 44:0 45:3 
512 0:0 1:1 2:1 3:1 4:0 5:1 6:1 7:1 8:1 9:1 10:1 11:1 12:1 13:1 14:1 15:0 16:0 17:0 18:1 19:0 20:0 21:1 22:0 23:0 24:0 25:1 26:0 27:1 28:0 29:0 30:1 31:0 32:0 33:1 34:0 35:0 36:92 37:0 38:0 39:2 40:0 41:0 42:5 43:0 44:0 45:9 
512 0:1 1:1 2:1 3:0 4:0 5:0 6:1 7:1 8:1 9:1 10:1 11:1 12:0 13:0 14:0 15:0 16:0 17:0 18:0 19:0 20:0 21:1 22:0 23:0 24:1 25:1 26:1 27:1 28:1 29:1 30:1 31:0 32:0 33:1 34:1 35:1 36:20 37:0 38:0 39:1 40:0 41:0 42:4 43:0 44:1 45:8 
512 0:1 1:1 2:1 3:0 4:0 5:0 6:1 7:1 8:1 9:1 10:1 11:1 12:0 13:0 14:1 15:0 16:0 17:0 18:1 19:1 20:0 21:0 22:1 23:1 24:1 25:1 26:1 27:1 28:0 29:1 30:1 31:0 32:0 33:1 34:0 35:0 36:23 37:0 38:0 39:1 40:0 41:0 42:2 43:0 44:0 45:4 
512 0:1 1:0 2:0 3:1 4:0 5:0 6:1 7:0 8:0 9:0 10:1 11:1 12:1 13:1 14:1 15:0 16:0 17:0 18:0 19:0 20:1 21:0 22:1 23:0 24:0 25:1 26:1 27:0 28:1 29:0 30:0 31:0 32:1 33:1 34:0 35:0 36:25 37:0 38:0 39:1 40:0 41:0 42:2 43:0 44:0 45:4 
512 0:1 1:1 2:0 3:1 4:1 5:0 6:1 7:1 8:1 9:0 10:1 11:1 12:0 13:1 14:1 15:1 16:1 17:0 18:1 19:0 20:1 21:1 22:0 23:0 24:0 25:0 26:1 27:1 28:1 29:1 30:1 31:0 32:1 33:1 34:0 35:1 36:51 37:0 38:1 39:1 40:0 41:1 42:2 43:0 44:1 45:5 
512 0:0 1:1 2:0 3:0 4:1 5:1 6:1 7:0 8:1 9:0 10:0 11:0 12:1 13:1 14:1 15:1 16:0 17:0 18:0 19:1 20:0 21:1 22:0 23:0 24:1 25:0 26:0 27:1 28:0 29:1 30:0 31:0 32:0 33:0 34:0 35:0 36:26 37:1 38:0 39:1 40:1 41:0 42:3 43:2 44:0 45:6 
512 0:1 1:1 2:1 3:1 4:1 5:1 6:1 7:1 8:1 9:1 10:1 11:1 12:1 13:1 14:1 15:0 16:0 17:0 18:1 19:0 20:0 21:1 22:1 23:1 24:1 25:1 26:1 27:1 28:1 29:0 30:1 31:0 32:0 33:1 34:1 35:0 36:55 37:0 38:0 39:1 40:0 41:0 42:2 43:0 44:0 45:4 
512 0:0 1:1 2:1 3:1 4:0 5:0 6:1 7:1 8:1 9:1 10:0 11:1 12:1 13:1 14:1 15:1 16:1 17:0 18:1 19:1 20:0 21:1 22:0 23:0 24:1 25:1 26:1 27:1 28:1 29:0 30:1 31:0 32:0 33:1 34:1 35:0 36:82 37:0 38:0 39:1 40:0 41:0 42:2 43:0 44:0 45:3 
512 0:1 1:0 2:1 3:1 4:1 5:1 6:1 7:1 8:1 9:1 10:1 11:1 12:0 13:1 14:1 15:1 16:1 17:1 18:0 19:0 20:0 21:1 22:0 23:0 24:1 25:1 26:1 27:0 28:0 29:1 30:0 31:0 32:0 33:1 34:0 35:0 36:31 37:0 38:0 39:3 40:0 41:1 42:7 43:1 44:1 45:12 
512 0:1 1:1 2:1 3:1 4:0 5:0 6:1 7:0 8:1 9:0 10:1 11:1 12:1 13:1 14:1 15:1 16:1 17:0 18:0 19:0 20:0 21:1 22:1 23:0 24:0 25:0 26:1 27:0 28:1 29:0 30:1 31:0 32:0 33:1 34:1 35:0 36:80 37:0 38:0 39:1 40:0 41:1 42:2 43:0 44:1 45:3 
512 0:1 1:0 2:1 3:1 4:0 5:0 6:1 7:1 8:1 9:1 10:1 11:1 12:1 13:0 14:1 15:1 16:0 17:0 18:1 19:0 20:0 21:1 22:1 23:0 24:0 25:1 26:1 27:1 28:1 29:0 30:1 31:0 32:0 33:1 34:1 35:0 36:115 37:0 38:0 39:1 40:0 41:0 42:2 43:0 44:0 45:3 
512 0:1 1:1 2:1 3:0 4:0 5:0 6:0 7:1 8:1 9:0 10:1 11:1 12:1 13:0 14:0 15:1 16:0 17:0 18:1 19:0 20:0 21:1 22:0 23:0 24:0 25:1 26:1 27:1 28:1 29:0 30:0 31:0 32:0 33:1 34:0 35:0 36:22 37:0 38:0 39:1 40:0 41:0 42:2 43:0 44:0 45:4 
512 0:1 1:0 2:1 3:1 4:0 5:0 6:1 7:0 8:1 9:0 10:0 11:0 12:1 13:0 14:0 15:0 16:0 17:0 18:1 19:0 20:1 21:1 22:1 23:0 24:1 25:1 26:1 27:1 28:1 29:0 30:1 31:0 32:0 33:0 34:0 35:0 36:111 37:1 38:0 39:1 40:1 41:0 42:2 43:1 44:0 45:3 
512 0:1 1:1 2:1 3:0 4:0 5:0 6:1 7:1 8:1 9:1 10:1 11:1 12:1 13:1 14:1 15:1 16:1 17:0 18:0 19:0 20:0 21:1 22:0 23:0 24:1 25:1 26:1 27:1 28:0 29:1 30:1 31:0 32:0 33:0 34:0 35:0 36:45 37:0 38:1 39:3 40:0 41:2 42:6 43:0 44:2 45:12 
512 0:1 1:1 2:1 3:0 4:0 5:0 6:1 7:1 8:0 9:0 10:1 11:1 12:1 13:1 14:1 15:1 16:0 17:0 18:0 19:1 20:0 21:1 22:0 23:0 24:1 25:1 26:1 27:0 28:1 29:0 30:1 31:0 32:0 33:0 34:1 35:0 36:15 37:0 38:0 39:1 40:0 41:0 42:4 43:1 44:1 45:8 
512 0:1 1:0 2:0 3:1 4:0 5:0 6:0 7:1 8:1 9:0 10:1 11:1 12:0 13:1 14:1 15:1 16:0 17:1 18:1 19:1 20:1 21:1 22:0 23:0 24:1 25:1 26:0 27:1 28:1 29:1 30:0 31:0 32:0 33:0 34:0 35:0 36:32 37:0 38:1 39:2 40:0 41:1 42:5 43:0 44:1 45:10 
512 0:0 1:0 2:1 3:1 4:1 5:0 6:1 7:0 8:1 9:1 10:1 11:0 12:1 13:1 14:1 15:1 16:0 17:0 18:0 19:0 20:0 21:1 22:0 23:0 24:1 25:1 26:1 27:1 28:0 29:0 30:1 31:0 32:1 33:0 34:1 35:0 36:12 37:0 38:0 39:2 40:0 41:0 42:6 43:0 44:0 45:11 
512 0:1 1:1 2:1 3:0 4:0 5:0 6:1 7:1 8:0 9:0 10:1 11:1 12:0 13:0 14:1 15:1 16:1 17:0 18:1 19:0 20:0 21:1 22:0 23:1 24:1 25:1 26:0 27:1 28:0 29:0 30:0 31:0 32:0 33:1 34:0 35:0 36:77 37:0 38:0 39:1 40:0 41:0 42:3 43:0 44:0 45:5 
394.2782898732469 0:1 1:1 2:0 3:1 4:1 5:0 6:1 7:1 8:0 9:1 10:1 11:1 12:1 13:1 14:1 15:1 16:1 17:1 18:1 19:0 20:0 21:1 22:0 23:1 24:0 25:0 26:0 27:1 28:0 29:0 30:1 31:1 32:0 33:1 34:0 35:0 36:59 37:0 38:0 39:1 40:0 41:0 42:2 43:0 44:0 45:4 
512 0:1 1:0 2:1 3:1 4:0 5:1 6:1 7:0 8:0 9:1 10:1 11:0 12:0 13:0 14:1 15:0 16:0 17:0 18:0 19:0 20:0 21:1 22:0 23:1 24:1 25:1 26:1 27:1 28:1 29:1 30:1 31:0 32:1 33:1 34:0 35:0 36:28 37:0 38:0 39:1 40:0 41:0 42:2 43:0 44:0 45:3 
512 0:1 1:1 2:1 3:1 4:1 5:0 6:1 7:1 8:1 9:1 10:0 11:0 12:1 13:0 14:1 15:0 16:0 17:0 18:1 19:1 20:0 21:1 22:0 23:0 24:0 25:0 26:0 27:1 28:1 29:1 30:1 31:0 32:0 33:1 34:1 35:1 36:60 37:0 38:1 39:2 40:0 41:1 42:3 43:0 44:1 45:5 
512 0:1 1:1 2:0 3:1 4:0 5:0 6:1 7:0 8:0 9:0 10:0 11:1 12:1 13:1 14:1 15:1 16:1 17:0 18:1 19:0 20:1 21:1 22:1 23:1 24:0 25:0 26:0 27:0 28:1 29:1 30:1 31:0 32:0 33:1 34:1 35:0 36:48 37:0 38:0 39:1 40:0 41:0 42:2 43:0 44:1 45:3 
512 0:0 1:0 2:0 3:0 4:1 5:0 6:1 7:0 8:1 9:0 10:1 11:1 12:1 13:1 14:1 15:1 16:1 17:0 18:1 19:0 20:0 21:1 22:0 23:0 24:1 25:1 26:1 27:1 28:1 29:0 30:0 31:0 32:0 33:1 34:1 35:0 36:11 37:0 38:0 39:2 40:1 41:0 42:9 43:2 44:3 45:19 
512 0:1 1:0 2:1 3:1 4:0 5:1 6:0 7:1 8:1 9:1 10:1 11:1 12:1 13:1 14:1 15:0 16:0 17:0 18:1 19:0 20:1 21:1 22:0 23:0 24:1 25:1 26:1 27:0 28:0 29:1 30:0 31:0 32:1 33:1 34:1 35:1 36:12 37:0 38:0 39:1 40:0 41:0 42:6 43:0 44:1 45:14 
512 0:1 1:1 2:1 3:0 4:0 5:0 6:1 7:1 8:1 9:1 10:1 11:1 12:1 13:1 14:1 15:0 16:1 17:0 18:1 19:1 20:1 21:1 22:0 23:1 24:0 25:1 26:1 27:1 28:0 29:1 30:0 31:0 32:0 33:1 34:1 35:0 36:19 37:0 38:0 39:4 40:1 41:0 42:12 43:1 44:1 45:23 
512 0:1 1:1 2:0 3:1 4:0 5:0 6:0 7:1 8:1 9:0 10:1 11:1 12:0 13:1 14:1 15:0 16:0 17:1 18:0 19:0 20:0 21:1 22:1 23:1 24:1 25:1 26:0 27:1 28:1 29:1 30:1 31:0 32:0 33:1 34:0 35:0 36:23 37:0 38:0 39:1 40:0 41:0 42:4 43:0 44:1 45:9 
512 0:0 1:0 2:1 3:1 4:0 5:1 6:0 7:1 8:0 9:1 10:1 11:1 12:0 13:1 14:1 15:1 16:0 17:0 18:0 19:0 20:0 21:1 22:0 23:0 24:0 25:1 26:1 27:1 28:0 29:0 30:1 31:0 32:0 33:1 34:0 35:0 36:51 37:0 38:1 39:1 40:0 41:1 42:2 43:0 44:2 45:3 
512 0:1 1:1 2:1 3:0 4:0 5:1 6:1 7:0 8:0 9:0 10:0 11:1 12:1 13:1 14:1 15:1 16:0 17:1 18:1 19:0 20:0 21:1 22:0 23:1 24:0 25:1 26:0 27:1 28:1 29:1 30:0 31:1 32:0 33:1 34:0 35:0 36:51 37:0 38:0 39:1 40:0 41:0 42:2 43:0 44:0 45:7 
512 0:1 1:1 2:0 3:1 4:0 5:0 6:1 7:0 8:0 9:1 10:1 11:0 12:1 13:1 14:0 15:0 16:1 17:0 18:0 19:0 20:1 21:0 22:0 23:1 24:0 25:1 26:1 27:0 28:0 29:1 30:1 31:1 32:0 33:1 34:1 35:0 36:33 37:0 38:0 39:1 40:0 41:0 42:4 43:0 44:0 45:10 
512 0:0 1:0 2:0 3:1 4:0 5:0 6:0 7:1 8:1 9:1 10:1 11:1 12:1 13:1 14:1 15:1 16:0 17:0 18:0 19:0 20:1 21:1 22:0 23:0 24:1 25:1 26:1 27:1 28:0 29:1 30:0 31:0 32:0 33:0 34:0 35:0 36:38 37:0 38:0 39:1 40:0 41:1 42:3 43:0 44:1 45:9 
512 0:0 1:0 2:0 3:0 4:0 5:0 6:1 7:0 8:1 9:1 10:1 11:1 12:1 13:1 14:1 15:0 16:0 17:0 18:1 19:1 20:0 21:0 22:0 23:0 24:0 25:0 26:1 27:1 28:0 29:1 30:0 31:1 32:0 33:1 34:0 35:0 36:12 37:0 38:1 39:2 40:1 41:2 42:5 43:1 44:3 45:8 
63.11753587896597 0:0 1:1 2:1 3:0 4:0 5:0 6:1 7:1 8:1 9:1 10:1 11:1 12:1 13:1 14:1 15:1 16:1 17:0 18:1 19:1 20:0 21:1 22:0 23:0 24:1 25:1 26:0 27:0 28:0 29:1 30:1 31:1 32:0 33:1 34:0 35:0 36:125 37:0 38:0 39:1 40:0 41:0 42:2 43:0 44:0 45:3 
512 0:1 1:1 2:1 3:0 4:0 5:0 6:1 7:1 8:1 9:1 10:1 11:0 12:1 13:1 14:1 15:1 16:0 17:0 18:0 19:1 20:1 21:1 22:1 23:0 24:1 25:1 26:1 27:1 28:1 29:1 30:1 31:0 32:1 33:1 34:0 35:1 36:29 37:0 38:0 39:1 40:0 41:0 42:2 43:0 44:0 45:3 
512 0:1 1:1 2:1 3:1 4:0 5:0 6:1 7:1 8:1 9:1 10:1 11:1 12:1 13:1 14:1 15:0 16:0 17:0 18:1 19:1 20:1 21:0 22:0 23:0 24:0 25:0 26:0 27:1 28:1 29:1 30:0 31:0 32:1 33:1 34:0 35:0 36:32 37:0 38:1 39:3 40:0 41:4 42:11 43:0 44:5 45:21 
512 0:0 1:1 2:1 3:1 4:0 5:0 6:1 7:1 8:1 9:1 10:1 11:0 12:1 13:1 14:1 15:1 16:0 17:0 18:1 19:0 20:0 21:1 22:0 23:0 24:0 25:1 26:0 27:1 28:1 29:0 30:1 31:0 32:1 33:0 34:0 35:0 36:32 37:0 38:0 39:1 40:0 41:0 42:2 43:0 44:0 45:4 
512 0:1 1:1 2:1 3:1 4:1 5:0 6:1 7:1 8:1 9:0 10:1 11:0 12:1 13:1 14:1 15:1 16:0 17:0 18:1 19:0 20:1 21:0 22:0 23:1 24:1 25:0 26:1 27:1 28:1 29:0 30:1 31:1 32:0 33:0 34:0 35:0 36:52 37:0 38:0 39:1 40:0 41:0 42:2 43:0 44:0 45:3 
512 0:1 1:1 2:1 3:1 4:0 5:1 6:0 7:1 8:1 9:1 10:1 11:0 12:1 13:0 14:1 15:1 16:1 17:1 18:0 19:0 20:0 21:0 22:0 23:1 24:1 25:1 26:1 27:0 28:1 29:1 30:1 31:1 32:0 33:1 34:0 35:0 36:33 37:0 38:1 39:3 40:0 41:1 42:7 43:0 44:1 45:12 
512 0:1 1:0 2:1 3:1 4:1 5:0 6:0 7:1 8:1 9:0 10:0 11:0 12:0 13:1 14:1 15:0 16:1 17:0 18:1 19:0 20:0 21:1 22:0 23:0 24:0 25:1 26:1 27:0 28:1 29:1 30:0 31:0 32:0 33:0 34:1 35:0 36:19 37:0 38:0 39:3 40:0 41:0 42:11 43:0 44:2 45:22 
512 0:1 1:1 2:0 3:1 4:1 5:1 6:0 7:1 8:1 9:1 10:1 11:1 12:1 13:1 14:0 15:0 16:1 17:0 18:1 19:1 20:0 21:1 22:1 23:0 24:1 25:0 26:1 27:1 28:1 29:1 30:1 31:1 32:1 33:0 34:0 35:1 36:13 37:0 38:0 39:1 40:0 41:0 42:2 43:1 44:0 45:4 
512 0:1 1:1 2:1 3:1 4:1 5:0 6:1 7:1 8:1 9:0 10:1 11:1 12:1 13:1 14:1 15:1 16:0 17:0 18:0 19:0 20:0 21:1 22:0 23:0 24:0 25:0 26:0 27:0 28:1 29:1 30:0 31:0 32:0 33:0 34:1 35:0 36:99 37:0 38:2 39:3 40:0 41:2 42:10 43:0 44:4 45:19 
512 0:1 1:1 2:1 3:0 4:0 5:0 6:1 7:1 8:1 9:0 10:1 11:1 12:1 13:1 14:1 15:1 16:1 17:0 18:1 19:0 20:0 21:0 22:0 23:0 24:1 25:1 26:0 27:0 28:0 29:0 30:1 31:1 32:0 33:0 34:0 35:0 36:27 37:0 38:0 39:4 40:0 41:1 42:10 43:0 44:1 45:19 
512 0:0 1:1 2:1 3:1 4:0 5:0 6:0 7:1 8:1 9:1 10:1 11:1 12:0 13:1 14:1 15:0 16:0 17:0 18:1 19:0 20:0 21:1 22:0 23:0 24:1 25:1 26:0 27:1 28:1 29:1 30:1 31:0 32:0 33:1 34:0 35:0 36:18 37:0 38:0 39:3 40:0 41:1 42:10 43:0 44:2 45:20 
512 0:1 1:0 2:1 3:1 4:0 5:0 6:1 7:1 8:1 9:0 10:0 11:1 12:0 13:1 14:0 15:0 16:0 17:0 18:1 19:1 20:1 21:0 22:0 23:1 24:1 25:1 26:1 27:1 28:1 29:1 30:1 31:0 32:0 33:1 34:0 35:0 36:37 37:0 38:1 39:3 40:0 41:1 42:9 43:0 44:2 45:17 
512 0:0 1:0 2:0 3:1 4:0 5:1 6:1 7:1 8:0 9:0 10:0 11:1 12:1 13:1 14:1 15:1 16:1 17:0 18:1 19:0 20:0 21:1 22:0 23:0 24:0 25:1 26:0 27:1 28:1 29:1 30:0 31:0 32:0 33:1 34:0 35:0 36:44 37:0 38:0 39:1 40:0 41:0 42:2 43:0 44:1 45:4 
512 0:1 1:1 2:0 3:0 4:0 5:0 6:1 7:1 8:1 9:0 10:1 11:1 12:1 13:0 14:1 15:1 16:1 17:1 18:1 19:0 20:0 21:1 22:0 23:1 24:1 25:1 26:0 27:1 28:1 29:0 30:1 31:0 32:0 33:1 34:0 35:0 36:33 37:0 38:0 39:1 40:0 41:0 42:2 43:0 44:0 45:3 
512 0:1 1:0 2:0 3:1 4:1 5:1 6:1 7:0 8:1 9:0 10:1 11:1 12:1 13:1 14:1 15:0 16:0 17:1 18:1 19:0 20:1 21:1 22:1 23:0 24:0 25:1 26:1 27:1 28:1 29:1 30:0 31:1 32:0 33:0 34:0 35:0 36:24 37:1 38:0 39:2 40:1 41:3 42:8 43:2 44:4 45:15 
512 0:1 1:1 2:0 3:1 4:1 5:1 6:0 7:1 8:1 9:1 10:1 11:1 12:1 13:1 14:1 15:1 16:0 17:0 18:0 19:0 20:0 21:0 22:0 23:0 24:1 25:1 26:1 27:1 28:0 29:0 30:1 31:0 32:0 33:0 34:0 35:0 36:32 37:0 38:0 39:2 40:0 41:0 42:5 43:0 44:2 45:10 
512 0:1 1:1 2:1 3:1 4:1 5:1 6:1 7:1 8:0 9:0 10:1 11:1 12:1 13:1 14:1 15:1 16:1 17:1 18:1 19:0 20:1 21:1 22:1 23:0 24:1 25:0 26:1 27:1 28:1 29:0 30:1 31:1 32:1 33:0 34:0 35:0 36:36 37:0 38:1 39:2 40:0 41:1 42:6 43:0 44:2 45:11 
512 0:1 1:1 2:0 3:1 4:1 5:0 6:1 7:0 8:1 9:0 10:0 11:1 12:1 13:1 14:1 15:0 16:0 17:0 18:1 19:0 20:0 21:1 22:0 23:1 24:0 25:1 26:0 27:0 28:0 29:1 30:0 31:0 32:1 33:0 34:0 35:0 36:35 37:0 38:0 39:1 40:0 41:0 42:2 43:0 44:0 45:3 
512 0:0 1:1 2:1 3:0 4:1 5:0 6:1 7:1 8:1 9:1 10:1 11:1 12:1 13:1 14:1 15:1 16:0 17:0 18:0 19:0 20:1 21:1 22:0 23:0 24:1 25:1 26:1 27:0 28:1 29:0 30:0 31:0 32:0 33:1 34:1 35:0 36:40 37:0 38:0 39:1 40:0 41:0 42:2 43:0 44:0 45:4 
512 0:1 1:1 2:1 3:1 4:0 5:0 6:1 7:1 8:1 9:1 10:1 11:0 12:1 13:1 14:1 15:0 16:0 17:1 18:1 19:0 20:0 21:0 22:0 23:0 24:1 25:1 26:0 27:0 28:1 29:0 30:0 31:0 32:0 33:1 34:1 35:0 36:62 37:0 38:0 39:1 40:0 41:0 42:3 43:0 44:0 45:5 
512 0:1 1:1 2:1 3:1 4:1 5:0 6:1 7:1 8:0 9:1 10:0 11:0 12:1 13:1 14:1 15:1 16:0 17:0 18:1 19:0 20:0 21:1 22:0 23:0 24:0 25:1 26:1 27:1 28:1 29:1 30:1 31:0 32:0 33:0 34:1 35:0 36:58 37:0 38:0 39:2 40:1 41:0 42:5 43:1 44:2 45:10 
512 0:1 1:1 2:1 3:0 4:0 5:0 6:1 7:0 8:1 9:0 10:1 11:1 12:1 13:1 14:0 15:1 16:1 17:0 18:1 19:0 20:1 21:0 22:1 23:1 24:1 25:1 26:1 27:0 28:1 29:1 30:1 31:0 32:0 33:1 34:0 35:0 36:39 37:0 38:0 39:1 40:0 41:0 42:2 43:0 44:1 45:5 
512 0:1 1:0 2:1 3:1 4:1 5:1 6:1 7:0 8:1 9:0 10:1 11:0 12:1 13:1 14:1 15:1 16:0 17:0 18:1 19:0 20:0 21:1 22:0 23:1 24:0 25:0 26:1 27:0 28:0 29:1 30:1 31:0 32:0 33:0 34:0 35:0 36:34 37:1 38:0 39:1 40:1 41:0 42:3 43:1 44:0 45:6 
512 0:1 1:1 2:1 3:0 4:0 5:0 6:1 7:1 8:1 9:0 10:1 11:1 12:1 13:1 14:1 15:1 16:1 17:0 18:1 19:0 20:0 21:1 22:1 23:0 24:0 25:1 26:1 27:1 28:1 29:0 30:0 31:0 32:0 33:1 34:0 35:0 36:78 37:0 38:0 39:1 40:0 41:0 42:3 43:0 44:0 45:6 
512 0:1 1:1 2:1 3:1 4:1 5:0 6:0 7:1 8:1 9:1 10:1 11:1 12:0 13:0 14:1 15:0 16:0 17:0 18:0 19:0 20:0 21:1 22:0 23:1 24:0 25:0 26:0 27:1 28:0 29:1 30:0 31:0 32:0 33:1 34:0 35:1 36:7 37:1 38:0 39:4 40:1 41:0 42:12 43:2 44:2 45:23 
512 0:1 1:0 2:0 3:0 4:0 5:1 6:1 7:1 8:1 9:1 10:1 11:1 12:1 13:1 14:0 15:1 16:0 17:0 18:0 19:0 20:0 21:1 22:1 23:0 24:1 25:1 26:0 27:1 28:1 29:0 30:1 31:0 32:0 33:1 34:0 35:0 36:28 37:0 38:1 39:2 40:0 41:1 42:7 43:1 44:2 45:19 
512 0:1 1:1 2:1 3:0 4:0 5:0 6:1 7:0 8:0 9:1 10:1 11:1 12:1 13:0 14:0 15:1 16:0 17:0 18:1 19:0 20:1 21:1 22:0 23:0 24:0 25:1 26:0 27:1 28:0 29:1 30:1 31:1 32:0 33:1 34:0 35:0 36:121 37:0 38:0 39:2 40:0 41:1 42:8 43:0 44:2 45:16 
512 0:1 1:1 2:1 3:1 4:0 5:0 6:0 7:1 8:1 9:0 10:1 11:1 12:1 13:1 14:1 15:1 16:0 17:0 18:1 19:1 20:1 21:1 22:1 23:0 24:0 25:1 26:0 27:0 28:1 29:0 30:1 31:0 32:0 33:1 34:0 35:1 36:35 37:0 38:0 39:1 40:0 41:0 42:2 43:0 44:0 45:3 
512 0:0 1:1 2:1 3:0 4:0 5:0 6:1 7:1 8:0 9:1 10:1 11:1 12:1 13:1 14:0 15:1 16:0 17:0 18:1 19:0 20:0 21:0 22:0 23:1 24:0 25:1 26:0 27:0 28:1 29:1 30:0 31:0 32:0 33:1 34:0 35:0 36:25 37:0 38:1 39:3 40:0 41:1 42:10 43:1 44:2 45:17 
512 0:0 1:1 2:1 3:0 4:0 5:0 6:1 7:1 8:1 9:1 10:1 11:0 12:0 13:1 14:1 15:1 16:0 17:0 18:0 19:0 20:0 21:1 22:1 23:0 24:1 25:1 26:1 27:0 28:1 29:0 30:1 31:0 32:0 33:1 34:1 35:0 36:20 37:0 38:0 39:1 40:0 41:0 42:2 43:0 44:1 45:4 
512 0:0 1:1 2:1 3:1 4:1 5:0 6:0 7:1 8:1 9:0 10:1 11:0 12:1 13:1 14:1 15:1 16:1 17:1 18:0 19:0 20:1 21:1 22:0 23:1 24:0 25:0 26:0 27:0 28:1 29:1 30:1 31:1 32:1 33:1 34:1 35:0 36:19 37:0 38:0 39:3 40:0 41:0 42:10 43:2 44:1 45:20 
512 0:1 1:0 2:0 3:0 4:0 5:0 6:1 7:1 8:1 9:0 10:0 11:1 12:1 13:0 14:0 15:0 16:1 17:0 18:1 19:1 20:1 21:1 22:0 23:0 24:1 25:1 26:1 27:1 28:1 29:1 30:1 31:1 32:1 33:1 34:1 35:0 36:16 37:1 38:0 39:3 40:2 41:0 42:8 43:5 44:0 45:15 
512 0:0 1:1 2:0 3:1 4:0 5:1 6:1 7:1 8:1 9:1 10:1 11:1 12:0 13:0 14:1 15:0 16:1 17:0 18:1 19:1 20:1 21:1 22:0 23:1 24:0 25:1 26:1 27:1 28:0 29:1 30:0 31:0 32:0 33:1 34:0 35:0 36:18 37:0 38:0 39:1 40:0 41:0 42:2 43:0 44:1 45:3 
149.7496185960859 0:1 1:1 2:1 3:1 4:0 5:0 6:0 7:1 8:1 9:1 10:1 11:1 12:0 13:1 14:1 15:1 16:1 17:0 18:1 19:0 20:0 21:1 22:1 23:1 24:0 25:0 26:1 27:0 28:1 29:0 30:0 31:0 32:0 33:0 34:0 35:0 36:54 37:0 38:0 39:1 40:0 41:0 42:2 43:0 44:1 45:5 
512 0:0 1:1 2:1 3:1 4:0 5:0 6:1 7:1 8:1 9:1 10:1 11:1 12:1 13:1 14:1 15:1 16:0 17:0 18:1 19:1 20:1 21:1 22:0 23:0 24:0 25:1 26:1 27:0 28:1 29:1 30:1 31:0 32:0 33:0 34:1 35:0 36:70 37:0 38:0 39:1 40:0 41:0 42:2 43:0 44:0 45:3 
512 0:1 1:1 2:1 3:1 4:0 5:0 6:1 7:1 8:1 9:1 10:1 11:0 12:1 13:1 14:1 15:1 16:0 17:0 18:1 19:1 20:1 21:0 22:0 23:0 24:0 25:1 26:1 27:1 28:0 29:1 30:0 31:0 32:0 33:1 34:1 35:0 36:61 37:0 38:0 39:3 40:0 41:1 42:9 43:0 44:1 45:20 
512 0:1 1:0 2:1 3:1 4:0 5:0 6:1 7:1 8:0 9:0 10:1 11:1 12:0 13:0 14:1 15:1 16:0 17:0 18:1 19:0 20:0 21:1 22:0 23:1 24:0 25:1 26:0 27:0 28:1 29:1 30:1 31:0 32:0 33:1 34:0 35:1 36:17 37:0 38:1 39:4 40:0 41:3 42:12 43:0 44:3 45:22 
512 0:0 1:1 2:0 3:1 4:0 5:1 6:0 7:1 8:1 9:1 10:1 11:1 12:1 13:1 14:1 15:0 16:0 17:0 18:1 19:1 20:1 21:1 22:0 23:0 24:0 25:0 26:0 27:1 28:1 29:0 30:1 31:0 32:0 33:0 34:0 35:0 36:26 37:0 38:0 39:4 40:0 41:0 42:10 43:1 44:0 45:16 
512 0:1 1:1 2:1 3:1 4:1 5:0 6:1 7:1 8:0 9:0 10:0 11:0 12:0 13:1 14:1 15:1 16:0 17:0 18:1 19:0 20:0 21:0 22:0 23:1 24:0 25:1 26:1 27:1 28:0 29:1 30:0 31:0 32:0 33:1 34:0 35:0 36:19 37:0 38:0 39:1 40:0 41:0 42:2 43:0 44:0 45:3 
512 0:0 1:1 2:0 3:0 4:0 5:1 6:1 7:1 8:0 9:1 10:0 11:0 12:1 13:1 14:1 15:1 16:1 17:0 18:1 19:1 20:1 21:1 22:1 23:0 24:0 25:0 26:1 27:0 28:1 29:1 30:1 31:0 32:0 33:1 34:1 35:0 36:27 37:0 38:1 39:1 40:0 41:1 42:5 43:0 44:1 45:8 
512 0:1 1:1 2:1 3:0 4:0 5:0 6:1 7:1 8:1 9:0 10:0 11:0 12:1 13:0 14:1 15:0 16:0 17:0 18:1 19:0 20:0 21:1 22:0 23:0 24:1 25:1 26:1 27:1 28:1 29:1 30:1 31:0 32:0 33:1 34:1 35:0 36:29 37:0 38:0 39:2 40:0 41:1 42:8 43:0 44:3 45:15 
512 0:0 1:1 2:1 3:1 4:0 5:0 6:1 7:1 8:1 9:1 10:0 11:1 12:0 13:1 14:1 15:0 16:0 17:0 18:0 19:0 20:0 21:1 22:0 23:1 24:1 25:0 26:0 27:0 28:0 29:1 30:1 31:1 32:0 33:0 34:0 35:1 36:19 37:0 38:0 39:4 40:1 41:0 42:12 43:1 44:0 45:24 
512 0:1 1:1 2:1 3:1 4:1 5:0 6:1 7:0 8:1 9:1 10:0 11:1 12:1 13:1 14:0 15:1 16:1 17:0 18:1 19:1 20:1 21:1 22:1 23:0 24:1 25:0 26:0 27:1 28:0 29:0 30:1 31:0 32:1 33:1 34:1 35:0 36:35 37:0 38:0 39:2 40:0 41:0 42:6 43:0 44:0 45:11 
512 0:1 1:0 2:0 3:1 4:0 5:0 6:1 7:1 8:0 9:0 10:0 11:0 12:1 13:0 14:1 15:1 16:0 17:0 18:1 19:1 20:1 21:1 22:0 23:0 24:0 25:1 26:0 27:0 28:1 29:0 30:1 31:0 32:0 33:1 34:0 35:0 36:7 37:0 38:1 39:1 40:1 41:1 42:4 43:2 44:1 45:8 
512 0:1 1:1 2:1 3:1 4:0 5:0 6:0 7:1 8:1 9:1 10:1 11:1 12:1 13:1 14:1 15:1 16:0 17:1 18:1 19:0 20:1 21:0 22:0 23:0 24:0 25:1 26:1 27:0 28:1 29:1 30:0 31:0 32:0 33:0 34:0 35:0 36:45 37:0 38:1 39:1 40:0 41:1 42:2 43:0 44:1 45:3 
512 0:0 1:1 2:1 3:1 4:0 5:0 6:1 7:1 8:1 9:1 10:1 11:1 12:1 13:1 14:1 15:0 16:0 17:0 18:1 19:1 20:1 21:1 22:1 23:1 24:0 25:1 26:1 27:1 28:1 29:0 30:0 31:0 32:0 33:0 34:1 35:0 36:25 37:0 38:0 39:1 40:1 41:0 42:4 43:1 44:1 45:7 
512 0:1 1:1 2:1 3:1 4:0 5:0 6:1 7:1 8:1 9:1 10:1 11:1 12:1 13:1 14:1 15:1 16:1 17:0 18:0 19:0 20:1 21:0 22:0 23:1 24:1 25:1 26:0 27:0 28:0 29:1 30:1 31:1 32:0 33:0 34:0 35:1 36:30 37:0 38:0 39:1 40:0 41:0 42:3 43:1 44:0 45:6 
512 0:0 1:0 2:1 3:1 4:0 5:1 6:0 7:0 8:0 9:1 10:1 11:1 12:1 13:1 14:1 15:0 16:0 17:0 18:1 19:0 20:0 21:0 22:1 23:1 24:0 25:0 26:1 27:0 28:1 29:0 30:1 31:1 32:0 33:0 34:0 35:0 36:9 37:0 38:1 39:3 40:0 41:1 42:8 43:2 44:3 45:16 
512 0:0 1:1 2:1 3:1 4:1 5:0 6:1 7:1 8:1 9:1 10:1 11:1 12:1 13:1 14:0 15:1 16:0 17:0 18:1 19:0 20:0 21:0 22:0 23:1 24:1 25:1 26:0 27:0 28:0 29:0 30:1 31:1 32:0 33:1 34:0 35:0 36:42 37:0 38:0 39:1 40:0 41:1 42:4 43:0 44:1 45:8 
512 0:1 1:0 2:0 3:1 4:0 5:0 6:1 7:1 8:1 9:1 10:0 11:0 12:1 13:0 14:1 15:0 16:0 17:0 18:0 19:1 20:0 21:1 22:0 23:0 24:1 25:1 26:1 27:1 28:0 29:0 30:0 31:1 32:1 33:0 34:0 35:0 36:17 37:1 38:0 39:3 40:3 41:2 42:10 43:7 44:2 45:19 
512 0:1 1:1 2:1 3:1 4:0 5:1 6:1 7:1 8:1 9:1 10:1 11:1 12:1 13:0 14:1 15:0 16:0 17:0 18:1 19:1 20:1 21:0 22:0 23:0 24:0 25:1 26:0 27:1 28:0 29:1 30:1 31:0 32:0 33:1 34:0 35:0 36:59 37:0 38:0 39:1 40:0 41:0 42:2 43:0 44:0 45:3 
512 0:1 1:1 2:1 3:1 4:0 5:0 6:1 7:1 8:1 9:1 10:0 11:1 12:0 13:1 14:0 15:0 16:1 17:0 18:1 19:1 20:1 21:1 22:0 23:0 24:0 25:0 26:1 27:1 28:0 29:1 30:0 31:0 32:0 33:1 34:0 35:1 36:46 37:0 38:0 39:1 40:0 41:0 42:2 43:0 44:0 45:5 
512 0:1 1:1 2:1 3:1 4:0 5:0 6:1 7:1 8:1 9:0 10:0 11:0 12:1 13:1 14:1 15:0 16:1 17:0 18:1 19:1 20:1 21:1 22:0 23:0 24:1 25:1 26:1 27:1 28:1 29:1 30:1 31:1 32:1 33:1 34:0 35:0 36:22 37:0 38:0 39:2 40:0 41:1 42:5 43:2 44:1 45:9 
512 0:1 1:0 2:1 3:1 4:1 5:1 6:0 7:0 8:1 9:1 10:1 11:1 12:1 13:1 14:1 15:0 16:0 17:0 18:0 19:0 20:1 21:0 22:0 23:0 24:0 25:0 26:0 27:1 28:0 29:1 30:1 31:0 32:0 33:1 34:0 35:0 36:40 37:0 38:0 39:1 40:0 41:0 42:2 43:1 44:0 45:3 
512 0:1 1:0 2:0 3:1 4:0 5:0 6:1 7:1 8:0 9:1 10:1 11:1 12:1 13:1 14:1 15:1 16:0 17:0 18:1 19:1 20:0 21:1 22:0 23:0 24:0 25:1 26:1 27:1 28:0 29:0 30:1 31:1 32:0 33:1 34:0 35:0 36:53 37:0 38:0 39:2 40:0 41:1 42:7 43:0 44:4 45:14 
512 0:1 1:1 2:0 3:1 4:1 5:1 6:0 7:1 8:1 9:1 10:0 11:0 12:1 13:1 14:0 15:0 16:0 17:0 18:0 19:0 20:0 21:1 22:0 23:0 24:1 25:1 26:1 27:0 28:0 29:1 30:0 31:0 32:0 33:0 34:0 35:0 36:27 37:0 38:0 39:1 40:0 41:1 42:2 43:0 44:1 45:3 
512 0:0 1:1 2:0 3:1 4:0 5:0 6:1 7:1 8:1 9:1 10:1 11:1 12:1 13:1 14:1 15:1 16:1 17:0 18:1 19:0 20:0 21:1 22:0 23:1 24:0 25:0 26:0 27:0 28:1 29:1 30:0 31:0 32:0 33:0 34:0 35:1 36:23 37:0 38:0 39:1 40:0 41:0 42:4 43:0 44:0 45:8 
512 0:0 1:1 2:1 3:0 4:1 5:1 6:1 7:1 8:0 9:1 10:1 11:1 12:1 13:0 14:1 15:0 16:0 17:0 18:0 19:0 20:0 21:1 22:1 23:0 24:0 25:1 26:1 27:0 28:0 29:1 30:0 31:0 32:0 33:0 34:0 35:0 36:20 37:0 38:1 39:2 40:0 41:1 42:5 43:0 44:2 45:10 
512 0:0 1:1 2:1 3:1 4:1 5:1 6:1 7:1 8:1 9:0 10:1 11:1 12:0 13:1 14:1 15:1 16:0 17:0 18:1 19:0 20:1 21:1 22:0 23:0 24:0 25:1 26:1 27:0 28:1 29:1 30:1 31:0 32:0 33:0 34:0 35:0 36:15 37:0 38:0 39:1 40:0 41:0 42:2 43:0 44:0 45:4 
512 0:0 1:1 2:1 3:0 4:0 5:0 6:0 7:0 8:1 9:1 10:1 11:1 12:1 13:0 14:1 15:0 16:0 17:0 18:1 19:1 20:0 21:0 22:1 23:1 24:1 25:1 26:1 27:1 28:1 29:1 30:0 31:0 32:0 33:1 34:0 35:0 36:30 37:0 38:0 39:1 40:1 41:0 42:4 43:2 44:0 45:8 
512 0:1 1:0 2:0 3:0 4:1 5:1 6:1 7:1 8:0 9:0 10:0 11:1 12:1 13:1 14:1 15:0 16:0 17:0 18:1 19:0 20:0 21:0 22:0 23:0 24:1 25:1 26:1 27:0 28:1 29:0 30:0 31:0 32:0 33:0 34:1 35:1 36:16 37:0 38:0 39:1 40:0 41:0 42:4 43:0 44:1 45:9 
512 0:1 1:0 2:1 3:1 4:1 5:0 6:1 7:0 8:0 9:1 10:1 11:1 12:1 13:1 14:1 15:1 16:0 17:0 18:1 19:0 20:1 21:0 22:1 23:1 24:0 25:1 26:1 27:1 28:0 29:1 30:1 31:0 32:0 33:1 34:0 35:0 36:9 37:1 38:0 39:1 40:3 41:1 42:4 43:4 44:2 45:8 
512 0:1 1:1 2:1 3:1 4:0 5:0 6:1 7:1 8:1 9:0 10:1 11:1 12:1 13:1 14:1 15:1 16:0 17:0 18:0 19:0 20:0 21:0 22:0 23:0 24:1 25:1 26:1 27:0 28:1 29:0 30:0 31:0 32:0 33:1 34:0 35:1 36:6 37:0 38:1 39:1 40:0 41:1 42:2 43:0 44:1 45:3 
512 0:1 1:0 2:1 3:0 4:1 5:1 6:1 7:0 8:0 9:1 10:1 11:1 12:1 13:1 14:1 15:0 16:0 17:0 18:1 19:0 20:0 21:1 22:1 23:0 24:0 25:0 26:0 27:1 28:0 29:0 30:1 31:1 32:0 33:0 34:0 35:0 36:32 37:0 38:1 39:1 40:0 41:2 42:2 43:0 44:2 45:3 
512 0:1 1:1 2:1 3:0 4:0 5:0 6:1 7:1 8:1 9:1 10:1 11:1 12:1 13:0 14:1 15:0 16:0 17:0 18:1 19:0 20:1 21:1 22:0 23:0 24:1 25:1 26:0 27:1 28:0 29:1 30:0 31:0 32:0 33:0 34:1 35:0 36:40 37:0 38:0 39:1 40:0 41:0 42:3 43:0 44:0 45:5 
512 0:1 1:1 2:1 3:1 4:0 5:0 6:1 7:1 8:1 9:0 10:0 11:0 12:1 13:1 14:1 15:0 16:0 17:0 18:1 19:0 20:0 21:1 22:0 23:1 24:0 25:1 26:1 27:1 28:0 29:1 30:0 31:0 32:1 33:1 34:0 35:0 36:50 37:0 38:0 39:1 40:0 41:1 42:3 43:0 44:1 45:6 
512 0:1 1:1 2:0 3:0 4:0 5:0 6:0 7:1 8:1 9:1 10:1 11:1 12:0 13:0 14:0 15:0 16:0 17:1 18:0 19:0 20:1 21:1 22:0 23:0 24:0 25:1 26:1 27:1 28:0 29:0 30:1 31:0 32:0 33:1 34:0 35:0 36:32 37:0 38:0 39:1 40:0 41:0 42:2 43:0 44:1 45:3 
512 0:1 1:0 2:1 3:1 4:0 5:1 6:0 7:1 8:0 9:0 10:1 11:1 12:1 13:1 14:1 15:0 16:1 17:0 18:0 19:0 20:0 21:1 22:0 23:0 24:1 25:1 26:1 27:1 28:0 29:1 30:1 31:0 32:0 33:0 34:0 35:0 36:28 37:0 38:0 39:1 40:0 41:0 42:3 43:0 44:0 45:5 
512 0:1 1:1 2:1 3:1 4:0 5:0 6:1 7:1 8:1 9:1 10:1 11:1 12:0 13:1 14:0 15:0 16:1 17:0 18:1 19:0 20:0 21:1 22:0 23:1 24:1 25:1 26:1 27:1 28:1 29:1 30:1 31:1 32:0 33:1 34:1 35:0 36:30 37:0 38:1 39:1 40:0 41:1 42:3 43:0 44:4 45:9 
512 0:1 1:1 2:1 3:1 4:1 5:0 6:1 7:0 8:0 9:0 10:1 11:1 12:1 13:1 14:1 15:1 16:0 17:0 18:1 19:0 20:0 21:1 22:0 23:0 24:0 25:1 26:1 27:1 28:1 29:0 30:1 31:1 32:0 33:1 34:0 35:0 36:75 37:0 38:0 39:3 40:0 41:0 42:7 43:0 44:0 45:10 
512 0:1 1:1 2:0 3:0 4:0 5:1 6:1 7:1 8:1 9:0 10:0 11:0 12:1 13:1 14:1 15:0 16:0 17:0 18:1 19:0 20:1 21:1 22:0 23:1 24:1 25:1 26:1 27:1 28:1 29:0 30:1 31:0 32:0 33:1 34:0 35:0 36:46 37:0 38:0 39:1 40:0 41:0 42:2 43:0 44:0 45:3 
512 0:0 1:0 2:1 3:0 4:1 5:0 6:1 7:1 8:1 9:0 10:1 11:1 12:0 13:1 14:1 15:1 16:1 17:0 18:0 19:0 20:0 21:1 22:0 23:1 24:0 25:1 26:1 27:0 28:0 29:1 30:0 31:1 32:0 33:0 34:0 35:0 36:24 37:0 38:1 39:1 40:0 41:3 42:3 43:0 44:3 45:6 
512 0:1 1:0 2:1 3:1 4:0 5:0 6:0 7:1 8:1 9:1 10:1 11:1 12:1 13:1 14:1 15:1 16:0 17:0 18:1 19:1 20:0 21:1 22:0 23:0 24:1 25:1 26:1 27:0 28:0 29:1 30:1 31:0 32:0 33:0 34:0 35:0 36:76 37:0 38:0 39:2 40:0 41:1 42:6 43:0 44:2 45:10 
512 0:1 1:0 2:1 3:0 4:1 5:0 6:1 7:1 8:1 9:0 10:1 11:1 12:1 13:0 14:1 15:0 16:0 17:0 18:1 19:1 20:1 21:0 22:0 23:1 24:0 25:1 26:1 27:1 28:0 29:1 30:1 31:1 32:1 33:1 34:1 35:0 36:25 37:0 38:1 39:2 40:0 41:1 42:4 43:0 44:2 45:7 
512 0:1 1:1 2:1 3:0 4:0 5:1 6:0 7:1 8:1 9:1 10:1 11:1 12:1 13:1 14:1 15:0 16:1 17:0 18:1 19:0 20:0 21:0 22:0 23:0 24:0 25:1 26:1 27:0 28:0 29:1 30:1 31:0 32:0 33:0 34:0 35:0 36:16 37:0 38:0 39:3 40:0 41:1 42:8 43:1 44:2 45:15 
512 0:1 1:0 2:1 3:1 4:1 5:1 6:1 7:1 8:1 9:1 10:0 11:0 12:1 13:1 14:0 15:0 16:0 17:0 18:0 19:0 20:1 21:1 22:0 23:0 24:1 25:1 26:0 27:1 28:1 29:0 30:1 31:0 32:0 33:0 34:1 35:0 36:27 37:0 38:0 39:1 40:0 41:0 42:4 43:0 44:0 45:6 
512 0:1 1:0 2:0 3:1 4:1 5:0 6:1 7:1 8:1 9:0 10:1 11:1 12:1 13:1 14:0 15:0 16:0 17:0 18:1 19:1 20:0 21:0 22:0 23:1 24:0 25:0 26:0 27:1 28:1 29:1 30:1 31:0 32:0 33:1 34:1 35:0 36:15 37:0 38:0 39:2 40:0 41:0 42:8 43:0 44:0 45:16 
512 0:1 1:1 2:1 3:0 4:0 5:1 6:1 7:1 8:1 9:1 10:0 11:1 12:1 13:1 14:1 15:0 16:1 17:0 18:1 19:0 20:0 21:0 22:0 23:0 24:0 25:0 26:0 27:0 28:1 29:1 30:0 31:0 32:0 33:1 34:1 35:0 36:46 37:0 38:0 39:2 40:0 41:0 42:5 43:0 44:2 45:9 
512 0:1 1:1 2:1 3:1 4:0 5:0 6:1 7:1 8:1 9:1 10:1 11:1 12:1 13:1 14:1 15:0 16:1 17:0 18:1 19:0 20:0 21:0 22:1 23:0 24:0 25:1 26:1 27:0 28:1 29:1 30:1 31:0 32:0 33:0 34:0 35:0 36:64 37:0 38:0 39:1 40:0 41:1 42:4 43:0 44:3 45:9 
512 0:1 1:1 2:0 3:1 4:0 5:0 6:1 7:1 8:1 9:1 10:1 11:1 12:1 13:1 14:0 15:1 16:0 17:0 18:1 19:1 20:0 21:1 22:0 23:1 24:0 25:1 26:0 27:1 28:0 29:1 30:1 31:0 32:0 33:1 34:1 35:0 36:35 37:0 38:0 39:2 40:0 41:0 42:7 43:0 44:2 45:14 
512 0:1 1:1 2:1 3:1 4:0 5:1 6:1 7:1 8:0 9:0 10:1 11:0 12:1 13:0 14:1 15:1 16:1 17:1 18:0 19:0 20:0 21:1 22:1 23:0 24:1 25:0 26:1 27:1 28:1 29:0 30:1 31:1 32:0 33:1 34:0 35:0 36:38 37:0 38:2 39:4 40:0 41:4 42:11 43:0 44:5 45:22 
512 0:0 1:1 2:0 3:1 4:0 5:0 6:1 7:1 8:1 9:1 10:0 11:1 12:1 13:1 14:1 15:1 16:1 17:0 18:0 19:0 20:0 21:1 22:0 23:1 24:1 25:1 26:1 27:0 28:1 29:1 30:0 31:0 32:0 33:1 34:0 35:0 36:54 37:0 38:0 39:2 40:0 41:1 42:6 43:1 44:2 45:12 
512 0:1 1:1 2:1 3:1 4:0 5:1 6:0 7:1 8:1 9:0 10:1 11:1 12:0 13:1 14:0 15:1 16:0 17:0 18:1 19:0 20:0 21:0 22:0 23:0 24:1 25:1 26:1 27:1 28:0 29:1 30:0 31:0 32:0 33:1 34:0 35:0 36:81 37:0 38:1 39:1 40:0 41:2 42:3 43:0 44:2 45:4 
512 0:1 1:1 2:1 3:1 4:0 5:1 6:1 7:1 8:0 9:0 10:1 11:1 12:1 13:1 14:1 15:0 16:0 17:0 18:0 19:0 20:1 21:1 22:0 23:1 24:1 25:1 26:1 27:0 28:1 29:0 30:1 31:1 32:0 33:0 34:0 35:0 36:35 37:0 38:1 39:3 40:0 41:4 42:11 43:0 44:5 45:20 
512 0:0 1:1 2:1 3:1 4:1 5:0 6:1 7:1 8:0 9:0 10:1 11:0 12:1 13:0 14:0 15:0 16:0 17:0 18:1 19:0 20:0 21:1 22:0 23:0 24:1 25:1 26:1 27:1 28:0 29:1 30:1 31:0 32:0 33:0 34:0 35:0 36:11 37:0 38:0 39:4 40:0 41:2 42:11 43:0 44:5 45:20 
512 0:1 1:1 2:0 3:0 4:0 5:0 6:1 7:0 8:1 9:1 10:1 11:1 12:1 13:1 14:0 15:1 16:0 17:0 18:1 19:0 20:0 21:0 22:0 23:0 24:1 25:1 26:1 27:0 28:1 29:0 30:0 31:0 32:0 33:0 34:0 35:0 36:28 37:0 38:1 39:3 40:0 41:2 42:9 43:1 44:4 45:18 
512 0:1 1:1 2:1 3:1 4:1 5:1 6:0 7:1 8:0 9:0 10:1 11:1 12:0 13:1 14:1 15:0 16:0 17:1 18:0 19:0 20:0 21:1 22:0 23:0 24:1 25:0 26:1 27:1 28:1 29:0 30:0 31:0 32:0 33:0 34:0 35:0 36:5 37:0 38:0 39:2 40:0 41:0 42:6 43:1 44:0 45:9 
512 0:0 1:1 2:1 3:1 4:0 5:0 6:1 7:1 8:1 9:0 10:0 11:1 12:0 13:1 14:1 15:1 16:1 17:1 18:1 19:1 20:0 21:1 22:1 23:1 24:1 25:1 26:0 27:1 28:1 29:1 30:1 31:0 32:0 33:0 34:1 35:0 36:28 37:0 38:0 39:1 40:0 41:0 42:3 43:0 44:0 45:5 
512 0:1 1:1 2:1 3:1 4:1 5:1 6:0 7:1 8:1 9:1 10:1 11:1 12:1 13:1 14:0 15:1 16:0 17:0 18:0 19:0 20:0 21:1 22:1 23:0 24:1 25:0 26:1 27:1 28:0 29:1 30:0 31:1 32:0 33:0 34:0 35:1 36:27 37:0 38:1 39:3 40:0 41:1 42:9 43:1 44:3 45:16 
512 0:1 1:0 2:1 3:1 4:0 5:1 6:1 7:1 8:1 9:0 10:1 11:1 12:1 13:1 14:1 15:0 16:0 17:0 18:1 19:0 20:0 21:0 22:0 23:0 24:1 25:1 26:1 27:0 28:0 29:1 30:1 31:0 32:0 33:0 34:0 35:0 36:120 37:0 38:0 39:1 40:0 41:0 42:2 43:0 44:0 45:3 
512 0:1 1:0 2:1 3:1 4:0 5:0 6:1 7:1 8:1 9:0 10:0 11:1 12:1 13:1 14:0 15:0 16:0 17:0 18:1 19:0 20:0 21:1 22:1 23:0 24:1 25:1 26:1 27:1 28:0 29:1 30:0 31:0 32:0 33:1 34:0 35:0 36:83 37:0 38:0 39:1 40:0 41:0 42:2 43:0 44:0 45:4 
512 0:1 1:1 2:1 3:0 4:0 5:1 6:1 7:0 8:1 9:0 10:1 11:0 12:1 13:0 14:1 15:1 16:0 17:0 18:1 19:0 20:0 21:1 22:1 23:0 24:1 25:1 26:1 27:1 28:1 29:1 30:1 31:0 32:0 33:0 34:0 35:0 36:26 37:0 38:0 39:1 40:1 41:1 42:8 43:1 44:3 45:20 
512 0:1 1:1 2:1 3:0 4:0 5:0 6:1 7:1 8:0 9:1 10:1 11:1 12:1 13:1 14:0 15:1 16:1 17:0 18:1 19:0 20:0 21:1 22:1 23:0 24:0 25:1 26:0 27:1 28:1 29:1 30:1 31:0 32:1 33:1 34:0 35:1 36:23 37:0 38:1 39:3 40:0 41:3 42:7 43:0 44:5 45:14 
512 0:0 1:1 2:1 3:1 4:1 5:0 6:1 7:1 8:1 9:0 10:1 11:1 12:1 13:1 14:1 15:1 16:1 17:0 18:1 19:0 20:0 21:1 22:0 23:1 24:1 25:1 26:1 27:1 28:1 29:1 30:1 31:0 32:0 33:1 34:0 35:0 36:75 37:0 38:0 39:1 40:0 41:0 42:2 43:0 44:0 45:3 
512 0:0 1:0 2:1 3:1 4:0 5:0 6:1 7:1 8:0 9:0 10:1 11:1 12:1 13:1 14:1 15:0 16:0 17:0 18:1 19:1 20:0 21:0 22:1 23:0 24:1 25:1 26:1 27:0 28:1 29:1 30:1 31:0 32:0 33:1 34:0 35:0 36:32 37:0 38:0 39:1 40:0 41:0 42:2 43:0 44:1 45:3 
512 0:1 1:1 2:0 3:1 4:0 5:1 6:1 7:1 8:0 9:0 10:1 11:1 12:1 13:1 14:0 15:0 16:0 17:0 18:0 19:0 20:1 21:1 22:0 23:0 24:1 25:0 26:1 27:0 28:1 29:0 30:1 31:1 32:0 33:1 34:0 35:0 36:42 37:0 38:1 39:1 40:0 41:1 42:2 43:0 44:1 45:4 
512 0:1 1:1 2:1 3:0 4:0 5:0 6:1 7:0 8:1 9:1 10:1 11:1 12:0 13:1 14:1 15:0 16:1 17:0 18:1 19:0 20:1 21:1 22:0 23:0 24:0 25:1 26:1 27:1 28:1 29:1 30:1 31:0 32:0 33:1 34:0 35:0 36:20 37:0 38:0 39:4 40:0 41:2 42:9 43:0 44:3 45:13 
512 0:1 1:1 2:1 3:0 4:0 5:0 6:1 7:1 8:1 9:1 10:1 11:1 12:1 13:1 14:1 15:0 16:0 17:1 18:1 19:0 20:1 21:0 22:0 23:1 24:1 25:1 26:1 27:1 28:0 29:1 30:1 31:0 32:0 33:1 34:0 35:0 36:19 37:0 38:0 39:3 40:0 41:0 42:8 43:1 44:2 45:14 
512 0:1 1:1 2:1 3:0 4:0 5:1 6:1 7:1 8:0 9:1 10:1 11:1 12:0 13:1 14:0 15:0 16:0 17:0 18:1 19:0 20:0 21:1 22:0 23:1 24:1 25:0 26:0 27:0 28:0 29:1 30:0 31:0 32:0 33:0 34:1 35:0 36:17 37:0 38:0 39:1 40:0 41:0 42:2 43:0 44:0 45:3 
512 0:1 1:1 2:1 3:1 4:0 5:0 6:1 7:0 8:0 9:1 10:1 11:1 12:0 13:1 14:1 15:1 16:0 17:0 18:0 19:1 20:1 21:1 22:0 23:0 24:1 25:1 26:1 27:1 28:1 29:1 30:0 31:0 32:1 33:1 34:0 35:1 36:16 37:0 38:0 39:1 40:0 41:0 42:2 43:0 44:1 45:4 
512 0:0 1:1 2:0 3:1 4:1 5:1 6:1 7:1 8:1 9:1 10:0 11:0 12:1 13:0 14:1 15:1 16:0 17:0 18:1 19:0 20:1 21:1 22:0 23:0 24:0 25:0 26:1 27:1 28:1 29:1 30:1 31:1 32:0 33:1 34:0 35:0 36:41 37:0 38:0 39:1 40:0 41:0 42:2 43:0 44:0 45:4 
512 0:0 1:1 2:0 3:1 4:0 5:1 6:1 7:0 8:1 9:1 10:1 11:1 12:1 13:1 14:0 15:1 16:1 17:0 18:1 19:0 20:0 21:1 22:0 23:1 24:0 25:0 26:0 27:1 28:1 29:0 30:1 31:1 32:0 33:1 34:1 35:0 36:37 37:0 38:0 39:1 40:0 41:1 42:3 43:0 44:3 45:9 
512 0:1 1:1 2:1 3:1 4:0 5:0 6:1 7:1 8:1 9:1 10:1 11:1 12:1 13:1 14:0 15:0 16:0 17:0 18:0 19:1 20:1 21:1 22:1 23:1 24:1 25:1 26:1 27:1 28:0 29:1 30:0 31:0 32:0 33:1 34:0 35:0 36:10 37:0 38:0 39:2 40:1 41:1 42:7 43:2 44:2 45:14 
512 0:0 1:1 2:1 3:1 4:0 5:1 6:1 7:0 8:1 9:0 10:1 11:0 12:1 13:0 14:1 15:1 16:0 17:0 18:1 19:0 20:0 21:0 22:0 23:0 24:1 25:1 26:0 27:1 28:0 29:1 30:1 31:1 32:0 33:1 34:0 35:0 36:55 37:0 38:0 39:1 40:0 41:0 42:2 43:0 44:1 45:4 
512 0:1 1:1 2:1 3:1 4:0 5:0 6:1 7:1 8:0 9:1 10:1 11:1 12:1 13:1 14:1 15:0 16:0 17:1 18:1 19:0 20:0 21:1 22:0 23:0 24:1 25:1 26:0 27:1 28:1 29:1 30:1 31:0 32:0 33:1 34:0 35:0 36:15 37:0 38:0 39:1 40:0 41:1 42:4 43:0 44:2 45:7 
512 0:1 1:1 2:1 3:0 4:0 5:1 6:1 7:1 8:1 9:1 10:0 11:1 12:1 13:1 14:1 15:0 16:0 17:0 18:1 19:0 20:0 21:1 22:0 23:0 24:1 25:0 26:1 27:1 28:1 29:1 30:1 31:0 32:0 33:0 34:0 35:0 36:13 37:0 38:0 39:1 40:0 41:0 42:2 43:0 44:0 45:3 
512 0:0 1:1 2:1 3:0 4:0 5:1 6:1 7:1 8:1 9:0 10:1 11:1 12:1 13:0 14:1 15:1 16:0 17:0 18:0 19:0 20:0 21:1 22:1 23:1 24:0 25:1 26:1 27:0 28:1 29:1 30:1 31:1 32:0 33:1 34:0 35:1 36:29 37:0 38:0 39:1 40:0 41:0 42:3 43:0 44:0 45:6 
512 0:1 1:1 2:1 3:1 4:0 5:0 6:1 7:1 8:1 9:1 10:1 11:1 12:0 13:1 14:1 15:1 16:0 17:0 18:1 19:0 20:0 21:1 22:1 23:1 24:1 25:1 26:0 27:1 28:1 29:1 30:0 31:1 32:1 33:0 34:0 35:0 36:37 37:0 38:0 39:1 40:0 41:1 42:3 43:0 44:1 45:4 
512 0:1 1:1 2:1 3:1 4:0 5:0 6:1 7:1 8:0 9:0 10:0 11:0 12:1 13:1 14:1 15:0 16:0 17:0 18:1 19:0 20:0 21:0 22:0 23:1 24:0 25:1 26:1 27:1 28:1 29:1 30:1 31:0 32:0 33:1 34:1 35:0 36:19 37:0 38:1 39:4 40:0 41:1 42:10 43:0 44:2 45:18 
512 0:1 1:1 2:1 3:0 4:0 5:0 6:1 7:1 8:1 9:0 10:1 11:1 12:1 13:1 14:0 15:0 16:0 17:0 18:0 19:0 20:1 21:1 22:0 23:0 24:1 25:1 26:0 27:0 28:1 29:0 30:0 31:0 32:0 33:0 34:0 35:0 36:58 37:0 38:0 39:1 40:1 41:0 42:2 43:1 44:0 45:4 
512 0:1 1:1 2:1 3:1 4:1 5:0 6:1 7:0 8:0 9:1 10:1 11:0 12:0 13:1 14:1 15:0 16:0 17:0 18:1 19:0 20:0 21:1 22:0 23:0 24:1 25:1 26:0 27:1 28:1 29:1 30:1 31:0 32:1 33:0 34:0 35:0 36:38 37:0 38:0 39:1 40:0 41:1 42:2 43:0 44:1 45:4 
512 0:1 1:1 2:1 3:1 4:0 5:1 6:1 7:1 8:1 9:1 10:1 11:1 12:0 13:1 14:1 15:1 16:0 17:0 18:1 19:1 20:0 21:1 22:0 23:0 24:1 25:1 26:1 27:1 28:1 29:0 30:1 31:1 32:0 33:1 34:0 35:0 36:125 37:0 38:1 39:1 40:0 41:1 42:2 43:0 44:2 45:3 
512 0:1 1:1 2:1 3:1 4:1 5:1 6:1 7:1 8:1 9:0 10:0 11:1 12:1 13:1 14:1 15:1 16:1 17:1 18:1 19:0 20:0 21:0 22:0 23:1 24:0 25:1 26:1 27:1 28:1 29:1 30:0 31:1 32:0 33:0 34:0 35:1 36:25 37:0 38:0 39:3 40:1 41:2 42:10 43:1 44:3 45:22 
512 0:0 1:1 2:0 3:0 4:0 5:0 6:1 7:0 8:1 9:1 10:1 11:1 12:1 13:1 14:0 15:1 16:0 17:1 18:1 19:0 20:0 21:1 22:0 23:0 24:1 25:1 26:1 27:1 28:1 29:0 30:0 31:0 32:0 33:1 34:1 35:1 36:46 37:1 38:1 39:2 40:1 41:1 42:7 43:1 44:2 45:14 
512 0:0 1:0 2:1 3:1 4:0 5:0 6:0 7:1 8:0 9:1 10:1 11:1 12:1 13:0 14:1 15:1 16:0 17:0 18:1 19:0 20:0 21:1 22:0 23:1 24:0 25:1 26:1 27:0 28:0 29:1 30:0 31:0 32:0 33:0 34:0 35:0 36:24 37:0 38:0 39:2 40:0 41:0 42:5 43:0 44:0 45:13 
512 0:1 1:1 2:1 3:0 4:1 5:1 6:1 7:1 8:1 9:0 10:0 11:0 12:0 13:1 14:1 15:0 16:1 17:1 18:1 19:0 20:0 21:1 22:1 23:1 24:1 25:1 26:1 27:1 28:1 29:1 30:0 31:0 32:1 33:0 34:0 35:0 36:14 37:0 38:0 39:1 40:0 41:0 42:2 43:1 44:0 45:4 
512 0:1 1:1 2:0 3:0 4:0 5:1 6:0 7:1 8:0 9:0 10:0 11:1 12:1 13:1 14:0 15:0 16:1 17:0 18:1 19:0 20:0 21:1 22:0 23:0 24:1 25:1 26:1 27:1 28:0 29:0 30:0 31:0 32:0 33:1 34:0 35:0 36:29 37:1 38:0 39:2 40:1 41:1 42:6 43:2 44:2 45:16 
512 0:1 1:1 2:0 3:0 4:0 5:0 6:0 7:1 8:0 9:0 10:1 11:1 12:1 13:0 14:1 15:0 16:0 17:0 18:1 19:0 20:0 21:1 22:0 23:0 24:1 25:1 26:1 27:1 28:1 29:0 30:1 31:0 32:0 33:1 34:1 35:1 36:31 37:1 38:0 39:4 40:2 41:1 42:12 43:2 44:3 45:24 
512 0:1 1:1 2:1 3:1 4:0 5:0 6:0 7:0 8:1 9:0 10:1 11:1 12:1 13:1 14:0 15:1 16:1 17:0 18:1 19:0 20:0 21:0 22:0 23:0 24:1 25:0 26:0 27:0 28:0 29:1 30:0 31:0 32:0 33:0 34:0 35:0 36:32 37:0 38:0 39:1 40:0 41:0 42:2 43:0 44:0 45:3 
512 0:0 1:1 2:1 3:1 4:0 5:0 6:1 7:1 8:1 9:0 10:1 11:1 12:1 13:1 14:0 15:0 16:0 17:0 18:1 19:0 20:0 21:1 22:0 23:1 24:0 25:1 26:1 27:1 28:1 29:1 30:0 31:0 32:0 33:1 34:1 35:0 36:13 37:1 38:0 39:4 40:1 41:1 42:11 43:1 44:5 45:22 
512 0:1 1:1 2:1 3:1 4:1 5:0 6:1 7:0 8:0 9:0 10:1 11:1 12:1 13:1 14:0 15:0 16:0 17:0 18:1 19:1 20:1 21:1 22:0 23:1 24:0 25:0 26:1 27:1 28:0 29:1 30:1 31:0 32:0 33:1 34:0 35:0 36:28 37:1 38:0 39:2 40:1 41:0 42:7 43:1 44:2 45:15 
512 0:1 1:1 2:0 3:0 4:0 5:0 6:0 7:1 8:1 9:1 10:1 11:1 12:1 13:1 14:0 15:0 16:0 17:0 18:1 19:0 20:0 21:1 22:0 23:0 24:0 25:0 26:1 27:0 28:0 29:0 30:1 31:1 32:1 33:0 34:0 35:0 36:17 37:1 38:0 39:4 40:1 41:0 42:11 43:1 44:1 45:16 
512 0:1 1:1 2:0 3:1 4:0 5:0 6:1 7:1 8:0 9:0 10:1 11:1 12:1 13:1 14:1 15:0 16:1 17:1 18:1 19:1 20:0 21:1 22:0 23:1 24:0 25:1 26:1 27:1 28:0 29:1 30:0 31:1 32:0 33:0 34:1 35:0 36:18 37:0 38:0 39:1 40:0 41:0 42:2 43:0 44:1 45:4 
192.9248659358925 0:1 1:1 2:1 3:0 4:0 5:0 6:1 7:1 8:1 9:1 10:1 11:1 12:1 13:0 14:1 15:0 16:1 17:1 18:1 19:1 20:1 21:0 22:0 23:0 24:0 25:0 26:1 27:0 28:1 29:1 30:0 31:0 32:0 33:1 34:1 35:0 36:39 37:0 38:0 39:2 40:0 41:0 42:6 43:0 44:1 45:13 
512 0:1 1:1 2:1 3:1 4:0 5:1 6:1 7:1 8:1 9:0 10:0 11:1 12:1 13:1 14:1 15:0 16:0 17:0 18:0 19:0 20:1 21:1 22:1 23:1 24:1 25:1 26:1 27:0 28:1 29:1 30:0 31:0 32:0 33:1 34:0 35:0 36:12 37:0 38:0 39:1 40:0 41:0 42:2 43:0 44:0 45:5 
512 0:1 1:1 2:1 3:1 4:0 5:0 6:1 7:0 8:1 9:1 10:0 11:1 12:1 13:1 14:1 15:1 16:0 17:1 18:1 19:0 20:0 21:1 22:0 23:0 24:0 25:0 26:1 27:0 28:1 29:1 30:1 31:1 32:0 33:1 34:0 35:0 36:54 37:0 38:0 39:1 40:0 41:0 42:2 43:0 44:0 45:5 
512 0:1 1:1 2:1 3:1 4:0 5:0 6:1 7:0 8:1 9:1 10:1 11:1 12:1 13:1 14:0 15:0 16:1 17:1 18:1 19:0 20:0 21:0 22:1 23:0 24:0 25:0 26:1 27:1 28:1 29:0 30:0 31:1 32:0 33:1 34:0 35:0 36:31 37:0 38:0 39:1 40:0 41:0 42:2 43:0 44:0 45:3 
512 0:1 1:1 2:0 3:1 4:1 5:1 6:1 7:0 8:1 9:1 10:1 11:1 12:0 13:1 14:0 15:0 16:0 17:0 18:1 19:1 20:0 21:1 22:1 23:0 24:1 25:1 26:1 27:0 28:1 29:0 30:1 31:0 32:0 33:1 34:0 35:0 36:24 37:0 38:0 39:1 40:0 41:0 42:3 43:0 44:0 45:8 
512 0:0 1:1 2:1 3:1 4:0 5:0 6:0 7:1 8:1 9:1 10:1 11:0 12:1 13:1 14:1 15:0 16:0 17:0 18:0 19:0 20:0 21:1 22:0 23:0 24:1 25:0 26:1 27:1 28:0 29:0 30:1 31:1 32:0 33:1 34:0 35:0 36:43 37:0 38:1 39:2 40:0 41:1 42:4 43:0 44:3 45:7 
512 0:1 1:1 2:1 3:1 4:0 5:0 6:0 7:1 8:0 9:0 10:1 11:1 12:1 13:1 14:1 15:0 16:0 17:0 18:1 19:0 20:0 21:0 22:0 23:0 24:1 25:1 26:1 27:1 28:1 29:0 30:1 31:0 32:0 33:1 34:0 35:0 36:112 37:0 38:0 39:3 40:0 41:1 42:8 43:0 44:2 45:14 
512 0:1 1:1 2:1 3:1 4:0 5:0 6:0 7:0 8:0 9:0 10:0 11:0 12:1 13:1 14:1 15:0 16:1 17:0 18:1 19:0 20:0 21:1 22:1 23:1 24:1 25:1 26:1 27:1 28:1 29:1 30:1 31:1 32:0 33:1 34:0 35:1 36:2 37:0 38:0 39:1 40:0 41:0 42:2 43:1 44:0 45:4 
512 0:0 1:1 2:0 3:0 4:0 5:0 6:1 7:1 8:1 9:0 10:0 11:1 12:1 13:1 14:1 15:1 16:0 17:0 18:0 19:0 20:0 21:1 22:0 23:1 24:1 25:1 26:1 27:0 28:1 29:0 30:1 31:0 32:0 33:1 34:1 35:0 36:55 37:0 38:0 39:3 40:0 41:0 42:10 43:0 44:1 45:19 
512 0:1 1:0 2:1 3:1 4:0 5:0 6:1 7:1 8:1 9:1 10:1 11:0 12:1 13:1 14:0 15:0 16:0 17:0 18:1 19:1 20:1 21:1 22:0 23:1 24:0 25:1 26:1 27:1 28:1 29:1 30:0 31:0 32:0 33:1 34:0 35:0 36:29 37:0 38:0 39:1 40:0 41:0 42:2 43:0 44:0 45:3 
512 0:0 1:1 2:1 3:0 4:0 5:0 6:0 7:1 8:1 9:1 10:1 11:1 12:1 13:1 14:0 15:1 16:0 17:0 18:1 19:1 20:0 21:1 22:1 23:1 24:1 25:1 26:1 27:0 28:1 29:1 30:1 31:0 32:0 33:1 34:0 35:1 36:11 37:0 38:0 39:2 40:0 41:1 42:5 43:0 44:1 45:9 
512 0:1 1:1 2:1 3:1 4:1 5:0 6:1 7:1 8:1 9:1 10:1 11:1 12:1 13:1 14:1 15:1 16:0 17:0 18:1 19:0 20:0 21:1 22:0 23:1 24:1 25:1 26:0 27:1 28:1 29:0 30:1 31:0 32:1 33:1 34:1 35:0 36:30 37:0 38:0 39:1 40:0 41:0 42:2 43:0 44:0 45:3 
512 0:1 1:1 2:1 3:1 4:1 5:1 6:1 7:1 8:0 9:1 10:0 11:0 12:1 13:1 14:0 15:1 16:1 17:0 18:1 19:0 20:0 21:1 22:0 23:0 24:0 25:0 26:0 27:1 28:0 29:0 30:1 31:1 32:0 33:0 34:1 35:0 36:39 37:0 38:0 39:1 40:0 41:1 42:6 43:0 44:1 45:15 
512 0:1 1:0 2:1 3:1 4:1 5:1 6:1 7:1 8:1 9:1 10:1 11:1 12:0 13:0 14:1 15:1 16:0 17:0 18:1 19:0 20:0 21:1 22:0 23:1 24:1 25:0 26:1 27:1 28:0 29:0 30:1 31:0 32:1 33:1 34:1 35:0 36:40 37:0 38:1 39:2 40:0 41:1 42:4 43:0 44:4 45:9 
512 0:0 1:1 2:1 3:1 4:1 5:1 6:1 7:0 8:0 9:0 10:1 11:1 12:1 13:1 14:1 15:0 16:0 17:0 18:0 19:0 20:0 21:1 22:0 23:0 24:0 25:0 26:0 27:0 28:1 29:0 30:0 31:0 32:0 33:0 34:1 35:0 36:16 37:0 38:0 39:1 40:0 41:0 42:5 43:0 44:2 45:11 
512 0:1 1:1 2:0 3:1 4:0 5:0 6:1 7:1 8:0 9:0 10:0 11:1 12:1 13:1 14:1 15:1 16:0 17:0 18:1 19:0 20:0 21:0 22:0 23:1 24:0 25:1 26:0 27:0 28:1 29:1 30:1 31:0 32:0 33:1 34:1 35:0 36:28 37:0 38:0 39:1 40:0 41:0 42:3 43:0 44:0 45:6 
512 0:1 1:1 2:1 3:1 4:1 5:0 6:1 7:1 8:1 9:1 10:1 11:1 12:1 13:1 14:1 15:0 16:0 17:0 18:0 19:0 20:1 21:1 22:1 23:1 24:1 25:0 26:1 27:0 28:1 29:0 30:0 31:0 32:0 33:1 34:0 35:0 36:38 37:0 38:0 39:1 40:0 41:0 42:2 43:0 44:0 45:4 
512 0:1 1:1 2:0 3:0 4:1 5:0 6:1 7:1 8:0 9:1 10:0 11:1 12:1 13:1 14:1 15:0 16:0 17:0 18:0 19:0 20:0 21:1 22:0 23:1 24:0 25:1 26:0 27:1 28:1 29:0 30:0 31:0 32:0 33:1 34:1 35:0 36:34 37:0 38:0 39:1 40:0 41:0 42:4 43:0 44:0 45:11 
512 0:1 1:1 2:1 3:1 4:0 5:0 6:1 7:1 8:1 9:0 10:1 11:0 12:1 13:1 14:1 15:1 16:0 17:0 18:1 19:0 20:0 21:0 22:0 23:0 24:1 25:0 26:1 27:0 28:1 29:0 30:1 31:1 32:1 33:0 34:1 35:0 36:56 37:0 38:0 39:1 40:0 41:0 42:3 43:0 44:2 45:7 
512 0:1 1:1 2:1 3:1 4:0 5:1 6:1 7:1 8:1 9:1 10:1 11:1 12:0 13:1 14:1 15:1 16:1 17:0 18:1 19:0 20:0 21:1 22:1 23:1 24:1 25:1 26:1 27:1 28:1 29:1 30:0 31:0 32:0 33:0 34:1 35:1 36:51 37:0 38:0 39:1 40:0 41:0 42:2 43:0 44:0 45:3 
512 0:1 1:1 2:1 3:1 4:0 5:1 6:1 7:1 8:0 9:1 10:1 11:1 12:0 13:0 14:1 15:1 16:1 17:1 18:0 19:1 20:0 21:1 22:0 23:0 24:1 25:1 26:1 27:0 28:0 29:1 30:0 31:0 32:0 33:0 34:0 35:0 36:9 37:0 38:1 39:1 40:0 41:1 42:2 43:0 44:1 45:4 
512 0:1 1:1 2:1 3:1 4:0 5:0 6:1 7:1 8:1 9:0 10:1 11:1 12:1 13:0 14:1 15:0 16:0 17:0 18:1 19:0 20:0 21:0 22:0 23:1 24:1 25:0 26:0 27:0 28:0 29:1 30:1 31:0 32:0 33:0 34:0 35:0 36:71 37:0 38:0 39:1 40:0 41:2 42:4 43:0 44:4 45:10 
512 0:1 1:1 2:0 3:1 4:0 5:0 6:0 7:1 8:0 9:0 10:0 11:1 12:1 13:1 14:0 15:0 16:0 17:0 18:1 19:0 20:0 21:0 22:1 23:1 24:0 25:1 26:1 27:0 28:0 29:0 30:1 31:0 32:0 33:0 34:0 35:0 36:29 37:0 38:0 39:2 40:0 41:0 42:7 43:0 44:2 45:13 
512 0:0 1:1 2:0 3:1 4:0 5:0 6:1 7:1 8:1 9:0 10:1 11:1 12:0 13:0 14:1 15:0 16:0 17:0 18:1 19:0 20:0 21:0 22:0 23:1 24:1 25:1 26:0 27:0 28:1 29:1 30:1 31:1 32:1 33:0 34:0 35:0 36:28 37:0 38:0 39:1 40:0 41:0 42:4 43:0 44:1 45:10 
512 0:1 1:1 2:0 3:1 4:0 5:1 6:1 7:1 8:0 9:1 10:1 11:1 12:0 13:1 14:1 15:1 16:1 17:0 18:1 19:0 20:0 21:1 22:0 23:0 24:0 25:1 26:1 27:1 28:0 29:0 30:1 31:1 32:0 33:0 34:0 35:0 36:25 37:0 38:0 39:1 40:0 41:0 42:3 43:0 44:0 45:6 
512 0:1 1:1 2:1 3:0 4:0 5:0 6:1 7:0 8:1 9:1 10:1 11:1 12:1 13:0 14:1 15:0 16:0 17:0 18:0 19:0 20:0 21:1 22:0 23:1 24:1 25:1 26:1 27:1 28:0 29:1 30:1 31:0 32:0 33:1 34:0 35:0 36:44 37:0 38:0 39:1 40:0 41:0 42:4 43:0 44:3 45:10 
512 0:0 1:1 2:1 3:1 4:0 5:0 6:1 7:1 8:0 9:0 10:0 11:1 12:0 13:1 14:1 15:0 16:0 17:0 18:1 19:0 20:0 21:1 22:0 23:0 24:0 25:1 26:1 27:1 28:1 29:0 30:1 31:1 32:0 33:1 34:0 35:0 36:108 37:0 38:0 39:3 40:0 41:1 42:10 43:0 44:3 45:20 
512 0:1 1:1 2:1 3:0 4:0 5:0 6:1 7:1 8:1 9:1 10:1 11:0 12:0 13:1 14:0 15:0 16:0 17:0 18:1 19:1 20:1 21:1 22:1 23:0 24:0 25:0 26:0 27:1 28:0 29:0 30:1 31:1 32:1 33:1 34:0 35:0 36:32 37:0 38:0 39:1 40:0 41:0 42:2 43:0 44:0 45:5 
512 0:1 1:0 2:1 3:0 4:0 5:0 6:1 7:1 8:1 9:1 10:0 11:0 12:1 13:1 14:1 15:1 16:1 17:0 18:1 19:0 20:0 21:0 22:1 23:0 24:1 25:1 26:0 27:0 28:0 29:1 30:1 31:0 32:0 33:1 34:1 35:0 36:100 37:0 38:1 39:1 40:0 41:1 42:2 43:0 44:1 45:3 
512 0:1 1:1 2:1 3:1 4:0 5:0 6:1 7:0 8:1 9:1 10:1 11:0 12:1 13:1 14:1 15:0 16:0 17:1 18:0 19:0 20:1 21:1 22:0 23:1 24:0 25:1 26:1 27:1 28:0 29:1 30:0 31:0 32:0 33:1 34:0 35:0 36:5 37:0 38:0 39:3 40:0 41:1 42:10 43:1 44:3 45:18 
512 0:1 1:1 2:0 3:1 4:0 5:0 6:1 7:1 8:1 9:0 10:0 11:1 12:0 13:1 14:1 15:0 16:0 17:0 18:1 19:0 20:0 21:1 22:0 23:1 24:0 25:0 26:1 27:1 28:1 29:1 30:1 31:1 32:1 33:1 34:0 35:0 36:19 37:0 38:0 39:1 40:0 41:0 42:2 43:0 44:0 45:4 
512 0:0 1:0 2:1 3:0 4:0 5:0 6:1 7:1 8:0 9:1 10:1 11:1 12:1 13:1 14:0 15:1 16:0 17:0 18:1 19:0 20:0 21:1 22:1 23:0 24:0 25:1 26:0 27:0 28:0 29:1 30:1 31:0 32:0 33:0 34:0 35:0 36:47 37:0 38:0 39:1 40:0 41:0 42:2 43:0 44:1 45:3 
512 0:1 1:1 2:1 3:0 4:0 5:0 6:1 7:1 8:1 9:1 10:1 11:1 12:1 13:1 14:1 15:0 16:0 17:0 18:0 19:0 20:1 21:1 22:1 23:1 24:0 25:1 26:1 27:0 28:0 29:0 30:1 31:0 32:1 33:1 34:0 35:1 36:26 37:0 38:0 39:1 40:0 41:0 42:2 43:0 44:0 45:4 
512 0:0 1:1 2:0 3:0 4:0 5:1 6:0 7:1 8:0 9:1 10:1 11:1 12:1 13:1 14:1 15:1 16:0 17:0 18:0 19:0 20:0 21:1 22:1 23:1 24:0 25:1 26:1 27:1 28:1 29:1 30:1 31:0 32:0 33:1 34:0 35:1 36:24 37:0 38:0 39:2 40:1 41:1 42:7 43:1 44:1 45:13 
512 0:1 1:0 2:1 3:1 4:0 5:1 6:1 7:1 8:1 9:1 10:1 11:1 12:0 13:1 14:1 15:1 16:0 17:0 18:0 19:1 20:0 21:0 22:0 23:0 24:1 25:1 26:1 27:0 28:1 29:0 30:1 31:1 32:0 33:1 34:0 35:1 36:36 37:0 38:0 39:1 40:0 41:0 42:3 43:0 44:1 45:6 
512 0:0 1:1 2:1 3:0 4:0 5:0 6:0 7:0 8:0 9:0 10:1 11:1 12:1 13:0 14:0 15:1 16:0 17:0 18:0 19:0 20:0 21:0 22:0 23:0 24:0 25:1 26:1 27:1 28:0 29:0 30:1 31:0 32:0 33:1 34:0 35:1 36:36 37:0 38:0 39:1 40:0 41:0 42:2 43:0 44:0 45:3 
512 0:1 1:1 2:1 3:1 4:0 5:1 6:1 7:1 8:1 9:1 10:0 11:1 12:1 13:0 14:1 15:0 16:1 17:1 18:0 19:0 20:0 21:1 22:1 23:0 24:0 25:1 26:1 27:0 28:1 29:1 30:1 31:1 32:0 33:0 34:1 35:0 36:45 37:0 38:0 39:3 40:0 41:0 42:9 43:1 44:2 45:19 
512 0:1 1:1 2:1 3:1 4:1 5:1 6:1 7:1 8:1 9:0 10:1 11:1 12:1 13:0 14:1 15:1 16:0 17:0 18:0 19:0 20:1 21:1 22:0 23:0 24:0 25:1 26:1 27:0 28:0 29:1 30:1 31:0 32:0 33:1 34:0 35:0 36:5 37:0 38:0 39:1 40:0 41:0 42:3 43:0 44:0 45:7 
512 0:1 1:1 2:1 3:1 4:0 5:0 6:0 7:0 8:1 9:1 10:0 11:0 12:0 13:1 14:1 15:0 16:0 17:1 18:0 19:0 20:1 21:1 22:0 23:0 24:0 25:1 26:1 27:0 28:1 29:0 30:1 31:0 32:0 33:1 34:1 35:0 36:46 37:0 38:0 39:1 40:0 41:0 42:2 43:0 44:0 45:5 
512 0:1 1:1 2:0 3:1 4:0 5:0 6:0 7:1 8:0 9:0 10:1 11:1 12:1 13:1 14:1 15:1 16:0 17:0 18:1 19:0 20:0 21:1 22:0 23:0 24:1 25:1 26:1 27:1 28:1 29:1 30:1 31:1 32:0 33:1 34:0 35:0 36:74 37:0 38:0 39:1 40:0 41:0 42:2 43:0 44:0 45:4 
512 0:1 1:1 2:1 3:1 4:1 5:1 6:1 7:1 8:1 9:0 10:1 11:1 12:0 13:1 14:1 15:0 16:0 17:0 18:1 19:0 20:0 21:1 22:0 23:0 24:1 25:1 26:1 27:1 28:1 29:0 30:0 31:0 32:0 33:1 34:0 35:0 36:4 37:1 38:1 39:3 40:1 41:2 42:10 43:1 44:4 45:22 
512 0:1 1:1 2:1 3:1 4:1 5:0 6:1 7:0 8:0 9:1 10:1 11:1 12:1 13:1 14:1 15:1 16:0 17:0 18:0 19:1 20:0 21:1 22:1 23:0 24:0 25:0 26:0 27:1 28:0 29:1 30:1 31:0 32:0 33:1 34:1 35:0 36:10 37:0 38:0 39:1 40:0 41:0 42:2 43:0 44:0 45:3 
512 0:0 1:1 2:1 3:1 4:0 5:1 6:1 7:1 8:1 9:1 10:1 11:1 12:1 13:1 14:1 15:1 16:0 17:0 18:0 19:0 20:0 21:0 22:0 23:0 24:0 25:1 26:1 27:1 28:0 29:0 30:1 31:1 32:1 33:0 34:0 35:0 36:24 37:0 38:1 39:4 40:0 41:1 42:9 43:0 44:2 45:17 
512 0:1 1:1 2:1 3:1 4:0 5:0 6:1 7:0 8:1 9:1 10:1 11:1 12:0 13:0 14:0 15:1 16:1 17:0 18:1 19:0 20:0 21:0 22:0 23:0 24:1 25:1 26:0 27:0 28:1 29:1 30:0 31:0 32:0 33:0 34:0 35:0 36:19 37:0 38:0 39:3 40:0 41:0 42:8 43:0 44:0 45:14 
512 0:1 1:1 2:1 3:0 4:0 5:1 6:1 7:1 8:1 9:0 10:0 11:0 12:1 13:1 14:1 15:0 16:0 17:0 18:1 19:0 20:1 21:1 22:0 23:0 24:0 25:1 26:1 27:1 28:0 29:0 30:1 31:1 32:0 33:0 34:0 35:0 36:24 37:0 38:1 39:4 40:0 41:2 42:12 43:0 44:3 45:22 
512 0:1 1:1 2:1 3:1 4:0 5:0 6:0 7:1 8:0 9:1 10:1 11:1 12:1 13:0 14:1 15:0 16:0 17:0 18:1 19:1 20:1 21:0 22:0 23:0 24:0 25:1 26:1 27:1 28:1 29:1 30:0 31:0 32:0 33:0 34:0 35:0 36:31 37:0 38:0 39:1 40:0 41:0 42:3 43:0 44:2 45:5 
512 0:1 1:0 2:1 3:1 4:0 5:1 6:1 7:1 8:1 9:1 10:1 11:1 12:1 13:1 14:1 15:1 16:0 17:0 18:1 19:1 20:0 21:0 22:0 23:1 24:0 25:1 26:1 27:0 28:1 29:1 30:1 31:1 32:0 33:0 34:0 35:0 36:20 37:0 38:0 39:1 40:0 41:1 42:6 43:1 44:2 45:16 
512 0:1 1:1 2:1 3:0 4:0 5:0 6:1 7:0 8:1 9:0 10:1 11:1 12:0 13:1 14:0 15:1 16:0 17:0 18:0 19:0 20:0 21:1 22:0 23:1 24:0 25:0 26:1 27:1 28:1 29:1 30:0 31:1 32:1 33:0 34:0 35:1 36:15 37:0 38:0 39:1 40:0 41:0 42:2 43:0 44:0 45:3 
512 0:1 1:1 2:0 3:1 4:0 5:0 6:0 7:0 8:1 9:1 10:1 11:0 12:0 13:1 14:1 15:0 16:0 17:1 18:1 19:0 20:0 21:1 22:1 23:0 24:0 25:1 26:1 27:0 28:1 29:1 30:0 31:0 32:0 33:1 34:0 35:0 36:21 37:0 38:0 39:1 40:0 41:1 42:4 43:0 44:1 45:9 
512 0:1 1:1 2:1 3:1 4:0 5:1 6:1 7:1 8:1 9:0 10:1 11:1 12:0 13:1 14:1 15:1 16:1 17:0 18:1 19:0 20:0 21:0 22:0 23:0 24:0 25:1 26:1 27:0 28:1 29:1 30:1 31:0 32:0 33:0 34:0 35:0 36:106 37:0 38:0 39:1 40:0 41:0 42:3 43:0 44:0 45:5 
14.63911751259811 0:1 1:1 2:1 3:1 4:0 5:1 6:1 7:1 8:1 9:0 10:1 11:0 12:0 13:1 14:1 15:1 16:1 17:0 18:0 19:0 20:1 21:1 22:0 23:1 24:0 25:0 26:0 27:0 28:1 29:0 30:1 31:0 32:0 33:1 34:1 35:0 36:80 37:0 38:1 39:2 40:0 41:1 42:5 43:0 44:3 45:7 
512 0:1 1:0 2:1 3:1 4:1 5:0 6:1 7:1 8:0 9:1 10:1 11:1 12:1 13:1 14:1 15:1 16:0 17:0 18:1 19:0 20:0 21:1 22:0 23:1 24:0 25:0 26:1 27:0 28:0 29:1 30:1 31:0 32:0 33:0 34:0 35:0 36:14 37:0 38:0 39:1 40:1 41:0 42:3 43:2 44:0 45:7 
512 0:1 1:1 2:1 3:1 4:0 5:1 6:1 7:1 8:1 9:0 10:1 11:0 12:1 13:1 14:1 15:0 16:0 17:0 18:1 19:1 20:0 21:1 22:1 23:1 24:0 25:1 26:1 27:0 28:1 29:0 30:1 31:0 32:0 33:1 34:0 35:0 36:31 37:0 38:0 39:1 40:0 41:2 42:5 43:1 44:4 45:13 
512 0:1 1:1 2:1 3:1 4:0 5:0 6:1 7:1 8:1 9:0 10:1 11:0 12:0 13:1 14:1 15:1 16:0 17:0 18:0 19:0 20:0 21:1 22:0 23:1 24:1 25:0 26:0 27:1 28:1 29:1 30:0 31:0 32:0 33:1 34:0 35:0 36:33 37:0 38:0 39:2 40:0 41:1 42:4 43:0 44:1 45:6 
512 0:1 1:1 2:1 3:1 4:0 5:1 6:1 7:1 8:0 9:0 10:0 11:0 12:0 13:0 14:0 15:0 16:0 17:0 18:1 19:0 20:0 21:0 22:0 23:0 24:1 25:1 26:0 27:1 28:1 29:1 30:0 31:0 32:0 33:1 34:0 35:0 36:32 37:0 38:0 39:2 40:0 41:0 42:5 43:0 44:1 45:10 
512 0:0 1:1 2:0 3:0 4:0 5:0 6:1 7:1 8:1 9:0 10:1 11:1 12:0 13:1 14:1 15:0 16:0 17:0 18:1 19:0 20:1 21:1 22:1 23:1 24:1 25:1 26:1 27:1 28:1 29:1 30:0 31:0 32:0 33:1 34:1 35:0 36:13 37:0 38:0 39:3 40:2 41:0 42:9 43:3 44:0 45:16 
512 0:0 1:1 2:0 3:1 4:1 5:0 6:0 7:1 8:1 9:0 10:1 11:1 12:1 13:1 14:1 15:1 16:1 17:0 18:1 19:1 20:1 21:1 22:0 23:0 24:1 25:1 26:1 27:0 28:0 29:1 30:0 31:0 32:0 33:1 34:0 35:1 36:24 37:1 38:0 39:2 40:1 41:2 42:8 43:1 44:5 45:17 
512 0:1 1:1 2:1 3:0 4:0 5:0 6:1 7:1 8:0 9:1 10:1 11:1 12:1 13:1 14:1 15:0 16:0 17:0 18:1 19:0 20:0 21:1 22:1 23:0 24:1 25:1 26:1 27:1 28:0 29:1 30:1 31:0 32:0 33:1 34:1 35:0 36:33 37:0 38:0 39:1 40:0 41:0 42:2 43:1 44:1 45:6 
512 0:1 1:1 2:1 3:1 4:1 5:0 6:1 7:1 8:1 9:0 10:1 11:0 12:1 13:1 14:0 15:0 16:1 17:0 18:1 19:1 20:0 21:1 22:0 23:1 24:0 25:1 26:1 27:1 28:1 29:1 30:1 31:0 32:0 33:1 34:1 35:1 36:60 37:0 38:0 39:1 40:0 41:0 42:2 43:0 44:0 45:3 
512 0:1 1:1 2:1 3:1 4:1 5:0 6:0 7:0 8:1 9:1 10:1 11:1 12:0 13:1 14:0 15:1 16:0 17:0 18:1 19:1 20:0 21:1 22:0 23:0 24:1 25:1 26:1 27:1 28:0 29:1 30:1 31:0 32:0 33:1 34:0 35:0 36:26 37:0 38:0 39:2 40:0 41:0 42:5 43:0 44:0 45:10 
512 0:1 1:1 2:0 3:1 4:0 5:0 6:0 7:1 8:0 9:1 10:1 11:1 12:0 13:1 14:1 15:1 16:0 17:0 18:1 19:0 20:0 21:1 22:0 23:0 24:1 25:1 26:1 27:1 28:0 29:0 30:1 31:0 32:1 33:0 34:0 35:0 36:17 37:0 38:0 39:1 40:0 41:1 42:4 43:0 44:1 45:8 
512 0:1 1:1 2:0 3:0 4:0 5:0 6:0 7:1 8:1 9:1 10:1 11:0 12:1 13:1 14:1 15:1 16:0 17:0 18:1 19:1 20:0 21:0 22:0 23:1 24:1 25:1 26:1 27:0 28:1 29:0 30:0 31:0 32:0 33:1 34:0 35:0 36:25 37:0 38:0 39:2 40:0 41:0 42:6 43:0 44:1 45:11 
512 0:1 1:1 2:1 3:0 4:0 5:0 6:1 7:0 8:1 9:0 10:0 11:1 12:1 13:1 14:1 15:1 16:0 17:1 18:0 19:0 20:0 21:1 22:1 23:0 24:0 25:1 26:1 27:1 28:1 29:0 30:0 31:0 32:0 33:1 34:1 35:0 36:46 37:0 38:0 39:3 40:0 41:0 42:9 43:0 44:3 45:18 
512 0:1 1:1 2:1 3:1 4:0 5:1 6:1 7:1 8:1 9:1 10:1 11:0 12:1 13:1 14:1 15:0 16:0 17:0 18:1 19:0 20:0 21:1 22:1 23:1 24:0 25:1 26:1 27:1 28:0 29:1 30:1 31:1 32:0 33:1 34:1 35:0 36:64 37:0 38:0 39:1 40:0 41:0 42:2 43:0 44:1 45:3 
512 0:0 1:1 2:1 3:0 4:0 5:0 6:1 7:1 8:1 9:1 10:0 11:1 12:0 13:0 14:1 15:0 16:0 17:0 18:1 19:0 20:1 21:1 22:0 23:0 24:1 25:1 26:1 27:1 28:1 29:1 30:1 31:0 32:0 33:0 34:1 35:0 36:26 37:0 38:1 39:1 40:0 41:1 42:3 43:0 44:1 45:5 
512 0:1 1:1 2:1 3:1 4:1 5:0 6:1 7:1 8:1 9:1 10:1 11:0 12:1 13:1 14:1 15:0 16:0 17:1 18:1 19:0 20:0 21:1 22:0 23:0 24:1 25:1 26:1 27:1 28:1 29:0 30:0 31:0 32:0 33:1 34:0 35:0 36:50 37:0 38:2 39:3 40:1 41:3 42:9 43:2 44:6 45:17 
512 0:1 1:1 2:1 3:1 4:1 5:1 6:0 7:0 8:1 9:1 10:0 11:0 12:1 13:1 14:1 15:1 16:0 17:0 18:1 19:0 20:0 21:1 22:1 23:1 24:0 25:1 26:0 27:1 28:1 29:1 30:0 31:0 32:1 33:1 34:1 35:0 36:8 37:0 38:1 39:1 40:0 41:2 42:3 43:0 44:2 45:7 
512 0:1 1:1 2:0 3:1 4:0 5:0 6:1 7:0 8:0 9:1 10:1 11:0 12:1 13:1 14:1 15:0 16:0 17:0 18:1 19:0 20:0 21:1 22:1 23:1 24:1 25:1 26:1 27:0 28:1 29:1 30:1 31:0 32:1 33:0 34:0 35:0 36:26 37:1 38:0 39:3 40:1 41:1 42:11 43:1 44:2 45:21 
512 0:1 1:0 2:1 3:1 4:0 5:1 6:1 7:1 8:1 9:1 10:1 11:1 12:1 13:1 14:1 15:0 16:0 17:0 18:1 19:1 20:0 21:1 22:0 23:1 24:1 25:1 26:1 27:1 28:0 29:1 30:1 31:1 32:1 33:1 34:0 35:0 36:2 37:0 38:0 39:3 40:1 41:1 42:10 43:1 44:2 45:21 
512 0:1 1:1 2:1 3:1 4:1 5:1 6:1 7:1 8:1 9:1 10:1 11:0 12:1 13:0 14:1 15:1 16:1 17:0 18:0 19:0 20:0 21:1 22:0 23:1 24:0 25:0 26:1 27:1 28:0 29:0 30:1 31:0 32:0 33:1 34:0 35:0 36:59 37:0 38:0 39:1 40:0 41:1 42:2 43:0 44:2 45:4 
512 0:1 1:1 2:1 3:1 4:1 5:1 6:1 7:1 8:1 9:1 10:1 11:1 12:1 13:1 14:1 15:1 16:1 17:0 18:0 19:0 20:0 21:1 22:0 23:0 24:0 25:1 26:1 27:1 28:1 29:1 30:0 31:0 32:0 33:1 34:1 35:0 36:30 37:0 38:1 39:1 40:0 41:1 42:5 43:0 44:1 45:11 
512 0:1 1:0 2:1 3:1 4:1 5:0 6:1 7:1 8:1 9:1 10:1 11:1 12:1 13:1 14:1 15:0 16:0 17:0 18:1 19:1 20:0 21:1 22:0 23:0 24:1 25:1 26:0 27:1 28:1 29:1 30:0 31:0 32:0 33:1 34:0 35:1 36:52 37:0 38:1 39:1 40:0 41:1 42:2 43:0 44:1 45:3 
512 0:1 1:1 2:1 3:1 4:0 5:0 6:0 7:1 8:1 9:1 10:1 11:1 12:0 13:1 14:1 15:0 16:1 17:0 18:1 19:0 20:1 21:1 22:0 23:1 24:1 25:1 26:1 27:1 28:0 29:1 30:1 31:1 32:0 33:0 34:0 35:1 36:15 37:1 38:0 39:1 40:1 41:0 42:2 43:2 44:0 45:4 
512 0:1 1:0 2:1 3:1 4:0 5:1 6:1 7:1 8:1 9:1 10:1 11:1 12:1 13:1 14:1 15:1 16:0 17:0 18:1 19:0 20:0 21:1 22:0 23:0 24:0 25:0 26:0 27:1 28:0 29:0 30:0 31:0 32:0 33:1 34:1 35:0 36:51 37:0 38:0 39:1 40:0 41:0 42:2 43:0 44:0 45:3 
512 0:1 1:1 2:0 3:1 4:0 5:0 6:1 7:1 8:1 9:0 10:0 11:0 12:1 13:1 14:1 15:1 16:0 17:0 18:1 19:0 20:0 21:1 22:0 23:0 24:0 25:1 26:1 27:1 28:0 29:0 30:1 31:1 32:1 33:1 34:1 35:0 36:33 37:0 38:0 39:2 40:0 41:0 42:7 43:0 44:3 45:15 
512 0:1 1:1 2:0 3:0 4:0 5:0 6:1 7:1 8:1 9:1 10:1 11:1 12:1 13:1 14:1 15:1 16:0 17:0 18:1 19:0 20:1 21:1 22:0 23:1 24:1 25:1 26:0 27:1 28:0 29:1 30:1 31:0 32:0 33:1 34:0 35:0 36:39 37:0 38:0 39:2 40:0 41:1 42:7 43:0 44:4 45:16 
512 0:0 1:1 2:0 3:0 4:1 5:0 6:1 7:1 8:1 9:1 10:1 11:1 12:1 13:1 14:1 15:1 16:0 17:0 18:1 19:0 20:0 21:1 22:1 23:1 24:0 25:1 26:1 27:1 28:1 29:0 30:1 31:1 32:0 33:1 34:0 35:0 36:31 37:0 38:0 39:3 40:0 41:0 42:7 43:0 44:0 45:12 
512 0:1 1:1 2:1 3:0 4:0 5:1 6:0 7:1 8:1 9:1 10:1 11:1 12:0 13:1 14:1 15:1 16:1 17:0 18:0 19:1 20:0 21:1 22:0 23:1 24:1 25:1 26:1 27:1 28:1 29:1 30:0 31:0 32:0 33:0 34:0 35:1 36:21 37:0 38:0 39:2 40:1 41:0 42:7 43:2 44:0 45:13 
512 0:1 1:1 2:0 3:0 4:0 5:0 6:1 7:1 8:1 9:0 10:0 11:1 12:1 13:1 14:0 15:0 16:0 17:1 18:1 19:0 20:1 21:1 22:0 23:0 24:1 25:1 26:1 27:1 28:0 29:1 30:0 31:0 32:0 33:1 34:0 35:0 36:31 37:0 38:0 39:3 40:0 41:1 42:9 43:0 44:3 45:20 
512 0:0 1:0 2:1 3:1 4:1 5:0 6:1 7:1 8:1 9:0 10:1 11:1 12:1 13:1 14:1 15:1 16:1 17:1 18:1 19:0 20:0 21:1 22:0 23:0 24:0 25:1 26:1 27:1 28:0 29:0 30:1 31:0 32:0 33:1 34:0 35:0 36:48 37:0 38:0 39:1 40:0 41:0 42:2 43:0 44:0 45:3 
512 0:0 1:1 2:1 3:1 4:0 5:0 6:1 7:1 8:1 9:0 10:1 11:1 12:1 13:0 14:1 15:0 16:0 17:0 18:1 19:1 20:1 21:1 22:1 23:0 24:1 25:1 26:1 27:1 28:1 29:1 30:1 31:0 32:0 33:1 34:0 35:1 36:51 37:0 38:0 39:1 40:0 41:0 42:2 43:0 44:0 45:3 
512 0:1 1:1 2:1 3:1 4:0 5:1 6:1 7:1 8:1 9:1 10:1 11:1 12:1 13:1 14:0 15:1 16:0 17:0 18:1 19:1 20:0 21:1 22:1 23:0 24:0 25:0 26:0 27:1 28:1 29:0 30:0 31:1 32:0 33:1 34:1 35:0 36:6 37:0 38:0 39:2 40:1 41:0 42:6 43:2 44:1 45:13 
512 0:1 1:0 2:1 3:1 4:1 5:1 6:0 7:1 8:1 9:1 10:1 11:1 12:1 13:1 14:1 15:0 16:0 17:0 18:1 19:0 20:0 21:1 22:0 23:1 24:1 25:1 26:1 27:1 28:0 29:1 30:1 31:1 32:0 33:1 34:0 35:1 36:34 37:0 38:1 39:2 40:0 41:3 42:5 43:0 44:4 45:12 
512 0:1 1:0 2:1 3:1 4:0 5:0 6:0 7:1 8:0 9:0 10:0 11:1 12:1 13:1 14:0 15:0 16:0 17:0 18:1 19:1 20:0 21:0 22:0 23:1 24:1 25:1 26:1 27:1 28:0 29:0 30:1 31:0 32:0 33:1 34:0 35:0 36:36 37:0 38:0 39:1 40:1 41:0 42:4 43:1 44:0 45:8 
512 0:1 1:1 2:1 3:1 4:0 5:0 6:1 7:1 8:1 9:1 10:0 11:1 12:1 13:1 14:1 15:0 16:0 17:0 18:1 19:0 20:0 21:1 22:0 23:1 24:1 25:0 26:1 27:0 28:0 29:1 30:0 31:0 32:0 33:0 34:0 35:1 36:40 37:0 38:0 39:2 40:0 41:0 42:4 43:0 44:1 45:7 
512 0:0 1:1 2:1 3:1 4:1 5:1 6:1 7:0 8:0 9:1 10:1 11:1 12:1 13:1 14:1 15:1 16:0 17:0 18:1 19:1 20:0 21:1 22:0 23:0 24:1 25:1 26:0 27:1 28:1 29:0 30:0 31:1 32:0 33:1 34:1 35:0 36:25 37:0 38:0 39:2 40:0 41:0 42:5 43:0 44:1 45:13 
512 0:1 1:1 2:1 3:0 4:0 5:0 6:1 7:1 8:1 9:0 10:0 11:1 12:1 13:0 14:0 15:1 16:1 17:1 18:1 19:0 20:1 21:1 22:1 23:0 24:1 25:1 26:1 27:1 28:1 29:0 30:0 31:1 32:1 33:1 34:0 35:0 36:22 37:0 38:0 39:1 40:0 41:0 42:4 43:0 44:1 45:11 
512 0:1 1:0 2:1 3:1 4:0 5:0 6:1 7:1 8:1 9:1 10:0 11:1 12:0 13:1 14:0 15:0 16:0 17:0 18:0 19:0 20:0 21:1 22:1 23:0 24:0 25:1 26:0 27:1 28:0 29:0 30:0 31:0 32:0 33:1 34:0 35:0 36:23 37:0 38:3 39:3 40:0 41:4 42:9 43:0 44:5 45:16 
512 0:0 1:1 2:1 3:1 4:0 5:1 6:1 7:1 8:1 9:1 10:1 11:1 12:1 13:0 14:1 15:1 16:0 17:0 18:1 19:0 20:0 21:1 22:0 23:1 24:1 25:0 26:0 27:1 28:0 29:1 30:1 31:0 32:0 33:1 34:0 35:1 36:51 37:0 38:0 39:1 40:0 41:0 42:2 43:0 44:0 45:3 
512 0:0 1:1 2:1 3:1 4:1 5:0 6:1 7:1 8:0 9:1 10:1 11:1 12:1 13:1 14:1 15:1 16:1 17:0 18:1 19:0 20:1 21:1 22:0 23:0 24:0 25:1 26:1 27:0 28:0 29:0 30:0 31:0 32:0 33:1 34:1 35:0 36:56 37:0 38:0 39:1 40:0 41:0 42:2 43:0 44:0 45:4 
512 0:0 1:1 2:0 3:0 4:0 5:0 6:1 7:1 8:1 9:0 10:0 11:1 12:0 13:1 14:1 15:0 16:0 17:0 18:1 19:0 20:0 21:0 22:0 23:0 24:1 25:1 26:1 27:0 28:1 29:1 30:0 31:0 32:0 33:0 34:1 35:0 36:36 37:0 38:1 39:2 40:0 41:1 42:6 43:0 44:1 45:11 
512 0:1 1:0 2:1 3:1 4:0 5:0 6:1 7:1 8:1 9:1 10:1 11:0 12:1 13:1 14:1 15:0 16:0 17:0 18:1 19:0 20:0 21:0 22:0 23:0 24:1 25:1 26:1 27:0 28:0 29:0 30:0 31:0 32:0 33:0 34:0 35:0 36:33 37:0 38:0 39:1 40:0 41:0 42:2 43:0 44:0 45:4 
512 0:1 1:1 2:1 3:1 4:0 5:0 6:1 7:0 8:1 9:0 10:1 11:0 12:1 13:1 14:1 15:1 16:0 17:0 18:0 19:0 20:0 21:0 22:1 23:0 24:0 25:1 26:1 27:1 28:0 29:1 30:1 31:0 32:0 33:1 34:1 35:1 36:22 37:0 38:0 39:1 40:0 41:1 42:5 43:0 44:1 45:11 
512 0:1 1:0 2:1 3:1 4:1 5:0 6:1 7:1 8:1 9:1 10:1 11:0 12:1 13:1 14:1 15:1 16:0 17:0 18:1 19:0 20:0 21:1 22:0 23:1 24:0 25:1 26:1 27:1 28:0 29:1 30:0 31:0 32:0 33:1 34:0 35:0 36:50 37:0 38:0 39:1 40:0 41:0 42:4 43:0 44:1 45:9 
512 0:1 1:1 2:1 3:1 4:0 5:0 6:0 7:1 8:1 9:0 10:0 11:0 12:1 13:0 14:1 15:1 16:0 17:0 18:1 19:0 20:1 21:0 22:0 23:0 24:0 25:1 26:1 27:0 28:1 29:0 30:1 31:1 32:0 33:1 34:1 35:0 36:67 37:0 38:0 39:3 40:0 41:2 42:11 43:0 44:4 45:22 
512 0:0 1:1 2:1 3:0 4:0 5:0 6:1 7:1 8:0 9:0 10:0 11:0 12:1 13:1 14:1 15:1 16:0 17:1 18:1 19:1 20:0 21:1 22:0 23:0 24:0 25:0 26:0 27:0 28:0 29:1 30:0 31:1 32:0 33:0 34:0 35:0 36:34 37:0 38:0 39:1 40:0 41:0 42:2 43:0 44:1 45:3 
512 0:1 1:1 2:1 3:0 4:1 5:1 6:1 7:1 8:1 9:0 10:1 11:1 12:1 13:1 14:1 15:1 16:0 17:0 18:0 19:0 20:0 21:1 22:0 23:1 24:0 25:0 26:1 27:0 28:0 29:1 30:0 31:0 32:0 33:1 34:0 35:0 36:3 37:0 38:0 39:1 40:0 41:0 42:3 43:0 44:2 45:7 
512 0:1 1:0 2:0 3:0 4:0 5:0 6:1 7:1 8:1 9:1 10:0 11:1 12:0 13:1 14:1 15:0 16:0 17:0 18:0 19:0 20:0 21:0 22:0 23:0 24:1 25:1 26:1 27:1 28:0 29:0 30:0 31:1 32:0 33:1 34:0 35:0 36:36 37:0 38:0 39:1 40:0 41:0 42:3 43:0 44:0 45:5 
512 0:1 1:1 2:1 3:1 4:1 5:1 6:0 7:0 8:1 9:0 10:0 11:1 12:1 13:1 14:1 15:1 16:0 17:0 18:1 19:0 20:1 21:1 22:0 23:0 24:0 25:1 26:0 27:1 28:1 29:1 30:0 31:0 32:1 33:1 34:0 35:1 36:25 37:0 38:0 39:1 40:0 41:1 42:2 43:0 44:1 45:3 
512 0:1 1:1 2:1 3:0 4:1 5:0 6:0 7:1 8:1 9:1 10:1 11:1 12:1 13:1 14:1 15:1 16:0 17:0 18:1 19:0 20:0 21:1 22:0 23:0 24:1 25:1 26:1 27:1 28:1 29:1 30:1 31:0 32:0 33:0 34:1 35:0 36:37 37:0 38:0 39:2 40:0 41:0 42:6 43:0 44:0 45:11 
512 0:1 1:1 2:1 3:1 4:0 5:0 6:1 7:1 8:1 9:1 10:0 11:1 12:1 13:1 14:1 15:0 16:0 17:0 18:0 19:0 20:0 21:0 22:1 23:1 24:1 25:0 26:1 27:0 28:1 29:0 30:1 31:0 32:0 33:1 34:0 35:0 36:54 37:0 38:0 39:2 40:0 41:1 42:5 43:0 44:2 45:10 
512 0:1 1:1 2:1 3:1 4:0 5:0 6:1 7:1 8:0 9:1 10:0 11:1 12:1 13:1 14:1 15:1 16:0 17:1 18:0 19:0 20:0 21:1 22:0 23:0 24:0 25:0 26:0 27:1 28:0 29:1 30:0 31:0 32:0 33:0 34:0 35:1 36:28 37:0 38:0 39:1 40:0 41:0 42:2 43:0 44:0 45:3 
512 0:1 1:1 2:1 3:0 4:0 5:0 6:1 7:0 8:1 9:1 10:1 11:1 12:1 13:1 14:1 15:1 16:1 17:0 18:1 19:0 20:0 21:1 22:0 23:0 24:0 25:0 26:0 27:0 28:1 29:0 30:0 31:0 32:0 33:0 34:0 35:1 36:12 37:0 38:1 39:1 40:1 41:1 42:2 43:2 44:2 45:6 
512 0:0 1:1 2:1 3:0 4:0 5:0 6:0 7:1 8:1 9:0 10:0 11:0 12:1 13:1 14:1 15:0 16:0 17:0 18:0 19:1 20:0 21:1 22:0 23:0 24:0 25:0 26:1 27:0 28:1 29:0 30:0 31:0 32:0 33:0 34:0 35:1 36:15 37:0 38:0 39:4 40:0 41:0 42:12 43:0 44:2 45:23 
512 0:1 1:1 2:1 3:1 4:1 5:0 6:1 7:1 8:1 9:1 10:1 11:1 12:1 13:0 14:1 15:0 16:0 17:0 18:1 19:1 20:1 21:1 22:0 23:0 24:0 25:0 26:1 27:1 28:0 29:1 30:1 31:1 32:0 33:0 34:1 35:0 36:21 37:0 38:0 39:3 40:0 41:0 42:11 43:0 44:1 45:22 
512 0:0 1:1 2:1 3:1 4:0 5:0 6:1 7:1 8:1 9:0 10:1 11:1 12:1 13:1 14:1 15:1 16:0 17:0 18:1 19:1 20:0 21:0 22:0 23:0 24:0 25:0 26:0 27:1 28:1 29:1 30:1 31:1 32:0 33:0 34:0 35:1 36:12 37:0 38:0 39:3 40:0 41:0 42:6 43:0 44:0 45:8 
512 0:0 1:0 2:0 3:1 4:1 5:0 6:0 7:1 8:1 9:1 10:1 11:0 12:1 13:1 14:1 15:0 16:0 17:0 18:1 19:1 20:0 21:1 22:1 23:0 24:1 25:1 26:1 27:1 28:1 29:0 30:1 31:0 32:0 33:1 34:0 35:1 36:25 37:0 38:0 39:2 40:0 41:1 42:6 43:0 44:1 45:11 
512 0:1 1:1 2:1 3:1 4:0 5:0 6:1 7:1 8:1 9:0 10:1 11:0 12:1 13:1 14:0 15:0 16:0 17:0 18:1 19:0 20:0 21:1 22:1 23:1 24:0 25:1 26:1 27:1 28:1 29:1 30:0 31:0 32:0 33:1 34:0 35:0 36:57 37:0 38:0 39:2 40:0 41:1 42:6 43:0 44:1 45:11 
512 0:1 1:1 2:1 3:0 4:0 5:0 6:1 7:0 8:0 9:0 10:0 11:0 12:0 13:1 14:1 15:1 16:0 17:0 18:1 19:1 20:0 21:1 22:0 23:0 24:0 25:1 26:1 27:0 28:1 29:0 30:1 31:0 32:0 33:1 34:1 35:0 36:14 37:0 38:0 39:2 40:0 41:0 42:5 43:0 44:1 45:10 
512 0:0 1:0 2:1 3:1 4:0 5:0 6:1 7:1 8:1 9:0 10:0 11:1 12:1 13:1 14:0 15:0 16:1 17:0 18:1 19:0 20:1 21:1 22:1 23:0 24:0 25:1 26:1 27:1 28:1 29:0 30:1 31:1 32:0 33:1 34:1 35:1 36:31 37:0 38:0 39:2 40:0 41:0 42:7 43:0 44:2 45:16 
512 0:1 1:1 2:1 3:1 4:1 5:1 6:1 7:1 8:1 9:1 10:1 11:0 12:1 13:1 14:1 15:1 16:1 17:0 18:1 19:0 20:0 21:1 22:0 23:0 24:0 25:0 26:0 27:1 28:0 29:0 30:1 31:0 32:0 33:1 34:0 35:0 36:27 37:0 38:1 39:2 40:0 41:1 42:5 43:0 44:1 45:9 
512 0:1 1:0 2:1 3:1 4:1 5:1 6:1 7:1 8:0 9:1 10:1 11:0 12:1 13:0 14:1 15:1 16:0 17:0 18:1 19:0 20:0 21:1 22:1 23:0 24:1 25:1 26:1 27:1 28:1 29:0 30:1 31:0 32:0 33:1 34:1 35:0 36:46 37:0 38:1 39:3 40:0 41:1 42:7 43:0 44:2 45:11 
512 0:1 1:1 2:1 3:1 4:0 5:1 6:1 7:0 8:1 9:1 10:1 11:1 12:1 13:1 14:0 15:0 16:1 17:0 18:0 19:0 20:0 21:1 22:1 23:0 24:1 25:1 26:1 27:1 28:1 29:0 30:1 31:0 32:0 33:1 34:1 35:0 36:64 37:0 38:0 39:1 40:0 41:1 42:2 43:0 44:1 45:3 
512 0:1 1:1 2:1 3:1 4:0 5:1 6:0 7:1 8:1 9:0 10:1 11:1 12:1 13:0 14:1 15:0 16:0 17:0 18:0 19:0 20:0 21:1 22:0 23:0 24:0 25:1 26:0 27:0 28:1 29:1 30:0 31:1 32:0 33:1 34:1 35:0 36:46 37:0 38:0 39:1 40:0 41:0 42:2 43:0 44:0 45:3 
12.35947047431666 0:1 1:1 2:0 3:1 4:0 5:0 6:1 7:0 8:1 9:1 10:1 11:0 12:1 13:1 14:1 15:0 16:0 17:0 18:1 19:0 20:0 21:1 22:0 23:0 24:0 25:1 26:1 27:1 28:1 29:0 30:1 31:0 32:0 33:1 34:0 35:0 36:141 37:0 38:0 39:1 40:0 41:0 42:2 43:0 44:1 45:3 
512 0:1 1:0 2:1 3:1 4:0 5:0 6:1 7:1 8:1 9:1 10:0 11:0 12:1 13:1 14:1 15:1 16:1 17:1 18:0 19:1 20:1 21:1 22:1 23:0 24:1 25:1 26:1 27:1 28:0 29:1 30:0 31:0 32:0 33:1 34:0 35:0 36:19 37:0 38:0 39:1 40:0 41:2 42:5 43:0 44:3 45:9 
512 0:1 1:1 2:1 3:1 4:0 5:0 6:1 7:0 8:1 9:1 10:1 11:1 12:0 13:0 14:1 15:1 16:1 17:0 18:0 19:0 20:1 21:1 22:0 23:1 24:1 25:1 26:1 27:0 28:0 29:1 30:1 31:0 32:1 33:0 34:1 35:1 36:40 37:0 38:0 39:1 40:0 41:1 42:4 43:0 44:2 45:9 
512 0:1 1:1 2:1 3:1 4:0 5:1 6:0 7:1 8:1 9:1 10:0 11:0 12:1 13:1 14:0 15:1 16:1 17:0 18:1 19:1 20:1 21:1 22:1 23:0 24:0 25:0 26:1 27:1 28:0 29:1 30:0 31:0 32:0 33:0 34:0 35:0 36:29 37:0 38:0 39:1 40:0 41:0 42:3 43:0 44:0 45:6 
512 0:1 1:1 2:0 3:1 4:0 5:0 6:0 7:1 8:1 9:1 10:1 11:1 12:0 13:1 14:0 15:0 16:0 17:0 18:1 19:0 20:0 21:1 22:1 23:1 24:0 25:1 26:1 27:1 28:1 29:0 30:1 31:0 32:0 33:1 34:0 35:0 36:26 37:0 38:0 39:3 40:1 41:1 42:10 43:1 44:3 45:20 
512 0:0 1:0 2:1 3:0 4:0 5:0 6:0 7:1 8:1 9:0 10:1 11:1 12:0 13:1 14:1 15:0 16:0 17:1 18:1 19:1 20:1 21:1 22:0 23:0 24:0 25:1 26:0 27:1 28:1 29:0 30:1 31:0 32:0 33:1 34:1 35:0 36:20 37:0 38:0 39:1 40:0 41:0 42:2 43:0 44:0 45:3 
512 0:1 1:0 2:1 3:1 4:1 5:1 6:1 7:1 8:0 9:1 10:1 11:1 12:1 13:1 14:1 15:0 16:0 17:1 18:0 19:0 20:0 21:1 22:0 23:0 24:0 25:0 26:0 27:1 28:0 29:1 30:1 31:0 32:1 33:0 34:0 35:0 36:3 37:0 38:0 39:1 40:0 41:1 42:3 43:1 44:2 45:7 
512 0:1 1:1 2:1 3:1 4:0 5:0 6:1 7:1 8:1 9:1 10:1 11:1 12:1 13:1 14:1 15:1 16:0 17:0 18:0 19:1 20:1 21:1 22:0 23:1 24:1 25:1 26:1 27:1 28:1 29:1 30:1 31:0 32:0 33:1 34:1 35:1 36:24 37:0 38:0 39:1 40:0 41:0 42:2 43:0 44:0 45:3 
512 0:1 1:1 2:1 3:0 4:0 5:1 6:1 7:1 8:1 9:1 10:1 11:1 12:0 13:0 14:0 15:1 16:0 17:0 18:0 19:0 20:0 21:1 22:0 23:0 24:1 25:1 26:1 27:0 28:0 29:0 30:1 31:0 32:0 33:0 34:0 35:0 36:27 37:0 38:1 39:4 40:0 41:2 42:12 43:0 44:4 45:22 
512 0:0 1:1 2:1 3:1 4:0 5:0 6:1 7:0 8:1 9:0 10:0 11:1 12:1 13:1 14:1 15:0 16:0 17:0 18:0 19:0 20:0 21:0 22:0 23:1 24:0 25:0 26:1 27:0 28:1 29:1 30:1 31:0 32:0 33:1 34:0 35:0 36:20 37:0 38:1 39:3 40:0 41:2 42:8 43:1 44:2 45:14 
341.5085631080838 0:1 1:1 2:1 3:1 4:1 5:1 6:1 7:1 8:1 9:1 10:1 11:1 12:1 13:0 14:1 15:0 16:1 17:0 18:1 19:1 20:0 21:1 22:0 23:0 24:1 25:1 26:1 27:1 28:0 29:0 30:1 31:0 32:0 33:1 34:1 35:0 36:77 37:0 38:0 39:1 40:0 41:0 42:2 43:0 44:0 45:3 
512 0:0 1:1 2:1 3:1 4:1 5:1 6:1 7:1 8:1 9:0 10:0 11:1 12:1 13:1 14:1 15:0 16:0 17:0 18:1 19:0 20:0 21:1 22:0 23:0 24:1 25:0 26:1 27:0 28:1 29:1 30:0 31:0 32:0 33:1 34:0 35:0 36:37 37:0 38:0 39:1 40:0 41:1 42:3 43:0 44:1 45:7 
